<?xml version="1.0"?>
<MethodSetup Method="BDT::BDTG4C3">
  <GeneralInfo>
    <Info name="TMVA Release" value="4.2.1 [262657]"/>
    <Info name="ROOT Release" value="6.20/07 [398343]"/>
    <Info name="Creator" value="ssaumya"/>
    <Info name="Date" value="Mon Jul 19 22:41:51 2021"/>
    <Info name="Host" value="Linux cmsbuild09.cern.ch 3.10.0-1062.9.1.el7.x86_64 #1 SMP Fri Dec 6 15:49:49 UTC 2019 x86_64 x86_64 x86_64 GNU/Linux"/>
    <Info name="Dir" value="/afs/cern.ch/user/s/ssaumya/Projects/WW_Analysis_Work/WW_Cuts_Optimization/CMSSW_11_1_3/src/PlotsConfigurations/Configurations/WW/FullRunII/Full2017_v7/BDT_Training_0j"/>
    <Info name="Training events" value="61644"/>
    <Info name="TrainingTime" value="3.39530571e+01"/>
    <Info name="AnalysisType" value="Classification"/>
  </GeneralInfo>
  <Options>
    <Option name="V" modified="Yes">False</Option>
    <Option name="VerbosityLevel" modified="No">Default</Option>
    <Option name="VarTransform" modified="No">None</Option>
    <Option name="H" modified="Yes">False</Option>
    <Option name="CreateMVAPdfs" modified="No">False</Option>
    <Option name="IgnoreNegWeightsInTraining" modified="No">False</Option>
    <Option name="NTrees" modified="Yes">500</Option>
    <Option name="MaxDepth" modified="Yes">2</Option>
    <Option name="MinNodeSize" modified="Yes">1.5%</Option>
    <Option name="nCuts" modified="Yes">300</Option>
    <Option name="BoostType" modified="Yes">Grad</Option>
    <Option name="AdaBoostR2Loss" modified="No">quadratic</Option>
    <Option name="UseBaggedBoost" modified="Yes">True</Option>
    <Option name="Shrinkage" modified="Yes">5.000000e-02</Option>
    <Option name="AdaBoostBeta" modified="No">5.000000e-01</Option>
    <Option name="UseRandomisedTrees" modified="No">False</Option>
    <Option name="UseNvars" modified="No">4</Option>
    <Option name="UsePoissonNvars" modified="No">True</Option>
    <Option name="BaggedSampleFraction" modified="No">5.000000e-01</Option>
    <Option name="UseYesNoLeaf" modified="No">True</Option>
    <Option name="NegWeightTreatment" modified="No">pray</Option>
    <Option name="Css" modified="No">1.000000e+00</Option>
    <Option name="Cts_sb" modified="No">1.000000e+00</Option>
    <Option name="Ctb_ss" modified="No">1.000000e+00</Option>
    <Option name="Cbb" modified="No">1.000000e+00</Option>
    <Option name="NodePurityLimit" modified="No">5.000000e-01</Option>
    <Option name="SeparationType" modified="No">giniindex</Option>
    <Option name="RegressionLossFunctionBDTG" modified="No">huber</Option>
    <Option name="HuberQuantile" modified="No">7.000000e-01</Option>
    <Option name="DoBoostMonitor" modified="No">False</Option>
    <Option name="UseFisherCuts" modified="No">False</Option>
    <Option name="MinLinCorrForFisher" modified="No">8.000000e-01</Option>
    <Option name="UseExclusiveVars" modified="No">False</Option>
    <Option name="DoPreselection" modified="No">False</Option>
    <Option name="SigToBkgFraction" modified="No">1.000000e+00</Option>
    <Option name="PruneMethod" modified="No">nopruning</Option>
    <Option name="PruneStrength" modified="No">0.000000e+00</Option>
    <Option name="PruningValFraction" modified="No">5.000000e-01</Option>
    <Option name="SkipNormalization" modified="No">False</Option>
    <Option name="nEventsMin" modified="No">0</Option>
    <Option name="UseBaggedGrad" modified="No">False</Option>
    <Option name="GradBaggingFraction" modified="Yes">5.000000e-01</Option>
    <Option name="UseNTrainEvents" modified="No">0</Option>
    <Option name="NNodesMax" modified="No">0</Option>
  </Options>
  <Variables NVar="16">
    <Variable VarIndex="0" Expression="pt1" Label="pt1" Title="pt1" Unit="" Internal="pt1" Type="F" Min="2.50079403e+01" Max="9.59502686e+02"/>
    <Variable VarIndex="1" Expression="pt2" Label="pt2" Title="pt2" Unit="" Internal="pt2" Type="F" Min="2.00009155e+01" Max="5.23575989e+02"/>
    <Variable VarIndex="2" Expression="Lepton_eta[0]" Label="Lepton_eta[0]" Title="Lepton_eta[0]" Unit="" Internal="Lepton_eta_0_" Type="F" Min="-2.49755859e+00" Max="2.49951172e+00"/>
    <Variable VarIndex="3" Expression="Lepton_eta[1]" Label="Lepton_eta[1]" Title="Lepton_eta[1]" Unit="" Internal="Lepton_eta_1_" Type="F" Min="-2.49951172e+00" Max="2.49804688e+00"/>
    <Variable VarIndex="4" Expression="mll" Label="mll" Title="mll" Unit="" Internal="mll" Type="F" Min="2.00012894e+01" Max="1.18191296e+03"/>
    <Variable VarIndex="5" Expression="ptll" Label="ptll" Title="ptll" Unit="" Internal="ptll" Type="F" Min="3.00008240e+01" Max="8.35666870e+02"/>
    <Variable VarIndex="6" Expression="drll" Label="drll" Title="drll" Unit="" Internal="drll" Type="F" Min="3.59090954e-01" Max="5.45489120e+00"/>
    <Variable VarIndex="7" Expression="dphill" Label="dphill" Title="dphill" Unit="" Internal="dphill" Type="F" Min="0.00000000e+00" Max="3.14158368e+00"/>
    <Variable VarIndex="8" Expression="PuppiMET_pt" Label="PuppiMET_pt" Title="PuppiMET_pt" Unit="" Internal="PuppiMET_pt" Type="F" Min="2.00002460e+01" Max="8.72930054e+02"/>
    <Variable VarIndex="9" Expression="dphilmet" Label="dphilmet" Title="dphilmet" Unit="" Internal="dphilmet" Type="F" Min="0.00000000e+00" Max="3.13800073e+00"/>
    <Variable VarIndex="10" Expression="dphilmet1" Label="dphilmet1" Title="dphilmet1" Unit="" Internal="dphilmet1" Type="F" Min="1.47446990e-03" Max="3.14159060e+00"/>
    <Variable VarIndex="11" Expression="dphilmet2" Label="dphilmet2" Title="dphilmet2" Unit="" Internal="dphilmet2" Type="F" Min="0.00000000e+00" Max="3.14139700e+00"/>
    <Variable VarIndex="12" Expression="dphillmet" Label="dphillmet" Title="dphillmet" Unit="" Internal="dphillmet" Type="F" Min="9.38951038e-03" Max="3.14159226e+00"/>
    <Variable VarIndex="13" Expression="mtw1" Label="mtw1" Title="mtw1" Unit="" Internal="mtw1" Type="F" Min="9.84271467e-02" Max="1.81362610e+03"/>
    <Variable VarIndex="14" Expression="mtw2" Label="mtw2" Title="mtw2" Unit="" Internal="mtw2" Type="F" Min="0.00000000e+00" Max="5.07289246e+02"/>
    <Variable VarIndex="15" Expression="pTWW" Label="pTWW" Title="pTWW" Unit="" Internal="pTWW" Type="F" Min="7.89643377e-02" Max="4.58148956e+02"/>
  </Variables>
  <Spectators NSpec="0"/>
  <Classes NClass="2">
    <Class Name="Signal" Index="0"/>
    <Class Name="Background" Index="1"/>
  </Classes>
  <Transformations NTransformations="0"/>
  <MVAPdfs/>
  <Weights NTrees="500" AnalysisType="1">
    <BinaryTree type="DecisionTree" boostWeight="1.0000000000000000e+00" itree="0">
      <Node pos="s" depth="0" NCoef="0" IVar="15" Cut="2.4189294815063477e+01" cType="1" res="-3.9554317481815815e-03" rms="4.9998435378074646e-01" purity="4.9604457616806030e-01" nType="0">
        <Node pos="l" depth="1" NCoef="0" IVar="0" Cut="6.2895397186279297e+01" cType="1" res="1.4537934958934784e-01" rms="4.7839820384979248e-01" purity="6.4537936449050903e-01" nType="0">
          <Node pos="l" depth="2" NCoef="0" IVar="-1" Cut="0.0000000000000000e+00" cType="1" res="2.6078023016452789e-02" rms="4.2660716176033020e-01" purity="7.6078021526336670e-01" nType="-99"/>
          <Node pos="r" depth="2" NCoef="0" IVar="-1" Cut="0.0000000000000000e+00" cType="1" res="4.1733539546839893e-04" rms="4.9998259544372559e-01" purity="5.0417333841323853e-01" nType="-99"/>
        </Node>
        <Node pos="r" depth="1" NCoef="0" IVar="0" Cut="5.9357330322265625e+01" cType="1" res="-1.3358430564403534e-01" rms="4.8182490468025208e-01" purity="3.6641567945480347e-01" nType="0">
          <Node pos="l" depth="2" NCoef="0" IVar="-1" Cut="0.0000000000000000e+00" cType="1" res="2.0519741810858250e-03" rms="4.9957877397537231e-01" purity="5.2051973342895508e-01" nType="-99"/>
          <Node pos="r" depth="2" NCoef="0" IVar="-1" Cut="0.0000000000000000e+00" cType="1" res="-2.3394964635372162e-02" rms="4.4189089536666870e-01" purity="2.6605033874511719e-01" nType="-99"/>
        </Node>
      </Node>
    </BinaryTree>
    <BinaryTree type="DecisionTree" boostWeight="1.0000000000000000e+00" itree="1">
      <Node pos="s" depth="0" NCoef="0" IVar="0" Cut="6.5368179321289062e+01" cType="1" res="-4.8423833213746548e-03" rms="4.9674990773200989e-01" purity="4.9509623646736145e-01" nType="0">
        <Node pos="l" depth="1" NCoef="0" IVar="15" Cut="3.2138492584228516e+01" cType="1" res="1.1538558453321457e-01" rms="4.8314568400382996e-01" purity="6.2127971649169922e-01" nType="0">
          <Node pos="l" depth="2" NCoef="0" IVar="-1" Cut="0.0000000000000000e+00" cType="1" res="2.0215140655636787e-02" rms="4.5232504606246948e-01" purity="7.1128261089324951e-01" nType="-99"/>
          <Node pos="r" depth="2" NCoef="0" IVar="-1" Cut="0.0000000000000000e+00" cType="1" res="-6.3610677607357502e-03" rms="4.9540764093399048e-01" purity="4.3539035320281982e-01" nType="-99"/>
        </Node>
        <Node pos="r" depth="1" NCoef="0" IVar="15" Cut="2.4714569091796875e+01" cType="1" res="-1.3909386098384857e-01" rms="4.7695058584213257e-01" purity="3.5419458150863647e-01" nType="0">
          <Node pos="l" depth="2" NCoef="0" IVar="-1" Cut="0.0000000000000000e+00" cType="1" res="-1.7852724995464087e-03" rms="4.9963736534118652e-01" purity="4.8205837607383728e-01" nType="-99"/>
          <Node pos="r" depth="2" NCoef="0" IVar="-1" Cut="0.0000000000000000e+00" cType="1" res="-2.3046240210533142e-02" rms="4.3751648068428040e-01" purity="2.5796836614608765e-01" nType="-99"/>
        </Node>
      </Node>
    </BinaryTree>
    <BinaryTree type="DecisionTree" boostWeight="1.0000000000000000e+00" itree="2">
      <Node pos="s" depth="0" NCoef="0" IVar="0" Cut="6.5368179321289062e+01" cType="1" res="-1.6291125211864710e-04" rms="4.9340447783470154e-01" purity="4.9946874380111694e-01" nType="0">
        <Node pos="l" depth="1" NCoef="0" IVar="15" Cut="2.8508222579956055e+01" cType="1" res="1.2332420051097870e-01" rms="4.7766977548599243e-01" purity="6.3497591018676758e-01" nType="0">
          <Node pos="l" depth="2" NCoef="0" IVar="-1" Cut="0.0000000000000000e+00" cType="1" res="2.2597555071115494e-02" rms="4.3449652194976807e-01" purity="7.4599224328994751e-01" nType="-99"/>
          <Node pos="r" depth="2" NCoef="0" IVar="-1" Cut="0.0000000000000000e+00" cType="1" res="-3.5425468813627958e-03" rms="4.9787604808807373e-01" purity="4.6261528134346008e-01" nType="-99"/>
        </Node>
        <Node pos="r" depth="1" NCoef="0" IVar="15" Cut="2.6477516174316406e+01" cType="1" res="-1.3664285838603973e-01" rms="4.7418868541717529e-01" purity="3.4970405697822571e-01" nType="0">
          <Node pos="l" depth="2" NCoef="0" IVar="-1" Cut="0.0000000000000000e+00" cType="1" res="-1.9664210267364979e-03" rms="4.9902439117431641e-01" purity="4.7743535041809082e-01" nType="-99"/>
          <Node pos="r" depth="2" NCoef="0" IVar="-1" Cut="0.0000000000000000e+00" cType="1" res="-2.4110764265060425e-02" rms="4.2475125193595886e-01" purity="2.3620772361755371e-01" nType="-99"/>
        </Node>
      </Node>
    </BinaryTree>
    <BinaryTree type="DecisionTree" boostWeight="1.0000000000000000e+00" itree="3">
      <Node pos="s" depth="0" NCoef="0" IVar="15" Cut="2.5950027465820312e+01" cType="1" res="-1.9787510391324759e-03" rms="4.9075070023536682e-01" purity="4.9784210324287415e-01" nType="0">
        <Node pos="l" depth="1" NCoef="0" IVar="0" Cut="5.8740692138671875e+01" cType="1" res="1.1647841334342957e-01" rms="4.7695705294609070e-01" purity="6.3427782058715820e-01" nType="0">
          <Node pos="l" depth="2" NCoef="0" IVar="-1" Cut="0.0000000000000000e+00" cType="1" res="2.2853648290038109e-02" rms="4.2628553509712219e-01" purity="7.6097643375396729e-01" nType="-99"/>
          <Node pos="r" depth="2" NCoef="0" IVar="-1" Cut="0.0000000000000000e+00" cType="1" res="7.0938089629635215e-04" rms="4.9846935272216797e-01" purity="5.0944453477859497e-01" nType="-99"/>
        </Node>
        <Node pos="r" depth="1" NCoef="0" IVar="0" Cut="5.7185668945312500e+01" cType="1" res="-1.2297300994396210e-01" rms="4.7486642003059387e-01" purity="3.5848426818847656e-01" nType="0">
          <Node pos="l" depth="2" NCoef="0" IVar="-1" Cut="0.0000000000000000e+00" cType="1" res="1.3478724285960197e-03" rms="4.9876168370246887e-01" purity="5.1485341787338257e-01" nType="-99"/>
          <Node pos="r" depth="2" NCoef="0" IVar="-1" Cut="0.0000000000000000e+00" cType="1" res="-2.0353827625513077e-02" rms="4.4121924042701721e-01" purity="2.6712951064109802e-01" nType="-99"/>
        </Node>
      </Node>
    </BinaryTree>
    <BinaryTree type="DecisionTree" boostWeight="1.0000000000000000e+00" itree="4">
      <Node pos="s" depth="0" NCoef="0" IVar="15" Cut="2.4453639984130859e+01" cType="1" res="-3.6091601941734552e-03" rms="4.8802006244659424e-01" purity="4.9575671553611755e-01" nType="0">
        <Node pos="l" depth="1" NCoef="0" IVar="0" Cut="5.8711288452148438e+01" cType="1" res="1.2446685880422592e-01" rms="4.7147288918495178e-01" purity="6.4870822429656982e-01" nType="0">
          <Node pos="l" depth="2" NCoef="0" IVar="-1" Cut="0.0000000000000000e+00" cType="1" res="2.3817425593733788e-02" rms="4.1294169425964355e-01" purity="7.8180283308029175e-01" nType="-99"/>
          <Node pos="r" depth="2" NCoef="0" IVar="-1" Cut="0.0000000000000000e+00" cType="1" res="1.8158039310947061e-03" rms="4.9836373329162598e-01" purity="5.2205026149749756e-01" nType="-99"/>
        </Node>
        <Node pos="r" depth="1" NCoef="0" IVar="4" Cut="9.6398902893066406e+01" cType="1" res="-1.1715714633464813e-01" rms="4.7413456439971924e-01" purity="3.6015489697456360e-01" nType="0">
          <Node pos="l" depth="2" NCoef="0" IVar="-1" Cut="0.0000000000000000e+00" cType="1" res="-2.1181432530283928e-03" rms="4.9544534087181091e-01" purity="4.7056284546852112e-01" nType="-99"/>
          <Node pos="r" depth="2" NCoef="0" IVar="-1" Cut="0.0000000000000000e+00" cType="1" res="-2.0677475258708000e-02" rms="4.3535438179969788e-01" purity="2.5864285230636597e-01" nType="-99"/>
        </Node>
      </Node>
    </BinaryTree>
    <BinaryTree type="DecisionTree" boostWeight="1.0000000000000000e+00" itree="5">
      <Node pos="s" depth="0" NCoef="0" IVar="0" Cut="6.3181457519531250e+01" cType="1" res="7.4423453770577908e-03" rms="4.8595947027206421e-01" purity="5.0718170404434204e-01" nType="0">
        <Node pos="l" depth="1" NCoef="0" IVar="15" Cut="4.0079593658447266e+01" cType="1" res="1.1853599548339844e-01" rms="4.7016671299934387e-01" purity="6.4703208208084106e-01" nType="0">
          <Node pos="l" depth="2" NCoef="0" IVar="-1" Cut="0.0000000000000000e+00" cType="1" res="1.6900345683097839e-02" rms="4.5176175236701965e-01" purity="7.0526075363159180e-01" nType="-99"/>
          <Node pos="r" depth="2" NCoef="0" IVar="-1" Cut="0.0000000000000000e+00" cType="1" res="-8.6460551247000694e-03" rms="4.8983240127563477e-01" purity="4.0364509820938110e-01" nType="-99"/>
        </Node>
        <Node pos="r" depth="1" NCoef="0" IVar="15" Cut="1.8658790588378906e+01" cType="1" res="-1.0273635387420654e-01" rms="4.7618553042411804e-01" purity="3.6848315596580505e-01" nType="0">
          <Node pos="l" depth="2" NCoef="0" IVar="-1" Cut="0.0000000000000000e+00" cType="1" res="4.9354098737239838e-03" rms="4.9729204177856445e-01" purity="5.5070197582244873e-01" nType="-99"/>
          <Node pos="r" depth="2" NCoef="0" IVar="-1" Cut="0.0000000000000000e+00" cType="1" res="-1.6774946823716164e-02" rms="4.5217704772949219e-01" purity="2.9234209656715393e-01" nType="-99"/>
        </Node>
      </Node>
    </BinaryTree>
    <BinaryTree type="DecisionTree" boostWeight="1.0000000000000000e+00" itree="6">
      <Node pos="s" depth="0" NCoef="0" IVar="15" Cut="3.2153690338134766e+01" cType="1" res="3.3709665876813233e-04" rms="4.8334512114524841e-01" purity="4.9973550438880920e-01" nType="0">
        <Node pos="l" depth="1" NCoef="0" IVar="0" Cut="8.1835304260253906e+01" cType="1" res="8.4291324019432068e-02" rms="4.7714835405349731e-01" purity="6.0671025514602661e-01" nType="0">
          <Node pos="l" depth="2" NCoef="0" IVar="-1" Cut="0.0000000000000000e+00" cType="1" res="1.5016460791230202e-02" rms="4.5751619338989258e-01" purity="6.8578147888183594e-01" nType="-99"/>
          <Node pos="r" depth="2" NCoef="0" IVar="-1" Cut="0.0000000000000000e+00" cType="1" res="-8.7288450449705124e-03" rms="4.8602691292762756e-01" purity="3.9606267213821411e-01" nType="-99"/>
        </Node>
        <Node pos="r" depth="1" NCoef="0" IVar="4" Cut="6.4964485168457031e+01" cType="1" res="-1.3960714638233185e-01" rms="4.6066322922706604e-01" purity="3.2141810655593872e-01" nType="0">
          <Node pos="l" depth="2" NCoef="0" IVar="-1" Cut="0.0000000000000000e+00" cType="1" res="1.3114813482388854e-03" rms="4.9756422638893127e-01" purity="5.0016808509826660e-01" nType="-99"/>
          <Node pos="r" depth="2" NCoef="0" IVar="-1" Cut="0.0000000000000000e+00" cType="1" res="-1.8980769440531731e-02" rms="4.3751856684684753e-01" purity="2.6513165235519409e-01" nType="-99"/>
        </Node>
      </Node>
    </BinaryTree>
    <BinaryTree type="DecisionTree" boostWeight="1.0000000000000000e+00" itree="7">
      <Node pos="s" depth="0" NCoef="0" IVar="0" Cut="5.9158912658691406e+01" cType="1" res="7.7129917917773128e-04" rms="4.8204392194747925e-01" purity="5.0124412775039673e-01" nType="0">
        <Node pos="l" depth="1" NCoef="0" IVar="15" Cut="3.9578517913818359e+01" cType="1" res="1.1159354448318481e-01" rms="4.6687832474708557e-01" purity="6.5260791778564453e-01" nType="0">
          <Node pos="l" depth="2" NCoef="0" IVar="-1" Cut="0.0000000000000000e+00" cType="1" res="1.5854002907872200e-02" rms="4.4943401217460632e-01" purity="7.1105372905731201e-01" nType="-99"/>
          <Node pos="r" depth="2" NCoef="0" IVar="-1" Cut="0.0000000000000000e+00" cType="1" res="-6.8368059583008289e-03" rms="4.9209228157997131e-01" purity="4.1659462451934814e-01" nType="-99"/>
        </Node>
        <Node pos="r" depth="1" NCoef="0" IVar="15" Cut="2.3192436218261719e+01" cType="1" res="-8.8589973747730255e-02" rms="4.7548058629035950e-01" purity="3.7919223308563232e-01" nType="0">
          <Node pos="l" depth="2" NCoef="0" IVar="-1" Cut="0.0000000000000000e+00" cType="1" res="1.9082380458712578e-03" rms="4.9732285737991333e-01" purity="5.2599537372589111e-01" nType="-99"/>
          <Node pos="r" depth="2" NCoef="0" IVar="-1" Cut="0.0000000000000000e+00" cType="1" res="-1.6368987038731575e-02" rms="4.4576698541641235e-01" purity="2.8031063079833984e-01" nType="-99"/>
        </Node>
      </Node>
    </BinaryTree>
    <BinaryTree type="DecisionTree" boostWeight="1.0000000000000000e+00" itree="8">
      <Node pos="s" depth="0" NCoef="0" IVar="15" Cut="1.9862718582153320e+01" cType="1" res="-5.3069139830768108e-03" rms="4.8011833429336548e-01" purity="4.9468469619750977e-01" nType="0">
        <Node pos="l" depth="1" NCoef="0" IVar="0" Cut="6.9781105041503906e+01" cType="1" res="1.2190350890159607e-01" rms="4.6260651946067810e-01" purity="6.6811281442642212e-01" nType="0">
          <Node pos="l" depth="2" NCoef="0" IVar="-1" Cut="0.0000000000000000e+00" cType="1" res="1.8486633896827698e-02" rms="4.2981940507888794e-01" purity="7.5195282697677612e-01" nType="-99"/>
          <Node pos="r" depth="2" NCoef="0" IVar="-1" Cut="0.0000000000000000e+00" cType="1" res="1.6142472159117460e-03" rms="4.9914059042930603e-01" purity="5.1753717660903931e-01" nType="-99"/>
        </Node>
        <Node pos="r" depth="1" NCoef="0" IVar="4" Cut="6.6059249877929688e+01" cType="1" res="-7.9218402504920959e-02" rms="4.7459489107131958e-01" purity="3.9391979575157166e-01" nType="0">
          <Node pos="l" depth="2" NCoef="0" IVar="-1" Cut="0.0000000000000000e+00" cType="1" res="7.5288922525942326e-03" rms="4.8484906554222107e-01" purity="5.8809649944305420e-01" nType="-99"/>
          <Node pos="r" depth="2" NCoef="0" IVar="-1" Cut="0.0000000000000000e+00" cType="1" res="-1.3634802773594856e-02" rms="4.5851114392280579e-01" purity="3.2452854514122009e-01" nType="-99"/>
        </Node>
      </Node>
    </BinaryTree>
    <BinaryTree type="DecisionTree" boostWeight="1.0000000000000000e+00" itree="9">
      <Node pos="s" depth="0" NCoef="0" IVar="15" Cut="3.5310894012451172e+01" cType="1" res="-2.7932296507060528e-04" rms="4.7824802994728088e-01" purity="4.9980735778808594e-01" nType="0">
        <Node pos="l" depth="1" NCoef="0" IVar="0" Cut="5.3129360198974609e+01" cType="1" res="6.4112752676010132e-02" rms="4.7633826732635498e-01" purity="5.8972942829132080e-01" nType="0">
          <Node pos="l" depth="2" NCoef="0" IVar="-1" Cut="0.0000000000000000e+00" cType="1" res="1.8494278192520142e-02" rms="4.2774555087089539e-01" purity="7.5307440757751465e-01" nType="-99"/>
          <Node pos="r" depth="2" NCoef="0" IVar="-1" Cut="0.0000000000000000e+00" cType="1" res="-1.0233956854790449e-03" rms="4.9068197607994080e-01" purity="4.8553508520126343e-01" nType="-99"/>
        </Node>
        <Node pos="r" depth="1" NCoef="0" IVar="0" Cut="6.2100875854492188e+01" cType="1" res="-1.4197282493114471e-01" rms="4.5114487409591675e-01" purity="3.0193570256233215e-01" nType="0">
          <Node pos="l" depth="2" NCoef="0" IVar="-1" Cut="0.0000000000000000e+00" cType="1" res="-5.4798321798443794e-03" rms="4.9189525842666626e-01" purity="4.2784380912780762e-01" nType="-99"/>
          <Node pos="r" depth="2" NCoef="0" IVar="-1" Cut="0.0000000000000000e+00" cType="1" res="-2.0786594599485397e-02" rms="4.1013756394386292e-01" purity="2.1525952219963074e-01" nType="-99"/>
        </Node>
      </Node>
    </BinaryTree>
    <BinaryTree type="DecisionTree" boostWeight="1.0000000000000000e+00" itree="10">
      <Node pos="s" depth="0" NCoef="0" IVar="0" Cut="6.9209281921386719e+01" cType="1" res="5.9628332965075970e-03" rms="4.7746637463569641e-01" purity="5.0619858503341675e-01" nType="0">
        <Node pos="l" depth="1" NCoef="0" IVar="15" Cut="4.1177082061767578e+01" cType="1" res="8.1181533634662628e-02" rms="4.7078526020050049e-01" purity="6.2076586484909058e-01" nType="0">
          <Node pos="l" depth="2" NCoef="0" IVar="-1" Cut="0.0000000000000000e+00" cType="1" res="1.2320822104811668e-02" rms="4.5942798256874084e-01" purity="6.7762696743011475e-01" nType="-99"/>
          <Node pos="r" depth="2" NCoef="0" IVar="-1" Cut="0.0000000000000000e+00" cType="1" res="-8.7287407368421555e-03" rms="4.8165696859359741e-01" purity="3.7802308797836304e-01" nType="-99"/>
        </Node>
        <Node pos="r" depth="1" NCoef="0" IVar="15" Cut="2.0902175903320312e+01" cType="1" res="-9.4572395086288452e-02" rms="4.6773108839988708e-01" purity="3.5307133197784424e-01" nType="0">
          <Node pos="l" depth="2" NCoef="0" IVar="-1" Cut="0.0000000000000000e+00" cType="1" res="2.0757562015205622e-03" rms="4.9859327077865601e-01" purity="5.2133506536483765e-01" nType="-99"/>
          <Node pos="r" depth="2" NCoef="0" IVar="-1" Cut="0.0000000000000000e+00" cType="1" res="-1.5629041939973831e-02" rms="4.4046375155448914e-01" purity="2.6930418610572815e-01" nType="-99"/>
        </Node>
      </Node>
    </BinaryTree>
    <BinaryTree type="DecisionTree" boostWeight="1.0000000000000000e+00" itree="11">
      <Node pos="s" depth="0" NCoef="0" IVar="15" Cut="3.0515508651733398e+01" cType="1" res="5.5837365798652172e-03" rms="4.7531318664550781e-01" purity="5.0666874647140503e-01" nType="0">
        <Node pos="l" depth="1" NCoef="0" IVar="4" Cut="7.8331184387207031e+01" cType="1" res="7.4968062341213226e-02" rms="4.7089970111846924e-01" purity="6.1519771814346313e-01" nType="0">
          <Node pos="l" depth="2" NCoef="0" IVar="-1" Cut="0.0000000000000000e+00" cType="1" res="1.9173111766576767e-02" rms="4.1798833012580872e-01" purity="7.6546746492385864e-01" nType="-99"/>
          <Node pos="r" depth="2" NCoef="0" IVar="-1" Cut="0.0000000000000000e+00" cType="1" res="-3.7102003261679783e-05" rms="4.8960337042808533e-01" purity="5.1300376653671265e-01" nType="-99"/>
        </Node>
        <Node pos="r" depth="1" NCoef="0" IVar="0" Cut="5.8378303527832031e+01" cType="1" res="-1.0252603888511658e-01" rms="4.6177992224693298e-01" purity="3.3756643533706665e-01" nType="0">
          <Node pos="l" depth="2" NCoef="0" IVar="-1" Cut="0.0000000000000000e+00" cType="1" res="-1.3277125544846058e-03" rms="4.9577963352203369e-01" purity="4.8002862930297852e-01" nType="-99"/>
          <Node pos="r" depth="2" NCoef="0" IVar="-1" Cut="0.0000000000000000e+00" cType="1" res="-1.6207622364163399e-02" rms="4.3121188879013062e-01" purity="2.5177860260009766e-01" nType="-99"/>
        </Node>
      </Node>
    </BinaryTree>
    <BinaryTree type="DecisionTree" boostWeight="1.0000000000000000e+00" itree="12">
      <Node pos="s" depth="0" NCoef="0" IVar="0" Cut="5.9631793975830078e+01" cType="1" res="1.8152055563405156e-03" rms="4.7370335459709167e-01" purity="5.0178700685501099e-01" nType="0">
        <Node pos="l" depth="1" NCoef="0" IVar="12" Cut="2.6011774539947510e+00" cType="1" res="9.3939147889614105e-02" rms="4.6157139539718628e-01" purity="6.5494865179061890e-01" nType="0">
          <Node pos="l" depth="2" NCoef="0" IVar="-1" Cut="0.0000000000000000e+00" cType="1" res="-5.0525390543043613e-03" rms="4.9161717295646667e-01" purity="4.4627317786216736e-01" nType="-99"/>
          <Node pos="r" depth="2" NCoef="0" IVar="-1" Cut="0.0000000000000000e+00" cType="1" res="1.4014954678714275e-02" rms="4.4393596053123474e-01" purity="7.1508985757827759e-01" nType="-99"/>
        </Node>
        <Node pos="r" depth="1" NCoef="0" IVar="15" Cut="1.6832181930541992e+01" cType="1" res="-7.3454558849334717e-02" rms="4.7017657756805420e-01" purity="3.7664642930030823e-01" nType="0">
          <Node pos="l" depth="2" NCoef="0" IVar="-1" Cut="0.0000000000000000e+00" cType="1" res="6.1178081668913364e-03" rms="4.9081039428710938e-01" purity="5.7688486576080322e-01" nType="-99"/>
          <Node pos="r" depth="2" NCoef="0" IVar="-1" Cut="0.0000000000000000e+00" cType="1" res="-1.2324226088821888e-02" rms="4.5380198955535889e-01" purity="3.0795583128929138e-01" nType="-99"/>
        </Node>
      </Node>
    </BinaryTree>
    <BinaryTree type="DecisionTree" boostWeight="1.0000000000000000e+00" itree="13">
      <Node pos="s" depth="0" NCoef="0" IVar="0" Cut="6.9781105041503906e+01" cType="1" res="-2.0939669411745854e-05" rms="4.7334203124046326e-01" purity="5.0082671642303467e-01" nType="0">
        <Node pos="l" depth="1" NCoef="0" IVar="15" Cut="4.4693046569824219e+01" cType="1" res="6.7203626036643982e-02" rms="4.6846330165863037e-01" purity="6.1536067724227905e-01" nType="0">
          <Node pos="l" depth="2" NCoef="0" IVar="-1" Cut="0.0000000000000000e+00" cType="1" res="1.0639742948114872e-02" rms="4.5975926518440247e-01" purity="6.6926842927932739e-01" nType="-99"/>
          <Node pos="r" depth="2" NCoef="0" IVar="-1" Cut="0.0000000000000000e+00" cType="1" res="-1.1993100866675377e-02" rms="4.6925228834152222e-01" purity="3.3616691827774048e-01" nType="-99"/>
        </Node>
        <Node pos="r" depth="1" NCoef="0" IVar="15" Cut="1.7025392532348633e+01" cType="1" res="-9.2199936509132385e-02" rms="4.6439149975776672e-01" purity="3.4377658367156982e-01" nType="0">
          <Node pos="l" depth="2" NCoef="0" IVar="-1" Cut="0.0000000000000000e+00" cType="1" res="1.6420048195868731e-03" rms="4.9877122044563293e-01" purity="5.2337539196014404e-01" nType="-99"/>
          <Node pos="r" depth="2" NCoef="0" IVar="-1" Cut="0.0000000000000000e+00" cType="1" res="-1.3280130922794342e-02" rms="4.4678828120231628e-01" purity="2.8473183512687683e-01" nType="-99"/>
        </Node>
      </Node>
    </BinaryTree>
    <BinaryTree type="DecisionTree" boostWeight="1.0000000000000000e+00" itree="14">
      <Node pos="s" depth="0" NCoef="0" IVar="15" Cut="3.1441576004028320e+01" cType="1" res="3.6430289037525654e-04" rms="4.7073328495025635e-01" purity="5.0168150663375854e-01" nType="0">
        <Node pos="l" depth="1" NCoef="0" IVar="0" Cut="8.6151809692382812e+01" cType="1" res="6.5655328333377838e-02" rms="4.6906897425651550e-01" purity="6.1284339427947998e-01" nType="0">
          <Node pos="l" depth="2" NCoef="0" IVar="-1" Cut="0.0000000000000000e+00" cType="1" res="1.1001194827258587e-02" rms="4.5653277635574341e-01" purity="6.7837351560592651e-01" nType="-99"/>
          <Node pos="r" depth="2" NCoef="0" IVar="-1" Cut="0.0000000000000000e+00" cType="1" res="-6.5188459120690823e-03" rms="4.8489224910736084e-01" purity="4.0227794647216797e-01" nType="-99"/>
        </Node>
        <Node pos="r" depth="1" NCoef="0" IVar="0" Cut="4.6950988769531250e+01" cType="1" res="-1.0559441149234772e-01" rms="4.5385324954986572e-01" purity="3.2128036022186279e-01" nType="0">
          <Node pos="l" depth="2" NCoef="0" IVar="-1" Cut="0.0000000000000000e+00" cType="1" res="2.2829454392194748e-03" rms="4.9451273679733276e-01" purity="5.1833122968673706e-01" nType="-99"/>
          <Node pos="r" depth="2" NCoef="0" IVar="-1" Cut="0.0000000000000000e+00" cType="1" res="-1.4453019946813583e-02" rms="4.3679204583168030e-01" purity="2.7074766159057617e-01" nType="-99"/>
        </Node>
      </Node>
    </BinaryTree>
    <BinaryTree type="DecisionTree" boostWeight="1.0000000000000000e+00" itree="15">
      <Node pos="s" depth="0" NCoef="0" IVar="15" Cut="1.8366687774658203e+01" cType="1" res="-4.3392502702772617e-03" rms="4.7000071406364441e-01" purity="4.9623721837997437e-01" nType="0">
        <Node pos="l" depth="1" NCoef="0" IVar="0" Cut="9.3545845031738281e+01" cType="1" res="1.0765489935874939e-01" rms="4.5201578736305237e-01" purity="6.8336051702499390e-01" nType="0">
          <Node pos="l" depth="2" NCoef="0" IVar="-1" Cut="0.0000000000000000e+00" cType="1" res="1.5021786093711853e-02" rms="4.3318447470664978e-01" purity="7.3647522926330566e-01" nType="-99"/>
          <Node pos="r" depth="2" NCoef="0" IVar="-1" Cut="0.0000000000000000e+00" cType="1" res="-5.3807422518730164e-03" rms="4.9709486961364746e-01" purity="4.4542798399925232e-01" nType="-99"/>
        </Node>
        <Node pos="r" depth="1" NCoef="0" IVar="4" Cut="7.1891746520996094e+01" cType="1" res="-5.8735117316246033e-02" rms="4.6893906593322754e-01" purity="4.0535092353820801e-01" nType="0">
          <Node pos="l" depth="2" NCoef="0" IVar="-1" Cut="0.0000000000000000e+00" cType="1" res="4.0319762192666531e-03" rms="4.8088485002517700e-01" purity="5.6827521324157715e-01" nType="-99"/>
          <Node pos="r" depth="2" NCoef="0" IVar="-1" Cut="0.0000000000000000e+00" cType="1" res="-1.0775404982268810e-02" rms="4.5637115836143494e-01" purity="3.3069950342178345e-01" nType="-99"/>
        </Node>
      </Node>
    </BinaryTree>
    <BinaryTree type="DecisionTree" boostWeight="1.0000000000000000e+00" itree="16">
      <Node pos="s" depth="0" NCoef="0" IVar="15" Cut="1.9610864639282227e+01" cType="1" res="4.1340948082506657e-03" rms="4.6791806817054749e-01" purity="5.0427621603012085e-01" nType="0">
        <Node pos="l" depth="1" NCoef="0" IVar="0" Cut="9.3561042785644531e+01" cType="1" res="1.0554741322994232e-01" rms="4.4999274611473083e-01" purity="6.8378168344497681e-01" nType="0">
          <Node pos="l" depth="2" NCoef="0" IVar="-1" Cut="0.0000000000000000e+00" cType="1" res="1.5101755969226360e-02" rms="4.2989653348922729e-01" purity="7.4174362421035767e-01" nType="-99"/>
          <Node pos="r" depth="2" NCoef="0" IVar="-1" Cut="0.0000000000000000e+00" cType="1" res="-5.8323331177234650e-03" rms="4.9514991044998169e-01" purity="4.3535646796226501e-01" nType="-99"/>
        </Node>
        <Node pos="r" depth="1" NCoef="0" IVar="4" Cut="9.9557853698730469e+01" cType="1" res="-5.3374394774436951e-02" rms="4.6812224388122559e-01" purity="4.0248399972915649e-01" nType="0">
          <Node pos="l" depth="2" NCoef="0" IVar="-1" Cut="0.0000000000000000e+00" cType="1" res="1.3825569767504930e-03" rms="4.8330336809158325e-01" purity="5.1832640171051025e-01" nType="-99"/>
          <Node pos="r" depth="2" NCoef="0" IVar="-1" Cut="0.0000000000000000e+00" cType="1" res="-1.2617537751793861e-02" rms="4.4248524308204651e-01" purity="2.8682085871696472e-01" nType="-99"/>
        </Node>
      </Node>
    </BinaryTree>
    <BinaryTree type="DecisionTree" boostWeight="1.0000000000000000e+00" itree="17">
      <Node pos="s" depth="0" NCoef="0" IVar="4" Cut="7.4064842224121094e+01" cType="1" res="-3.1535846646875143e-03" rms="4.6840864419937134e-01" purity="4.9799269437789917e-01" nType="0">
        <Node pos="l" depth="1" NCoef="0" IVar="15" Cut="4.0859069824218750e+01" cType="1" res="9.3221314251422882e-02" rms="4.5330530405044556e-01" purity="6.6186195611953735e-01" nType="0">
          <Node pos="l" depth="2" NCoef="0" IVar="-1" Cut="0.0000000000000000e+00" cType="1" res="1.3556597754359245e-02" rms="4.3733370304107666e-01" purity="7.2284066677093506e-01" nType="-99"/>
          <Node pos="r" depth="2" NCoef="0" IVar="-1" Cut="0.0000000000000000e+00" cType="1" res="-5.7443985715508461e-03" rms="4.8751083016395569e-01" purity="4.0450960397720337e-01" nType="-99"/>
        </Node>
        <Node pos="r" depth="1" NCoef="0" IVar="15" Cut="4.0253856658935547e+01" cType="1" res="-5.5329173803329468e-02" rms="4.6818000078201294e-01" purity="4.0927690267562866e-01" nType="0">
          <Node pos="l" depth="2" NCoef="0" IVar="-1" Cut="0.0000000000000000e+00" cType="1" res="-2.0090006291866302e-03" rms="4.8116677999496460e-01" purity="4.7449484467506409e-01" nType="-99"/>
          <Node pos="r" depth="2" NCoef="0" IVar="-1" Cut="0.0000000000000000e+00" cType="1" res="-1.7114656046032906e-02" rms="4.1026061773300171e-01" purity="2.1829654276371002e-01" nType="-99"/>
        </Node>
      </Node>
    </BinaryTree>
    <BinaryTree type="DecisionTree" boostWeight="1.0000000000000000e+00" itree="18">
      <Node pos="s" depth="0" NCoef="0" IVar="15" Cut="3.4684577941894531e+01" cType="1" res="-1.8460625142324716e-04" rms="4.6638303995132446e-01" purity="4.9973902106285095e-01" nType="0">
        <Node pos="l" depth="1" NCoef="0" IVar="0" Cut="8.5247879028320312e+01" cType="1" res="4.8751495778560638e-02" rms="4.6762979030609131e-01" purity="5.9439390897750854e-01" nType="0">
          <Node pos="l" depth="2" NCoef="0" IVar="-1" Cut="0.0000000000000000e+00" cType="1" res="9.3573378399014473e-03" rms="4.5678341388702393e-01" purity="6.6782367229461670e-01" nType="-99"/>
          <Node pos="r" depth="2" NCoef="0" IVar="-1" Cut="0.0000000000000000e+00" cType="1" res="-7.2132386267185211e-03" rms="4.7866991162300110e-01" purity="3.7813743948936462e-01" nType="-99"/>
        </Node>
        <Node pos="r" depth="1" NCoef="0" IVar="4" Cut="9.8325866699218750e+01" cType="1" res="-1.0080010443925858e-01" rms="4.4729372859001160e-01" purity="3.0512309074401855e-01" nType="0">
          <Node pos="l" depth="2" NCoef="0" IVar="-1" Cut="0.0000000000000000e+00" cType="1" res="-4.2640473693609238e-03" rms="4.8307240009307861e-01" purity="4.0995997190475464e-01" nType="-99"/>
          <Node pos="r" depth="2" NCoef="0" IVar="-1" Cut="0.0000000000000000e+00" cType="1" res="-1.6528535634279251e-02" rms="4.0628924965858459e-01" purity="2.1301878988742828e-01" nType="-99"/>
        </Node>
      </Node>
    </BinaryTree>
    <BinaryTree type="DecisionTree" boostWeight="1.0000000000000000e+00" itree="19">
      <Node pos="s" depth="0" NCoef="0" IVar="0" Cut="4.8156997680664062e+01" cType="1" res="-1.4154779491946101e-03" rms="4.6700683236122131e-01" purity="4.9982759356498718e-01" nType="0">
        <Node pos="l" depth="1" NCoef="0" IVar="15" Cut="3.4470287322998047e+01" cType="1" res="1.0917813330888748e-01" rms="4.3994957208633423e-01" purity="6.9986081123352051e-01" nType="0">
          <Node pos="l" depth="2" NCoef="0" IVar="-1" Cut="0.0000000000000000e+00" cType="1" res="1.6321687027812004e-02" rms="4.1044747829437256e-01" purity="7.8018200397491455e-01" nType="-99"/>
          <Node pos="r" depth="2" NCoef="0" IVar="-1" Cut="0.0000000000000000e+00" cType="1" res="-1.1696105357259512e-03" rms="4.9516269564628601e-01" purity="4.7141519188880920e-01" nType="-99"/>
        </Node>
        <Node pos="r" depth="1" NCoef="0" IVar="15" Cut="1.0731755256652832e+01" cType="1" res="-4.3394386768341064e-02" rms="4.7011199593544006e-01" purity="4.2389941215515137e-01" nType="0">
          <Node pos="l" depth="2" NCoef="0" IVar="-1" Cut="0.0000000000000000e+00" cType="1" res="1.0863697156310081e-02" rms="4.6206599473953247e-01" purity="6.6845977306365967e-01" nType="-99"/>
          <Node pos="r" depth="2" NCoef="0" IVar="-1" Cut="0.0000000000000000e+00" cType="1" res="-6.9810589775443077e-03" rms="4.6708214282989502e-01" purity="3.8553512096405029e-01" nType="-99"/>
        </Node>
      </Node>
    </BinaryTree>
    <BinaryTree type="DecisionTree" boostWeight="1.0000000000000000e+00" itree="20">
      <Node pos="s" depth="0" NCoef="0" IVar="0" Cut="8.2555473327636719e+01" cType="1" res="-1.1310316622257233e-03" rms="4.6606498956680298e-01" purity="4.9985244870185852e-01" nType="0">
        <Node pos="l" depth="1" NCoef="0" IVar="15" Cut="3.6235317230224609e+01" cType="1" res="4.2019501328468323e-02" rms="4.6649846434593201e-01" purity="5.8401304483413696e-01" nType="0">
          <Node pos="l" depth="2" NCoef="0" IVar="-1" Cut="0.0000000000000000e+00" cType="1" res="8.4043163806200027e-03" rms="4.5911192893981934e-01" purity="6.6449093818664551e-01" nType="-99"/>
          <Node pos="r" depth="2" NCoef="0" IVar="-1" Cut="0.0000000000000000e+00" cType="1" res="-6.2647568993270397e-03" rms="4.7102740406990051e-01" purity="3.6516776680946350e-01" nType="-99"/>
        </Node>
        <Node pos="r" depth="1" NCoef="0" IVar="15" Cut="7.4028673171997070e+00" cType="1" res="-9.9299311637878418e-02" rms="4.4991537928581238e-01" purity="3.0838561058044434e-01" nType="0">
          <Node pos="l" depth="2" NCoef="0" IVar="-1" Cut="0.0000000000000000e+00" cType="1" res="9.8080877214670181e-03" rms="4.8762899637222290e-01" purity="6.0149151086807251e-01" nType="-99"/>
          <Node pos="r" depth="2" NCoef="0" IVar="-1" Cut="0.0000000000000000e+00" cType="1" res="-1.1832071468234062e-02" rms="4.4444492459297180e-01" purity="2.8970551490783691e-01" nType="-99"/>
        </Node>
      </Node>
    </BinaryTree>
    <BinaryTree type="DecisionTree" boostWeight="1.0000000000000000e+00" itree="21">
      <Node pos="s" depth="0" NCoef="0" IVar="15" Cut="1.5578913688659668e+01" cType="1" res="-7.3081953451037407e-03" rms="4.6468943357467651e-01" purity="4.9326208233833313e-01" nType="0">
        <Node pos="l" depth="1" NCoef="0" IVar="4" Cut="1.1274388122558594e+02" cType="1" res="1.0154894739389420e-01" rms="4.4414001703262329e-01" purity="6.9893908500671387e-01" nType="0">
          <Node pos="l" depth="2" NCoef="0" IVar="-1" Cut="0.0000000000000000e+00" cType="1" res="1.5894789248704910e-02" rms="4.0989786386489868e-01" purity="7.7805179357528687e-01" nType="-99"/>
          <Node pos="r" depth="2" NCoef="0" IVar="-1" Cut="0.0000000000000000e+00" cType="1" res="1.8295823829248548e-03" rms="4.9088895320892334e-01" purity="5.5165678262710571e-01" nType="-99"/>
        </Node>
        <Node pos="r" depth="1" NCoef="0" IVar="9" Cut="2.0329241752624512e+00" cType="1" res="-4.6293079853057861e-02" rms="4.6568343043327332e-01" purity="4.1960319876670837e-01" nType="0">
          <Node pos="l" depth="2" NCoef="0" IVar="-1" Cut="0.0000000000000000e+00" cType="1" res="-8.9204860851168633e-03" rms="4.5645698904991150e-01" purity="3.4726735949516296e-01" nType="-99"/>
          <Node pos="r" depth="2" NCoef="0" IVar="-1" Cut="0.0000000000000000e+00" cType="1" res="3.8545192219316959e-03" rms="4.7463074326515198e-01" purity="5.7693898677825928e-01" nType="-99"/>
        </Node>
      </Node>
    </BinaryTree>
    <BinaryTree type="DecisionTree" boostWeight="1.0000000000000000e+00" itree="22">
      <Node pos="s" depth="0" NCoef="0" IVar="15" Cut="3.5576747894287109e+01" cType="1" res="-4.0956232696771622e-03" rms="4.6516939997673035e-01" purity="4.9655055999755859e-01" nType="0">
        <Node pos="l" depth="1" NCoef="0" IVar="4" Cut="6.5993766784667969e+01" cType="1" res="3.3495858311653137e-02" rms="4.6855905652046204e-01" purity="5.8275276422500610e-01" nType="0">
          <Node pos="l" depth="2" NCoef="0" IVar="-1" Cut="0.0000000000000000e+00" cType="1" res="1.2389224022626877e-02" rms="4.3056470155715942e-01" purity="7.4435287714004517e-01" nType="-99"/>
          <Node pos="r" depth="2" NCoef="0" IVar="-1" Cut="0.0000000000000000e+00" cType="1" res="-3.2391710556112230e-04" rms="4.8038548231124878e-01" purity="5.0935894250869751e-01" nType="-99"/>
        </Node>
        <Node pos="r" depth="1" NCoef="0" IVar="9" Cut="2.0645356178283691e+00" cType="1" res="-8.9048422873020172e-02" rms="4.4589182734489441e-01" purity="3.0174246430397034e-01" nType="0">
          <Node pos="l" depth="2" NCoef="0" IVar="-1" Cut="0.0000000000000000e+00" cType="1" res="-1.2660397216677666e-02" rms="4.2977064847946167e-01" purity="2.5950700044631958e-01" nType="-99"/>
          <Node pos="r" depth="2" NCoef="0" IVar="-1" Cut="0.0000000000000000e+00" cType="1" res="1.4245933853089809e-03" rms="4.8669233918190002e-01" purity="4.5593252778053284e-01" nType="-99"/>
        </Node>
      </Node>
    </BinaryTree>
    <BinaryTree type="DecisionTree" boostWeight="1.0000000000000000e+00" itree="23">
      <Node pos="s" depth="0" NCoef="0" IVar="0" Cut="5.2957054138183594e+01" cType="1" res="1.0237530805170536e-03" rms="4.6437120437622070e-01" purity="5.0183367729187012e-01" nType="0">
        <Node pos="l" depth="1" NCoef="0" IVar="15" Cut="5.1914573669433594e+01" cType="1" res="8.0252863466739655e-02" rms="4.4919785857200623e-01" purity="6.7766916751861572e-01" nType="0">
          <Node pos="l" depth="2" NCoef="0" IVar="-1" Cut="0.0000000000000000e+00" cType="1" res="1.0500621981918812e-02" rms="4.4274589419364929e-01" purity="7.0970833301544189e-01" nType="-99"/>
          <Node pos="r" depth="2" NCoef="0" IVar="-1" Cut="0.0000000000000000e+00" cType="1" res="-9.5886262133717537e-03" rms="4.7629651427268982e-01" purity="3.5127997398376465e-01" nType="-99"/>
        </Node>
        <Node pos="r" depth="1" NCoef="0" IVar="15" Cut="1.0394435882568359e+01" cType="1" res="-4.2291473597288132e-02" rms="4.6680939197540283e-01" purity="4.0570294857025146e-01" nType="0">
          <Node pos="l" depth="2" NCoef="0" IVar="-1" Cut="0.0000000000000000e+00" cType="1" res="9.2153130099177361e-03" rms="4.6845263242721558e-01" purity="6.5290522575378418e-01" nType="-99"/>
          <Node pos="r" depth="2" NCoef="0" IVar="-1" Cut="0.0000000000000000e+00" cType="1" res="-6.4539639279246330e-03" rms="4.6354311704635620e-01" purity="3.7054410576820374e-01" nType="-99"/>
        </Node>
      </Node>
    </BinaryTree>
    <BinaryTree type="DecisionTree" boostWeight="1.0000000000000000e+00" itree="24">
      <Node pos="s" depth="0" NCoef="0" IVar="15" Cut="3.9646472930908203e+01" cType="1" res="2.4177019950002432e-03" rms="4.6233874559402466e-01" purity="5.0186014175415039e-01" nType="0">
        <Node pos="l" depth="1" NCoef="0" IVar="0" Cut="8.8141731262207031e+01" cType="1" res="3.5929538309574127e-02" rms="4.6531355381011963e-01" purity="5.7660961151123047e-01" nType="0">
          <Node pos="l" depth="2" NCoef="0" IVar="-1" Cut="0.0000000000000000e+00" cType="1" res="7.1010431274771690e-03" rms="4.5930558443069458e-01" purity="6.4547163248062134e-01" nType="-99"/>
          <Node pos="r" depth="2" NCoef="0" IVar="-1" Cut="0.0000000000000000e+00" cType="1" res="-6.4859408885240555e-03" rms="4.7068518400192261e-01" purity="3.5752856731414795e-01" nType="-99"/>
        </Node>
        <Node pos="r" depth="1" NCoef="0" IVar="15" Cut="6.6064758300781250e+01" cType="1" res="-9.6722513437271118e-02" rms="4.3868219852447510e-01" purity="2.8072413802146912e-01" nType="0">
          <Node pos="l" depth="2" NCoef="0" IVar="-1" Cut="0.0000000000000000e+00" cType="1" res="-7.8170932829380035e-03" rms="4.5017787814140320e-01" purity="3.0763578414916992e-01" nType="-99"/>
          <Node pos="r" depth="2" NCoef="0" IVar="-1" Cut="0.0000000000000000e+00" cType="1" res="-2.1635275334119797e-02" rms="3.6967772245407104e-01" purity="1.6761282086372375e-01" nType="-99"/>
        </Node>
      </Node>
    </BinaryTree>
    <BinaryTree type="DecisionTree" boostWeight="1.0000000000000000e+00" itree="25">
      <Node pos="s" depth="0" NCoef="0" IVar="15" Cut="1.4960010528564453e+01" cType="1" res="4.3411683291196823e-03" rms="4.6290737390518188e-01" purity="5.0578892230987549e-01" nType="0">
        <Node pos="l" depth="1" NCoef="0" IVar="9" Cut="9.6929204463958740e-01" cType="1" res="9.8790109157562256e-02" rms="4.3759724497795105e-01" purity="7.1028727293014526e-01" nType="0">
          <Node pos="l" depth="2" NCoef="0" IVar="-1" Cut="0.0000000000000000e+00" cType="1" res="-5.5322572588920593e-03" rms="4.9197325110435486e-01" purity="4.6682226657867432e-01" nType="-99"/>
          <Node pos="r" depth="2" NCoef="0" IVar="-1" Cut="0.0000000000000000e+00" cType="1" res="1.3764703646302223e-02" rms="4.2131838202476501e-01" purity="7.5377154350280762e-01" nType="-99"/>
        </Node>
        <Node pos="r" depth="1" NCoef="0" IVar="0" Cut="8.3254997253417969e+01" cType="1" res="-2.7163136750459671e-02" rms="4.6681645512580872e-01" purity="4.3757665157318115e-01" nType="0">
          <Node pos="l" depth="2" NCoef="0" IVar="-1" Cut="0.0000000000000000e+00" cType="1" res="5.4769031703472137e-04" rms="4.7682785987854004e-01" purity="5.1473957300186157e-01" nType="-99"/>
          <Node pos="r" depth="2" NCoef="0" IVar="-1" Cut="0.0000000000000000e+00" cType="1" res="-1.0819898918271065e-02" rms="4.3521523475646973e-01" purity="2.6606807112693787e-01" nType="-99"/>
        </Node>
      </Node>
    </BinaryTree>
    <BinaryTree type="DecisionTree" boostWeight="1.0000000000000000e+00" itree="26">
      <Node pos="s" depth="0" NCoef="0" IVar="15" Cut="3.4488613128662109e+01" cType="1" res="-2.9775113798677921e-03" rms="4.6193143725395203e-01" purity="4.9690675735473633e-01" nType="0">
        <Node pos="l" depth="1" NCoef="0" IVar="4" Cut="7.8380096435546875e+01" cType="1" res="3.3601384609937668e-02" rms="4.6683028340339661e-01" purity="5.9169340133666992e-01" nType="0">
          <Node pos="l" depth="2" NCoef="0" IVar="-1" Cut="0.0000000000000000e+00" cType="1" res="9.2576649039983749e-03" rms="4.3999192118644714e-01" purity="7.2097969055175781e-01" nType="-99"/>
          <Node pos="r" depth="2" NCoef="0" IVar="-1" Cut="0.0000000000000000e+00" cType="1" res="-2.0099601533729583e-04" rms="4.8163500428199768e-01" purity="5.0084763765335083e-01" nType="-99"/>
        </Node>
        <Node pos="r" depth="1" NCoef="0" IVar="0" Cut="6.2339267730712891e+01" cType="1" res="-7.7922485768795013e-02" rms="4.4238048791885376e-01" purity="3.0270239710807800e-01" nType="0">
          <Node pos="l" depth="2" NCoef="0" IVar="-1" Cut="0.0000000000000000e+00" cType="1" res="-9.5585809322074056e-04" rms="4.8791247606277466e-01" purity="4.4468393921852112e-01" nType="-99"/>
          <Node pos="r" depth="2" NCoef="0" IVar="-1" Cut="0.0000000000000000e+00" cType="1" res="-1.4118678867816925e-02" rms="4.0184196829795837e-01" purity="2.0601390302181244e-01" nType="-99"/>
        </Node>
      </Node>
    </BinaryTree>
    <BinaryTree type="DecisionTree" boostWeight="1.0000000000000000e+00" itree="27">
      <Node pos="s" depth="0" NCoef="0" IVar="0" Cut="4.9853054046630859e+01" cType="1" res="4.4275936670601368e-03" rms="4.6150565147399902e-01" purity="5.0413507223129272e-01" nType="0">
        <Node pos="l" depth="1" NCoef="0" IVar="15" Cut="4.9277088165283203e+01" cType="1" res="8.2027032971382141e-02" rms="4.4054269790649414e-01" purity="6.9237387180328369e-01" nType="0">
          <Node pos="l" depth="2" NCoef="0" IVar="-1" Cut="0.0000000000000000e+00" cType="1" res="1.1131218634545803e-02" rms="4.3180471658706665e-01" purity="7.3195582628250122e-01" nType="-99"/>
          <Node pos="r" depth="2" NCoef="0" IVar="-1" Cut="0.0000000000000000e+00" cType="1" res="-7.9688010737299919e-03" rms="4.7847929596900940e-01" purity="3.6178719997406006e-01" nType="-99"/>
        </Node>
        <Node pos="r" depth="1" NCoef="0" IVar="15" Cut="1.6307579040527344e+01" cType="1" res="-2.9298303648829460e-02" rms="4.6631672978401184e-01" purity="4.2232367396354675e-01" nType="0">
          <Node pos="l" depth="2" NCoef="0" IVar="-1" Cut="0.0000000000000000e+00" cType="1" res="5.3558438085019588e-03" rms="4.7333160042762756e-01" purity="6.2343412637710571e-01" nType="-99"/>
          <Node pos="r" depth="2" NCoef="0" IVar="-1" Cut="0.0000000000000000e+00" cType="1" res="-6.1350911855697632e-03" rms="4.6061500906944275e-01" purity="3.5307517647743225e-01" nType="-99"/>
        </Node>
      </Node>
    </BinaryTree>
    <BinaryTree type="DecisionTree" boostWeight="1.0000000000000000e+00" itree="28">
      <Node pos="s" depth="0" NCoef="0" IVar="0" Cut="5.7565093994140625e+01" cType="1" res="3.9463075809180737e-03" rms="4.5895126461982727e-01" purity="5.0329554080963135e-01" nType="0">
        <Node pos="l" depth="1" NCoef="0" IVar="15" Cut="3.1130229949951172e+01" cType="1" res="6.7868910729885101e-02" rms="4.4727957248687744e-01" purity="6.7145544290542603e-01" nType="0">
          <Node pos="l" depth="2" NCoef="0" IVar="-1" Cut="0.0000000000000000e+00" cType="1" res="1.1616204865276814e-02" rms="4.1936376690864563e-01" purity="7.6559388637542725e-01" nType="-99"/>
          <Node pos="r" depth="2" NCoef="0" IVar="-1" Cut="0.0000000000000000e+00" cType="1" res="-4.8562782467342913e-04" rms="4.9184003472328186e-01" purity="4.7808587551116943e-01" nType="-99"/>
        </Node>
        <Node pos="r" depth="1" NCoef="0" IVar="15" Cut="4.0419681549072266e+01" cType="1" res="-4.1632793843746185e-02" rms="4.6172204613685608e-01" purity="3.8339152932167053e-01" nType="0">
          <Node pos="l" depth="2" NCoef="0" IVar="-1" Cut="0.0000000000000000e+00" cType="1" res="-1.1996817775070667e-03" rms="4.8001569509506226e-01" purity="4.5236301422119141e-01" nType="-99"/>
          <Node pos="r" depth="2" NCoef="0" IVar="-1" Cut="0.0000000000000000e+00" cType="1" res="-1.3727607205510139e-02" rms="4.0004661679267883e-01" purity="2.0449653267860413e-01" nType="-99"/>
        </Node>
      </Node>
    </BinaryTree>
    <BinaryTree type="DecisionTree" boostWeight="1.0000000000000000e+00" itree="29">
      <Node pos="s" depth="0" NCoef="0" IVar="15" Cut="1.3788618087768555e+01" cType="1" res="-8.5422499978449196e-05" rms="4.6073096990585327e-01" purity="4.9931201338768005e-01" nType="0">
        <Node pos="l" depth="1" NCoef="0" IVar="15" Cut="7.2800989151000977e+00" cType="1" res="9.1249868273735046e-02" rms="4.3719935417175293e-01" purity="7.1388739347457886e-01" nType="0">
          <Node pos="l" depth="2" NCoef="0" IVar="-1" Cut="0.0000000000000000e+00" cType="1" res="1.6020134091377258e-02" rms="4.0476629137992859e-01" purity="7.7674615383148193e-01" nType="-99"/>
          <Node pos="r" depth="2" NCoef="0" IVar="-1" Cut="0.0000000000000000e+00" cType="1" res="6.5641412511467934e-03" rms="4.5181277394294739e-01" purity="6.7786496877670288e-01" nType="-99"/>
        </Node>
        <Node pos="r" depth="1" NCoef="0" IVar="4" Cut="1.0367227935791016e+02" cType="1" res="-2.5581063702702522e-02" rms="4.6388852596282959e-01" purity="4.3941468000411987e-01" nType="0">
          <Node pos="l" depth="2" NCoef="0" IVar="-1" Cut="0.0000000000000000e+00" cType="1" res="1.9940317142754793e-03" rms="4.7277167439460754e-01" purity="5.5059099197387695e-01" nType="-99"/>
          <Node pos="r" depth="2" NCoef="0" IVar="-1" Cut="0.0000000000000000e+00" cType="1" res="-8.3068376407027245e-03" rms="4.4823238253593445e-01" purity="3.1268298625946045e-01" nType="-99"/>
        </Node>
      </Node>
    </BinaryTree>
    <BinaryTree type="DecisionTree" boostWeight="1.0000000000000000e+00" itree="30">
      <Node pos="s" depth="0" NCoef="0" IVar="0" Cut="8.8004119873046875e+01" cType="1" res="3.5946911666542292e-03" rms="4.6037268638610840e-01" purity="5.0676780939102173e-01" nType="0">
        <Node pos="l" depth="1" NCoef="0" IVar="15" Cut="4.3377624511718750e+01" cType="1" res="3.1070977449417114e-02" rms="4.6228262782096863e-01" purity="5.7901895046234131e-01" nType="0">
          <Node pos="l" depth="2" NCoef="0" IVar="-1" Cut="0.0000000000000000e+00" cType="1" res="5.5134729482233524e-03" rms="4.6069630980491638e-01" purity="6.3393169641494751e-01" nType="-99"/>
          <Node pos="r" depth="2" NCoef="0" IVar="-1" Cut="0.0000000000000000e+00" cType="1" res="-6.7243860103189945e-03" rms="4.5817273855209351e-01" purity="3.2156080007553101e-01" nType="-99"/>
        </Node>
        <Node pos="r" depth="1" NCoef="0" IVar="1" Cut="1.1524417114257812e+02" cType="1" res="-7.3738843202590942e-02" rms="4.4595727324485779e-01" purity="3.0341306328773499e-01" nType="0">
          <Node pos="l" depth="2" NCoef="0" IVar="-1" Cut="0.0000000000000000e+00" cType="1" res="-9.1912010684609413e-03" rms="4.4049230217933655e-01" purity="2.9253023862838745e-01" nType="-99"/>
          <Node pos="r" depth="2" NCoef="0" IVar="-1" Cut="0.0000000000000000e+00" cType="1" res="9.5113450661301613e-03" rms="4.9677732586860657e-01" purity="4.7337490320205688e-01" nType="-99"/>
        </Node>
      </Node>
    </BinaryTree>
    <BinaryTree type="DecisionTree" boostWeight="1.0000000000000000e+00" itree="31">
      <Node pos="s" depth="0" NCoef="0" IVar="4" Cut="1.0366947937011719e+02" cType="1" res="4.6405345201492310e-03" rms="4.5831987261772156e-01" purity="5.0588077306747437e-01" nType="0">
        <Node pos="l" depth="1" NCoef="0" IVar="15" Cut="2.4877429962158203e+01" cType="1" res="4.8575878143310547e-02" rms="4.5391994714736938e-01" purity="6.1631458997726440e-01" nType="0">
          <Node pos="l" depth="2" NCoef="0" IVar="-1" Cut="0.0000000000000000e+00" cType="1" res="1.1109939776360989e-02" rms="4.2125973105430603e-01" purity="7.5374871492385864e-01" nType="-99"/>
          <Node pos="r" depth="2" NCoef="0" IVar="-1" Cut="0.0000000000000000e+00" cType="1" res="-2.5405525229871273e-04" rms="4.7976216673851013e-01" purity="4.7557604312896729e-01" nType="-99"/>
        </Node>
        <Node pos="r" depth="1" NCoef="0" IVar="5" Cut="8.0858741760253906e+01" cType="1" res="-4.9510404467582703e-02" rms="4.5792216062545776e-01" purity="3.6976939439773560e-01" nType="0">
          <Node pos="l" depth="2" NCoef="0" IVar="-1" Cut="0.0000000000000000e+00" cType="1" res="-2.6329101528972387e-03" rms="4.6601340174674988e-01" purity="4.1162049770355225e-01" nType="-99"/>
          <Node pos="r" depth="2" NCoef="0" IVar="-1" Cut="0.0000000000000000e+00" cType="1" res="-1.2461361475288868e-02" rms="4.3016469478607178e-01" purity="2.6344898343086243e-01" nType="-99"/>
        </Node>
      </Node>
    </BinaryTree>
    <BinaryTree type="DecisionTree" boostWeight="1.0000000000000000e+00" itree="32">
      <Node pos="s" depth="0" NCoef="0" IVar="4" Cut="8.1773071289062500e+01" cType="1" res="3.5485182888805866e-03" rms="4.6033668518066406e-01" purity="5.0664722919464111e-01" nType="0">
        <Node pos="l" depth="1" NCoef="0" IVar="12" Cut="2.8414623737335205e+00" cType="1" res="5.3307414054870605e-02" rms="4.5315662026405334e-01" purity="6.4913481473922729e-01" nType="0">
          <Node pos="l" depth="2" NCoef="0" IVar="-1" Cut="0.0000000000000000e+00" cType="1" res="2.9544081189669669e-04" rms="4.8160639405250549e-01" purity="5.3156584501266479e-01" nType="-99"/>
          <Node pos="r" depth="2" NCoef="0" IVar="-1" Cut="0.0000000000000000e+00" cType="1" res="9.8712900653481483e-03" rms="4.2961159348487854e-01" purity="7.2831571102142334e-01" nType="-99"/>
        </Node>
        <Node pos="r" depth="1" NCoef="0" IVar="15" Cut="1.5310400009155273e+01" cType="1" res="-3.1308300793170929e-02" rms="4.6212014555931091e-01" purity="4.0683257579803467e-01" nType="0">
          <Node pos="l" depth="2" NCoef="0" IVar="-1" Cut="0.0000000000000000e+00" cType="1" res="3.9113448001444340e-03" rms="4.7683751583099365e-01" purity="6.0847932100296021e-01" nType="-99"/>
          <Node pos="r" depth="2" NCoef="0" IVar="-1" Cut="0.0000000000000000e+00" cType="1" res="-5.8397939428687096e-03" rms="4.5510286092758179e-01" purity="3.4212407469749451e-01" nType="-99"/>
        </Node>
      </Node>
    </BinaryTree>
    <BinaryTree type="DecisionTree" boostWeight="1.0000000000000000e+00" itree="33">
      <Node pos="s" depth="0" NCoef="0" IVar="0" Cut="4.8208660125732422e+01" cType="1" res="-1.3599250232800841e-03" rms="4.5767909288406372e-01" purity="4.9895459413528442e-01" nType="0">
        <Node pos="l" depth="1" NCoef="0" IVar="15" Cut="2.3608583450317383e+01" cType="1" res="7.6144613325595856e-02" rms="4.3476492166519165e-01" purity="7.0385456085205078e-01" nType="0">
          <Node pos="l" depth="2" NCoef="0" IVar="-1" Cut="0.0000000000000000e+00" cType="1" res="1.4506988227367401e-02" rms="3.8045373558998108e-01" purity="8.2353520393371582e-01" nType="-99"/>
          <Node pos="r" depth="2" NCoef="0" IVar="-1" Cut="0.0000000000000000e+00" cType="1" res="2.6589245535433292e-03" rms="4.8382076621055603e-01" purity="5.6900984048843384e-01" nType="-99"/>
        </Node>
        <Node pos="r" depth="1" NCoef="0" IVar="15" Cut="4.2702476501464844e+01" cType="1" res="-3.0734773725271225e-02" rms="4.6268904209136963e-01" purity="4.2129585146903992e-01" nType="0">
          <Node pos="l" depth="2" NCoef="0" IVar="-1" Cut="0.0000000000000000e+00" cType="1" res="-9.9767639767378569e-04" rms="4.7548106312751770e-01" purity="4.8040306568145752e-01" nType="-99"/>
          <Node pos="r" depth="2" NCoef="0" IVar="-1" Cut="0.0000000000000000e+00" cType="1" res="-1.1671037413179874e-02" rms="4.0965735912322998e-01" purity="2.2548837959766388e-01" nType="-99"/>
        </Node>
      </Node>
    </BinaryTree>
    <BinaryTree type="DecisionTree" boostWeight="1.0000000000000000e+00" itree="34">
      <Node pos="s" depth="0" NCoef="0" IVar="15" Cut="1.5323212623596191e+01" cType="1" res="-3.4619842190295458e-03" rms="4.5778176188468933e-01" purity="4.9645280838012695e-01" nType="0">
        <Node pos="l" depth="1" NCoef="0" IVar="13" Cut="1.8510821533203125e+02" cType="1" res="7.0774435997009277e-02" rms="4.3832731246948242e-01" purity="7.0195108652114868e-01" nType="0">
          <Node pos="l" depth="2" NCoef="0" IVar="-1" Cut="0.0000000000000000e+00" cType="1" res="1.0198090225458145e-02" rms="4.2775243520736694e-01" purity="7.3759841918945312e-01" nType="-99"/>
          <Node pos="r" depth="2" NCoef="0" IVar="-1" Cut="0.0000000000000000e+00" cType="1" res="-9.8777813836932182e-03" rms="4.8846781253814697e-01" purity="3.9652976393699646e-01" nType="-99"/>
        </Node>
        <Node pos="r" depth="1" NCoef="0" IVar="4" Cut="1.0366947937011719e+02" cType="1" res="-2.9316734522581100e-02" rms="4.6157112717628479e-01" purity="4.2488276958465576e-01" nType="0">
          <Node pos="l" depth="2" NCoef="0" IVar="-1" Cut="0.0000000000000000e+00" cType="1" res="9.8487723153084517e-04" rms="4.7397157549858093e-01" purity="5.3772103786468506e-01" nType="-99"/>
          <Node pos="r" depth="2" NCoef="0" IVar="-1" Cut="0.0000000000000000e+00" cType="1" res="-8.0770850181579590e-03" rms="4.4327318668365479e-01" purity="2.9827326536178589e-01" nType="-99"/>
        </Node>
      </Node>
    </BinaryTree>
    <BinaryTree type="DecisionTree" boostWeight="1.0000000000000000e+00" itree="35">
      <Node pos="s" depth="0" NCoef="0" IVar="0" Cut="6.0800468444824219e+01" cType="1" res="1.3433801941573620e-03" rms="4.5748963952064514e-01" purity="5.0184261798858643e-01" nType="0">
        <Node pos="l" depth="1" NCoef="0" IVar="15" Cut="4.9231704711914062e+01" cType="1" res="4.7981996089220047e-02" rms="4.5174282789230347e-01" purity="6.5568184852600098e-01" nType="0">
          <Node pos="l" depth="2" NCoef="0" IVar="-1" Cut="0.0000000000000000e+00" cType="1" res="6.8385978229343891e-03" rms="4.4705596566200256e-01" purity="6.9215297698974609e-01" nType="-99"/>
          <Node pos="r" depth="2" NCoef="0" IVar="-1" Cut="0.0000000000000000e+00" cType="1" res="-6.3846493139863014e-03" rms="4.7452932596206665e-01" purity="3.5590389370918274e-01" nType="-99"/>
        </Node>
        <Node pos="r" depth="1" NCoef="0" IVar="15" Cut="3.5093566894531250e+01" cType="1" res="-3.9276894181966782e-02" rms="4.5858830213546753e-01" purity="3.6785516142845154e-01" nType="0">
          <Node pos="l" depth="2" NCoef="0" IVar="-1" Cut="0.0000000000000000e+00" cType="1" res="-1.3921963982284069e-03" rms="4.8205995559692383e-01" purity="4.5114567875862122e-01" nType="-99"/>
          <Node pos="r" depth="2" NCoef="0" IVar="-1" Cut="0.0000000000000000e+00" cType="1" res="-1.0198607109487057e-02" rms="4.0895989537239075e-01" purity="2.1816356480121613e-01" nType="-99"/>
        </Node>
      </Node>
    </BinaryTree>
    <BinaryTree type="DecisionTree" boostWeight="1.0000000000000000e+00" itree="36">
      <Node pos="s" depth="0" NCoef="0" IVar="0" Cut="4.8820713043212891e+01" cType="1" res="-2.1297545172274113e-03" rms="4.5645943284034729e-01" purity="4.9834036827087402e-01" nType="0">
        <Node pos="l" depth="1" NCoef="0" IVar="15" Cut="4.9217700958251953e+01" cType="1" res="6.5119110047817230e-02" rms="4.3625688552856445e-01" purity="6.9984960556030273e-01" nType="0">
          <Node pos="l" depth="2" NCoef="0" IVar="-1" Cut="0.0000000000000000e+00" cType="1" res="9.1731389984488487e-03" rms="4.2863428592681885e-01" purity="7.3772490024566650e-01" nType="-99"/>
          <Node pos="r" depth="2" NCoef="0" IVar="-1" Cut="0.0000000000000000e+00" cType="1" res="-6.9210878573358059e-03" rms="4.7862914204597473e-01" purity="3.6432492733001709e-01" nType="-99"/>
        </Node>
        <Node pos="r" depth="1" NCoef="0" IVar="15" Cut="1.0745054244995117e+01" cType="1" res="-2.8854386880993843e-02" rms="4.6153110265731812e-01" purity="4.1826078295707703e-01" nType="0">
          <Node pos="l" depth="2" NCoef="0" IVar="-1" Cut="0.0000000000000000e+00" cType="1" res="8.1741865724325180e-03" rms="4.5459669828414917e-01" purity="6.7693966627120972e-01" nType="-99"/>
          <Node pos="r" depth="2" NCoef="0" IVar="-1" Cut="0.0000000000000000e+00" cType="1" res="-4.8778718337416649e-03" rms="4.6048295497894287e-01" purity="3.7929177284240723e-01" nType="-99"/>
        </Node>
      </Node>
    </BinaryTree>
    <BinaryTree type="DecisionTree" boostWeight="1.0000000000000000e+00" itree="37">
      <Node pos="s" depth="0" NCoef="0" IVar="4" Cut="7.8205245971679688e+01" cType="1" res="-6.2292153015732765e-03" rms="4.5716267824172974e-01" purity="4.9558693170547485e-01" nType="0">
        <Node pos="l" depth="1" NCoef="0" IVar="15" Cut="1.6740835189819336e+01" cType="1" res="4.2970959097146988e-02" rms="4.5087757706642151e-01" purity="6.4943665266036987e-01" nType="0">
          <Node pos="l" depth="2" NCoef="0" IVar="-1" Cut="0.0000000000000000e+00" cType="1" res="1.2203130871057510e-02" rms="3.8873493671417236e-01" purity="8.1087714433670044e-01" nType="-99"/>
          <Node pos="r" depth="2" NCoef="0" IVar="-1" Cut="0.0000000000000000e+00" cType="1" res="1.7346927197650075e-03" rms="4.7522318363189697e-01" purity="5.7278537750244141e-01" nType="-99"/>
        </Node>
        <Node pos="r" depth="1" NCoef="0" IVar="15" Cut="1.2140511512756348e+01" cType="1" res="-3.6321856081485748e-02" rms="4.5836916565895081e-01" purity="4.0148675441741943e-01" nType="0">
          <Node pos="l" depth="2" NCoef="0" IVar="-1" Cut="0.0000000000000000e+00" cType="1" res="5.2939830347895622e-03" rms="4.6695873141288757e-01" purity="6.4459681510925293e-01" nType="-99"/>
          <Node pos="r" depth="2" NCoef="0" IVar="-1" Cut="0.0000000000000000e+00" cType="1" res="-5.8940751478075981e-03" rms="4.5467513799667358e-01" purity="3.5274472832679749e-01" nType="-99"/>
        </Node>
      </Node>
    </BinaryTree>
    <BinaryTree type="DecisionTree" boostWeight="1.0000000000000000e+00" itree="38">
      <Node pos="s" depth="0" NCoef="0" IVar="4" Cut="4.4212471008300781e+01" cType="1" res="-3.9499425329267979e-03" rms="4.5645374059677124e-01" purity="4.9564951658248901e-01" nType="0">
        <Node pos="l" depth="1" NCoef="0" IVar="12" Cut="2.8354678153991699e+00" cType="1" res="9.8690934479236603e-02" rms="4.2247119545936584e-01" purity="7.3055434226989746e-01" nType="0">
          <Node pos="l" depth="2" NCoef="0" IVar="-1" Cut="0.0000000000000000e+00" cType="1" res="3.9879893884062767e-03" rms="4.7964906692504883e-01" purity="5.8902412652969360e-01" nType="-99"/>
          <Node pos="r" depth="2" NCoef="0" IVar="-1" Cut="0.0000000000000000e+00" cType="1" res="1.5608282759785652e-02" rms="3.8349255919456482e-01" purity="8.0810284614562988e-01" nType="-99"/>
        </Node>
        <Node pos="r" depth="1" NCoef="0" IVar="15" Cut="4.8863101959228516e+01" cType="1" res="-1.8818357959389687e-02" rms="4.5927062630653381e-01" purity="4.6162152290344238e-01" nType="0">
          <Node pos="l" depth="2" NCoef="0" IVar="-1" Cut="0.0000000000000000e+00" cType="1" res="-3.0221123597584665e-04" rms="4.6691045165061951e-01" purity="5.0615739822387695e-01" nType="-99"/>
          <Node pos="r" depth="2" NCoef="0" IVar="-1" Cut="0.0000000000000000e+00" cType="1" res="-1.2567916885018349e-02" rms="4.0285685658454895e-01" purity="2.1445928514003754e-01" nType="-99"/>
        </Node>
      </Node>
    </BinaryTree>
    <BinaryTree type="DecisionTree" boostWeight="1.0000000000000000e+00" itree="39">
      <Node pos="s" depth="0" NCoef="0" IVar="9" Cut="1.4024621248245239e+00" cType="1" res="-3.5861993674188852e-03" rms="4.5738136768341064e-01" purity="4.9571263790130615e-01" nType="0">
        <Node pos="l" depth="1" NCoef="0" IVar="15" Cut="4.4984161376953125e+01" cType="1" res="-5.4280135780572891e-02" rms="4.5096361637115479e-01" purity="3.4290310740470886e-01" nType="0">
          <Node pos="l" depth="2" NCoef="0" IVar="-1" Cut="0.0000000000000000e+00" cType="1" res="-3.6626555956900120e-03" rms="4.6793833374977112e-01" purity="3.9615589380264282e-01" nType="-99"/>
          <Node pos="r" depth="2" NCoef="0" IVar="-1" Cut="0.0000000000000000e+00" cType="1" res="-1.3105832040309906e-02" rms="3.9556342363357544e-01" purity="1.9707961380481720e-01" nType="-99"/>
        </Node>
        <Node pos="r" depth="1" NCoef="0" IVar="5" Cut="9.0099494934082031e+01" cType="1" res="2.3375859484076500e-02" rms="4.5848059654235840e-01" purity="5.7698589563369751e-01" nType="0">
          <Node pos="l" depth="2" NCoef="0" IVar="-1" Cut="0.0000000000000000e+00" cType="1" res="3.9956904947757721e-03" rms="4.5805320143699646e-01" purity="6.0980534553527832e-01" nType="-99"/>
          <Node pos="r" depth="2" NCoef="0" IVar="-1" Cut="0.0000000000000000e+00" cType="1" res="-7.3313326574862003e-03" rms="4.5131668448448181e-01" purity="3.4086352586746216e-01" nType="-99"/>
        </Node>
      </Node>
    </BinaryTree>
    <BinaryTree type="DecisionTree" boostWeight="1.0000000000000000e+00" itree="40">
      <Node pos="s" depth="0" NCoef="0" IVar="0" Cut="4.9433738708496094e+01" cType="1" res="-1.2483359314501286e-03" rms="4.5697012543678284e-01" purity="5.0041925907135010e-01" nType="0">
        <Node pos="l" depth="1" NCoef="0" IVar="15" Cut="3.0290826797485352e+01" cType="1" res="5.5827796459197998e-02" rms="4.3624454736709595e-01" purity="6.9543766975402832e-01" nType="0">
          <Node pos="l" depth="2" NCoef="0" IVar="-1" Cut="0.0000000000000000e+00" cType="1" res="1.0363458655774593e-02" rms="4.0307003259658813e-01" purity="7.9112929105758667e-01" nType="-99"/>
          <Node pos="r" depth="2" NCoef="0" IVar="-1" Cut="0.0000000000000000e+00" cType="1" res="-4.0026783244684339e-04" rms="4.9118882417678833e-01" purity="5.0198012590408325e-01" nType="-99"/>
        </Node>
        <Node pos="r" depth="1" NCoef="0" IVar="15" Cut="1.1721167564392090e+01" cType="1" res="-2.5654612109065056e-02" rms="4.6341028809547424e-01" purity="4.1702768206596375e-01" nType="0">
          <Node pos="l" depth="2" NCoef="0" IVar="-1" Cut="0.0000000000000000e+00" cType="1" res="4.8342696391046047e-03" rms="4.6714559197425842e-01" purity="6.4600533246994019e-01" nType="-99"/>
          <Node pos="r" depth="2" NCoef="0" IVar="-1" Cut="0.0000000000000000e+00" cType="1" res="-4.2476193048059940e-03" rms="4.6154651045799255e-01" purity="3.7504032254219055e-01" nType="-99"/>
        </Node>
      </Node>
    </BinaryTree>
    <BinaryTree type="DecisionTree" boostWeight="1.0000000000000000e+00" itree="41">
      <Node pos="s" depth="0" NCoef="0" IVar="15" Cut="1.5297236442565918e+01" cType="1" res="-2.7630897238850594e-03" rms="4.5625275373458862e-01" purity="4.9898210167884827e-01" nType="0">
        <Node pos="l" depth="1" NCoef="0" IVar="0" Cut="7.3171981811523438e+01" cType="1" res="5.8505028486251831e-02" rms="4.3534356355667114e-01" purity="7.0134264230728149e-01" nType="0">
          <Node pos="l" depth="2" NCoef="0" IVar="-1" Cut="0.0000000000000000e+00" cType="1" res="1.0989402420818806e-02" rms="3.9961090683937073e-01" purity="7.9225575923919678e-01" nType="-99"/>
          <Node pos="r" depth="2" NCoef="0" IVar="-1" Cut="0.0000000000000000e+00" cType="1" res="-8.0002064350992441e-04" rms="4.9431100487709045e-01" purity="5.1432174444198608e-01" nType="-99"/>
        </Node>
        <Node pos="r" depth="1" NCoef="0" IVar="15" Cut="6.3849483489990234e+01" cType="1" res="-2.3926924914121628e-02" rms="4.6136936545372009e-01" purity="4.2908069491386414e-01" nType="0">
          <Node pos="l" depth="2" NCoef="0" IVar="-1" Cut="0.0000000000000000e+00" cType="1" res="-1.6476631863042712e-03" rms="4.6619051694869995e-01" purity="4.4874158501625061e-01" nType="-99"/>
          <Node pos="r" depth="2" NCoef="0" IVar="-1" Cut="0.0000000000000000e+00" cType="1" res="-1.6240453347563744e-02" rms="3.7688064575195312e-01" purity="1.7903842031955719e-01" nType="-99"/>
        </Node>
      </Node>
    </BinaryTree>
    <BinaryTree type="DecisionTree" boostWeight="1.0000000000000000e+00" itree="42">
      <Node pos="s" depth="0" NCoef="0" IVar="15" Cut="2.3861957550048828e+01" cType="1" res="2.8507937677204609e-03" rms="4.5517486333847046e-01" purity="5.0495713949203491e-01" nType="0">
        <Node pos="l" depth="1" NCoef="0" IVar="4" Cut="5.4774356842041016e+01" cType="1" res="4.1866663843393326e-02" rms="4.5122495293617249e-01" purity="6.5742766857147217e-01" nType="0">
          <Node pos="l" depth="2" NCoef="0" IVar="-1" Cut="0.0000000000000000e+00" cType="1" res="1.2652830220758915e-02" rms="3.8094404339790344e-01" purity="8.2291048765182495e-01" nType="-99"/>
          <Node pos="r" depth="2" NCoef="0" IVar="-1" Cut="0.0000000000000000e+00" cType="1" res="2.6452322490513325e-03" rms="4.6875441074371338e-01" purity="6.0802704095840454e-01" nType="-99"/>
        </Node>
        <Node pos="r" depth="1" NCoef="0" IVar="4" Cut="5.2743953704833984e+01" cType="1" res="-3.0824014917016029e-02" rms="4.5587980747222900e-01" purity="3.7335905432701111e-01" nType="0">
          <Node pos="l" depth="2" NCoef="0" IVar="-1" Cut="0.0000000000000000e+00" cType="1" res="4.8047695308923721e-03" rms="4.7738584876060486e-01" purity="5.8619135618209839e-01" nType="-99"/>
          <Node pos="r" depth="2" NCoef="0" IVar="-1" Cut="0.0000000000000000e+00" cType="1" res="-5.2410587668418884e-03" rms="4.4973284006118774e-01" purity="3.2970699667930603e-01" nType="-99"/>
        </Node>
      </Node>
    </BinaryTree>
    <BinaryTree type="DecisionTree" boostWeight="1.0000000000000000e+00" itree="43">
      <Node pos="s" depth="0" NCoef="0" IVar="15" Cut="5.3354949951171875e+01" cType="1" res="-3.5013421438634396e-03" rms="4.5720762014389038e-01" purity="4.9681490659713745e-01" nType="0">
        <Node pos="l" depth="1" NCoef="0" IVar="4" Cut="1.2634561920166016e+02" cType="1" res="7.6672853901982307e-03" rms="4.6163171529769897e-01" purity="5.3014922142028809e-01" nType="0">
          <Node pos="l" depth="2" NCoef="0" IVar="-1" Cut="0.0000000000000000e+00" cType="1" res="3.3565233461558819e-03" rms="4.5861890912055969e-01" purity="6.0778540372848511e-01" nType="-99"/>
          <Node pos="r" depth="2" NCoef="0" IVar="-1" Cut="0.0000000000000000e+00" cType="1" res="-4.2922226712107658e-03" rms="4.6438652276992798e-01" purity="3.6816152930259705e-01" nType="-99"/>
        </Node>
        <Node pos="r" depth="1" NCoef="0" IVar="14" Cut="6.6052627563476562e+01" cType="1" res="-9.4864010810852051e-02" rms="4.0794381499290466e-01" purity="2.2413004934787750e-01" nType="0">
          <Node pos="l" depth="2" NCoef="0" IVar="-1" Cut="0.0000000000000000e+00" cType="1" res="-1.6805130988359451e-02" rms="3.7282437086105347e-01" purity="1.6847746074199677e-01" nType="-99"/>
          <Node pos="r" depth="2" NCoef="0" IVar="-1" Cut="0.0000000000000000e+00" cType="1" res="-6.4692613668739796e-03" rms="4.3206700682640076e-01" purity="2.7203226089477539e-01" nType="-99"/>
        </Node>
      </Node>
    </BinaryTree>
    <BinaryTree type="DecisionTree" boostWeight="1.0000000000000000e+00" itree="44">
      <Node pos="s" depth="0" NCoef="0" IVar="0" Cut="9.3326301574707031e+01" cType="1" res="3.0049723573029041e-03" rms="4.5592418313026428e-01" purity="5.0460189580917358e-01" nType="0">
        <Node pos="l" depth="1" NCoef="0" IVar="15" Cut="4.9282241821289062e+01" cType="1" res="2.3127263411879539e-02" rms="4.5776852965354919e-01" purity="5.6926757097244263e-01" nType="0">
          <Node pos="l" depth="2" NCoef="0" IVar="-1" Cut="0.0000000000000000e+00" cType="1" res="4.0049562230706215e-03" rms="4.5951229333877563e-01" purity="6.1261087656021118e-01" nType="-99"/>
          <Node pos="r" depth="2" NCoef="0" IVar="-1" Cut="0.0000000000000000e+00" cType="1" res="-7.2418898344039917e-03" rms="4.3601852655410767e-01" purity="2.7683976292610168e-01" nType="-99"/>
        </Node>
        <Node pos="r" depth="1" NCoef="0" IVar="1" Cut="1.1377018737792969e+02" cType="1" res="-6.3888788223266602e-02" rms="4.4322001934051514e-01" purity="2.8963005542755127e-01" nType="0">
          <Node pos="l" depth="2" NCoef="0" IVar="-1" Cut="0.0000000000000000e+00" cType="1" res="-8.1535289064049721e-03" rms="4.3852436542510986e-01" purity="2.8030434250831604e-01" nType="-99"/>
          <Node pos="r" depth="2" NCoef="0" IVar="-1" Cut="0.0000000000000000e+00" cType="1" res="3.5290585365146399e-03" rms="4.8672273755073547e-01" purity="4.0299147367477417e-01" nType="-99"/>
        </Node>
      </Node>
    </BinaryTree>
    <BinaryTree type="DecisionTree" boostWeight="1.0000000000000000e+00" itree="45">
      <Node pos="s" depth="0" NCoef="0" IVar="9" Cut="1.0844756364822388e+00" cType="1" res="-5.5883182212710381e-03" rms="4.5802161097526550e-01" purity="4.9608147144317627e-01" nType="0">
        <Node pos="l" depth="1" NCoef="0" IVar="15" Cut="4.4484012603759766e+01" cType="1" res="-6.2709011137485504e-02" rms="4.4370689988136292e-01" purity="3.1489670276641846e-01" nType="0">
          <Node pos="l" depth="2" NCoef="0" IVar="-1" Cut="0.0000000000000000e+00" cType="1" res="-4.8710014671087265e-03" rms="4.6567428112030029e-01" purity="3.6977750062942505e-01" nType="-99"/>
          <Node pos="r" depth="2" NCoef="0" IVar="-1" Cut="0.0000000000000000e+00" cType="1" res="-1.3273470103740692e-02" rms="3.8026905059814453e-01" purity="1.7868448793888092e-01" nType="-99"/>
        </Node>
        <Node pos="r" depth="1" NCoef="0" IVar="15" Cut="1.0107961654663086e+01" cType="1" res="1.2293406762182713e-02" rms="4.6095928549766541e-01" purity="5.5280166864395142e-01" nType="0">
          <Node pos="l" depth="2" NCoef="0" IVar="-1" Cut="0.0000000000000000e+00" cType="1" res="9.6344072371721268e-03" rms="4.1113895177841187e-01" purity="7.6560860872268677e-01" nType="-99"/>
          <Node pos="r" depth="2" NCoef="0" IVar="-1" Cut="0.0000000000000000e+00" cType="1" res="4.6519653551513329e-05" rms="4.6807381510734558e-01" purity="5.1576894521713257e-01" nType="-99"/>
        </Node>
      </Node>
    </BinaryTree>
    <BinaryTree type="DecisionTree" boostWeight="1.0000000000000000e+00" itree="46">
      <Node pos="s" depth="0" NCoef="0" IVar="15" Cut="4.4805541992187500e+01" cType="1" res="3.5264028701931238e-03" rms="4.5591175556182861e-01" purity="5.0382024049758911e-01" nType="0">
        <Node pos="l" depth="1" NCoef="0" IVar="6" Cut="1.2983798980712891e+00" cType="1" res="1.8939783796668053e-02" rms="4.6215900778770447e-01" purity="5.6077635288238525e-01" nType="0">
          <Node pos="l" depth="2" NCoef="0" IVar="-1" Cut="0.0000000000000000e+00" cType="1" res="1.1072515510022640e-02" rms="4.1408392786979675e-01" purity="7.5370150804519653e-01" nType="-99"/>
          <Node pos="r" depth="2" NCoef="0" IVar="-1" Cut="0.0000000000000000e+00" cType="1" res="6.9571880158036947e-04" rms="4.6848598122596741e-01" purity="5.2868133783340454e-01" nType="-99"/>
        </Node>
        <Node pos="r" depth="1" NCoef="0" IVar="6" Cut="1.5697298049926758e+00" cType="1" res="-6.4289495348930359e-02" rms="4.2068570852279663e-01" purity="2.5322425365447998e-01" nType="0">
          <Node pos="l" depth="2" NCoef="0" IVar="-1" Cut="0.0000000000000000e+00" cType="1" res="1.0238710092380643e-03" rms="4.8477178812026978e-01" purity="4.1004669666290283e-01" nType="-99"/>
          <Node pos="r" depth="2" NCoef="0" IVar="-1" Cut="0.0000000000000000e+00" cType="1" res="-1.0148329660296440e-02" rms="4.0083110332489014e-01" purity="2.1379481256008148e-01" nType="-99"/>
        </Node>
      </Node>
    </BinaryTree>
    <BinaryTree type="DecisionTree" boostWeight="1.0000000000000000e+00" itree="47">
      <Node pos="s" depth="0" NCoef="0" IVar="15" Cut="6.1698535919189453e+01" cType="1" res="-1.4611041406169534e-03" rms="4.5517954230308533e-01" purity="4.9953618645668030e-01" nType="0">
        <Node pos="l" depth="1" NCoef="0" IVar="13" Cut="1.3318586730957031e+02" cType="1" res="6.7437686957418919e-03" rms="4.5886728167533875e-01" purity="5.2233850955963135e-01" nType="0">
          <Node pos="l" depth="2" NCoef="0" IVar="-1" Cut="0.0000000000000000e+00" cType="1" res="3.2728277146816254e-03" rms="4.5639806985855103e-01" purity="6.0163426399230957e-01" nType="-99"/>
          <Node pos="r" depth="2" NCoef="0" IVar="-1" Cut="0.0000000000000000e+00" cType="1" res="-3.9488673210144043e-03" rms="4.6056449413299561e-01" purity="3.7098672986030579e-01" nType="-99"/>
        </Node>
        <Node pos="r" depth="1" NCoef="0" IVar="2" Cut="3.9667254686355591e-01" cType="1" res="-1.1363833397626877e-01" rms="3.8418596982955933e-01" purity="1.8778295814990997e-01" nType="0">
          <Node pos="l" depth="2" NCoef="0" IVar="-1" Cut="0.0000000000000000e+00" cType="1" res="-1.6395254060626030e-02" rms="3.6471524834632874e-01" purity="1.6528746485710144e-01" nType="-99"/>
          <Node pos="r" depth="2" NCoef="0" IVar="-1" Cut="0.0000000000000000e+00" cType="1" res="-9.2051262035965919e-03" rms="4.1406774520874023e-01" purity="2.2798399627208710e-01" nType="-99"/>
        </Node>
      </Node>
    </BinaryTree>
    <BinaryTree type="DecisionTree" boostWeight="1.0000000000000000e+00" itree="48">
      <Node pos="s" depth="0" NCoef="0" IVar="4" Cut="1.3278627014160156e+02" cType="1" res="-8.4094712510704994e-03" rms="4.5648679137229919e-01" purity="4.9257093667984009e-01" nType="0">
        <Node pos="l" depth="1" NCoef="0" IVar="15" Cut="2.4634183883666992e+01" cType="1" res="1.1630090884864330e-02" rms="4.5912861824035645e-01" purity="5.6525897979736328e-01" nType="0">
          <Node pos="l" depth="2" NCoef="0" IVar="-1" Cut="0.0000000000000000e+00" cType="1" res="4.6350355260074139e-03" rms="4.4219386577606201e-01" purity="7.0368337631225586e-01" nType="-99"/>
          <Node pos="r" depth="2" NCoef="0" IVar="-1" Cut="0.0000000000000000e+00" cType="1" res="-1.7019485821947455e-03" rms="4.7352540493011475e-01" purity="4.2980828881263733e-01" nType="-99"/>
        </Node>
        <Node pos="r" depth="1" NCoef="0" IVar="13" Cut="1.2408118438720703e+02" cType="1" res="-5.4520528763532639e-02" rms="4.4694969058036804e-01" purity="3.2531568408012390e-01" nType="0">
          <Node pos="l" depth="2" NCoef="0" IVar="-1" Cut="0.0000000000000000e+00" cType="1" res="-9.6140481764450669e-04" rms="4.6395131945610046e-01" purity="4.1672331094741821e-01" nType="-99"/>
          <Node pos="r" depth="2" NCoef="0" IVar="-1" Cut="0.0000000000000000e+00" cType="1" res="-8.8382251560688019e-03" rms="4.3633216619491577e-01" purity="2.7936282753944397e-01" nType="-99"/>
        </Node>
      </Node>
    </BinaryTree>
    <BinaryTree type="DecisionTree" boostWeight="1.0000000000000000e+00" itree="49">
      <Node pos="s" depth="0" NCoef="0" IVar="0" Cut="5.2957054138183594e+01" cType="1" res="1.9031142583116889e-03" rms="4.5475569367408752e-01" purity="5.0152105093002319e-01" nType="0">
        <Node pos="l" depth="1" NCoef="0" IVar="15" Cut="1.5784405708312988e+01" cType="1" res="4.4187504798173904e-02" rms="4.3729978799819946e-01" purity="6.8457818031311035e-01" nType="0">
          <Node pos="l" depth="2" NCoef="0" IVar="-1" Cut="0.0000000000000000e+00" cType="1" res="1.3567153364419937e-02" rms="3.5346594452857971e-01" purity="8.5117441415786743e-01" nType="-99"/>
          <Node pos="r" depth="2" NCoef="0" IVar="-1" Cut="0.0000000000000000e+00" cType="1" res="1.9552966114133596e-03" rms="4.6848240494728088e-01" purity="6.0804694890975952e-01" nType="-99"/>
        </Node>
        <Node pos="r" depth="1" NCoef="0" IVar="15" Cut="1.0556036949157715e+01" cType="1" res="-2.0942443981766701e-02" rms="4.6230718493461609e-01" purity="4.0261828899383545e-01" nType="0">
          <Node pos="l" depth="2" NCoef="0" IVar="-1" Cut="0.0000000000000000e+00" cType="1" res="4.6516121365129948e-03" rms="4.6744585037231445e-01" purity="6.4999198913574219e-01" nType="-99"/>
          <Node pos="r" depth="2" NCoef="0" IVar="-1" Cut="0.0000000000000000e+00" cType="1" res="-3.3556777052581310e-03" rms="4.6086159348487854e-01" purity="3.6774152517318726e-01" nType="-99"/>
        </Node>
      </Node>
    </BinaryTree>
    <BinaryTree type="DecisionTree" boostWeight="1.0000000000000000e+00" itree="50">
      <Node pos="s" depth="0" NCoef="0" IVar="15" Cut="1.5570523262023926e+01" cType="1" res="-1.1126482859253883e-03" rms="4.5575466752052307e-01" purity="4.9920427799224854e-01" nType="0">
        <Node pos="l" depth="1" NCoef="0" IVar="13" Cut="1.4524905395507812e+02" cType="1" res="4.6919479966163635e-02" rms="4.3510022759437561e-01" purity="7.0195698738098145e-01" nType="0">
          <Node pos="l" depth="2" NCoef="0" IVar="-1" Cut="0.0000000000000000e+00" cType="1" res="8.4146801382303238e-03" rms="4.1406890749931335e-01" purity="7.6330786943435669e-01" nType="-99"/>
          <Node pos="r" depth="2" NCoef="0" IVar="-1" Cut="0.0000000000000000e+00" cType="1" res="-2.8573493473231792e-03" rms="4.9247848987579346e-01" purity="4.9415940046310425e-01" nType="-99"/>
        </Node>
        <Node pos="r" depth="1" NCoef="0" IVar="15" Cut="6.2503353118896484e+01" cType="1" res="-1.8397657200694084e-02" rms="4.6174111962318420e-01" purity="4.2624095082283020e-01" nType="0">
          <Node pos="l" depth="2" NCoef="0" IVar="-1" Cut="0.0000000000000000e+00" cType="1" res="-1.2210402637720108e-03" rms="4.6730098128318787e-01" purity="4.4741308689117432e-01" nType="-99"/>
          <Node pos="r" depth="2" NCoef="0" IVar="-1" Cut="0.0000000000000000e+00" cType="1" res="-1.2797094881534576e-02" rms="3.8315680623054504e-01" purity="1.8566690385341644e-01" nType="-99"/>
        </Node>
      </Node>
    </BinaryTree>
    <BinaryTree type="DecisionTree" boostWeight="1.0000000000000000e+00" itree="51">
      <Node pos="s" depth="0" NCoef="0" IVar="0" Cut="4.7390983581542969e+01" cType="1" res="-4.9905125051736832e-03" rms="4.5439609885215759e-01" purity="4.9486771225929260e-01" nType="0">
        <Node pos="l" depth="1" NCoef="0" IVar="9" Cut="2.3836116790771484e+00" cType="1" res="4.7113128006458282e-02" rms="4.3357601761817932e-01" purity="7.0178669691085815e-01" nType="0">
          <Node pos="l" depth="2" NCoef="0" IVar="-1" Cut="0.0000000000000000e+00" cType="1" res="2.6802800130099058e-03" rms="4.5431438088417053e-01" purity="6.4747226238250732e-01" nType="-99"/>
          <Node pos="r" depth="2" NCoef="0" IVar="-1" Cut="0.0000000000000000e+00" cType="1" res="1.1128873564302921e-02" rms="3.9108514785766602e-01" purity="7.9712700843811035e-01" nType="-99"/>
        </Node>
        <Node pos="r" depth="1" NCoef="0" IVar="15" Cut="5.8118335723876953e+01" cType="1" res="-2.3236131295561790e-02" rms="4.6007198095321655e-01" purity="4.2240893840789795e-01" nType="0">
          <Node pos="l" depth="2" NCoef="0" IVar="-1" Cut="0.0000000000000000e+00" cType="1" res="-1.6381009481847286e-03" rms="4.6790382266044617e-01" purity="4.4875547289848328e-01" nType="-99"/>
          <Node pos="r" depth="2" NCoef="0" IVar="-1" Cut="0.0000000000000000e+00" cType="1" res="-1.3784995302557945e-02" rms="3.6322209239006042e-01" purity="1.6095952689647675e-01" nType="-99"/>
        </Node>
      </Node>
    </BinaryTree>
    <BinaryTree type="DecisionTree" boostWeight="1.0000000000000000e+00" itree="52">
      <Node pos="s" depth="0" NCoef="0" IVar="15" Cut="1.3896750450134277e+01" cType="1" res="-1.0421901242807508e-03" rms="4.5365715026855469e-01" purity="4.9910888075828552e-01" nType="0">
        <Node pos="l" depth="1" NCoef="0" IVar="13" Cut="1.5038832092285156e+02" cType="1" res="5.0999872386455536e-02" rms="4.2820277810096741e-01" purity="7.1408629417419434e-01" nType="0">
          <Node pos="l" depth="2" NCoef="0" IVar="-1" Cut="0.0000000000000000e+00" cType="1" res="8.8914101943373680e-03" rms="4.0776011347770691e-01" purity="7.7249759435653687e-01" nType="-99"/>
          <Node pos="r" depth="2" NCoef="0" IVar="-1" Cut="0.0000000000000000e+00" cType="1" res="-3.2813858706504107e-03" rms="4.9195158481597900e-01" purity="4.8388499021530151e-01" nType="-99"/>
        </Node>
        <Node pos="r" depth="1" NCoef="0" IVar="0" Cut="8.8033500671386719e+01" cType="1" res="-1.6075184568762779e-02" rms="4.5965269207954407e-01" purity="4.3700996041297913e-01" nType="0">
          <Node pos="l" depth="2" NCoef="0" IVar="-1" Cut="0.0000000000000000e+00" cType="1" res="-4.8379279178334400e-05" rms="4.7097462415695190e-01" purity="5.0866192579269409e-01" nType="-99"/>
          <Node pos="r" depth="2" NCoef="0" IVar="-1" Cut="0.0000000000000000e+00" cType="1" res="-6.7446664907038212e-03" rms="4.2651876807212830e-01" purity="2.5262269377708435e-01" nType="-99"/>
        </Node>
      </Node>
    </BinaryTree>
    <BinaryTree type="DecisionTree" boostWeight="1.0000000000000000e+00" itree="53">
      <Node pos="s" depth="0" NCoef="0" IVar="4" Cut="5.6378765106201172e+01" cType="1" res="2.2234041243791580e-03" rms="4.5409217476844788e-01" purity="5.0231838226318359e-01" nType="0">
        <Node pos="l" depth="1" NCoef="0" IVar="14" Cut="7.5375938415527344e+01" cType="1" res="5.1862865686416626e-02" rms="4.3743991851806641e-01" purity="6.9387924671173096e-01" nType="0">
          <Node pos="l" depth="2" NCoef="0" IVar="-1" Cut="0.0000000000000000e+00" cType="1" res="8.2892755744978786e-04" rms="4.5077329874038696e-01" purity="6.5094196796417236e-01" nType="-99"/>
          <Node pos="r" depth="2" NCoef="0" IVar="-1" Cut="0.0000000000000000e+00" cType="1" res="1.0141967795789242e-02" rms="4.2361056804656982e-01" purity="7.2704994678497314e-01" nType="-99"/>
        </Node>
        <Node pos="r" depth="1" NCoef="0" IVar="5" Cut="8.9968795776367188e+01" cType="1" res="-1.1522044427692890e-02" rms="4.5764547586441040e-01" purity="4.4927412271499634e-01" nType="0">
          <Node pos="l" depth="2" NCoef="0" IVar="-1" Cut="0.0000000000000000e+00" cType="1" res="1.0221228876616806e-05" rms="4.6118253469467163e-01" purity="4.8157131671905518e-01" nType="-99"/>
          <Node pos="r" depth="2" NCoef="0" IVar="-1" Cut="0.0000000000000000e+00" cType="1" res="-8.8328849524259567e-03" rms="4.3182411789894104e-01" purity="2.6984113454818726e-01" nType="-99"/>
        </Node>
      </Node>
    </BinaryTree>
    <BinaryTree type="DecisionTree" boostWeight="1.0000000000000000e+00" itree="54">
      <Node pos="s" depth="0" NCoef="0" IVar="15" Cut="3.3287448883056641e+01" cType="1" res="5.1156599074602127e-03" rms="4.5269364118576050e-01" purity="5.0487703084945679e-01" nType="0">
        <Node pos="l" depth="1" NCoef="0" IVar="13" Cut="1.4248396301269531e+02" cType="1" res="2.6153666898608208e-02" rms="4.5587360858917236e-01" purity="6.0564750432968140e-01" nType="0">
          <Node pos="l" depth="2" NCoef="0" IVar="-1" Cut="0.0000000000000000e+00" cType="1" res="4.8862090334296227e-03" rms="4.4658651947975159e-01" purity="6.7521488666534424e-01" nType="-99"/>
          <Node pos="r" depth="2" NCoef="0" IVar="-1" Cut="0.0000000000000000e+00" cType="1" res="-1.8415343947708607e-03" rms="4.7737920284271240e-01" purity="4.1755098104476929e-01" nType="-99"/>
        </Node>
        <Node pos="r" depth="1" NCoef="0" IVar="15" Cut="6.6388671875000000e+01" cType="1" res="-3.4954629838466644e-02" rms="4.4382420182228088e-01" purity="3.1294330954551697e-01" nType="0">
          <Node pos="l" depth="2" NCoef="0" IVar="-1" Cut="0.0000000000000000e+00" cType="1" res="-2.7652001008391380e-03" rms="4.5241856575012207e-01" purity="3.3414408564567566e-01" nType="-99"/>
          <Node pos="r" depth="2" NCoef="0" IVar="-1" Cut="0.0000000000000000e+00" cType="1" res="-1.3682842254638672e-02" rms="3.7363648414611816e-01" purity="1.7161729931831360e-01" nType="-99"/>
        </Node>
      </Node>
    </BinaryTree>
    <BinaryTree type="DecisionTree" boostWeight="1.0000000000000000e+00" itree="55">
      <Node pos="s" depth="0" NCoef="0" IVar="0" Cut="8.7100616455078125e+01" cType="1" res="4.7211740165948868e-03" rms="4.5379123091697693e-01" purity="5.0690060853958130e-01" nType="0">
        <Node pos="l" depth="1" NCoef="0" IVar="12" Cut="2.8398137092590332e+00" cType="1" res="2.1536467596888542e-02" rms="4.5731538534164429e-01" purity="5.8362728357315063e-01" nType="0">
          <Node pos="l" depth="2" NCoef="0" IVar="-1" Cut="0.0000000000000000e+00" cType="1" res="-6.3076894730329514e-04" rms="4.7497686743736267e-01" purity="4.6435225009918213e-01" nType="-99"/>
          <Node pos="r" depth="2" NCoef="0" IVar="-1" Cut="0.0000000000000000e+00" cType="1" res="5.0576175563037395e-03" rms="4.4159999489784241e-01" purity="6.7828387022018433e-01" nType="-99"/>
        </Node>
        <Node pos="r" depth="1" NCoef="0" IVar="15" Cut="4.0430324554443359e+01" cType="1" res="-4.1540469974279404e-02" rms="4.4065269827842712e-01" purity="2.9581284523010254e-01" nType="0">
          <Node pos="l" depth="2" NCoef="0" IVar="-1" Cut="0.0000000000000000e+00" cType="1" res="-2.6548162568360567e-03" rms="4.6893611550331116e-01" purity="3.5464188456535339e-01" nType="-99"/>
          <Node pos="r" depth="2" NCoef="0" IVar="-1" Cut="0.0000000000000000e+00" cType="1" res="-1.1437865905463696e-02" rms="3.6118951439857483e-01" purity="1.5562997758388519e-01" nType="-99"/>
        </Node>
      </Node>
    </BinaryTree>
    <BinaryTree type="DecisionTree" boostWeight="1.0000000000000000e+00" itree="56">
      <Node pos="s" depth="0" NCoef="0" IVar="15" Cut="9.5591468811035156e+00" cType="1" res="-1.4397298218682408e-03" rms="4.5352980494499207e-01" purity="4.9841445684432983e-01" nType="0">
        <Node pos="l" depth="1" NCoef="0" IVar="9" Cut="9.1718488931655884e-01" cType="1" res="7.0020467042922974e-02" rms="4.1210100054740906e-01" purity="7.5200772285461426e-01" nType="0">
          <Node pos="l" depth="2" NCoef="0" IVar="-1" Cut="0.0000000000000000e+00" cType="1" res="-3.2911072485148907e-03" rms="4.9574479460716248e-01" purity="5.0742214918136597e-01" nType="-99"/>
          <Node pos="r" depth="2" NCoef="0" IVar="-1" Cut="0.0000000000000000e+00" cType="1" res="1.0657045990228653e-02" rms="3.9567580819129944e-01" purity="7.8891372680664062e-01" nType="-99"/>
        </Node>
        <Node pos="r" depth="1" NCoef="0" IVar="4" Cut="4.9103267669677734e+01" cType="1" res="-1.1567077599465847e-02" rms="4.5819798111915588e-01" purity="4.6247521042823792e-01" nType="0">
          <Node pos="l" depth="2" NCoef="0" IVar="-1" Cut="0.0000000000000000e+00" cType="1" res="5.6426427327096462e-03" rms="4.4141843914985657e-01" purity="6.8188476562500000e-01" nType="-99"/>
          <Node pos="r" depth="2" NCoef="0" IVar="-1" Cut="0.0000000000000000e+00" cType="1" res="-2.5947925169020891e-03" rms="4.6040669083595276e-01" purity="4.2122897505760193e-01" nType="-99"/>
        </Node>
      </Node>
    </BinaryTree>
    <BinaryTree type="DecisionTree" boostWeight="1.0000000000000000e+00" itree="57">
      <Node pos="s" depth="0" NCoef="0" IVar="4" Cut="1.3966661071777344e+02" cType="1" res="8.9906228822655976e-05" rms="4.5379406213760376e-01" purity="5.0147134065628052e-01" nType="0">
        <Node pos="l" depth="1" NCoef="0" IVar="15" Cut="5.8846683502197266e+01" cType="1" res="1.5502658672630787e-02" rms="4.5674797892570496e-01" purity="5.6863212585449219e-01" nType="0">
          <Node pos="l" depth="2" NCoef="0" IVar="-1" Cut="0.0000000000000000e+00" cType="1" res="2.5309477932751179e-03" rms="4.5874193310737610e-01" purity="5.9418040513992310e-01" nType="-99"/>
          <Node pos="r" depth="2" NCoef="0" IVar="-1" Cut="0.0000000000000000e+00" cType="1" res="-8.5410289466381073e-03" rms="4.2058950662612915e-01" purity="2.3754847049713135e-01" nType="-99"/>
        </Node>
        <Node pos="r" depth="1" NCoef="0" IVar="15" Cut="1.0146013259887695e+01" cType="1" res="-4.0459837764501572e-02" rms="4.4337734580039978e-01" purity="3.2477644085884094e-01" nType="0">
          <Node pos="l" depth="2" NCoef="0" IVar="-1" Cut="0.0000000000000000e+00" cType="1" res="7.4817044660449028e-03" rms="4.7475418448448181e-01" purity="6.2631946802139282e-01" nType="-99"/>
          <Node pos="r" depth="2" NCoef="0" IVar="-1" Cut="0.0000000000000000e+00" cType="1" res="-6.2801665626466274e-03" rms="4.3774572014808655e-01" purity="2.8997293114662170e-01" nType="-99"/>
        </Node>
      </Node>
    </BinaryTree>
    <BinaryTree type="DecisionTree" boostWeight="1.0000000000000000e+00" itree="58">
      <Node pos="s" depth="0" NCoef="0" IVar="4" Cut="6.3256481170654297e+01" cType="1" res="-8.3012401591986418e-04" rms="4.5543438196182251e-01" purity="5.0244182348251343e-01" nType="0">
        <Node pos="l" depth="1" NCoef="0" IVar="13" Cut="7.8602188110351562e+01" cType="1" res="3.8545496761798859e-02" rms="4.4314557313919067e-01" purity="6.8446505069732666e-01" nType="0">
          <Node pos="l" depth="2" NCoef="0" IVar="-1" Cut="0.0000000000000000e+00" cType="1" res="-1.9677747040987015e-03" rms="4.6202573180198669e-01" purity="6.3723528385162354e-01" nType="-99"/>
          <Node pos="r" depth="2" NCoef="0" IVar="-1" Cut="0.0000000000000000e+00" cType="1" res="6.4163915812969208e-03" rms="4.3641641736030579e-01" purity="6.9780451059341431e-01" nType="-99"/>
        </Node>
        <Node pos="r" depth="1" NCoef="0" IVar="15" Cut="6.1797080039978027e+00" cType="1" res="-1.5822017565369606e-02" rms="4.5914021134376526e-01" purity="4.3313819169998169e-01" nType="0">
          <Node pos="l" depth="2" NCoef="0" IVar="-1" Cut="0.0000000000000000e+00" cType="1" res="1.0257167741656303e-02" rms="4.2846071720123291e-01" purity="7.4567508697509766e-01" nType="-99"/>
          <Node pos="r" depth="2" NCoef="0" IVar="-1" Cut="0.0000000000000000e+00" cType="1" res="-2.4991759564727545e-03" rms="4.6014496684074402e-01" purity="4.1470283269882202e-01" nType="-99"/>
        </Node>
      </Node>
    </BinaryTree>
    <BinaryTree type="DecisionTree" boostWeight="1.0000000000000000e+00" itree="59">
      <Node pos="s" depth="0" NCoef="0" IVar="14" Cut="5.3864650726318359e+01" cType="1" res="-1.4298899332061410e-03" rms="4.5330050587654114e-01" purity="4.9873411655426025e-01" nType="0">
        <Node pos="l" depth="1" NCoef="0" IVar="15" Cut="1.6044210433959961e+01" cType="1" res="-3.9572432637214661e-02" rms="4.5396956801414490e-01" purity="3.9896005392074585e-01" nType="0">
          <Node pos="l" depth="2" NCoef="0" IVar="-1" Cut="0.0000000000000000e+00" cType="1" res="1.0556710185483098e-03" rms="4.6774315834045410e-01" purity="6.1632460355758667e-01" nType="-99"/>
          <Node pos="r" depth="2" NCoef="0" IVar="-1" Cut="0.0000000000000000e+00" cType="1" res="-6.4303139224648476e-03" rms="4.4818505644798279e-01" purity="3.2757124304771423e-01" nType="-99"/>
        </Node>
        <Node pos="r" depth="1" NCoef="0" IVar="5" Cut="8.4633148193359375e+01" cType="1" res="1.3446855358779430e-02" rms="4.5216792821884155e-01" purity="5.3764897584915161e-01" nType="0">
          <Node pos="l" depth="2" NCoef="0" IVar="-1" Cut="0.0000000000000000e+00" cType="1" res="3.0715751927345991e-03" rms="4.5057043433189392e-01" purity="5.8221781253814697e-01" nType="-99"/>
          <Node pos="r" depth="2" NCoef="0" IVar="-1" Cut="0.0000000000000000e+00" cType="1" res="-4.4385031796991825e-03" rms="4.5477288961410522e-01" purity="3.5860350728034973e-01" nType="-99"/>
        </Node>
      </Node>
    </BinaryTree>
    <BinaryTree type="DecisionTree" boostWeight="1.0000000000000000e+00" itree="60">
      <Node pos="s" depth="0" NCoef="0" IVar="15" Cut="2.4176944732666016e+01" cType="1" res="4.7331587411463261e-03" rms="4.5333418250083923e-01" purity="5.0470352172851562e-01" nType="0">
        <Node pos="l" depth="1" NCoef="0" IVar="5" Cut="8.7944053649902344e+01" cType="1" res="3.0932493507862091e-02" rms="4.4857054948806763e-01" purity="6.5566956996917725e-01" nType="0">
          <Node pos="l" depth="2" NCoef="0" IVar="-1" Cut="0.0000000000000000e+00" cType="1" res="4.8813153989613056e-03" rms="4.4229221343994141e-01" purity="6.8627268075942993e-01" nType="-99"/>
          <Node pos="r" depth="2" NCoef="0" IVar="-1" Cut="0.0000000000000000e+00" cType="1" res="-5.0118896178901196e-03" rms="4.8543623089790344e-01" purity="4.2879077792167664e-01" nType="-99"/>
        </Node>
        <Node pos="r" depth="1" NCoef="0" IVar="7" Cut="1.1271032094955444e+00" cType="1" res="-1.7898276448249817e-02" rms="4.5619955658912659e-01" purity="3.7429639697074890e-01" nType="0">
          <Node pos="l" depth="2" NCoef="0" IVar="-1" Cut="0.0000000000000000e+00" cType="1" res="2.9889005236327648e-03" rms="4.7474157810211182e-01" purity="5.3669792413711548e-01" nType="-99"/>
          <Node pos="r" depth="2" NCoef="0" IVar="-1" Cut="0.0000000000000000e+00" cType="1" res="-3.5021896474063396e-03" rms="4.5039349794387817e-01" purity="3.3138048648834229e-01" nType="-99"/>
        </Node>
      </Node>
    </BinaryTree>
    <BinaryTree type="DecisionTree" boostWeight="1.0000000000000000e+00" itree="61">
      <Node pos="s" depth="0" NCoef="0" IVar="1" Cut="4.2084564208984375e+01" cType="1" res="-8.8271748973056674e-04" rms="4.5299035310745239e-01" purity="4.9898266792297363e-01" nType="0">
        <Node pos="l" depth="1" NCoef="0" IVar="15" Cut="5.2309879302978516e+01" cType="1" res="1.5803707763552666e-02" rms="4.5221281051635742e-01" purity="5.7056081295013428e-01" nType="0">
          <Node pos="l" depth="2" NCoef="0" IVar="-1" Cut="0.0000000000000000e+00" cType="1" res="2.7581390459090471e-03" rms="4.5374459028244019e-01" purity="6.0675752162933350e-01" nType="-99"/>
          <Node pos="r" depth="2" NCoef="0" IVar="-1" Cut="0.0000000000000000e+00" cType="1" res="-6.1760325916111469e-03" rms="4.3323183059692383e-01" purity="2.6609009504318237e-01" nType="-99"/>
        </Node>
        <Node pos="r" depth="1" NCoef="0" IVar="7" Cut="1.7134712934494019e+00" cType="1" res="-3.3031120896339417e-02" rms="4.5275416970252991e-01" purity="3.6107888817787170e-01" nType="0">
