<?xml version="1.0"?>
<MethodSetup Method="BDT::BDTG4SK01F07">
  <GeneralInfo>
    <Info name="TMVA Release" value="4.2.1 [262657]"/>
    <Info name="ROOT Release" value="6.20/07 [398343]"/>
    <Info name="Creator" value="ssaumya"/>
    <Info name="Date" value="Mon Jul 19 22:44:12 2021"/>
    <Info name="Host" value="Linux cmsbuild09.cern.ch 3.10.0-1062.9.1.el7.x86_64 #1 SMP Fri Dec 6 15:49:49 UTC 2019 x86_64 x86_64 x86_64 GNU/Linux"/>
    <Info name="Dir" value="/afs/cern.ch/user/s/ssaumya/Projects/WW_Analysis_Work/WW_Cuts_Optimization/CMSSW_11_1_3/src/PlotsConfigurations/Configurations/WW/FullRunII/Full2017_v7/BDT_Training_0j"/>
    <Info name="Training events" value="61644"/>
    <Info name="TrainingTime" value="4.89116251e+01"/>
    <Info name="AnalysisType" value="Classification"/>
  </GeneralInfo>
  <Options>
    <Option name="V" modified="Yes">False</Option>
    <Option name="VerbosityLevel" modified="No">Default</Option>
    <Option name="VarTransform" modified="No">None</Option>
    <Option name="H" modified="Yes">False</Option>
    <Option name="CreateMVAPdfs" modified="No">False</Option>
    <Option name="IgnoreNegWeightsInTraining" modified="No">False</Option>
    <Option name="NTrees" modified="Yes">500</Option>
    <Option name="MaxDepth" modified="Yes">2</Option>
    <Option name="MinNodeSize" modified="Yes">1.5%</Option>
    <Option name="nCuts" modified="Yes">500</Option>
    <Option name="BoostType" modified="Yes">Grad</Option>
    <Option name="AdaBoostR2Loss" modified="No">quadratic</Option>
    <Option name="UseBaggedBoost" modified="Yes">True</Option>
    <Option name="Shrinkage" modified="Yes">1.000000e-02</Option>
    <Option name="AdaBoostBeta" modified="No">5.000000e-01</Option>
    <Option name="UseRandomisedTrees" modified="No">False</Option>
    <Option name="UseNvars" modified="No">4</Option>
    <Option name="UsePoissonNvars" modified="No">True</Option>
    <Option name="BaggedSampleFraction" modified="No">7.000000e-01</Option>
    <Option name="UseYesNoLeaf" modified="No">True</Option>
    <Option name="NegWeightTreatment" modified="No">pray</Option>
    <Option name="Css" modified="No">1.000000e+00</Option>
    <Option name="Cts_sb" modified="No">1.000000e+00</Option>
    <Option name="Ctb_ss" modified="No">1.000000e+00</Option>
    <Option name="Cbb" modified="No">1.000000e+00</Option>
    <Option name="NodePurityLimit" modified="No">5.000000e-01</Option>
    <Option name="SeparationType" modified="No">giniindex</Option>
    <Option name="RegressionLossFunctionBDTG" modified="No">huber</Option>
    <Option name="HuberQuantile" modified="No">7.000000e-01</Option>
    <Option name="DoBoostMonitor" modified="No">False</Option>
    <Option name="UseFisherCuts" modified="No">False</Option>
    <Option name="MinLinCorrForFisher" modified="No">8.000000e-01</Option>
    <Option name="UseExclusiveVars" modified="No">False</Option>
    <Option name="DoPreselection" modified="No">False</Option>
    <Option name="SigToBkgFraction" modified="No">1.000000e+00</Option>
    <Option name="PruneMethod" modified="No">nopruning</Option>
    <Option name="PruneStrength" modified="No">0.000000e+00</Option>
    <Option name="PruningValFraction" modified="No">5.000000e-01</Option>
    <Option name="SkipNormalization" modified="No">False</Option>
    <Option name="nEventsMin" modified="No">0</Option>
    <Option name="UseBaggedGrad" modified="No">False</Option>
    <Option name="GradBaggingFraction" modified="Yes">7.000000e-01</Option>
    <Option name="UseNTrainEvents" modified="No">0</Option>
    <Option name="NNodesMax" modified="No">0</Option>
  </Options>
  <Variables NVar="16">
    <Variable VarIndex="0" Expression="pt1" Label="pt1" Title="pt1" Unit="" Internal="pt1" Type="F" Min="2.50079403e+01" Max="9.59502686e+02"/>
    <Variable VarIndex="1" Expression="pt2" Label="pt2" Title="pt2" Unit="" Internal="pt2" Type="F" Min="2.00009155e+01" Max="5.23575989e+02"/>
    <Variable VarIndex="2" Expression="Lepton_eta[0]" Label="Lepton_eta[0]" Title="Lepton_eta[0]" Unit="" Internal="Lepton_eta_0_" Type="F" Min="-2.49755859e+00" Max="2.49951172e+00"/>
    <Variable VarIndex="3" Expression="Lepton_eta[1]" Label="Lepton_eta[1]" Title="Lepton_eta[1]" Unit="" Internal="Lepton_eta_1_" Type="F" Min="-2.49951172e+00" Max="2.49804688e+00"/>
    <Variable VarIndex="4" Expression="mll" Label="mll" Title="mll" Unit="" Internal="mll" Type="F" Min="2.00012894e+01" Max="1.18191296e+03"/>
    <Variable VarIndex="5" Expression="ptll" Label="ptll" Title="ptll" Unit="" Internal="ptll" Type="F" Min="3.00008240e+01" Max="8.35666870e+02"/>
    <Variable VarIndex="6" Expression="drll" Label="drll" Title="drll" Unit="" Internal="drll" Type="F" Min="3.59090954e-01" Max="5.45489120e+00"/>
    <Variable VarIndex="7" Expression="dphill" Label="dphill" Title="dphill" Unit="" Internal="dphill" Type="F" Min="0.00000000e+00" Max="3.14158368e+00"/>
    <Variable VarIndex="8" Expression="PuppiMET_pt" Label="PuppiMET_pt" Title="PuppiMET_pt" Unit="" Internal="PuppiMET_pt" Type="F" Min="2.00002460e+01" Max="8.72930054e+02"/>
    <Variable VarIndex="9" Expression="dphilmet" Label="dphilmet" Title="dphilmet" Unit="" Internal="dphilmet" Type="F" Min="0.00000000e+00" Max="3.13800073e+00"/>
    <Variable VarIndex="10" Expression="dphilmet1" Label="dphilmet1" Title="dphilmet1" Unit="" Internal="dphilmet1" Type="F" Min="1.47446990e-03" Max="3.14159060e+00"/>
    <Variable VarIndex="11" Expression="dphilmet2" Label="dphilmet2" Title="dphilmet2" Unit="" Internal="dphilmet2" Type="F" Min="0.00000000e+00" Max="3.14139700e+00"/>
    <Variable VarIndex="12" Expression="dphillmet" Label="dphillmet" Title="dphillmet" Unit="" Internal="dphillmet" Type="F" Min="9.38951038e-03" Max="3.14159226e+00"/>
    <Variable VarIndex="13" Expression="mtw1" Label="mtw1" Title="mtw1" Unit="" Internal="mtw1" Type="F" Min="9.84271467e-02" Max="1.81362610e+03"/>
    <Variable VarIndex="14" Expression="mtw2" Label="mtw2" Title="mtw2" Unit="" Internal="mtw2" Type="F" Min="0.00000000e+00" Max="5.07289246e+02"/>
    <Variable VarIndex="15" Expression="pTWW" Label="pTWW" Title="pTWW" Unit="" Internal="pTWW" Type="F" Min="7.89643377e-02" Max="4.58148956e+02"/>
  </Variables>
  <Spectators NSpec="0"/>
  <Classes NClass="2">
    <Class Name="Signal" Index="0"/>
    <Class Name="Background" Index="1"/>
  </Classes>
  <Transformations NTransformations="0"/>
  <MVAPdfs/>
  <Weights NTrees="500" AnalysisType="1">
    <BinaryTree type="DecisionTree" boostWeight="1.0000000000000000e+00" itree="0">
      <Node pos="s" depth="0" NCoef="0" IVar="15" Cut="2.4759590148925781e+01" cType="1" res="-3.4787433687597513e-03" rms="4.9998790025711060e-01" purity="4.9652123451232910e-01" nType="0">
        <Node pos="l" depth="1" NCoef="0" IVar="0" Cut="6.8012557983398438e+01" cType="1" res="1.4060132205486298e-01" rms="4.7982421517372131e-01" purity="6.4060127735137939e-01" nType="0">
          <Node pos="l" depth="2" NCoef="0" IVar="-1" Cut="0.0000000000000000e+00" cType="1" res="4.8842518590390682e-03" rms="4.3630290031433105e-01" purity="7.4421262741088867e-01" nType="-99"/>
          <Node pos="r" depth="2" NCoef="0" IVar="-1" Cut="0.0000000000000000e+00" cType="1" res="-4.2425654828548431e-04" rms="4.9954980611801147e-01" purity="4.7878715395927429e-01" nType="-99"/>
        </Node>
        <Node pos="r" depth="1" NCoef="0" IVar="0" Cut="6.0447860717773438e+01" cType="1" res="-1.3480147719383240e-01" rms="4.8148578405380249e-01" purity="3.6519849300384521e-01" nType="0">
          <Node pos="l" depth="2" NCoef="0" IVar="-1" Cut="0.0000000000000000e+00" cType="1" res="1.7159314302261919e-04" rms="4.9992638826370239e-01" purity="5.0857967138290405e-01" nType="-99"/>
          <Node pos="r" depth="2" NCoef="0" IVar="-1" Cut="0.0000000000000000e+00" cType="1" res="-4.7322968021035194e-03" rms="4.4046953320503235e-01" purity="2.6338514685630798e-01" nType="-99"/>
        </Node>
      </Node>
    </BinaryTree>
    <BinaryTree type="DecisionTree" boostWeight="1.0000000000000000e+00" itree="1">
      <Node pos="s" depth="0" NCoef="0" IVar="0" Cut="6.1681461334228516e+01" cType="1" res="-2.4737049825489521e-03" rms="4.9931085109710693e-01" purity="4.9748671054840088e-01" nType="0">
        <Node pos="l" depth="1" NCoef="0" IVar="15" Cut="3.0840192794799805e+01" cType="1" res="1.4439363777637482e-01" rms="4.7797712683677673e-01" purity="6.4569920301437378e-01" nType="0">
          <Node pos="l" depth="2" NCoef="0" IVar="-1" Cut="0.0000000000000000e+00" cType="1" res="4.7189430333673954e-03" rms="4.3966233730316162e-01" purity="7.3791337013244629e-01" nType="-99"/>
          <Node pos="r" depth="2" NCoef="0" IVar="-1" Cut="0.0000000000000000e+00" cType="1" res="-7.2080548852682114e-04" rms="4.9868068099021912e-01" purity="4.6395415067672729e-01" nType="-99"/>
        </Node>
        <Node pos="r" depth="1" NCoef="0" IVar="15" Cut="1.9644395828247070e+01" cType="1" res="-1.3501963019371033e-01" rms="4.8072069883346558e-01" purity="3.6372679471969604e-01" nType="0">
          <Node pos="l" depth="2" NCoef="0" IVar="-1" Cut="0.0000000000000000e+00" cType="1" res="8.1368972314521670e-04" rms="4.9823069572448730e-01" purity="5.4090160131454468e-01" nType="-99"/>
          <Node pos="r" depth="2" NCoef="0" IVar="-1" Cut="0.0000000000000000e+00" cType="1" res="-4.3255807831883430e-03" rms="4.4976213574409485e-01" purity="2.8179135918617249e-01" nType="-99"/>
        </Node>
      </Node>
    </BinaryTree>
    <BinaryTree type="DecisionTree" boostWeight="1.0000000000000000e+00" itree="2">
      <Node pos="s" depth="0" NCoef="0" IVar="0" Cut="5.7881198883056641e+01" cType="1" res="3.5394013393670321e-03" rms="4.9864169955253601e-01" purity="5.0350934267044067e-01" nType="0">
        <Node pos="l" depth="1" NCoef="0" IVar="15" Cut="2.9832115173339844e+01" cType="1" res="1.6194178164005280e-01" rms="4.7143894433975220e-01" purity="6.6474246978759766e-01" nType="0">
          <Node pos="l" depth="2" NCoef="0" IVar="-1" Cut="0.0000000000000000e+00" cType="1" res="5.1189474761486053e-03" rms="4.2680102586746216e-01" purity="7.6035124063491821e-01" nType="-99"/>
          <Node pos="r" depth="2" NCoef="0" IVar="-1" Cut="0.0000000000000000e+00" cType="1" res="-1.5172855637501925e-04" rms="4.9990552663803101e-01" purity="4.9228492379188538e-01" nType="-99"/>
        </Node>
        <Node pos="r" depth="1" NCoef="0" IVar="15" Cut="2.5679681777954102e+01" cType="1" res="-1.1359778046607971e-01" rms="4.8567679524421692e-01" purity="3.8427886366844177e-01" nType="0">
          <Node pos="l" depth="2" NCoef="0" IVar="-1" Cut="0.0000000000000000e+00" cType="1" res="2.9494019690901041e-04" rms="4.9944582581520081e-01" purity="5.1501888036727905e-01" nType="-99"/>
          <Node pos="r" depth="2" NCoef="0" IVar="-1" Cut="0.0000000000000000e+00" cType="1" res="-4.4437251053750515e-03" rms="4.4574099779129028e-01" purity="2.7368065714836121e-01" nType="-99"/>
        </Node>
      </Node>
    </BinaryTree>
    <BinaryTree type="DecisionTree" boostWeight="1.0000000000000000e+00" itree="3">
      <Node pos="s" depth="0" NCoef="0" IVar="0" Cut="6.2313117980957031e+01" cType="1" res="1.5272572636604309e-03" rms="4.9796086549758911e-01" purity="5.0153648853302002e-01" nType="0">
        <Node pos="l" depth="1" NCoef="0" IVar="15" Cut="3.0420755386352539e+01" cType="1" res="1.4185459911823273e-01" rms="4.7717818617820740e-01" purity="6.4586251974105835e-01" nType="0">
          <Node pos="l" depth="2" NCoef="0" IVar="-1" Cut="0.0000000000000000e+00" cType="1" res="4.6059093438088894e-03" rms="4.4018021225929260e-01" purity="7.3675650358200073e-01" nType="-99"/>
          <Node pos="r" depth="2" NCoef="0" IVar="-1" Cut="0.0000000000000000e+00" cType="1" res="-5.6616740766912699e-04" rms="4.9903360009193420e-01" purity="4.7089743614196777e-01" nType="-99"/>
        </Node>
        <Node pos="r" depth="1" NCoef="0" IVar="15" Cut="2.6720563888549805e+01" cType="1" res="-1.3153001666069031e-01" rms="4.8042199015617371e-01" purity="3.6468771100044250e-01" nType="0">
          <Node pos="l" depth="2" NCoef="0" IVar="-1" Cut="0.0000000000000000e+00" cType="1" res="-1.7021552775986493e-04" rms="4.9961158633232117e-01" purity="4.9103531241416931e-01" nType="-99"/>
          <Node pos="r" depth="2" NCoef="0" IVar="-1" Cut="0.0000000000000000e+00" cType="1" res="-4.8256982117891312e-03" rms="4.3416622281074524e-01" purity="2.5200867652893066e-01" nType="-99"/>
        </Node>
      </Node>
    </BinaryTree>
    <BinaryTree type="DecisionTree" boostWeight="1.0000000000000000e+00" itree="4">
      <Node pos="s" depth="0" NCoef="0" IVar="0" Cut="6.2922611236572266e+01" cType="1" res="2.3170565254986286e-03" rms="4.9737775325775146e-01" purity="5.0234824419021606e-01" nType="0">
        <Node pos="l" depth="1" NCoef="0" IVar="15" Cut="2.9322280883789062e+01" cType="1" res="1.3376732170581818e-01" rms="4.7883588075637817e-01" purity="6.3895124197006226e-01" nType="0">
          <Node pos="l" depth="2" NCoef="0" IVar="-1" Cut="0.0000000000000000e+00" cType="1" res="4.6468367800116539e-03" rms="4.3781664967536926e-01" purity="7.4104171991348267e-01" nType="-99"/>
          <Node pos="r" depth="2" NCoef="0" IVar="-1" Cut="0.0000000000000000e+00" cType="1" res="-6.2373070977628231e-04" rms="4.9879306554794312e-01" purity="4.6798402070999146e-01" nType="-99"/>
        </Node>
        <Node pos="r" depth="1" NCoef="0" IVar="15" Cut="2.4765371322631836e+01" cType="1" res="-1.2675584852695465e-01" rms="4.8117733001708984e-01" purity="3.6821576952934265e-01" nType="0">
          <Node pos="l" depth="2" NCoef="0" IVar="-1" Cut="0.0000000000000000e+00" cType="1" res="-1.9835952116409317e-05" rms="4.9981370568275452e-01" purity="4.9894547462463379e-01" nType="-99"/>
          <Node pos="r" depth="2" NCoef="0" IVar="-1" Cut="0.0000000000000000e+00" cType="1" res="-4.5010731555521488e-03" rms="4.4187241792678833e-01" purity="2.6611191034317017e-01" nType="-99"/>
        </Node>
      </Node>
    </BinaryTree>
    <BinaryTree type="DecisionTree" boostWeight="1.0000000000000000e+00" itree="5">
      <Node pos="s" depth="0" NCoef="0" IVar="0" Cut="6.2938621520996094e+01" cType="1" res="-3.5801057238131762e-03" rms="4.9664193391799927e-01" purity="4.9637264013290405e-01" nType="0">
        <Node pos="l" depth="1" NCoef="0" IVar="15" Cut="3.1128702163696289e+01" cType="1" res="1.3009165227413177e-01" rms="4.7916695475578308e-01" purity="6.3651221990585327e-01" nType="0">
          <Node pos="l" depth="2" NCoef="0" IVar="-1" Cut="0.0000000000000000e+00" cType="1" res="4.4936505146324635e-03" rms="4.4090008735656738e-01" purity="7.3525130748748779e-01" nType="-99"/>
          <Node pos="r" depth="2" NCoef="0" IVar="-1" Cut="0.0000000000000000e+00" cType="1" res="-9.5975858857855201e-04" rms="4.9741721153259277e-01" purity="4.5040929317474365e-01" nType="-99"/>
        </Node>
        <Node pos="r" depth="1" NCoef="0" IVar="15" Cut="2.3863969802856445e+01" cType="1" res="-1.3566163182258606e-01" rms="4.7791367769241333e-01" purity="3.5790029168128967e-01" nType="0">
          <Node pos="l" depth="2" NCoef="0" IVar="-1" Cut="0.0000000000000000e+00" cType="1" res="9.9466538813430816e-05" rms="4.9979496002197266e-01" purity="5.0502288341522217e-01" nType="-99"/>
          <Node pos="r" depth="2" NCoef="0" IVar="-1" Cut="0.0000000000000000e+00" cType="1" res="-4.6265865676105022e-03" rms="4.3737426400184631e-01" purity="2.5793671607971191e-01" nType="-99"/>
        </Node>
      </Node>
    </BinaryTree>
    <BinaryTree type="DecisionTree" boostWeight="1.0000000000000000e+00" itree="6">
      <Node pos="s" depth="0" NCoef="0" IVar="0" Cut="6.0460956573486328e+01" cType="1" res="-1.4343759976327419e-03" rms="4.9607434868812561e-01" purity="4.9869078397750854e-01" nType="0">
        <Node pos="l" depth="1" NCoef="0" IVar="15" Cut="3.4541229248046875e+01" cType="1" res="1.3657905161380768e-01" rms="4.7657793760299683e-01" purity="6.4491605758666992e-01" nType="0">
          <Node pos="l" depth="2" NCoef="0" IVar="-1" Cut="0.0000000000000000e+00" cType="1" res="4.2305621318519115e-03" rms="4.4674435257911682e-01" purity="7.2350829839706421e-01" nType="-99"/>
          <Node pos="r" depth="2" NCoef="0" IVar="-1" Cut="0.0000000000000000e+00" cType="1" res="-1.2072579702362418e-03" rms="4.9611130356788635e-01" purity="4.3801170587539673e-01" nType="-99"/>
        </Node>
        <Node pos="r" depth="1" NCoef="0" IVar="15" Cut="2.4149564743041992e+01" cType="1" res="-1.2315209209918976e-01" rms="4.8083269596099854e-01" purity="3.6973085999488831e-01" nType="0">
          <Node pos="l" depth="2" NCoef="0" IVar="-1" Cut="0.0000000000000000e+00" cType="1" res="2.5382576859556139e-04" rms="4.9948015809059143e-01" purity="5.1341164112091064e-01" nType="-99"/>
          <Node pos="r" depth="2" NCoef="0" IVar="-1" Cut="0.0000000000000000e+00" cType="1" res="-4.4267661869525909e-03" rms="4.4167786836624146e-01" purity="2.6603949069976807e-01" nType="-99"/>
        </Node>
      </Node>
    </BinaryTree>
    <BinaryTree type="DecisionTree" boostWeight="1.0000000000000000e+00" itree="7">
      <Node pos="s" depth="0" NCoef="0" IVar="0" Cut="6.0455211639404297e+01" cType="1" res="1.8355801003053784e-03" rms="4.9558129906654358e-01" purity="5.0191241502761841e-01" nType="0">
        <Node pos="l" depth="1" NCoef="0" IVar="15" Cut="3.3707569122314453e+01" cType="1" res="1.3633598387241364e-01" rms="4.7595462203025818e-01" purity="6.4589893817901611e-01" nType="0">
          <Node pos="l" depth="2" NCoef="0" IVar="-1" Cut="0.0000000000000000e+00" cType="1" res="4.2827907018363476e-03" rms="4.4431582093238831e-01" purity="7.2837793827056885e-01" nType="-99"/>
          <Node pos="r" depth="2" NCoef="0" IVar="-1" Cut="0.0000000000000000e+00" cType="1" res="-9.8775443620979786e-04" rms="4.9729439616203308e-01" purity="4.4852486252784729e-01" nType="-99"/>
        </Node>
        <Node pos="r" depth="1" NCoef="0" IVar="15" Cut="3.2766738891601562e+01" cType="1" res="-1.1529178172349930e-01" rms="4.8242449760437012e-01" purity="3.7652426958084106e-01" nType="0">
          <Node pos="l" depth="2" NCoef="0" IVar="-1" Cut="0.0000000000000000e+00" cType="1" res="-5.4384296527132392e-04" rms="4.9797371029853821e-01" purity="4.6941170096397400e-01" nType="-99"/>
          <Node pos="r" depth="2" NCoef="0" IVar="-1" Cut="0.0000000000000000e+00" cType="1" res="-5.0349626690149307e-03" rms="4.2262512445449829e-01" purity="2.3292386531829834e-01" nType="-99"/>
        </Node>
      </Node>
    </BinaryTree>
    <BinaryTree type="DecisionTree" boostWeight="1.0000000000000000e+00" itree="8">
      <Node pos="s" depth="0" NCoef="0" IVar="0" Cut="6.9774154663085938e+01" cType="1" res="1.0619494132697582e-03" rms="4.9494433403015137e-01" purity="5.0117421150207520e-01" nType="0">
        <Node pos="l" depth="1" NCoef="0" IVar="15" Cut="3.6280796051025391e+01" cType="1" res="1.0986140370368958e-01" rms="4.8258849978446960e-01" purity="6.1750400066375732e-01" nType="0">
          <Node pos="l" depth="2" NCoef="0" IVar="-1" Cut="0.0000000000000000e+00" cType="1" res="3.6370591260492802e-03" rms="4.5920696854591370e-01" purity="6.9408178329467773e-01" nType="-99"/>
          <Node pos="r" depth="2" NCoef="0" IVar="-1" Cut="0.0000000000000000e+00" cType="1" res="-1.9235493382439017e-03" rms="4.8869651556015015e-01" purity="3.9783477783203125e-01" nType="-99"/>
        </Node>
        <Node pos="r" depth="1" NCoef="0" IVar="15" Cut="1.9664768218994141e+01" cType="1" res="-1.4794714748859406e-01" rms="4.7233057022094727e-01" purity="3.4185168147087097e-01" nType="0">
          <Node pos="l" depth="2" NCoef="0" IVar="-1" Cut="0.0000000000000000e+00" cType="1" res="7.1562382800038904e-05" rms="4.9998721480369568e-01" purity="5.0372666120529175e-01" nType="-99"/>
          <Node pos="r" depth="2" NCoef="0" IVar="-1" Cut="0.0000000000000000e+00" cType="1" res="-4.3832389637827873e-03" rms="4.4125083088874817e-01" purity="2.6601511240005493e-01" nType="-99"/>
        </Node>
      </Node>
    </BinaryTree>
    <BinaryTree type="DecisionTree" boostWeight="1.0000000000000000e+00" itree="9">
      <Node pos="s" depth="0" NCoef="0" IVar="0" Cut="6.2938621520996094e+01" cType="1" res="3.0699060298502445e-03" rms="4.9421274662017822e-01" purity="5.0302487611770630e-01" nType="0">
        <Node pos="l" depth="1" NCoef="0" IVar="15" Cut="3.4835548400878906e+01" cType="1" res="1.3429716229438782e-01" rms="4.7524383664131165e-01" purity="6.4577019214630127e-01" nType="0">
          <Node pos="l" depth="2" NCoef="0" IVar="-1" Cut="0.0000000000000000e+00" cType="1" res="4.1596116498112679e-03" rms="4.4579985737800598e-01" purity="7.2503697872161865e-01" nType="-99"/>
          <Node pos="r" depth="2" NCoef="0" IVar="-1" Cut="0.0000000000000000e+00" cType="1" res="-1.2257545022293925e-03" rms="4.9548345804214478e-01" purity="4.3457615375518799e-01" nType="-99"/>
        </Node>
        <Node pos="r" depth="1" NCoef="0" IVar="15" Cut="2.5525028228759766e+01" cType="1" res="-1.2450586259365082e-01" rms="4.7865128517150879e-01" purity="3.6425152420997620e-01" nType="0">
          <Node pos="l" depth="2" NCoef="0" IVar="-1" Cut="0.0000000000000000e+00" cType="1" res="3.2333446142729372e-05" rms="4.9960529804229736e-01" purity="5.0069242715835571e-01" nType="-99"/>
          <Node pos="r" depth="2" NCoef="0" IVar="-1" Cut="0.0000000000000000e+00" cType="1" res="-4.5216954313218594e-03" rms="4.3547546863555908e-01" purity="2.5473827123641968e-01" nType="-99"/>
        </Node>
      </Node>
    </BinaryTree>
    <BinaryTree type="DecisionTree" boostWeight="1.0000000000000000e+00" itree="10">
      <Node pos="s" depth="0" NCoef="0" IVar="0" Cut="6.0447860717773438e+01" cType="1" res="1.9717258692253381e-04" rms="4.9367278814315796e-01" purity="5.0022113323211670e-01" nType="0">
        <Node pos="l" depth="1" NCoef="0" IVar="15" Cut="3.0420755386352539e+01" cType="1" res="1.3490654528141022e-01" rms="4.7427004575729370e-01" purity="6.4822041988372803e-01" nType="0">
          <Node pos="l" depth="2" NCoef="0" IVar="-1" Cut="0.0000000000000000e+00" cType="1" res="4.4894698075950146e-03" rms="4.3530964851379395e-01" purity="7.4566751718521118e-01" nType="-99"/>
          <Node pos="r" depth="2" NCoef="0" IVar="-1" Cut="0.0000000000000000e+00" cType="1" res="-5.4197770077735186e-04" rms="4.9864408373832703e-01" purity="4.7113046050071716e-01" nType="-99"/>
        </Node>
        <Node pos="r" depth="1" NCoef="0" IVar="15" Cut="2.4122711181640625e+01" cType="1" res="-1.1680728197097778e-01" rms="4.8018077015876770e-01" purity="3.7167349457740784e-01" nType="0">
          <Node pos="l" depth="2" NCoef="0" IVar="-1" Cut="0.0000000000000000e+00" cType="1" res="2.8135644970461726e-04" rms="4.9923133850097656e-01" purity="5.1483887434005737e-01" nType="-99"/>
          <Node pos="r" depth="2" NCoef="0" IVar="-1" Cut="0.0000000000000000e+00" cType="1" res="-4.2350129224359989e-03" rms="4.4245934486389160e-01" purity="2.6822060346603394e-01" nType="-99"/>
        </Node>
      </Node>
    </BinaryTree>
    <BinaryTree type="DecisionTree" boostWeight="1.0000000000000000e+00" itree="11">
      <Node pos="s" depth="0" NCoef="0" IVar="0" Cut="6.0447860717773438e+01" cType="1" res="-1.4387444025487639e-05" rms="4.9293342232704163e-01" purity="4.9995458126068115e-01" nType="0">
        <Node pos="l" depth="1" NCoef="0" IVar="15" Cut="3.5403648376464844e+01" cType="1" res="1.4306585490703583e-01" rms="4.7073096036911011e-01" purity="6.5803736448287964e-01" nType="0">
          <Node pos="l" depth="2" NCoef="0" IVar="-1" Cut="0.0000000000000000e+00" cType="1" res="4.3463236652314663e-03" rms="4.3871384859085083e-01" purity="7.3864644765853882e-01" nType="-99"/>
          <Node pos="r" depth="2" NCoef="0" IVar="-1" Cut="0.0000000000000000e+00" cType="1" res="-1.3460684567689896e-03" rms="4.9477452039718628e-01" purity="4.2828121781349182e-01" nType="-99"/>
        </Node>
        <Node pos="r" depth="1" NCoef="0" IVar="15" Cut="2.5595771789550781e+01" cType="1" res="-1.1977916955947876e-01" rms="4.7897076606750488e-01" purity="3.6763200163841248e-01" nType="0">
          <Node pos="l" depth="2" NCoef="0" IVar="-1" Cut="0.0000000000000000e+00" cType="1" res="-1.2418245023582131e-04" rms="4.9928265810012817e-01" purity="4.9376100301742554e-01" nType="-99"/>
          <Node pos="r" depth="2" NCoef="0" IVar="-1" Cut="0.0000000000000000e+00" cType="1" res="-4.3285042047500610e-03" rms="4.3865445256233215e-01" purity="2.6083084940910339e-01" nType="-99"/>
        </Node>
      </Node>
    </BinaryTree>
    <BinaryTree type="DecisionTree" boostWeight="1.0000000000000000e+00" itree="12">
      <Node pos="s" depth="0" NCoef="0" IVar="15" Cut="2.5751798629760742e+01" cType="1" res="1.3417946174740791e-03" rms="4.9252799153327942e-01" purity="5.0154495239257812e-01" nType="0">
        <Node pos="l" depth="1" NCoef="0" IVar="0" Cut="5.9152782440185547e+01" cType="1" res="1.2239732593297958e-01" rms="4.7744581103324890e-01" purity="6.3595402240753174e-01" nType="0">
          <Node pos="l" depth="2" NCoef="0" IVar="-1" Cut="0.0000000000000000e+00" cType="1" res="4.7427904792129993e-03" rms="4.2515936493873596e-01" purity="7.6306194067001343e-01" nType="-99"/>
          <Node pos="r" depth="2" NCoef="0" IVar="-1" Cut="0.0000000000000000e+00" cType="1" res="2.1520262816920877e-04" rms="4.9894326925277710e-01" purity="5.1155531406402588e-01" nType="-99"/>
        </Node>
        <Node pos="r" depth="1" NCoef="0" IVar="0" Cut="6.0447860717773438e+01" cType="1" res="-1.2290036678314209e-01" rms="4.7657310962677002e-01" purity="3.6359766125679016e-01" nType="0">
          <Node pos="l" depth="2" NCoef="0" IVar="-1" Cut="0.0000000000000000e+00" cType="1" res="9.1611022071447223e-05" rms="4.9796405434608459e-01" purity="5.0804913043975830e-01" nType="-99"/>
          <Node pos="r" depth="2" NCoef="0" IVar="-1" Cut="0.0000000000000000e+00" cType="1" res="-4.2601726017892361e-03" rms="4.3936872482299805e-01" purity="2.6212871074676514e-01" nType="-99"/>
        </Node>
      </Node>
    </BinaryTree>
    <BinaryTree type="DecisionTree" boostWeight="1.0000000000000000e+00" itree="13">
      <Node pos="s" depth="0" NCoef="0" IVar="0" Cut="5.8023147583007812e+01" cType="1" res="1.7574672820046544e-03" rms="4.9193024635314941e-01" purity="5.0189292430877686e-01" nType="0">
        <Node pos="l" depth="1" NCoef="0" IVar="15" Cut="3.6420043945312500e+01" cType="1" res="1.4282050728797913e-01" rms="4.6931746602058411e-01" purity="6.6073471307754517e-01" nType="0">
          <Node pos="l" depth="2" NCoef="0" IVar="-1" Cut="0.0000000000000000e+00" cType="1" res="4.2544123716652393e-03" rms="4.3913075327873230e-01" purity="7.3754042387008667e-01" nType="-99"/>
          <Node pos="r" depth="2" NCoef="0" IVar="-1" Cut="0.0000000000000000e+00" cType="1" res="-1.3751931255683303e-03" rms="4.9452936649322510e-01" purity="4.2623972892761230e-01" nType="-99"/>
        </Node>
        <Node pos="r" depth="1" NCoef="0" IVar="15" Cut="2.4317922592163086e+01" cType="1" res="-1.0437396168708801e-01" rms="4.8178219795227051e-01" purity="3.8238528370857239e-01" nType="0">
          <Node pos="l" depth="2" NCoef="0" IVar="-1" Cut="0.0000000000000000e+00" cType="1" res="4.5846341527067125e-04" rms="4.9842154979705811e-01" purity="5.2536725997924805e-01" nType="-99"/>
          <Node pos="r" depth="2" NCoef="0" IVar="-1" Cut="0.0000000000000000e+00" cType="1" res="-3.9824824780225754e-03" rms="4.4630032777786255e-01" purity="2.7658462524414062e-01" nType="-99"/>
        </Node>
      </Node>
    </BinaryTree>
    <BinaryTree type="DecisionTree" boostWeight="1.0000000000000000e+00" itree="14">
      <Node pos="s" depth="0" NCoef="0" IVar="15" Cut="3.1165550231933594e+01" cType="1" res="-5.8146595256403089e-04" rms="4.9136954545974731e-01" purity="4.9954611063003540e-01" nType="0">
        <Node pos="l" depth="1" NCoef="0" IVar="0" Cut="6.4210144042968750e+01" cType="1" res="9.6802808344364166e-02" rms="4.8244869709014893e-01" purity="6.0918217897415161e-01" nType="0">
          <Node pos="l" depth="2" NCoef="0" IVar="-1" Cut="0.0000000000000000e+00" cType="1" res="3.9969328790903091e-03" rms="4.4470560550689697e-01" purity="7.2678238153457642e-01" nType="-99"/>
          <Node pos="r" depth="2" NCoef="0" IVar="-1" Cut="0.0000000000000000e+00" cType="1" res="-5.8943277690559626e-04" rms="4.9703407287597656e-01" purity="4.6416366100311279e-01" nType="-99"/>
        </Node>
        <Node pos="r" depth="1" NCoef="0" IVar="0" Cut="6.0782398223876953e+01" cType="1" res="-1.5500307083129883e-01" rms="4.6511840820312500e-01" purity="3.2569697499275208e-01" nType="0">
          <Node pos="l" depth="2" NCoef="0" IVar="-1" Cut="0.0000000000000000e+00" cType="1" res="-7.1700155967846513e-04" rms="4.9751955270767212e-01" purity="4.6106445789337158e-01" nType="-99"/>
          <Node pos="r" depth="2" NCoef="0" IVar="-1" Cut="0.0000000000000000e+00" cType="1" res="-4.7388770617544651e-03" rms="4.2294895648956299e-01" purity="2.3360796272754669e-01" nType="-99"/>
        </Node>
      </Node>
    </BinaryTree>
    <BinaryTree type="DecisionTree" boostWeight="1.0000000000000000e+00" itree="15">
      <Node pos="s" depth="0" NCoef="0" IVar="0" Cut="6.2905994415283203e+01" cType="1" res="-5.4854531772434711e-03" rms="4.9088370800018311e-01" purity="4.9466735124588013e-01" nType="0">
        <Node pos="l" depth="1" NCoef="0" IVar="15" Cut="2.4176111221313477e+01" cType="1" res="1.1767536401748657e-01" rms="4.7633260488510132e-01" purity="6.3658696413040161e-01" nType="0">
          <Node pos="l" depth="2" NCoef="0" IVar="-1" Cut="0.0000000000000000e+00" cType="1" res="4.3961657211184502e-03" rms="4.3226876854896545e-01" purity="7.5087469816207886e-01" nType="-99"/>
          <Node pos="r" depth="2" NCoef="0" IVar="-1" Cut="0.0000000000000000e+00" cType="1" res="1.4459333033300936e-04" rms="4.9719384312629700e-01" purity="5.1187270879745483e-01" nType="-99"/>
        </Node>
        <Node pos="r" depth="1" NCoef="0" IVar="15" Cut="2.0710906982421875e+01" cType="1" res="-1.2657956779003143e-01" rms="4.7458070516586304e-01" purity="3.5512918233871460e-01" nType="0">
          <Node pos="l" depth="2" NCoef="0" IVar="-1" Cut="0.0000000000000000e+00" cType="1" res="3.8225826574489474e-04" rms="4.9938794970512390e-01" purity="5.1994860172271729e-01" nType="-99"/>
          <Node pos="r" depth="2" NCoef="0" IVar="-1" Cut="0.0000000000000000e+00" cType="1" res="-4.0222788229584694e-03" rms="4.4359639286994934e-01" purity="2.7161160111427307e-01" nType="-99"/>
        </Node>
      </Node>
    </BinaryTree>
    <BinaryTree type="DecisionTree" boostWeight="1.0000000000000000e+00" itree="16">
      <Node pos="s" depth="0" NCoef="0" IVar="15" Cut="2.4149564743041992e+01" cType="1" res="-4.0775752859190106e-04" rms="4.9018490314483643e-01" purity="4.9949985742568970e-01" nType="0">
        <Node pos="l" depth="1" NCoef="0" IVar="0" Cut="7.3113395690917969e+01" cType="1" res="1.3209943473339081e-01" rms="4.7203698754310608e-01" purity="6.5066343545913696e-01" nType="0">
          <Node pos="l" depth="2" NCoef="0" IVar="-1" Cut="0.0000000000000000e+00" cType="1" res="4.3071103282272816e-03" rms="4.3527227640151978e-01" purity="7.4310672283172607e-01" nType="-99"/>
          <Node pos="r" depth="2" NCoef="0" IVar="-1" Cut="0.0000000000000000e+00" cType="1" res="-5.9109146241098642e-04" rms="4.9879309535026550e-01" purity="4.6933627128601074e-01" nType="-99"/>
        </Node>
        <Node pos="r" depth="1" NCoef="0" IVar="0" Cut="6.2313117980957031e+01" cType="1" res="-1.1611688137054443e-01" rms="4.7624462842941284e-01" purity="3.6749950051307678e-01" nType="0">
          <Node pos="l" depth="2" NCoef="0" IVar="-1" Cut="0.0000000000000000e+00" cType="1" res="7.3507567321939860e-06" rms="4.9741563200950623e-01" purity="5.0536096096038818e-01" nType="-99"/>
          <Node pos="r" depth="2" NCoef="0" IVar="-1" Cut="0.0000000000000000e+00" cType="1" res="-4.1561913676559925e-03" rms="4.3810456991195679e-01" purity="2.6007631421089172e-01" nType="-99"/>
        </Node>
      </Node>
    </BinaryTree>
    <BinaryTree type="DecisionTree" boostWeight="1.0000000000000000e+00" itree="17">
      <Node pos="s" depth="0" NCoef="0" IVar="15" Cut="2.4772174835205078e+01" cType="1" res="1.7451056919526309e-04" rms="4.8986512422561646e-01" purity="5.0040632486343384e-01" nType="0">
        <Node pos="l" depth="1" NCoef="0" IVar="0" Cut="5.7897991180419922e+01" cType="1" res="1.2386061996221542e-01" rms="4.7423973679542542e-01" purity="6.4371949434280396e-01" nType="0">
          <Node pos="l" depth="2" NCoef="0" IVar="-1" Cut="0.0000000000000000e+00" cType="1" res="4.6727177686989307e-03" rms="4.2094612121582031e-01" purity="7.6979482173919678e-01" nType="-99"/>
          <Node pos="r" depth="2" NCoef="0" IVar="-1" Cut="0.0000000000000000e+00" cType="1" res="4.5860547106713057e-04" rms="4.9816197156906128e-01" purity="5.2638596296310425e-01" nType="-99"/>
        </Node>
        <Node pos="r" depth="1" NCoef="0" IVar="0" Cut="5.5160003662109375e+01" cType="1" res="-1.1578384041786194e-01" rms="4.7571244835853577e-01" purity="3.6604714393615723e-01" nType="0">
          <Node pos="l" depth="2" NCoef="0" IVar="-1" Cut="0.0000000000000000e+00" cType="1" res="5.6370522361248732e-04" rms="4.9626120924949646e-01" purity="5.3396582603454590e-01" nType="-99"/>
          <Node pos="r" depth="2" NCoef="0" IVar="-1" Cut="0.0000000000000000e+00" cType="1" res="-3.7864239420741796e-03" rms="4.4773477315902710e-01" purity="2.8124129772186279e-01" nType="-99"/>
        </Node>
      </Node>
    </BinaryTree>
    <BinaryTree type="DecisionTree" boostWeight="1.0000000000000000e+00" itree="18">
      <Node pos="s" depth="0" NCoef="0" IVar="15" Cut="2.4149564743041992e+01" cType="1" res="-6.2304001767188311e-04" rms="4.8917105793952942e-01" purity="4.9933084845542908e-01" nType="0">
        <Node pos="l" depth="1" NCoef="0" IVar="0" Cut="7.2869575500488281e+01" cType="1" res="1.2684544920921326e-01" rms="4.7244709730148315e-01" purity="6.4780575037002563e-01" nType="0">
          <Node pos="l" depth="2" NCoef="0" IVar="-1" Cut="0.0000000000000000e+00" cType="1" res="4.2234901338815689e-03" rms="4.3550318479537964e-01" purity="7.4281847476959229e-01" nType="-99"/>
          <Node pos="r" depth="2" NCoef="0" IVar="-1" Cut="0.0000000000000000e+00" cType="1" res="-6.0169625794515014e-04" rms="4.9872037768363953e-01" purity="4.6875825524330139e-01" nType="-99"/>
        </Node>
        <Node pos="r" depth="1" NCoef="0" IVar="0" Cut="6.9774154663085938e+01" cType="1" res="-1.1170733720064163e-01" rms="4.7623920440673828e-01" purity="3.6994019150733948e-01" nType="0">
          <Node pos="l" depth="2" NCoef="0" IVar="-1" Cut="0.0000000000000000e+00" cType="1" res="-2.9270161758176982e-04" rms="4.9572449922561646e-01" purity="4.8361176252365112e-01" nType="-99"/>
          <Node pos="r" depth="2" NCoef="0" IVar="-1" Cut="0.0000000000000000e+00" cType="1" res="-4.4948654249310493e-03" rms="4.2622044682502747e-01" purity="2.3910586535930634e-01" nType="-99"/>
        </Node>
      </Node>
    </BinaryTree>
    <BinaryTree type="DecisionTree" boostWeight="1.0000000000000000e+00" itree="19">
      <Node pos="s" depth="0" NCoef="0" IVar="0" Cut="6.0464900970458984e+01" cType="1" res="-4.4536837376654148e-03" rms="4.8891565203666687e-01" purity="4.9563038349151611e-01" nType="0">
        <Node pos="l" depth="1" NCoef="0" IVar="15" Cut="3.5539020538330078e+01" cType="1" res="1.1863437294960022e-01" rms="4.7328507900238037e-01" purity="6.4305639266967773e-01" nType="0">
          <Node pos="l" depth="2" NCoef="0" IVar="-1" Cut="0.0000000000000000e+00" cType="1" res="3.7587811239063740e-03" rms="4.4638875126838684e-01" purity="7.2234773635864258e-01" nType="-99"/>
          <Node pos="r" depth="2" NCoef="0" IVar="-1" Cut="0.0000000000000000e+00" cType="1" res="-1.4387654373422265e-03" rms="4.9368155002593994e-01" purity="4.2173069715499878e-01" nType="-99"/>
        </Node>
        <Node pos="r" depth="1" NCoef="0" IVar="15" Cut="2.0710906982421875e+01" cType="1" res="-1.1128295212984085e-01" rms="4.7700080275535583e-01" purity="3.6767792701721191e-01" nType="0">
          <Node pos="l" depth="2" NCoef="0" IVar="-1" Cut="0.0000000000000000e+00" cType="1" res="4.4531247112900019e-04" rms="4.9861866235733032e-01" purity="5.2541905641555786e-01" nType="-99"/>
          <Node pos="r" depth="2" NCoef="0" IVar="-1" Cut="0.0000000000000000e+00" cType="1" res="-3.6213442217558622e-03" rms="4.5025214552879333e-01" purity="2.8636845946311951e-01" nType="-99"/>
        </Node>
      </Node>
    </BinaryTree>
    <BinaryTree type="DecisionTree" boostWeight="1.0000000000000000e+00" itree="20">
      <Node pos="s" depth="0" NCoef="0" IVar="0" Cut="5.8582603454589844e+01" cType="1" res="1.7938294913619757e-03" rms="4.8840504884719849e-01" purity="5.0188124179840088e-01" nType="0">
        <Node pos="l" depth="1" NCoef="0" IVar="15" Cut="3.5682228088378906e+01" cType="1" res="1.3127905130386353e-01" rms="4.6863046288490295e-01" purity="6.5740120410919189e-01" nType="0">
          <Node pos="l" depth="2" NCoef="0" IVar="-1" Cut="0.0000000000000000e+00" cType="1" res="3.9515858516097069e-03" rms="4.4040247797966003e-01" purity="7.3405706882476807e-01" nType="-99"/>
          <Node pos="r" depth="2" NCoef="0" IVar="-1" Cut="0.0000000000000000e+00" cType="1" res="-1.0675173252820969e-03" rms="4.9628821015357971e-01" purity="4.3992647528648376e-01" nType="-99"/>
        </Node>
        <Node pos="r" depth="1" NCoef="0" IVar="15" Cut="3.2092525482177734e+01" cType="1" res="-9.8073646426200867e-02" rms="4.7982370853424072e-01" purity="3.8193404674530029e-01" nType="0">
          <Node pos="l" depth="2" NCoef="0" IVar="-1" Cut="0.0000000000000000e+00" cType="1" res="-2.5978978374041617e-04" rms="4.9647301435470581e-01" purity="4.8123651742935181e-01" nType="-99"/>
          <Node pos="r" depth="2" NCoef="0" IVar="-1" Cut="0.0000000000000000e+00" cType="1" res="-4.4647655449807644e-03" rms="4.2521560192108154e-01" purity="2.3767167329788208e-01" nType="-99"/>
        </Node>
      </Node>
    </BinaryTree>
    <BinaryTree type="DecisionTree" boostWeight="1.0000000000000000e+00" itree="21">
      <Node pos="s" depth="0" NCoef="0" IVar="0" Cut="5.8023147583007812e+01" cType="1" res="-5.7091307826340199e-03" rms="4.8788481950759888e-01" purity="4.9428394436836243e-01" nType="0">
        <Node pos="l" depth="1" NCoef="0" IVar="15" Cut="3.5424186706542969e+01" cType="1" res="1.2646886706352234e-01" rms="4.6975365281105042e-01" purity="6.5455830097198486e-01" nType="0">
          <Node pos="l" depth="2" NCoef="0" IVar="-1" Cut="0.0000000000000000e+00" cType="1" res="3.7862432654947042e-03" rms="4.4392028450965881e-01" purity="7.2805196046829224e-01" nType="-99"/>
          <Node pos="r" depth="2" NCoef="0" IVar="-1" Cut="0.0000000000000000e+00" cType="1" res="-1.0796337155625224e-03" rms="4.9619105458259583e-01" purity="4.3908777832984924e-01" nType="-99"/>
        </Node>
        <Node pos="r" depth="1" NCoef="0" IVar="15" Cut="2.4765371322631836e+01" cType="1" res="-1.0450901836156845e-01" rms="4.7769188880920410e-01" purity="3.7448275089263916e-01" nType="0">
          <Node pos="l" depth="2" NCoef="0" IVar="-1" Cut="0.0000000000000000e+00" cType="1" res="1.9398637232370675e-04" rms="4.9819049239158630e-01" purity="5.1309496164321899e-01" nType="-99"/>
          <Node pos="r" depth="2" NCoef="0" IVar="-1" Cut="0.0000000000000000e+00" cType="1" res="-3.8517212960869074e-03" rms="4.4221562147140503e-01" purity="2.6917311549186707e-01" nType="-99"/>
        </Node>
      </Node>
    </BinaryTree>
    <BinaryTree type="DecisionTree" boostWeight="1.0000000000000000e+00" itree="22">
      <Node pos="s" depth="0" NCoef="0" IVar="0" Cut="5.8589965820312500e+01" cType="1" res="-2.3624822497367859e-03" rms="4.8735991120338440e-01" purity="4.9768653512001038e-01" nType="0">
        <Node pos="l" depth="1" NCoef="0" IVar="15" Cut="2.9537796020507812e+01" cType="1" res="1.2702623009681702e-01" rms="4.6864140033721924e-01" purity="6.5598255395889282e-01" nType="0">
          <Node pos="l" depth="2" NCoef="0" IVar="-1" Cut="0.0000000000000000e+00" cType="1" res="4.1832933202385902e-03" rms="4.3088710308074951e-01" purity="7.5277227163314819e-01" nType="-99"/>
          <Node pos="r" depth="2" NCoef="0" IVar="-1" Cut="0.0000000000000000e+00" cType="1" res="-3.5072225728072226e-04" rms="4.9816647171974182e-01" purity="4.8195528984069824e-01" nType="-99"/>
        </Node>
        <Node pos="r" depth="1" NCoef="0" IVar="15" Cut="1.9563669204711914e+01" cType="1" res="-1.0130050033330917e-01" rms="4.7813487052917480e-01" purity="3.7664443254470825e-01" nType="0">
          <Node pos="l" depth="2" NCoef="0" IVar="-1" Cut="0.0000000000000000e+00" cType="1" res="8.6278648814186454e-04" rms="4.9661675095558167e-01" purity="5.4874771833419800e-01" nType="-99"/>
          <Node pos="r" depth="2" NCoef="0" IVar="-1" Cut="0.0000000000000000e+00" cType="1" res="-3.4180684015154839e-03" rms="4.5329192280769348e-01" purity="2.9498484730720520e-01" nType="-99"/>
        </Node>
      </Node>
    </BinaryTree>
    <BinaryTree type="DecisionTree" boostWeight="1.0000000000000000e+00" itree="23">
      <Node pos="s" depth="0" NCoef="0" IVar="0" Cut="5.8589965820312500e+01" cType="1" res="1.7176038818433881e-03" rms="4.8695147037506104e-01" purity="5.0167870521545410e-01" nType="0">
        <Node pos="l" depth="1" NCoef="0" IVar="15" Cut="3.1416728973388672e+01" cType="1" res="1.3061717152595520e-01" rms="4.6697357296943665e-01" purity="6.6074693202972412e-01" nType="0">
          <Node pos="l" depth="2" NCoef="0" IVar="-1" Cut="0.0000000000000000e+00" cType="1" res="4.0735374204814434e-03" rms="4.3336367607116699e-01" purity="7.4815398454666138e-01" nType="-99"/>
          <Node pos="r" depth="2" NCoef="0" IVar="-1" Cut="0.0000000000000000e+00" cType="1" res="-3.6042908322997391e-04" rms="4.9847862124443054e-01" purity="4.7847613692283630e-01" nType="-99"/>
        </Node>
        <Node pos="r" depth="1" NCoef="0" IVar="15" Cut="2.2949684143066406e+01" cType="1" res="-9.6894070506095886e-02" rms="4.7881722450256348e-01" purity="3.7998732924461365e-01" nType="0">
          <Node pos="l" depth="2" NCoef="0" IVar="-1" Cut="0.0000000000000000e+00" cType="1" res="5.2237621275708079e-04" rms="4.9768906831741333e-01" purity="5.3028613328933716e-01" nType="-99"/>
          <Node pos="r" depth="2" NCoef="0" IVar="-1" Cut="0.0000000000000000e+00" cType="1" res="-3.5861157812178135e-03" rms="4.4786515831947327e-01" purity="2.8094542026519775e-01" nType="-99"/>
        </Node>
      </Node>
    </BinaryTree>
    <BinaryTree type="DecisionTree" boostWeight="1.0000000000000000e+00" itree="24">
      <Node pos="s" depth="0" NCoef="0" IVar="0" Cut="6.2945804595947266e+01" cType="1" res="4.4214534573256969e-03" rms="4.8652723431587219e-01" purity="5.0469964742660522e-01" nType="0">
        <Node pos="l" depth="1" NCoef="0" IVar="15" Cut="3.5718509674072266e+01" cType="1" res="1.1429300904273987e-01" rms="4.7183263301849365e-01" purity="6.4220994710922241e-01" nType="0">
          <Node pos="l" depth="2" NCoef="0" IVar="-1" Cut="0.0000000000000000e+00" cType="1" res="3.5660937428474426e-03" rms="4.4733667373657227e-01" purity="7.1851044893264771e-01" nType="-99"/>
          <Node pos="r" depth="2" NCoef="0" IVar="-1" Cut="0.0000000000000000e+00" cType="1" res="-1.2660790234804153e-03" rms="4.9382886290550232e-01" purity="4.2574799060821533e-01" nType="-99"/>
        </Node>
        <Node pos="r" depth="1" NCoef="0" IVar="15" Cut="2.6593994140625000e+01" cType="1" res="-1.0485178232192993e-01" rms="4.7620171308517456e-01" purity="3.6793825030326843e-01" nType="0">
          <Node pos="l" depth="2" NCoef="0" IVar="-1" Cut="0.0000000000000000e+00" cType="1" res="-9.0847155661322176e-05" rms="4.9846905469894409e-01" purity="4.9231925606727600e-01" nType="-99"/>
          <Node pos="r" depth="2" NCoef="0" IVar="-1" Cut="0.0000000000000000e+00" cType="1" res="-3.9621437899768353e-03" rms="4.3531945347785950e-01" purity="2.5468879938125610e-01" nType="-99"/>
        </Node>
      </Node>
    </BinaryTree>
    <BinaryTree type="DecisionTree" boostWeight="1.0000000000000000e+00" itree="25">
      <Node pos="s" depth="0" NCoef="0" IVar="15" Cut="2.4849933624267578e+01" cType="1" res="-2.0120686385780573e-03" rms="4.8621955513954163e-01" purity="4.9833652377128601e-01" nType="0">
        <Node pos="l" depth="1" NCoef="0" IVar="0" Cut="7.0574531555175781e+01" cType="1" res="1.1000087112188339e-01" rms="4.7382724285125732e-01" purity="6.3770735263824463e-01" nType="0">
          <Node pos="l" depth="2" NCoef="0" IVar="-1" Cut="0.0000000000000000e+00" cType="1" res="3.7877873983234167e-03" rms="4.4063574075698853e-01" purity="7.3228818178176880e-01" nType="-99"/>
          <Node pos="r" depth="2" NCoef="0" IVar="-1" Cut="0.0000000000000000e+00" cType="1" res="-5.4602709133177996e-04" rms="4.9865368008613586e-01" purity="4.7050762176513672e-01" nType="-99"/>
        </Node>
        <Node pos="r" depth="1" NCoef="0" IVar="0" Cut="6.8450164794921875e+01" cType="1" res="-1.0696270316839218e-01" rms="4.7411611676216125e-01" purity="3.6775287985801697e-01" nType="0">
          <Node pos="l" depth="2" NCoef="0" IVar="-1" Cut="0.0000000000000000e+00" cType="1" res="-3.3955427352339029e-04" rms="4.9507638812065125e-01" purity="4.8120144009590149e-01" nType="-99"/>
          <Node pos="r" depth="2" NCoef="0" IVar="-1" Cut="0.0000000000000000e+00" cType="1" res="-4.1451109573245049e-03" rms="4.2915809154510498e-01" purity="2.4409350752830505e-01" nType="-99"/>
        </Node>
      </Node>
    </BinaryTree>
    <BinaryTree type="DecisionTree" boostWeight="1.0000000000000000e+00" itree="26">
      <Node pos="s" depth="0" NCoef="0" IVar="15" Cut="3.1178241729736328e+01" cType="1" res="4.4513056054711342e-03" rms="4.8551443219184875e-01" purity="5.0472337007522583e-01" nType="0">
        <Node pos="l" depth="1" NCoef="0" IVar="0" Cut="8.2482330322265625e+01" cType="1" res="9.1907843947410583e-02" rms="4.7729134559631348e-01" purity="6.1302393674850464e-01" nType="0">
          <Node pos="l" depth="2" NCoef="0" IVar="-1" Cut="0.0000000000000000e+00" cType="1" res="3.2175313681364059e-03" rms="4.5534148812294006e-01" purity="6.9343131780624390e-01" nType="-99"/>
          <Node pos="r" depth="2" NCoef="0" IVar="-1" Cut="0.0000000000000000e+00" cType="1" res="-1.7889766022562981e-03" rms="4.8734533786773682e-01" purity="3.9784863591194153e-01" nType="-99"/>
        </Node>
        <Node pos="r" depth="1" NCoef="0" IVar="4" Cut="1.0011927032470703e+02" cType="1" res="-1.3565702736377716e-01" rms="4.6532160043716431e-01" purity="3.3122226595878601e-01" nType="0">
          <Node pos="l" depth="2" NCoef="0" IVar="-1" Cut="0.0000000000000000e+00" cType="1" res="-9.3407020904123783e-04" rms="4.9259382486343384e-01" purity="4.3490487337112427e-01" nType="-99"/>
          <Node pos="r" depth="2" NCoef="0" IVar="-1" Cut="0.0000000000000000e+00" cType="1" res="-4.4994247145950794e-03" rms="4.1914546489715576e-01" purity="2.2997188568115234e-01" nType="-99"/>
        </Node>
      </Node>
    </BinaryTree>
    <BinaryTree type="DecisionTree" boostWeight="1.0000000000000000e+00" itree="27">
      <Node pos="s" depth="0" NCoef="0" IVar="0" Cut="5.7881198883056641e+01" cType="1" res="6.1974587151780725e-04" rms="4.8516780138015747e-01" purity="5.0062179565429688e-01" nType="0">
        <Node pos="l" depth="1" NCoef="0" IVar="15" Cut="2.9537796020507812e+01" cType="1" res="1.3015921413898468e-01" rms="4.6463331580162048e-01" purity="6.6465348005294800e-01" nType="0">
          <Node pos="l" depth="2" NCoef="0" IVar="-1" Cut="0.0000000000000000e+00" cType="1" res="4.2036105878651142e-03" rms="4.2535471916198730e-01" purity="7.6231813430786133e-01" nType="-99"/>
          <Node pos="r" depth="2" NCoef="0" IVar="-1" Cut="0.0000000000000000e+00" cType="1" res="-1.1097756214439869e-04" rms="4.9817407131195068e-01" purity="4.9360617995262146e-01" nType="-99"/>
        </Node>
        <Node pos="r" depth="1" NCoef="0" IVar="15" Cut="1.9292547225952148e+01" cType="1" res="-9.4383910298347473e-02" rms="4.7786951065063477e-01" purity="3.8032168149948120e-01" nType="0">
          <Node pos="l" depth="2" NCoef="0" IVar="-1" Cut="0.0000000000000000e+00" cType="1" res="7.8064401168376207e-04" rms="4.9613574147224426e-01" purity="5.4693961143493652e-01" nType="-99"/>
          <Node pos="r" depth="2" NCoef="0" IVar="-1" Cut="0.0000000000000000e+00" cType="1" res="-3.1275993678718805e-03" rms="4.5662981271743774e-01" purity="3.0458819866180420e-01" nType="-99"/>
        </Node>
      </Node>
    </BinaryTree>
    <BinaryTree type="DecisionTree" boostWeight="1.0000000000000000e+00" itree="28">
      <Node pos="s" depth="0" NCoef="0" IVar="15" Cut="3.1323558807373047e+01" cType="1" res="-2.2139111533761024e-03" rms="4.8530372977256775e-01" purity="4.9862343072891235e-01" nType="0">
        <Node pos="l" depth="1" NCoef="0" IVar="0" Cut="6.9025672912597656e+01" cType="1" res="7.8188344836235046e-02" rms="4.7994649410247803e-01" purity="6.0097324848175049e-01" nType="0">
          <Node pos="l" depth="2" NCoef="0" IVar="-1" Cut="0.0000000000000000e+00" cType="1" res="3.2154733780771494e-03" rms="4.5314231514930725e-01" purity="7.0500326156616211e-01" nType="-99"/>
          <Node pos="r" depth="2" NCoef="0" IVar="-1" Cut="0.0000000000000000e+00" cType="1" res="-9.6836680313572288e-04" rms="4.9315673112869263e-01" purity="4.3837699294090271e-01" nType="-99"/>
        </Node>
        <Node pos="r" depth="1" NCoef="0" IVar="4" Cut="6.5971374511718750e+01" cType="1" res="-1.3504752516746521e-01" rms="4.6447607874870300e-01" purity="3.2953003048896790e-01" nType="0">
          <Node pos="l" depth="2" NCoef="0" IVar="-1" Cut="0.0000000000000000e+00" cType="1" res="1.4655137783847749e-04" rms="4.9719041585922241e-01" purity="4.9409657716751099e-01" nType="-99"/>
          <Node pos="r" depth="2" NCoef="0" IVar="-1" Cut="0.0000000000000000e+00" cType="1" res="-3.7191500887274742e-03" rms="4.4212758541107178e-01" purity="2.7274510264396667e-01" nType="-99"/>
        </Node>
      </Node>
    </BinaryTree>
    <BinaryTree type="DecisionTree" boostWeight="1.0000000000000000e+00" itree="29">
      <Node pos="s" depth="0" NCoef="0" IVar="0" Cut="6.2313117980957031e+01" cType="1" res="1.7656306736171246e-03" rms="4.8426613211631775e-01" purity="5.0227683782577515e-01" nType="0">
        <Node pos="l" depth="1" NCoef="0" IVar="15" Cut="2.3945722579956055e+01" cType="1" res="1.0960266739130020e-01" rms="4.7056663036346436e-01" purity="6.4330101013183594e-01" nType="0">
          <Node pos="l" depth="2" NCoef="0" IVar="-1" Cut="0.0000000000000000e+00" cType="1" res="4.1931788437068462e-03" rms="4.2360576987266541e-01" purity="7.6515746116638184e-01" nType="-99"/>
          <Node pos="r" depth="2" NCoef="0" IVar="-1" Cut="0.0000000000000000e+00" cType="1" res="1.1799597268691286e-04" rms="4.9540594220161438e-01" purity="5.1320999860763550e-01" nType="-99"/>
        </Node>
        <Node pos="r" depth="1" NCoef="0" IVar="15" Cut="3.5903278350830078e+01" cType="1" res="-1.0298619419336319e-01" rms="4.7429007291793823e-01" purity="3.6528736352920532e-01" nType="0">
          <Node pos="l" depth="2" NCoef="0" IVar="-1" Cut="0.0000000000000000e+00" cType="1" res="-6.6990416962653399e-04" rms="4.9351370334625244e-01" purity="4.5030745863914490e-01" nType="-99"/>
          <Node pos="r" depth="2" NCoef="0" IVar="-1" Cut="0.0000000000000000e+00" cType="1" res="-4.6221404336392879e-03" rms="4.0902540087699890e-01" purity="2.1280173957347870e-01" nType="-99"/>
        </Node>
      </Node>
    </BinaryTree>
    <BinaryTree type="DecisionTree" boostWeight="1.0000000000000000e+00" itree="30">
      <Node pos="s" depth="0" NCoef="0" IVar="15" Cut="1.9573652267456055e+01" cType="1" res="-3.8876864127814770e-03" rms="4.8409089446067810e-01" purity="4.9662774801254272e-01" nType="0">
        <Node pos="l" depth="1" NCoef="0" IVar="0" Cut="5.8066654205322266e+01" cType="1" res="1.3328307867050171e-01" rms="4.6360582113265991e-01" purity="6.6814363002777100e-01" nType="0">
          <Node pos="l" depth="2" NCoef="0" IVar="-1" Cut="0.0000000000000000e+00" cType="1" res="4.7221160493791103e-03" rms="4.0361505746841431e-01" purity="7.9508161544799805e-01" nType="-99"/>
          <Node pos="r" depth="2" NCoef="0" IVar="-1" Cut="0.0000000000000000e+00" cType="1" res="7.6068838825449347e-04" rms="4.9641218781471252e-01" purity="5.4610127210617065e-01" nType="-99"/>
        </Node>
        <Node pos="r" depth="1" NCoef="0" IVar="4" Cut="8.0947166442871094e+01" cType="1" res="-8.2382664084434509e-02" rms="4.7804251313209534e-01" purity="3.9847898483276367e-01" nType="0">
          <Node pos="l" depth="2" NCoef="0" IVar="-1" Cut="0.0000000000000000e+00" cType="1" res="8.4382033674046397e-04" rms="4.9017587304115295e-01" purity="5.4929447174072266e-01" nType="-99"/>
          <Node pos="r" depth="2" NCoef="0" IVar="-1" Cut="0.0000000000000000e+00" cType="1" res="-3.1865849159657955e-03" rms="4.5425772666931152e-01" purity="3.0703985691070557e-01" nType="-99"/>
        </Node>
      </Node>
    </BinaryTree>
    <BinaryTree type="DecisionTree" boostWeight="1.0000000000000000e+00" itree="31">
      <Node pos="s" depth="0" NCoef="0" IVar="15" Cut="3.1691972732543945e+01" cType="1" res="2.9837894253432751e-03" rms="4.8343646526336670e-01" purity="5.0359529256820679e-01" nType="0">
        <Node pos="l" depth="1" NCoef="0" IVar="0" Cut="7.4324867248535156e+01" cType="1" res="8.4681741893291473e-02" rms="4.7708228230476379e-01" purity="6.0928386449813843e-01" nType="0">
          <Node pos="l" depth="2" NCoef="0" IVar="-1" Cut="0.0000000000000000e+00" cType="1" res="3.2415417954325676e-03" rms="4.5179593563079834e-01" purity="7.0553845167160034e-01" nType="-99"/>
          <Node pos="r" depth="2" NCoef="0" IVar="-1" Cut="0.0000000000000000e+00" cType="1" res="-1.2929167132824659e-03" rms="4.9037104845046997e-01" purity="4.1927599906921387e-01" nType="-99"/>
        </Node>
        <Node pos="r" depth="1" NCoef="0" IVar="4" Cut="7.4031883239746094e+01" cType="1" res="-1.3182289898395538e-01" rms="4.6324440836906433e-01" purity="3.2920247316360474e-01" nType="0">
          <Node pos="l" depth="2" NCoef="0" IVar="-1" Cut="0.0000000000000000e+00" cType="1" res="-5.8899848227156326e-05" rms="4.9634435772895813e-01" purity="4.8213073611259460e-01" nType="-99"/>
          <Node pos="r" depth="2" NCoef="0" IVar="-1" Cut="0.0000000000000000e+00" cType="1" res="-3.8812467828392982e-03" rms="4.3420392274856567e-01" purity="2.5814697146415710e-01" nType="-99"/>
        </Node>
      </Node>
    </BinaryTree>
    <BinaryTree type="DecisionTree" boostWeight="1.0000000000000000e+00" itree="32">
      <Node pos="s" depth="0" NCoef="0" IVar="0" Cut="5.7881198883056641e+01" cType="1" res="1.7913343617692590e-03" rms="4.8294585943222046e-01" purity="5.0207954645156860e-01" nType="0">
        <Node pos="l" depth="1" NCoef="0" IVar="15" Cut="4.3146091461181641e+01" cType="1" res="1.2239647656679153e-01" rms="4.6439868211746216e-01" purity="6.6199433803558350e-01" nType="0">
          <Node pos="l" depth="2" NCoef="0" IVar="-1" Cut="0.0000000000000000e+00" cType="1" res="3.3520262222737074e-03" rms="4.4733175635337830e-01" purity="7.1491605043411255e-01" nType="-99"/>
          <Node pos="r" depth="2" NCoef="0" IVar="-1" Cut="0.0000000000000000e+00" cType="1" res="-2.0412988960742950e-03" rms="4.8647397756576538e-01" purity="3.8644537329673767e-01" nType="-99"/>
        </Node>
        <Node pos="r" depth="1" NCoef="0" IVar="15" Cut="2.4778253555297852e+01" cType="1" res="-8.8514775037765503e-02" rms="4.7680869698524475e-01" purity="3.8233938813209534e-01" nType="0">
          <Node pos="l" depth="2" NCoef="0" IVar="-1" Cut="0.0000000000000000e+00" cType="1" res="3.5246831248514354e-04" rms="4.9695375561714172e-01" purity="5.2261132001876831e-01" nType="-99"/>
          <Node pos="r" depth="2" NCoef="0" IVar="-1" Cut="0.0000000000000000e+00" cType="1" res="-3.4626822452992201e-03" rms="4.4343495368957520e-01" purity="2.7357235550880432e-01" nType="-99"/>
        </Node>
      </Node>
    </BinaryTree>
    <BinaryTree type="DecisionTree" boostWeight="1.0000000000000000e+00" itree="33">
      <Node pos="s" depth="0" NCoef="0" IVar="15" Cut="3.1026878356933594e+01" cType="1" res="-7.8803789801895618e-04" rms="4.8248234391212463e-01" purity="4.9922329187393188e-01" nType="0">
        <Node pos="l" depth="1" NCoef="0" IVar="0" Cut="8.1920082092285156e+01" cType="1" res="8.5090540349483490e-02" rms="4.7657877206802368e-01" purity="6.1176043748855591e-01" nType="0">
          <Node pos="l" depth="2" NCoef="0" IVar="-1" Cut="0.0000000000000000e+00" cType="1" res="2.9146447777748108e-03" rms="4.5796334743499756e-01" purity="6.8693870306015015e-01" nType="-99"/>
          <Node pos="r" depth="2" NCoef="0" IVar="-1" Cut="0.0000000000000000e+00" cType="1" res="-1.4649316435679793e-03" rms="4.8937654495239258e-01" purity="4.1004291176795959e-01" nType="-99"/>
        </Node>
        <Node pos="r" depth="1" NCoef="0" IVar="0" Cut="6.0455810546875000e+01" cType="1" res="-1.3520826399326324e-01" rms="4.6047666668891907e-01" purity="3.2307603955268860e-01" nType="0">
          <Node pos="l" depth="2" NCoef="0" IVar="-1" Cut="0.0000000000000000e+00" cType="1" res="-5.5173848522827029e-04" rms="4.9714690446853638e-01" purity="4.6593385934829712e-01" nType="-99"/>
          <Node pos="r" depth="2" NCoef="0" IVar="-1" Cut="0.0000000000000000e+00" cType="1" res="-4.1599590331315994e-03" rms="4.2091301083564758e-01" purity="2.3110328614711761e-01" nType="-99"/>
        </Node>
      </Node>
    </BinaryTree>
    <BinaryTree type="DecisionTree" boostWeight="1.0000000000000000e+00" itree="34">
      <Node pos="s" depth="0" NCoef="0" IVar="15" Cut="1.9279502868652344e+01" cType="1" res="4.0569137781858444e-03" rms="4.8268678784370422e-01" purity="5.0424444675445557e-01" nType="0">
        <Node pos="l" depth="1" NCoef="0" IVar="0" Cut="6.0492790222167969e+01" cType="1" res="1.3914415240287781e-01" rms="4.5965147018432617e-01" purity="6.7891955375671387e-01" nType="0">
          <Node pos="l" depth="2" NCoef="0" IVar="-1" Cut="0.0000000000000000e+00" cType="1" res="4.4451155699789524e-03" rms="4.0952944755554199e-01" purity="7.8651380538940430e-01" nType="-99"/>
          <Node pos="r" depth="2" NCoef="0" IVar="-1" Cut="0.0000000000000000e+00" cType="1" res="9.5974648138508201e-04" rms="4.9608531594276428e-01" purity="5.5460745096206665e-01" nType="-99"/>
        </Node>
        <Node pos="r" depth="1" NCoef="0" IVar="4" Cut="8.0258949279785156e+01" cType="1" res="-6.9296814501285553e-02" rms="4.7904467582702637e-01" purity="4.0939408540725708e-01" nType="0">
          <Node pos="l" depth="2" NCoef="0" IVar="-1" Cut="0.0000000000000000e+00" cType="1" res="1.0803084587678313e-03" rms="4.8748421669006348e-01" purity="5.6285083293914795e-01" nType="-99"/>
          <Node pos="r" depth="2" NCoef="0" IVar="-1" Cut="0.0000000000000000e+00" cType="1" res="-2.8843891341239214e-03" rms="4.5855078101158142e-01" purity="3.1800678372383118e-01" nType="-99"/>
        </Node>
      </Node>
    </BinaryTree>
    <BinaryTree type="DecisionTree" boostWeight="1.0000000000000000e+00" itree="35">
      <Node pos="s" depth="0" NCoef="0" IVar="15" Cut="2.4192571640014648e+01" cType="1" res="-1.3196867657825351e-03" rms="4.8217928409576416e-01" purity="4.9908933043479919e-01" nType="0">
        <Node pos="l" depth="1" NCoef="0" IVar="0" Cut="8.1910911560058594e+01" cType="1" res="1.0546961426734924e-01" rms="4.7007888555526733e-01" purity="6.4236509799957275e-01" nType="0">
          <Node pos="l" depth="2" NCoef="0" IVar="-1" Cut="0.0000000000000000e+00" cType="1" res="3.3745805267244577e-03" rms="4.4528689980506897e-01" purity="7.1869999170303345e-01" nType="-99"/>
          <Node pos="r" depth="2" NCoef="0" IVar="-1" Cut="0.0000000000000000e+00" cType="1" res="-1.2003737501800060e-03" rms="4.9515753984451294e-01" purity="4.3494734168052673e-01" nType="-99"/>
        </Node>
        <Node pos="r" depth="1" NCoef="0" IVar="4" Cut="7.2454559326171875e+01" cType="1" res="-9.5999889075756073e-02" rms="4.7290360927581787e-01" purity="3.7205997109413147e-01" nType="0">
          <Node pos="l" depth="2" NCoef="0" IVar="-1" Cut="0.0000000000000000e+00" cType="1" res="7.6817884109914303e-04" rms="4.9256703257560730e-01" purity="5.3941041231155396e-01" nType="-99"/>
          <Node pos="r" depth="2" NCoef="0" IVar="-1" Cut="0.0000000000000000e+00" cType="1" res="-3.1834240071475506e-03" rms="4.5064538717269897e-01" purity="2.9594004154205322e-01" nType="-99"/>
        </Node>
      </Node>
    </BinaryTree>
    <BinaryTree type="DecisionTree" boostWeight="1.0000000000000000e+00" itree="36">
      <Node pos="s" depth="0" NCoef="0" IVar="15" Cut="3.5737106323242188e+01" cType="1" res="1.7160422867164016e-03" rms="4.8164671659469604e-01" purity="5.0224214792251587e-01" nType="0">
        <Node pos="l" depth="1" NCoef="0" IVar="0" Cut="8.8636978149414062e+01" cType="1" res="6.7487597465515137e-02" rms="4.7885978221893311e-01" purity="5.8917796611785889e-01" nType="0">
          <Node pos="l" depth="2" NCoef="0" IVar="-1" Cut="0.0000000000000000e+00" cType="1" res="2.4603742640465498e-03" rms="4.6614086627960205e-01" purity="6.5777409076690674e-01" nType="-99"/>
          <Node pos="r" depth="2" NCoef="0" IVar="-1" Cut="0.0000000000000000e+00" cType="1" res="-2.2229657042771578e-03" rms="4.7705498337745667e-01" purity="3.6331692337989807e-01" nType="-99"/>
        </Node>
        <Node pos="r" depth="1" NCoef="0" IVar="4" Cut="6.5544349670410156e+01" cType="1" res="-1.4959217607975006e-01" rms="4.5309570431709290e-01" purity="3.0224534869194031e-01" nType="0">
          <Node pos="l" depth="2" NCoef="0" IVar="-1" Cut="0.0000000000000000e+00" cType="1" res="-2.2653666383121163e-04" rms="4.9721515178680420e-01" purity="4.7023090720176697e-01" nType="-99"/>
          <Node pos="r" depth="2" NCoef="0" IVar="-1" Cut="0.0000000000000000e+00" cType="1" res="-3.9368658326566219e-03" rms="4.2875248193740845e-01" purity="2.4855582416057587e-01" nType="-99"/>
        </Node>
      </Node>
    </BinaryTree>
    <BinaryTree type="DecisionTree" boostWeight="1.0000000000000000e+00" itree="37">
      <Node pos="s" depth="0" NCoef="0" IVar="15" Cut="3.0251239776611328e+01" cType="1" res="2.5558896595612168e-04" rms="4.8131993412971497e-01" purity="5.0061500072479248e-01" nType="0">
        <Node pos="l" depth="1" NCoef="0" IVar="0" Cut="7.6853553771972656e+01" cType="1" res="8.3247251808643341e-02" rms="4.7518244385719299e-01" purity="6.1377507448196411e-01" nType="0">
          <Node pos="l" depth="2" NCoef="0" IVar="-1" Cut="0.0000000000000000e+00" cType="1" res="2.9476415365934372e-03" rms="4.5409867167472839e-01" purity="6.9733798503875732e-01" nType="-99"/>
          <Node pos="r" depth="2" NCoef="0" IVar="-1" Cut="0.0000000000000000e+00" cType="1" res="-1.0771686211228371e-03" rms="4.9178788065910339e-01" purity="4.2913037538528442e-01" nType="-99"/>
        </Node>
        <Node pos="r" depth="1" NCoef="0" IVar="4" Cut="7.4136779785156250e+01" cType="1" res="-1.2170890718698502e-01" rms="4.6400302648544312e-01" purity="3.3431503176689148e-01" nType="0">
          <Node pos="l" depth="2" NCoef="0" IVar="-1" Cut="0.0000000000000000e+00" cType="1" res="-1.6004931239876896e-04" rms="4.9633279442787170e-01" purity="4.7982111573219299e-01" nType="-99"/>
          <Node pos="r" depth="2" NCoef="0" IVar="-1" Cut="0.0000000000000000e+00" cType="1" res="-3.5435415338724852e-03" rms="4.3841645121574402e-01" purity="2.6706761121749878e-01" nType="-99"/>
        </Node>
      </Node>
    </BinaryTree>
    <BinaryTree type="DecisionTree" boostWeight="1.0000000000000000e+00" itree="38">
      <Node pos="s" depth="0" NCoef="0" IVar="0" Cut="6.0781810760498047e+01" cType="1" res="-2.6993048959411681e-04" rms="4.8039433360099792e-01" purity="4.9918794631958008e-01" nType="0">
        <Node pos="l" depth="1" NCoef="0" IVar="15" Cut="4.6404033660888672e+01" cType="1" res="1.0910055041313171e-01" rms="4.6602737903594971e-01" purity="6.5127640962600708e-01" nType="0">
          <Node pos="l" depth="2" NCoef="0" IVar="-1" Cut="0.0000000000000000e+00" cType="1" res="3.0073514208197594e-03" rms="4.5253187417984009e-01" purity="6.9971740245819092e-01" nType="-99"/>
          <Node pos="r" depth="2" NCoef="0" IVar="-1" Cut="0.0000000000000000e+00" cType="1" res="-2.7271963190287352e-03" rms="4.7477588057518005e-01" purity="3.4667950868606567e-01" nType="-99"/>
        </Node>
        <Node pos="r" depth="1" NCoef="0" IVar="15" Cut="1.9279502868652344e+01" cType="1" res="-9.3760333955287933e-02" rms="4.7269031405448914e-01" purity="3.6918199062347412e-01" nType="0">
          <Node pos="l" depth="2" NCoef="0" IVar="-1" Cut="0.0000000000000000e+00" cType="1" res="8.3985715173184872e-04" rms="4.9583134055137634e-01" purity="5.4941040277481079e-01" nType="-99"/>
          <Node pos="r" depth="2" NCoef="0" IVar="-1" Cut="0.0000000000000000e+00" cType="1" res="-3.1485145445913076e-03" rms="4.4864067435264587e-01" purity="2.8790956735610962e-01" nType="-99"/>
        </Node>
      </Node>
    </BinaryTree>
    <BinaryTree type="DecisionTree" boostWeight="1.0000000000000000e+00" itree="39">
      <Node pos="s" depth="0" NCoef="0" IVar="15" Cut="2.3863969802856445e+01" cType="1" res="1.1981637217104435e-03" rms="4.8040243983268738e-01" purity="5.0129854679107666e-01" nType="0">
        <Node pos="l" depth="1" NCoef="0" IVar="0" Cut="8.8232620239257812e+01" cType="1" res="1.0642682015895844e-01" rms="4.6841651201248169e-01" purity="6.4753657579421997e-01" nType="0">
          <Node pos="l" depth="2" NCoef="0" IVar="-1" Cut="0.0000000000000000e+00" cType="1" res="3.1785641331225634e-03" rms="4.4858339428901672e-01" purity="7.1116328239440918e-01" nType="-99"/>
          <Node pos="r" depth="2" NCoef="0" IVar="-1" Cut="0.0000000000000000e+00" cType="1" res="-1.3982316013425589e-03" rms="4.9362602829933167e-01" purity="4.2310914397239685e-01" nType="-99"/>
        </Node>
        <Node pos="r" depth="1" NCoef="0" IVar="0" Cut="6.8437026977539062e+01" cType="1" res="-8.8710255920886993e-02" rms="4.7218513488769531e-01" purity="3.7635135650634766e-01" nType="0">
          <Node pos="l" depth="2" NCoef="0" IVar="-1" Cut="0.0000000000000000e+00" cType="1" res="-6.0274964198470116e-05" rms="4.9217778444290161e-01" purity="4.9486851692199707e-01" nType="-99"/>
          <Node pos="r" depth="2" NCoef="0" IVar="-1" Cut="0.0000000000000000e+00" cType="1" res="-3.6778615321964025e-03" rms="4.3148258328437805e-01" purity="2.4987623095512390e-01" nType="-99"/>
        </Node>
      </Node>
    </BinaryTree>
    <BinaryTree type="DecisionTree" boostWeight="1.0000000000000000e+00" itree="40">
      <Node pos="s" depth="0" NCoef="0" IVar="15" Cut="2.9663864135742188e+01" cType="1" res="4.4830841943621635e-04" rms="4.8047587275505066e-01" purity="5.0097942352294922e-01" nType="0">
        <Node pos="l" depth="1" NCoef="0" IVar="0" Cut="8.1920082092285156e+01" cType="1" res="8.2189045846462250e-02" rms="4.7439748048782349e-01" purity="6.1539220809936523e-01" nType="0">
          <Node pos="l" depth="2" NCoef="0" IVar="-1" Cut="0.0000000000000000e+00" cType="1" res="2.7949805371463299e-03" rms="4.5659506320953369e-01" purity="6.8986237049102783e-01" nType="-99"/>
          <Node pos="r" depth="2" NCoef="0" IVar="-1" Cut="0.0000000000000000e+00" cType="1" res="-1.3810776872560382e-03" rms="4.8900559544563293e-01" purity="4.1216716170310974e-01" nType="-99"/>
        </Node>
        <Node pos="r" depth="1" NCoef="0" IVar="4" Cut="9.5799293518066406e+01" cType="1" res="-1.1521416902542114e-01" rms="4.6501368284225464e-01" purity="3.3908638358116150e-01" nType="0">
          <Node pos="l" depth="2" NCoef="0" IVar="-1" Cut="0.0000000000000000e+00" cType="1" res="-6.1021395958960056e-04" rms="4.9191528558731079e-01" purity="4.4862860441207886e-01" nType="-99"/>
          <Node pos="r" depth="2" NCoef="0" IVar="-1" Cut="0.0000000000000000e+00" cType="1" res="-3.8417798932641745e-03" rms="4.2730051279067993e-01" purity="2.4491353332996368e-01" nType="-99"/>
        </Node>
      </Node>
    </BinaryTree>
    <BinaryTree type="DecisionTree" boostWeight="1.0000000000000000e+00" itree="41">
      <Node pos="s" depth="0" NCoef="0" IVar="0" Cut="5.8399578094482422e+01" cType="1" res="2.9400223866105080e-03" rms="4.8010239005088806e-01" purity="5.0364243984222412e-01" nType="0">
        <Node pos="l" depth="1" NCoef="0" IVar="15" Cut="4.0003044128417969e+01" cType="1" res="1.1278501898050308e-01" rms="4.6337068080902100e-01" purity="6.5987825393676758e-01" nType="0">
          <Node pos="l" depth="2" NCoef="0" IVar="-1" Cut="0.0000000000000000e+00" cType="1" res="3.1905819196254015e-03" rms="4.4541078805923462e-01" purity="7.1867012977600098e-01" nType="-99"/>
          <Node pos="r" depth="2" NCoef="0" IVar="-1" Cut="0.0000000000000000e+00" cType="1" res="-1.4149275375530124e-03" rms="4.9138194322586060e-01" purity="4.1341415047645569e-01" nType="-99"/>
        </Node>
        <Node pos="r" depth="1" NCoef="0" IVar="15" Cut="2.5692537307739258e+01" cType="1" res="-8.1061534583568573e-02" rms="4.7569614648818970e-01" purity="3.8416448235511780e-01" nType="0">
          <Node pos="l" depth="2" NCoef="0" IVar="-1" Cut="0.0000000000000000e+00" cType="1" res="1.9118261116091162e-04" rms="4.9624145030975342e-01" purity="5.1402336359024048e-01" nType="-99"/>
          <Node pos="r" depth="2" NCoef="0" IVar="-1" Cut="0.0000000000000000e+00" cType="1" res="-3.2573651988059282e-03" rms="4.4239890575408936e-01" purity="2.7166572213172913e-01" nType="-99"/>
        </Node>
      </Node>
    </BinaryTree>
    <BinaryTree type="DecisionTree" boostWeight="1.0000000000000000e+00" itree="42">
      <Node pos="s" depth="0" NCoef="0" IVar="15" Cut="2.9349674224853516e+01" cType="1" res="8.6003547767177224e-04" rms="4.7902491688728333e-01" purity="5.0114476680755615e-01" nType="0">
        <Node pos="l" depth="1" NCoef="0" IVar="0" Cut="5.2875041961669922e+01" cType="1" res="8.5560843348503113e-02" rms="4.7229769825935364e-01" purity="6.2079125642776489e-01" nType="0">
          <Node pos="l" depth="2" NCoef="0" IVar="-1" Cut="0.0000000000000000e+00" cType="1" res="4.1240509599447250e-03" rms="4.1460505127906799e-01" purity="7.7865791320800781e-01" nType="-99"/>
          <Node pos="r" depth="2" NCoef="0" IVar="-1" Cut="0.0000000000000000e+00" cType="1" res="2.1860749984625727e-04" rms="4.9183723330497742e-01" purity="5.1879841089248657e-01" nType="-99"/>
        </Node>
        <Node pos="r" depth="1" NCoef="0" IVar="0" Cut="6.5543518066406250e+01" cType="1" res="-1.1448656022548676e-01" rms="4.6379452943801880e-01" purity="3.3820864558219910e-01" nType="0">
          <Node pos="l" depth="2" NCoef="0" IVar="-1" Cut="0.0000000000000000e+00" cType="1" res="-6.3704908825457096e-04" rms="4.9374040961265564e-01" purity="4.5627608895301819e-01" nType="-99"/>
          <Node pos="r" depth="2" NCoef="0" IVar="-1" Cut="0.0000000000000000e+00" cType="1" res="-3.8648475892841816e-03" rms="4.2180275917053223e-01" purity="2.3276019096374512e-01" nType="-99"/>
        </Node>
      </Node>
    </BinaryTree>
    <BinaryTree type="DecisionTree" boostWeight="1.0000000000000000e+00" itree="43">
      <Node pos="s" depth="0" NCoef="0" IVar="0" Cut="6.0455211639404297e+01" cType="1" res="1.7007217975333333e-03" rms="4.7874271869659424e-01" purity="5.0194942951202393e-01" nType="0">
        <Node pos="l" depth="1" NCoef="0" IVar="15" Cut="4.0721942901611328e+01" cType="1" res="1.0603654384613037e-01" rms="4.6434882283210754e-01" purity="6.5287119150161743e-01" nType="0">
          <Node pos="l" depth="2" NCoef="0" IVar="-1" Cut="0.0000000000000000e+00" cType="1" res="3.1250119209289551e-03" rms="4.4609445333480835e-01" purity="7.1563136577606201e-01" nType="-99"/>
          <Node pos="r" depth="2" NCoef="0" IVar="-1" Cut="0.0000000000000000e+00" cType="1" res="-1.8186026718467474e-03" rms="4.8678782582283020e-01" purity="3.9094638824462891e-01" nType="-99"/>
        </Node>
        <Node pos="r" depth="1" NCoef="0" IVar="15" Cut="2.0193815231323242e+01" cType="1" res="-8.7908476591110229e-02" rms="4.7273042798042297e-01" purity="3.7232965230941772e-01" nType="0">
          <Node pos="l" depth="2" NCoef="0" IVar="-1" Cut="0.0000000000000000e+00" cType="1" res="6.2968250131234527e-04" rms="4.9633955955505371e-01" purity="5.3990995883941650e-01" nType="-99"/>
          <Node pos="r" depth="2" NCoef="0" IVar="-1" Cut="0.0000000000000000e+00" cType="1" res="-3.0250677373260260e-03" rms="4.4837772846221924e-01" purity="2.8753560781478882e-01" nType="-99"/>
        </Node>
      </Node>
    </BinaryTree>
    <BinaryTree type="DecisionTree" boostWeight="1.0000000000000000e+00" itree="44">
      <Node pos="s" depth="0" NCoef="0" IVar="15" Cut="2.4162229537963867e+01" cType="1" res="3.0043306760489941e-03" rms="4.7931933403015137e-01" purity="5.0329530239105225e-01" nType="0">
        <Node pos="l" depth="1" NCoef="0" IVar="0" Cut="5.5359756469726562e+01" cType="1" res="1.0362052917480469e-01" rms="4.6762487292289734e-01" purity="6.4833086729049683e-01" nType="0">
          <Node pos="l" depth="2" NCoef="0" IVar="-1" Cut="0.0000000000000000e+00" cType="1" res="4.1237701661884785e-03" rms="4.1081306338310242e-01" purity="7.8481107950210571e-01" nType="-99"/>
          <Node pos="r" depth="2" NCoef="0" IVar="-1" Cut="0.0000000000000000e+00" cType="1" res="5.7882891269400716e-04" rms="4.9442943930625916e-01" purity="5.4273319244384766e-01" nType="-99"/>
        </Node>
        <Node pos="r" depth="1" NCoef="0" IVar="4" Cut="7.2457443237304688e+01" cType="1" res="-8.5634171962738037e-02" rms="4.7194015979766846e-01" purity="3.7552523612976074e-01" nType="0">
          <Node pos="l" depth="2" NCoef="0" IVar="-1" Cut="0.0000000000000000e+00" cType="1" res="7.1363034658133984e-04" rms="4.9160552024841309e-01" purity="5.3747063875198364e-01" nType="-99"/>
          <Node pos="r" depth="2" NCoef="0" IVar="-1" Cut="0.0000000000000000e+00" cType="1" res="-2.8582005761563778e-03" rms="4.5236414670944214e-01" purity="3.0264332890510559e-01" nType="-99"/>
        </Node>
      </Node>
    </BinaryTree>
    <BinaryTree type="DecisionTree" boostWeight="1.0000000000000000e+00" itree="45">
      <Node pos="s" depth="0" NCoef="0" IVar="15" Cut="3.3822940826416016e+01" cType="1" res="-1.0425165528431535e-03" rms="4.7796761989593506e-01" purity="4.9864813685417175e-01" nType="0">
        <Node pos="l" depth="1" NCoef="0" IVar="0" Cut="8.2473197937011719e+01" cType="1" res="6.9199174642562866e-02" rms="4.7520703077316284e-01" purity="5.9812754392623901e-01" nType="0">
          <Node pos="l" depth="2" NCoef="0" IVar="-1" Cut="0.0000000000000000e+00" cType="1" res="2.5652421172708273e-03" rms="4.5930004119873047e-01" purity="6.7666059732437134e-01" nType="-99"/>
          <Node pos="r" depth="2" NCoef="0" IVar="-1" Cut="0.0000000000000000e+00" cType="1" res="-1.6247038729488850e-03" rms="4.8382836580276489e-01" purity="3.9083981513977051e-01" nType="-99"/>
        </Node>
        <Node pos="r" depth="1" NCoef="0" IVar="0" Cut="6.3159076690673828e+01" cType="1" res="-1.3567718863487244e-01" rms="4.5377650856971741e-01" purity="3.0797243118286133e-01" nType="0">
          <Node pos="l" depth="2" NCoef="0" IVar="-1" Cut="0.0000000000000000e+00" cType="1" res="-1.0219240793958306e-03" rms="4.9268272519111633e-01" purity="4.3133848905563354e-01" nType="-99"/>
          <Node pos="r" depth="2" NCoef="0" IVar="-1" Cut="0.0000000000000000e+00" cType="1" res="-4.0782620199024677e-03" rms="4.1188567876815796e-01" purity="2.1719183027744293e-01" nType="-99"/>
        </Node>
      </Node>
    </BinaryTree>
    <BinaryTree type="DecisionTree" boostWeight="1.0000000000000000e+00" itree="46">
      <Node pos="s" depth="0" NCoef="0" IVar="0" Cut="6.9774154663085938e+01" cType="1" res="2.1311677992343903e-03" rms="4.7864589095115662e-01" purity="5.0312662124633789e-01" nType="0">
        <Node pos="l" depth="1" NCoef="0" IVar="15" Cut="3.3650375366210938e+01" cType="1" res="7.9045206308364868e-02" rms="4.7268667817115784e-01" purity="6.1607027053833008e-01" nType="0">
          <Node pos="l" depth="2" NCoef="0" IVar="-1" Cut="0.0000000000000000e+00" cType="1" res="2.7418530080467463e-03" rms="4.5434927940368652e-01" purity="6.9831234216690063e-01" nType="-99"/>
          <Node pos="r" depth="2" NCoef="0" IVar="-1" Cut="0.0000000000000000e+00" cType="1" res="-1.0301185538992286e-03" rms="4.8929819464683533e-01" purity="4.2192968726158142e-01" nType="-99"/>
        </Node>
        <Node pos="r" depth="1" NCoef="0" IVar="15" Cut="2.0095138549804688e+01" cType="1" res="-1.0407840460538864e-01" rms="4.6634852886199951e-01" purity="3.4716424345970154e-01" nType="0">
          <Node pos="l" depth="2" NCoef="0" IVar="-1" Cut="0.0000000000000000e+00" cType="1" res="2.8139530331827700e-04" rms="4.9864313006401062e-01" purity="5.1579028367996216e-01" nType="-99"/>
          <Node pos="r" depth="2" NCoef="0" IVar="-1" Cut="0.0000000000000000e+00" cType="1" res="-3.2912839669734240e-03" rms="4.3894201517105103e-01" purity="2.6640653610229492e-01" nType="-99"/>
        </Node>
      </Node>
    </BinaryTree>
    <BinaryTree type="DecisionTree" boostWeight="1.0000000000000000e+00" itree="47">
      <Node pos="s" depth="0" NCoef="0" IVar="0" Cut="6.9267509460449219e+01" cType="1" res="9.0782227925956249e-04" rms="4.7817981243133545e-01" purity="5.0101685523986816e-01" nType="0">
        <Node pos="l" depth="1" NCoef="0" IVar="15" Cut="3.5527935028076172e+01" cType="1" res="7.9878844320774078e-02" rms="4.7175908088684082e-01" purity="6.1768364906311035e-01" nType="0">
          <Node pos="l" depth="2" NCoef="0" IVar="-1" Cut="0.0000000000000000e+00" cType="1" res="2.7313462924212217e-03" rms="4.5435559749603271e-01" purity="6.9634777307510376e-01" nType="-99"/>
          <Node pos="r" depth="2" NCoef="0" IVar="-1" Cut="0.0000000000000000e+00" cType="1" res="-1.3288090704008937e-03" rms="4.8694574832916260e-01" purity="4.0437850356101990e-01" nType="-99"/>
        </Node>
        <Node pos="r" depth="1" NCoef="0" IVar="15" Cut="1.7624244689941406e+01" cType="1" res="-1.0323227941989899e-01" rms="4.6650826930999756e-01" purity="3.4716692566871643e-01" nType="0">
          <Node pos="l" depth="2" NCoef="0" IVar="-1" Cut="0.0000000000000000e+00" cType="1" res="5.3178734378889203e-04" rms="4.9790817499160767e-01" purity="5.2923768758773804e-01" nType="-99"/>
          <Node pos="r" depth="2" NCoef="0" IVar="-1" Cut="0.0000000000000000e+00" cType="1" res="-3.0681854113936424e-03" rms="4.4551810622215271e-01" purity="2.8164732456207275e-01" nType="-99"/>
        </Node>
      </Node>
    </BinaryTree>
    <BinaryTree type="DecisionTree" boostWeight="1.0000000000000000e+00" itree="48">
      <Node pos="s" depth="0" NCoef="0" IVar="15" Cut="2.8422616958618164e+01" cType="1" res="-2.5629096198827028e-03" rms="4.7795140743255615e-01" purity="4.9864739179611206e-01" nType="0">
        <Node pos="l" depth="1" NCoef="0" IVar="0" Cut="5.5578144073486328e+01" cType="1" res="7.8351639211177826e-02" rms="4.7274571657180786e-01" purity="6.1920094490051270e-01" nType="0">
          <Node pos="l" depth="2" NCoef="0" IVar="-1" Cut="0.0000000000000000e+00" cType="1" res="3.5740840248763561e-03" rms="4.2638549208641052e-01" purity="7.5996977090835571e-01" nType="-99"/>
          <Node pos="r" depth="2" NCoef="0" IVar="-1" Cut="0.0000000000000000e+00" cType="1" res="7.6836942753288895e-05" rms="4.9354755878448486e-01" purity="5.0866848230361938e-01" nType="-99"/>
        </Node>
        <Node pos="r" depth="1" NCoef="0" IVar="4" Cut="7.7325912475585938e+01" cType="1" res="-1.0593289136886597e-01" rms="4.6444648504257202e-01" purity="3.4463769197463989e-01" nType="0">
          <Node pos="l" depth="2" NCoef="0" IVar="-1" Cut="0.0000000000000000e+00" cType="1" res="3.5609940823633224e-05" rms="4.9516144394874573e-01" purity="4.9186787009239197e-01" nType="-99"/>
          <Node pos="r" depth="2" NCoef="0" IVar="-1" Cut="0.0000000000000000e+00" cType="1" res="-3.3120063599199057e-03" rms="4.3750554323196411e-01" purity="2.6862078905105591e-01" nType="-99"/>
        </Node>
      </Node>
    </BinaryTree>
    <BinaryTree type="DecisionTree" boostWeight="1.0000000000000000e+00" itree="49">
      <Node pos="s" depth="0" NCoef="0" IVar="0" Cut="5.8589965820312500e+01" cType="1" res="-1.4011865714564919e-03" rms="4.7644901275634766e-01" purity="4.9888637661933899e-01" nType="0">
        <Node pos="l" depth="1" NCoef="0" IVar="15" Cut="4.4615291595458984e+01" cType="1" res="1.0641670227050781e-01" rms="4.6067863702774048e-01" purity="6.5983170270919800e-01" nType="0">
          <Node pos="l" depth="2" NCoef="0" IVar="-1" Cut="0.0000000000000000e+00" cType="1" res="3.0186225194483995e-03" rms="4.4522643089294434e-01" purity="7.1456640958786011e-01" nType="-99"/>
          <Node pos="r" depth="2" NCoef="0" IVar="-1" Cut="0.0000000000000000e+00" cType="1" res="-2.3636296391487122e-03" rms="4.7896581888198853e-01" purity="3.5995852947235107e-01" nType="-99"/>
        </Node>
        <Node pos="r" depth="1" NCoef="0" IVar="15" Cut="2.2936748504638672e+01" cType="1" res="-8.4943518042564392e-02" rms="4.7166550159454346e-01" purity="3.7417840957641602e-01" nType="0">
          <Node pos="l" depth="2" NCoef="0" IVar="-1" Cut="0.0000000000000000e+00" cType="1" res="2.1709360589738935e-04" rms="4.9575132131576538e-01" purity="5.2014684677124023e-01" nType="-99"/>
          <Node pos="r" depth="2" NCoef="0" IVar="-1" Cut="0.0000000000000000e+00" cType="1" res="-3.0375893693417311e-03" rms="4.4392716884613037e-01" purity="2.7793973684310913e-01" nType="-99"/>
        </Node>
      </Node>
    </BinaryTree>
    <BinaryTree type="DecisionTree" boostWeight="1.0000000000000000e+00" itree="50">
      <Node pos="s" depth="0" NCoef="0" IVar="15" Cut="3.6676143646240234e+01" cType="1" res="4.0808093035593629e-04" rms="4.7729489207267761e-01" purity="5.0094711780548096e-01" nType="0">
        <Node pos="l" depth="1" NCoef="0" IVar="0" Cut="7.8134719848632812e+01" cType="1" res="5.8590847998857498e-02" rms="4.7647160291671753e-01" purity="5.8580267429351807e-01" nType="0">
          <Node pos="l" depth="2" NCoef="0" IVar="-1" Cut="0.0000000000000000e+00" cType="1" res="2.3397626355290413e-03" rms="4.6184808015823364e-01" purity="6.6898059844970703e-01" nType="-99"/>
          <Node pos="r" depth="2" NCoef="0" IVar="-1" Cut="0.0000000000000000e+00" cType="1" res="-1.3144228141754866e-03" rms="4.8491048812866211e-01" purity="4.0194004774093628e-01" nType="-99"/>
        </Node>
        <Node pos="r" depth="1" NCoef="0" IVar="4" Cut="1.0104241180419922e+02" cType="1" res="-1.3956740498542786e-01" rms="4.4940206408500671e-01" purity="2.9680246114730835e-01" nType="0">
          <Node pos="l" depth="2" NCoef="0" IVar="-1" Cut="0.0000000000000000e+00" cType="1" res="-1.3672994682565331e-03" rms="4.8459649085998535e-01" purity="3.9431619644165039e-01" nType="-99"/>
          <Node pos="r" depth="2" NCoef="0" IVar="-1" Cut="0.0000000000000000e+00" cType="1" res="-4.2814197950065136e-03" rms="4.0205097198486328e-01" purity="2.0514415204524994e-01" nType="-99"/>
        </Node>
      </Node>
    </BinaryTree>
    <BinaryTree type="DecisionTree" boostWeight="1.0000000000000000e+00" itree="51">
      <Node pos="s" depth="0" NCoef="0" IVar="15" Cut="2.1121116638183594e+01" cType="1" res="2.0012378226965666e-03" rms="4.7703203558921814e-01" purity="5.0241941213607788e-01" nType="0">
        <Node pos="l" depth="1" NCoef="0" IVar="0" Cut="8.5713043212890625e+01" cType="1" res="1.1083597689867020e-01" rms="4.6221593022346497e-01" purity="6.6449791193008423e-01" nType="0">
          <Node pos="l" depth="2" NCoef="0" IVar="-1" Cut="0.0000000000000000e+00" cType="1" res="3.1921248883008957e-03" rms="4.4127315282821655e-01" purity="7.2727859020233154e-01" nType="-99"/>
          <Node pos="r" depth="2" NCoef="0" IVar="-1" Cut="0.0000000000000000e+00" cType="1" res="-7.5784319778904319e-04" rms="4.9774098396301270e-01" purity="4.5588272809982300e-01" nType="-99"/>
        </Node>
        <Node pos="r" depth="1" NCoef="0" IVar="4" Cut="7.2454559326171875e+01" cType="1" res="-6.9301389157772064e-02" rms="4.7310921549797058e-01" purity="3.9623433351516724e-01" nType="0">
          <Node pos="l" depth="2" NCoef="0" IVar="-1" Cut="0.0000000000000000e+00" cType="1" res="9.4373495085164905e-04" rms="4.8692297935485840e-01" purity="5.5968016386032104e-01" nType="-99"/>
          <Node pos="r" depth="2" NCoef="0" IVar="-1" Cut="0.0000000000000000e+00" cType="1" res="-2.5189311709254980e-03" rms="4.5668715238571167e-01" purity="3.2048633694648743e-01" nType="-99"/>
        </Node>
      </Node>
    </BinaryTree>
    <BinaryTree type="DecisionTree" boostWeight="1.0000000000000000e+00" itree="52">
      <Node pos="s" depth="0" NCoef="0" IVar="0" Cut="5.2840709686279297e+01" cType="1" res="-3.9301444776356220e-03" rms="4.7585427761077881e-01" purity="4.9675047397613525e-01" nType="0">
        <Node pos="l" depth="1" NCoef="0" IVar="15" Cut="2.3121013641357422e+01" cType="1" res="1.2216495722532272e-01" rms="4.5334592461585999e-01" purity="6.8063443899154663e-01" nType="0">
          <Node pos="l" depth="2" NCoef="0" IVar="-1" Cut="0.0000000000000000e+00" cType="1" res="4.3755215592682362e-03" rms="3.9445286989212036e-01" purity="8.0711942911148071e-01" nType="-99"/>
          <Node pos="r" depth="2" NCoef="0" IVar="-1" Cut="0.0000000000000000e+00" cType="1" res="6.3194899121299386e-04" rms="4.9041342735290527e-01" purity="5.5076068639755249e-01" nType="-99"/>
        </Node>
        <Node pos="r" depth="1" NCoef="0" IVar="15" Cut="1.7972890853881836e+01" cType="1" res="-7.1814090013504028e-02" rms="4.7384470701217651e-01" purity="3.9775556325912476e-01" nType="0">
          <Node pos="l" depth="2" NCoef="0" IVar="-1" Cut="0.0000000000000000e+00" cType="1" res="1.1057195952162147e-03" rms="4.8818695545196533e-01" purity="5.8140486478805542e-01" nType="-99"/>
          <Node pos="r" depth="2" NCoef="0" IVar="-1" Cut="0.0000000000000000e+00" cType="1" res="-2.5409816298633814e-03" rms="4.5762425661087036e-01" purity="3.2171452045440674e-01" nType="-99"/>
        </Node>
      </Node>
    </BinaryTree>
    <BinaryTree type="DecisionTree" boostWeight="1.0000000000000000e+00" itree="53">
      <Node pos="s" depth="0" NCoef="0" IVar="15" Cut="2.0850069046020508e+01" cType="1" res="-1.3762101298198104e-03" rms="4.7571262717247009e-01" purity="4.9868535995483398e-01" nType="0">
        <Node pos="l" depth="1" NCoef="0" IVar="0" Cut="8.6224182128906250e+01" cType="1" res="1.0874889791011810e-01" rms="4.6073645353317261e-01" purity="6.6387593746185303e-01" nType="0">
          <Node pos="l" depth="2" NCoef="0" IVar="-1" Cut="0.0000000000000000e+00" cType="1" res="3.3070174977183342e-03" rms="4.3644872307777405e-01" purity="7.3516714572906494e-01" nType="-99"/>
          <Node pos="r" depth="2" NCoef="0" IVar="-1" Cut="0.0000000000000000e+00" cType="1" res="-1.1621649609878659e-03" rms="4.9542763829231262e-01" purity="4.3581679463386536e-01" nType="-99"/>
        </Node>
        <Node pos="r" depth="1" NCoef="0" IVar="0" Cut="5.7572170257568359e+01" cType="1" res="-7.2432607412338257e-02" rms="4.7167512774467468e-01" purity="3.9209884405136108e-01" nType="0">
          <Node pos="l" depth="2" NCoef="0" IVar="-1" Cut="0.0000000000000000e+00" cType="1" res="5.7482457486912608e-04" rms="4.8909941315650940e-01" purity="5.5335807800292969e-01" nType="-99"/>
          <Node pos="r" depth="2" NCoef="0" IVar="-1" Cut="0.0000000000000000e+00" cType="1" res="-2.7453859802335501e-03" rms="4.4986313581466675e-01" purity="2.9415819048881531e-01" nType="-99"/>
        </Node>
      </Node>
    </BinaryTree>
    <BinaryTree type="DecisionTree" boostWeight="1.0000000000000000e+00" itree="54">
      <Node pos="s" depth="0" NCoef="0" IVar="15" Cut="2.4765371322631836e+01" cType="1" res="6.5128097776323557e-04" rms="4.7596803307533264e-01" purity="5.0100159645080566e-01" nType="0">
        <Node pos="l" depth="1" NCoef="0" IVar="0" Cut="8.1259849548339844e+01" cType="1" res="9.6490904688835144e-02" rms="4.6528229117393494e-01" purity="6.4817893505096436e-01" nType="0">
          <Node pos="l" depth="2" NCoef="0" IVar="-1" Cut="0.0000000000000000e+00" cType="1" res="2.9692354146391153e-03" rms="4.4387748837471008e-01" purity="7.1915775537490845e-01" nType="-99"/>
          <Node pos="r" depth="2" NCoef="0" IVar="-1" Cut="0.0000000000000000e+00" cType="1" res="-6.9450400769710541e-04" rms="4.9625945091247559e-01" purity="4.5386323332786560e-01" nType="-99"/>
        </Node>
        <Node pos="r" depth="1" NCoef="0" IVar="4" Cut="1.0306755828857422e+02" cType="1" res="-8.6555883288383484e-02" rms="4.6875855326652527e-01" purity="3.6708080768585205e-01" nType="0">
          <Node pos="l" depth="2" NCoef="0" IVar="-1" Cut="0.0000000000000000e+00" cType="1" res="-3.7945449003018439e-04" rms="4.8998755216598511e-01" purity="4.6695101261138916e-01" nType="-99"/>
          <Node pos="r" depth="2" NCoef="0" IVar="-1" Cut="0.0000000000000000e+00" cType="1" res="-3.3100780565291643e-03" rms="4.3259394168853760e-01" purity="2.5839263200759888e-01" nType="-99"/>
        </Node>
      </Node>
    </BinaryTree>
    <BinaryTree type="DecisionTree" boostWeight="1.0000000000000000e+00" itree="55">
      <Node pos="s" depth="0" NCoef="0" IVar="0" Cut="6.2321052551269531e+01" cType="1" res="2.7682986110448837e-03" rms="4.7507449984550476e-01" purity="5.0382775068283081e-01" nType="0">
        <Node pos="l" depth="1" NCoef="0" IVar="15" Cut="3.4299926757812500e+01" cType="1" res="9.2737108469009399e-02" rms="4.6380552649497986e-01" purity="6.4683699607849121e-01" nType="0">
          <Node pos="l" depth="2" NCoef="0" IVar="-1" Cut="0.0000000000000000e+00" cType="1" res="3.0131852254271507e-03" rms="4.4054678082466125e-01" purity="7.2888720035552979e-01" nType="-99"/>
          <Node pos="r" depth="2" NCoef="0" IVar="-1" Cut="0.0000000000000000e+00" cType="1" res="-9.0066553093492985e-04" rms="4.9308609962463379e-01" purity="4.3502792716026306e-01" nType="-99"/>
        </Node>
        <Node pos="r" depth="1" NCoef="0" IVar="15" Cut="1.4534369468688965e+01" cType="1" res="-8.3957687020301819e-02" rms="4.6964949369430542e-01" purity="3.6597314476966858e-01" nType="0">
          <Node pos="l" depth="2" NCoef="0" IVar="-1" Cut="0.0000000000000000e+00" cType="1" res="1.1537879472598433e-03" rms="4.9328413605690002e-01" purity="5.6913638114929199e-01" nType="-99"/>
          <Node pos="r" depth="2" NCoef="0" IVar="-1" Cut="0.0000000000000000e+00" cType="1" res="-2.4808519519865513e-03" rms="4.5608276128768921e-01" purity="3.1284922361373901e-01" nType="-99"/>
        </Node>
      </Node>
    </BinaryTree>
    <BinaryTree type="DecisionTree" boostWeight="1.0000000000000000e+00" itree="56">
      <Node pos="s" depth="0" NCoef="0" IVar="0" Cut="6.0471961975097656e+01" cType="1" res="3.6436971276998520e-03" rms="4.7382807731628418e-01" purity="5.0370001792907715e-01" nType="0">
        <Node pos="l" depth="1" NCoef="0" IVar="15" Cut="3.8367385864257812e+01" cType="1" res="1.0186889022588730e-01" rms="4.5973664522171021e-01" purity="6.5939319133758545e-01" nType="0">
          <Node pos="l" depth="2" NCoef="0" IVar="-1" Cut="0.0000000000000000e+00" cType="1" res="3.0465882737189531e-03" rms="4.3977043032646179e-01" purity="7.2780036926269531e-01" nType="-99"/>
          <Node pos="r" depth="2" NCoef="0" IVar="-1" Cut="0.0000000000000000e+00" cType="1" res="-1.2311066966503859e-03" rms="4.9110046029090881e-01" purity="4.1578507423400879e-01" nType="-99"/>
        </Node>
        <Node pos="r" depth="1" NCoef="0" IVar="15" Cut="2.4837295532226562e+01" cType="1" res="-8.1025578081607819e-02" rms="4.6943289041519165e-01" purity="3.6949384212493896e-01" nType="0">
          <Node pos="l" depth="2" NCoef="0" IVar="-1" Cut="0.0000000000000000e+00" cType="1" res="1.7532506899442524e-04" rms="4.9570876359939575e-01" purity="5.1295423507690430e-01" nType="-99"/>
          <Node pos="r" depth="2" NCoef="0" IVar="-1" Cut="0.0000000000000000e+00" cType="1" res="-3.0716150067746639e-03" rms="4.3674764037132263e-01" purity="2.6182910799980164e-01" nType="-99"/>
        </Node>
      </Node>
    </BinaryTree>
    <BinaryTree type="DecisionTree" boostWeight="1.0000000000000000e+00" itree="57">
      <Node pos="s" depth="0" NCoef="0" IVar="0" Cut="6.0409908294677734e+01" cType="1" res="-2.7919006533920765e-03" rms="4.7448045015335083e-01" purity="4.9772608280181885e-01" nType="0">
        <Node pos="l" depth="1" NCoef="0" IVar="15" Cut="3.3952590942382812e+01" cType="1" res="9.2436917126178741e-02" rms="4.6250128746032715e-01" purity="6.5037906169891357e-01" nType="0">
          <Node pos="l" depth="2" NCoef="0" IVar="-1" Cut="0.0000000000000000e+00" cType="1" res="3.0297720804810524e-03" rms="4.3787530064582825e-01" purity="7.3494678735733032e-01" nType="-99"/>
          <Node pos="r" depth="2" NCoef="0" IVar="-1" Cut="0.0000000000000000e+00" cType="1" res="-8.3879346493631601e-04" rms="4.9379971623420715e-01" purity="4.3984341621398926e-01" nType="-99"/>
        </Node>
        <Node pos="r" depth="1" NCoef="0" IVar="15" Cut="3.3065067291259766e+01" cType="1" res="-8.4352903068065643e-02" rms="4.6938878297805786e-01" purity="3.6698281764984131e-01" nType="0">
          <Node pos="l" depth="2" NCoef="0" IVar="-1" Cut="0.0000000000000000e+00" cType="1" res="-5.5971613619476557e-04" rms="4.9095880985260010e-01" purity="4.5573616027832031e-01" nType="-99"/>
          <Node pos="r" depth="2" NCoef="0" IVar="-1" Cut="0.0000000000000000e+00" cType="1" res="-3.6056363023817539e-03" rms="4.1826850175857544e-01" purity="2.2782556712627411e-01" nType="-99"/>
        </Node>
      </Node>
    </BinaryTree>
    <BinaryTree type="DecisionTree" boostWeight="1.0000000000000000e+00" itree="58">
      <Node pos="s" depth="0" NCoef="0" IVar="0" Cut="5.9162311553955078e+01" cType="1" res="1.0291482321918011e-03" rms="4.7461017966270447e-01" purity="5.0151783227920532e-01" nType="0">
        <Node pos="l" depth="1" NCoef="0" IVar="15" Cut="4.4910831451416016e+01" cType="1" res="9.7681917250156403e-02" rms="4.6098572015762329e-01" purity="6.5837699174880981e-01" nType="0">
          <Node pos="l" depth="2" NCoef="0" IVar="-1" Cut="0.0000000000000000e+00" cType="1" res="2.7113161049783230e-03" rms="4.4854018092155457e-01" purity="7.0713514089584351e-01" nType="-99"/>
          <Node pos="r" depth="2" NCoef="0" IVar="-1" Cut="0.0000000000000000e+00" cType="1" res="-1.9870512187480927e-03" rms="4.8279091715812683e-01" purity="3.7444707751274109e-01" nType="-99"/>
        </Node>
        <Node pos="r" depth="1" NCoef="0" IVar="15" Cut="1.7450880050659180e+01" cType="1" res="-7.5981758534908295e-02" rms="4.7120839357376099e-01" purity="3.7653571367263794e-01" nType="0">
          <Node pos="l" depth="2" NCoef="0" IVar="-1" Cut="0.0000000000000000e+00" cType="1" res="8.8942848378792405e-04" rms="4.9290373921394348e-01" purity="5.6002491712570190e-01" nType="-99"/>
          <Node pos="r" depth="2" NCoef="0" IVar="-1" Cut="0.0000000000000000e+00" cType="1" res="-2.4887518957257271e-03" rms="4.5472362637519836e-01" purity="3.0789896845817566e-01" nType="-99"/>
        </Node>
      </Node>
    </BinaryTree>
    <BinaryTree type="DecisionTree" boostWeight="1.0000000000000000e+00" itree="59">
      <Node pos="s" depth="0" NCoef="0" IVar="0" Cut="6.9260398864746094e+01" cType="1" res="-2.5619633379392326e-04" rms="4.7417685389518738e-01" purity="5.0021761655807495e-01" nType="0">
        <Node pos="l" depth="1" NCoef="0" IVar="15" Cut="4.4798652648925781e+01" cType="1" res="7.2976306080818176e-02" rms="4.6851417422294617e-01" purity="6.1745047569274902e-01" nType="0">
          <Node pos="l" depth="2" NCoef="0" IVar="-1" Cut="0.0000000000000000e+00" cType="1" res="2.3101510014384985e-03" rms="4.5871913433074951e-01" purity="6.7390060424804688e-01" nType="-99"/>
          <Node pos="r" depth="2" NCoef="0" IVar="-1" Cut="0.0000000000000000e+00" cType="1" res="-2.5926667731255293e-03" rms="4.6630677580833435e-01" purity="3.2919883728027344e-01" nType="-99"/>
        </Node>
        <Node pos="r" depth="1" NCoef="0" IVar="15" Cut="1.9505571365356445e+01" cType="1" res="-9.8437130451202393e-02" rms="4.6386516094207764e-01" purity="3.4304642677307129e-01" nType="0">
          <Node pos="l" depth="2" NCoef="0" IVar="-1" Cut="0.0000000000000000e+00" cType="1" res="3.2470208680024371e-05" rms="4.9799185991287231e-01" purity="5.0496429204940796e-01" nType="-99"/>
          <Node pos="r" depth="2" NCoef="0" IVar="-1" Cut="0.0000000000000000e+00" cType="1" res="-2.9742608312517405e-03" rms="4.4015851616859436e-01" purity="2.6978594064712524e-01" nType="-99"/>
        </Node>
      </Node>
    </BinaryTree>
    <BinaryTree type="DecisionTree" boostWeight="1.0000000000000000e+00" itree="60">
      <Node pos="s" depth="0" NCoef="0" IVar="15" Cut="2.4110101699829102e+01" cType="1" res="-7.7805295586585999e-04" rms="4.7345960140228271e-01" purity="4.9957796931266785e-01" nType="0">
        <Node pos="l" depth="1" NCoef="0" IVar="0" Cut="8.1910911560058594e+01" cType="1" res="9.0781398117542267e-02" rms="4.6372443437576294e-01" purity="6.4765864610671997e-01" nType="0">
          <Node pos="l" depth="2" NCoef="0" IVar="-1" Cut="0.0000000000000000e+00" cType="1" res="2.9211400542408228e-03" rms="4.4150421023368835e-01" purity="7.2249072790145874e-01" nType="-99"/>
          <Node pos="r" depth="2" NCoef="0" IVar="-1" Cut="0.0000000000000000e+00" cType="1" res="-1.0556803317740560e-03" rms="4.9423527717590332e-01" purity="4.3531945347785950e-01" nType="-99"/>
        </Node>
        <Node pos="r" depth="1" NCoef="0" IVar="4" Cut="7.4134628295898438e+01" cType="1" res="-8.0733731389045715e-02" rms="4.6735185384750366e-01" purity="3.7026426196098328e-01" nType="0">
          <Node pos="l" depth="2" NCoef="0" IVar="-1" Cut="0.0000000000000000e+00" cType="1" res="5.1799893844872713e-04" rms="4.8949852585792542e-01" purity="5.2879661321640015e-01" nType="-99"/>
          <Node pos="r" depth="2" NCoef="0" IVar="-1" Cut="0.0000000000000000e+00" cType="1" res="-2.7225299272686243e-03" rms="4.4742441177368164e-01" purity="2.9408758878707886e-01" nType="-99"/>
        </Node>
      </Node>
    </BinaryTree>
    <BinaryTree type="DecisionTree" boostWeight="1.0000000000000000e+00" itree="61">
      <Node pos="s" depth="0" NCoef="0" IVar="15" Cut="3.9418914794921875e+01" cType="1" res="3.5484464024193585e-04" rms="4.7472563385963440e-01" purity="5.0155252218246460e-01" nType="0">
        <Node pos="l" depth="1" NCoef="0" IVar="0" Cut="7.0264305114746094e+01" cType="1" res="4.6755738556385040e-02" rms="4.7533860802650452e-01" purity="5.7293051481246948e-01" nType="0">
          <Node pos="l" depth="2" NCoef="0" IVar="-1" Cut="0.0000000000000000e+00" cType="1" res="2.1766743157058954e-03" rms="4.6007013320922852e-01" purity="6.7355030775070190e-01" nType="-99"/>
          <Node pos="r" depth="2" NCoef="0" IVar="-1" Cut="0.0000000000000000e+00" cType="1" res="-9.6820999169722199e-04" rms="4.8411023616790771e-01" purity="4.1162765026092529e-01" nType="-99"/>
        </Node>
        <Node pos="r" depth="1" NCoef="0" IVar="4" Cut="7.3206146240234375e+01" cType="1" res="-1.3971656560897827e-01" rms="4.4439512491226196e-01" purity="2.8608217835426331e-01" nType="0">
