<?xml version="1.0"?>
<MethodSetup Method="BDT::BDTG4F07">
  <GeneralInfo>
    <Info name="TMVA Release" value="4.2.1 [262657]"/>
    <Info name="ROOT Release" value="6.20/07 [398343]"/>
    <Info name="Creator" value="ssaumya"/>
    <Info name="Date" value="Mon Jul 19 23:43:11 2021"/>
    <Info name="Host" value="Linux cmsbuild09.cern.ch 3.10.0-1062.9.1.el7.x86_64 #1 SMP Fri Dec 6 15:49:49 UTC 2019 x86_64 x86_64 x86_64 GNU/Linux"/>
    <Info name="Dir" value="/afs/cern.ch/user/s/ssaumya/Projects/WW_Analysis_Work/WW_Cuts_Optimization/CMSSW_11_1_3/src/PlotsConfigurations/Configurations/WW/FullRunII/Full2017_v7/BDT_Training_2j"/>
    <Info name="Training events" value="319423"/>
    <Info name="TrainingTime" value="4.05645051e+02"/>
    <Info name="AnalysisType" value="Classification"/>
  </GeneralInfo>
  <Options>
    <Option name="V" modified="Yes">False</Option>
    <Option name="VerbosityLevel" modified="No">Default</Option>
    <Option name="VarTransform" modified="No">None</Option>
    <Option name="H" modified="Yes">False</Option>
    <Option name="CreateMVAPdfs" modified="No">False</Option>
    <Option name="IgnoreNegWeightsInTraining" modified="No">False</Option>
    <Option name="NTrees" modified="Yes">500</Option>
    <Option name="MaxDepth" modified="Yes">2</Option>
    <Option name="MinNodeSize" modified="Yes">1.5%</Option>
    <Option name="nCuts" modified="Yes">500</Option>
    <Option name="BoostType" modified="Yes">Grad</Option>
    <Option name="AdaBoostR2Loss" modified="No">quadratic</Option>
    <Option name="UseBaggedBoost" modified="Yes">True</Option>
    <Option name="Shrinkage" modified="Yes">5.000000e-02</Option>
    <Option name="AdaBoostBeta" modified="No">5.000000e-01</Option>
    <Option name="UseRandomisedTrees" modified="No">False</Option>
    <Option name="UseNvars" modified="No">6</Option>
    <Option name="UsePoissonNvars" modified="No">True</Option>
    <Option name="BaggedSampleFraction" modified="No">7.000000e-01</Option>
    <Option name="UseYesNoLeaf" modified="No">True</Option>
    <Option name="NegWeightTreatment" modified="No">pray</Option>
    <Option name="Css" modified="No">1.000000e+00</Option>
    <Option name="Cts_sb" modified="No">1.000000e+00</Option>
    <Option name="Ctb_ss" modified="No">1.000000e+00</Option>
    <Option name="Cbb" modified="No">1.000000e+00</Option>
    <Option name="NodePurityLimit" modified="No">5.000000e-01</Option>
    <Option name="SeparationType" modified="No">giniindex</Option>
    <Option name="RegressionLossFunctionBDTG" modified="No">huber</Option>
    <Option name="HuberQuantile" modified="No">7.000000e-01</Option>
    <Option name="DoBoostMonitor" modified="No">False</Option>
    <Option name="UseFisherCuts" modified="No">False</Option>
    <Option name="MinLinCorrForFisher" modified="No">8.000000e-01</Option>
    <Option name="UseExclusiveVars" modified="No">False</Option>
    <Option name="DoPreselection" modified="No">False</Option>
    <Option name="SigToBkgFraction" modified="No">1.000000e+00</Option>
    <Option name="PruneMethod" modified="No">nopruning</Option>
    <Option name="PruneStrength" modified="No">0.000000e+00</Option>
    <Option name="PruningValFraction" modified="No">5.000000e-01</Option>
    <Option name="SkipNormalization" modified="No">False</Option>
    <Option name="nEventsMin" modified="No">0</Option>
    <Option name="UseBaggedGrad" modified="No">False</Option>
    <Option name="GradBaggingFraction" modified="Yes">7.000000e-01</Option>
    <Option name="UseNTrainEvents" modified="No">0</Option>
    <Option name="NNodesMax" modified="No">0</Option>
  </Options>
  <Variables NVar="37">
    <Variable VarIndex="0" Expression="pt1" Label="pt1" Title="pt1" Unit="" Internal="pt1" Type="F" Min="2.50023613e+01" Max="1.39678101e+03"/>
    <Variable VarIndex="1" Expression="pt2" Label="pt2" Title="pt2" Unit="" Internal="pt2" Type="F" Min="2.00000305e+01" Max="5.14102478e+02"/>
    <Variable VarIndex="2" Expression="Lepton_eta[0]" Label="Lepton_eta[0]" Title="Lepton_eta[0]" Unit="" Internal="Lepton_eta_0_" Type="F" Min="-2.49951172e+00" Max="2.49951172e+00"/>
    <Variable VarIndex="3" Expression="Lepton_eta[1]" Label="Lepton_eta[1]" Title="Lepton_eta[1]" Unit="" Internal="Lepton_eta_1_" Type="F" Min="-2.49951172e+00" Max="2.49902344e+00"/>
    <Variable VarIndex="4" Expression="mll" Label="mll" Title="mll" Unit="" Internal="mll" Type="F" Min="2.00000648e+01" Max="1.71258838e+03"/>
    <Variable VarIndex="5" Expression="ptll" Label="ptll" Title="ptll" Unit="" Internal="ptll" Type="F" Min="3.00002251e+01" Max="1.41885461e+03"/>
    <Variable VarIndex="6" Expression="drll" Label="drll" Title="drll" Unit="" Internal="drll" Type="F" Min="1.19313240e-01" Max="5.71368217e+00"/>
    <Variable VarIndex="7" Expression="dphill" Label="dphill" Title="dphill" Unit="" Internal="dphill" Type="F" Min="0.00000000e+00" Max="3.14158368e+00"/>
    <Variable VarIndex="8" Expression="PuppiMET_pt" Label="PuppiMET_pt" Title="PuppiMET_pt" Unit="" Internal="PuppiMET_pt" Type="F" Min="2.00004177e+01" Max="1.15478967e+03"/>
    <Variable VarIndex="9" Expression="dphilmet" Label="dphilmet" Title="dphilmet" Unit="" Internal="dphilmet" Type="F" Min="0.00000000e+00" Max="3.13591337e+00"/>
    <Variable VarIndex="10" Expression="dphilmet1" Label="dphilmet1" Title="dphilmet1" Unit="" Internal="dphilmet1" Type="F" Min="0.00000000e+00" Max="3.14158463e+00"/>
    <Variable VarIndex="11" Expression="dphilmet2" Label="dphilmet2" Title="dphilmet2" Unit="" Internal="dphilmet2" Type="F" Min="0.00000000e+00" Max="3.14158368e+00"/>
    <Variable VarIndex="12" Expression="dphillmet" Label="dphillmet" Title="dphillmet" Unit="" Internal="dphillmet" Type="F" Min="2.16038188e-06" Max="3.14158988e+00"/>
    <Variable VarIndex="13" Expression="mtw1" Label="mtw1" Title="mtw1" Unit="" Internal="mtw1" Type="F" Min="0.00000000e+00" Max="2.29767627e+03"/>
    <Variable VarIndex="14" Expression="mtw2" Label="mtw2" Title="mtw2" Unit="" Internal="mtw2" Type="F" Min="0.00000000e+00" Max="5.88541382e+02"/>
    <Variable VarIndex="15" Expression="pTWW" Label="pTWW" Title="pTWW" Unit="" Internal="pTWW" Type="F" Min="3.26641709e-01" Max="1.37869226e+03"/>
    <Variable VarIndex="16" Expression="pTHjj" Label="pTHjj" Title="pTHjj" Unit="" Internal="pTHjj" Type="F" Min="4.93020229e-02" Max="8.58697327e+02"/>
    <Variable VarIndex="17" Expression="dphilljet" Label="dphilljet" Title="dphilljet" Unit="" Internal="dphilljet" Type="F" Min="5.54766448e-05" Max="3.14158535e+00"/>
    <Variable VarIndex="18" Expression="dphilljetjet" Label="dphilljetjet" Title="dphilljetjet" Unit="" Internal="dphilljetjet" Type="F" Min="4.10763778e-06" Max="3.14158535e+00"/>
    <Variable VarIndex="19" Expression="mjj" Label="mjj" Title="mjj" Unit="" Internal="mjj" Type="F" Min="1.72969723e+01" Max="6.71588916e+03"/>
    <Variable VarIndex="20" Expression="detajj" Label="detajj" Title="detajj" Unit="" Internal="detajj" Type="F" Min="0.00000000e+00" Max="9.08496094e+00"/>
    <Variable VarIndex="21" Expression="dphijj" Label="dphijj" Title="dphijj" Unit="" Internal="dphijj" Type="F" Min="0.00000000e+00" Max="3.14158368e+00"/>
    <Variable VarIndex="22" Expression="dphijet1met" Label="dphijet1met" Title="dphijet1met" Unit="" Internal="dphijet1met" Type="F" Min="3.31848860e-05" Max="3.14159036e+00"/>
    <Variable VarIndex="23" Expression="dphijet2met" Label="dphijet2met" Title="dphijet2met" Unit="" Internal="dphijet2met" Type="F" Min="2.26497650e-06" Max="3.14158678e+00"/>
    <Variable VarIndex="24" Expression="dphijjmet" Label="dphijjmet" Title="dphijjmet" Unit="" Internal="dphijjmet" Type="F" Min="2.42279093e-05" Max="3.14158797e+00"/>
    <Variable VarIndex="25" Expression="dphilep1jet1" Label="dphilep1jet1" Title="dphilep1jet1" Unit="" Internal="dphilep1jet1" Type="F" Min="0.00000000e+00" Max="3.14158368e+00"/>
    <Variable VarIndex="26" Expression="dphilep1jet2" Label="dphilep1jet2" Title="dphilep1jet2" Unit="" Internal="dphilep1jet2" Type="F" Min="0.00000000e+00" Max="3.14158368e+00"/>
    <Variable VarIndex="27" Expression="dphilep2jet1" Label="dphilep2jet1" Title="dphilep2jet1" Unit="" Internal="dphilep2jet1" Type="F" Min="0.00000000e+00" Max="3.14158368e+00"/>
    <Variable VarIndex="28" Expression="dphilep2jet2" Label="dphilep2jet2" Title="dphilep2jet2" Unit="" Internal="dphilep2jet2" Type="F" Min="0.00000000e+00" Max="3.14158368e+00"/>
    <Variable VarIndex="29" Expression="maxdphilepjj" Label="maxdphilepjj" Title="maxdphilepjj" Unit="" Internal="maxdphilepjj" Type="F" Min="2.26496942e-02" Max="3.14159036e+00"/>
    <Variable VarIndex="30" Expression="dphilep2jj" Label="dphilep2jj" Title="dphilep2jj" Unit="" Internal="dphilep2jj" Type="F" Min="6.63466062e-06" Max="3.14159036e+00"/>
    <Variable VarIndex="31" Expression="dphilep1jj" Label="dphilep1jj" Title="dphilep1jj" Unit="" Internal="dphilep1jj" Type="F" Min="5.88278672e-05" Max="3.14158702e+00"/>
    <Variable VarIndex="32" Expression="mindetajl" Label="mindetajl" Title="mindetajl" Unit="" Internal="mindetajl" Type="F" Min="0.00000000e+00" Max="5.89648438e+00"/>
    <Variable VarIndex="33" Expression="Alt$(CleanJet_pt[0],0)" Label="Alt$(CleanJet_pt[0],0)" Title="Alt$(CleanJet_pt[0],0)" Unit="" Internal="Alt__CleanJet_pt_0_,0_" Type="F" Min="3.01381359e+01" Max="1.60560339e+03"/>
    <Variable VarIndex="34" Expression="Alt$(CleanJet_pt[1],0)" Label="Alt$(CleanJet_pt[1],0)" Title="Alt$(CleanJet_pt[1],0)" Unit="" Internal="Alt__CleanJet_pt_1_,0_" Type="F" Min="3.00000896e+01" Max="1.05898438e+03"/>
    <Variable VarIndex="35" Expression="Alt$(CleanJet_eta[0],0)" Label="Alt$(CleanJet_eta[0],0)" Title="Alt$(CleanJet_eta[0],0)" Unit="" Internal="Alt__CleanJet_eta_0_,0_" Type="F" Min="-4.68750000e+00" Max="4.67089844e+00"/>
    <Variable VarIndex="36" Expression="Alt$(CleanJet_eta[1],0)" Label="Alt$(CleanJet_eta[1],0)" Title="Alt$(CleanJet_eta[1],0)" Unit="" Internal="Alt__CleanJet_eta_1_,0_" Type="F" Min="-4.69628906e+00" Max="4.69921875e+00"/>
  </Variables>
  <Spectators NSpec="0"/>
  <Classes NClass="2">
    <Class Name="Signal" Index="0"/>
    <Class Name="Background" Index="1"/>
  </Classes>
  <Transformations NTransformations="0"/>
  <MVAPdfs/>
  <Weights NTrees="500" AnalysisType="1">
    <BinaryTree type="DecisionTree" boostWeight="1.0000000000000000e+00" itree="0">
      <Node pos="s" depth="0" NCoef="0" IVar="34" Cut="5.7281963348388672e+01" cType="1" res="2.7965425979346037e-03" rms="4.9999219179153442e-01" purity="5.0279653072357178e-01" nType="0">
        <Node pos="l" depth="1" NCoef="0" IVar="32" Cut="9.5516389608383179e-01" cType="1" res="1.1862231045961380e-01" rms="4.8572495579719543e-01" purity="6.1862230300903320e-01" nType="0">
          <Node pos="l" depth="2" NCoef="0" IVar="-1" Cut="0.0000000000000000e+00" cType="1" res="3.6882611457258463e-03" rms="4.9863782525062561e-01" purity="5.3688263893127441e-01" nType="-99"/>
          <Node pos="r" depth="2" NCoef="0" IVar="-1" Cut="0.0000000000000000e+00" cType="1" res="3.6263059824705124e-02" rms="3.4423691034317017e-01" purity="8.6263060569763184e-01" nType="-99"/>
        </Node>
        <Node pos="r" depth="1" NCoef="0" IVar="32" Cut="9.6170938014984131e-01" cType="1" res="-2.2543792426586151e-01" rms="4.4629332423210144e-01" purity="2.7456209063529968e-01" nType="0">
          <Node pos="l" depth="2" NCoef="0" IVar="-1" Cut="0.0000000000000000e+00" cType="1" res="-2.7560183778405190e-02" rms="4.1718536615371704e-01" purity="2.2439818084239960e-01" nType="-99"/>
          <Node pos="r" depth="2" NCoef="0" IVar="-1" Cut="0.0000000000000000e+00" cType="1" res="1.2025568634271622e-02" rms="4.8532316088676453e-01" purity="6.2025564908981323e-01" nType="-99"/>
        </Node>
      </Node>
    </BinaryTree>
    <BinaryTree type="DecisionTree" boostWeight="1.0000000000000000e+00" itree="1">
      <Node pos="s" depth="0" NCoef="0" IVar="34" Cut="4.4443435668945312e+01" cType="1" res="4.8361229710280895e-03" rms="4.9552091956138611e-01" purity="5.0496405363082886e-01" nType="0">
        <Node pos="l" depth="1" NCoef="0" IVar="32" Cut="8.0354672670364380e-01" cType="1" res="1.7949758470058441e-01" rms="4.6230569481849670e-01" purity="6.8577963113784790e-01" nType="0">
          <Node pos="l" depth="2" NCoef="0" IVar="-1" Cut="0.0000000000000000e+00" cType="1" res="9.2264572158455849e-03" rms="4.9106395244598389e-01" purity="5.9410744905471802e-01" nType="-99"/>
          <Node pos="r" depth="2" NCoef="0" IVar="-1" Cut="0.0000000000000000e+00" cType="1" res="3.5181242972612381e-02" rms="3.3930027484893799e-01" purity="8.6646628379821777e-01" nType="-99"/>
        </Node>
        <Node pos="r" depth="1" NCoef="0" IVar="32" Cut="1.0472433567047119e+00" cType="1" res="-1.4000387489795685e-01" rms="4.7502303123474121e-01" purity="3.5502067208290100e-01" nType="0">
          <Node pos="l" depth="2" NCoef="0" IVar="-1" Cut="0.0000000000000000e+00" cType="1" res="-1.9634108990430832e-02" rms="4.5500090718269348e-01" purity="2.9614374041557312e-01" nType="-99"/>
          <Node pos="r" depth="2" NCoef="0" IVar="-1" Cut="0.0000000000000000e+00" cType="1" res="2.2501427680253983e-02" rms="4.3910494446754456e-01" purity="7.3698127269744873e-01" nType="-99"/>
        </Node>
      </Node>
    </BinaryTree>
    <BinaryTree type="DecisionTree" boostWeight="1.0000000000000000e+00" itree="2">
      <Node pos="s" depth="0" NCoef="0" IVar="34" Cut="5.0538696289062500e+01" cType="1" res="-7.8611355274915695e-04" rms="4.9135372042655945e-01" purity="4.9941670894622803e-01" nType="0">
        <Node pos="l" depth="1" NCoef="0" IVar="32" Cut="7.5959408283233643e-01" cType="1" res="1.3355354964733124e-01" rms="4.7400042414665222e-01" purity="6.4539939165115356e-01" nType="0">
          <Node pos="l" depth="2" NCoef="0" IVar="-1" Cut="0.0000000000000000e+00" cType="1" res="4.7269728966057301e-03" rms="4.9665528535842896e-01" purity="5.5052649974822998e-01" nType="-99"/>
          <Node pos="r" depth="2" NCoef="0" IVar="-1" Cut="0.0000000000000000e+00" cType="1" res="3.0526844784617424e-02" rms="3.7070271372795105e-01" purity="8.3289122581481934e-01" nType="-99"/>
        </Node>
        <Node pos="r" depth="1" NCoef="0" IVar="32" Cut="9.6731096506118774e-01" cType="1" res="-1.7636820673942566e-01" rms="4.5706319808959961e-01" purity="3.0861720442771912e-01" nType="0">
          <Node pos="l" depth="2" NCoef="0" IVar="-1" Cut="0.0000000000000000e+00" cType="1" res="-2.3012232035398483e-02" rms="4.3223056197166443e-01" purity="2.4994070827960968e-01" nType="-99"/>
          <Node pos="r" depth="2" NCoef="0" IVar="-1" Cut="0.0000000000000000e+00" cType="1" res="1.5305043198168278e-02" rms="4.6828320622444153e-01" purity="6.7074894905090332e-01" nType="-99"/>
        </Node>
      </Node>
    </BinaryTree>
    <BinaryTree type="DecisionTree" boostWeight="1.0000000000000000e+00" itree="3">
      <Node pos="s" depth="0" NCoef="0" IVar="34" Cut="5.4340072631835938e+01" cType="1" res="1.6465695807710290e-03" rms="4.8770070075988770e-01" purity="5.0163137912750244e-01" nType="0">
        <Node pos="l" depth="1" NCoef="0" IVar="32" Cut="1.0200263261795044e+00" cType="1" res="1.1482457816600800e-01" rms="4.7607946395874023e-01" purity="6.3064455986022949e-01" nType="0">
          <Node pos="l" depth="2" NCoef="0" IVar="-1" Cut="0.0000000000000000e+00" cType="1" res="4.9130832776427269e-03" rms="4.9485874176025391e-01" purity="5.5499154329299927e-01" nType="-99"/>
          <Node pos="r" depth="2" NCoef="0" IVar="-1" Cut="0.0000000000000000e+00" cType="1" res="3.3458266407251358e-02" rms="3.2471144199371338e-01" purity="8.7989622354507446e-01" nType="-99"/>
        </Node>
        <Node pos="r" depth="1" NCoef="0" IVar="21" Cut="1.3858083486557007e+00" cType="1" res="-1.8708318471908569e-01" rms="4.4671031832695007e-01" purity="2.8649562597274780e-01" nType="0">
          <Node pos="l" depth="2" NCoef="0" IVar="-1" Cut="0.0000000000000000e+00" cType="1" res="-1.2275835388209089e-06" rms="4.9534976482391357e-01" purity="4.7649791836738586e-01" nType="-99"/>
          <Node pos="r" depth="2" NCoef="0" IVar="-1" Cut="0.0000000000000000e+00" cType="1" res="-2.6234610006213188e-02" rms="4.0254610776901245e-01" purity="2.1122772991657257e-01" nType="-99"/>
        </Node>
      </Node>
    </BinaryTree>
    <BinaryTree type="DecisionTree" boostWeight="1.0000000000000000e+00" itree="4">
      <Node pos="s" depth="0" NCoef="0" IVar="34" Cut="4.8484836578369141e+01" cType="1" res="1.5372899360954762e-03" rms="4.8381754755973816e-01" purity="5.0186097621917725e-01" nType="0">
        <Node pos="l" depth="1" NCoef="0" IVar="32" Cut="7.0408499240875244e-01" cType="1" res="1.3488237559795380e-01" rms="4.6655800938606262e-01" purity="6.6022211313247681e-01" nType="0">
          <Node pos="l" depth="2" NCoef="0" IVar="-1" Cut="0.0000000000000000e+00" cType="1" res="5.0488458946347237e-03" rms="4.9584916234016418e-01" purity="5.5937826633453369e-01" nType="-99"/>
          <Node pos="r" depth="2" NCoef="0" IVar="-1" Cut="0.0000000000000000e+00" cType="1" res="2.8141364455223083e-02" rms="3.7077584862709045e-01" purity="8.3092814683914185e-01" nType="-99"/>
        </Node>
        <Node pos="r" depth="1" NCoef="0" IVar="32" Cut="9.6509325504302979e-01" cType="1" res="-1.5085546672344208e-01" rms="4.5747262239456177e-01" purity="3.2087868452072144e-01" nType="0">
          <Node pos="l" depth="2" NCoef="0" IVar="-1" Cut="0.0000000000000000e+00" cType="1" res="-2.0259413868188858e-02" rms="4.3641978502273560e-01" purity="2.6147696375846863e-01" nType="-99"/>
          <Node pos="r" depth="2" NCoef="0" IVar="-1" Cut="0.0000000000000000e+00" cType="1" res="1.5015712007880211e-02" rms="4.6471244096755981e-01" purity="6.7461961507797241e-01" nType="-99"/>
        </Node>
      </Node>
    </BinaryTree>
    <BinaryTree type="DecisionTree" boostWeight="1.0000000000000000e+00" itree="5">
      <Node pos="s" depth="0" NCoef="0" IVar="34" Cut="4.5647209167480469e+01" cType="1" res="3.2339026802219450e-04" rms="4.8076197504997253e-01" purity="5.0042676925659180e-01" nType="0">
        <Node pos="l" depth="1" NCoef="0" IVar="32" Cut="1.0959857702255249e+00" cType="1" res="1.3878342509269714e-01" rms="4.6187469363212585e-01" purity="6.7225992679595947e-01" nType="0">
          <Node pos="l" depth="2" NCoef="0" IVar="-1" Cut="0.0000000000000000e+00" cType="1" res="8.6922347545623779e-03" rms="4.8659992218017578e-01" purity="6.0672700405120850e-01" nType="-99"/>
          <Node pos="r" depth="2" NCoef="0" IVar="-1" Cut="0.0000000000000000e+00" cType="1" res="3.3097967505455017e-02" rms="2.9572620987892151e-01" purity="9.0313893556594849e-01" nType="-99"/>
        </Node>
        <Node pos="r" depth="1" NCoef="0" IVar="32" Cut="8.3562952280044556e-01" cType="1" res="-1.2507754564285278e-01" rms="4.6278321743011475e-01" purity="3.4480041265487671e-01" nType="0">
          <Node pos="l" depth="2" NCoef="0" IVar="-1" Cut="0.0000000000000000e+00" cType="1" res="-1.8912684172391891e-02" rms="4.4019576907157898e-01" purity="2.6948824524879456e-01" nType="-99"/>
          <Node pos="r" depth="2" NCoef="0" IVar="-1" Cut="0.0000000000000000e+00" cType="1" res="1.3425269164144993e-02" rms="4.6459427475929260e-01" purity="6.5665715932846069e-01" nType="-99"/>
        </Node>
      </Node>
    </BinaryTree>
    <BinaryTree type="DecisionTree" boostWeight="1.0000000000000000e+00" itree="6">
      <Node pos="s" depth="0" NCoef="0" IVar="34" Cut="5.4340072631835938e+01" cType="1" res="6.3037674408406019e-04" rms="4.7734192013740540e-01" purity="5.0095695257186890e-01" nType="0">
        <Node pos="l" depth="1" NCoef="0" IVar="20" Cut="2.5359826087951660e+00" cType="1" res="1.0082931816577911e-01" rms="4.7072187066078186e-01" purity="6.3108205795288086e-01" nType="0">
          <Node pos="l" depth="2" NCoef="0" IVar="-1" Cut="0.0000000000000000e+00" cType="1" res="2.1276643965393305e-03" rms="4.8619940876960754e-01" purity="5.4561096429824829e-01" nType="-99"/>
          <Node pos="r" depth="2" NCoef="0" IVar="-1" Cut="0.0000000000000000e+00" cType="1" res="2.4572104215621948e-02" rms="4.0484222769737244e-01" purity="7.8295969963073730e-01" nType="-99"/>
        </Node>
        <Node pos="r" depth="1" NCoef="0" IVar="20" Cut="3.1939003467559814e+00" cType="1" res="-1.6764831542968750e-01" rms="4.3956440687179565e-01" purity="2.8241872787475586e-01" nType="0">
          <Node pos="l" depth="2" NCoef="0" IVar="-1" Cut="0.0000000000000000e+00" cType="1" res="-2.1984478458762169e-02" rms="4.1309338808059692e-01" purity="2.2932258248329163e-01" nType="-99"/>
          <Node pos="r" depth="2" NCoef="0" IVar="-1" Cut="0.0000000000000000e+00" cType="1" res="1.2126335874199867e-02" rms="4.7850862145423889e-01" purity="5.9426850080490112e-01" nType="-99"/>
        </Node>
      </Node>
    </BinaryTree>
    <BinaryTree type="DecisionTree" boostWeight="1.0000000000000000e+00" itree="7">
      <Node pos="s" depth="0" NCoef="0" IVar="32" Cut="7.0616579055786133e-01" cType="1" res="1.1382511729607359e-05" rms="4.7424209117889404e-01" purity="5.0073146820068359e-01" nType="0">
        <Node pos="l" depth="1" NCoef="0" IVar="33" Cut="6.1604141235351562e+01" cType="1" res="-8.3172179758548737e-02" rms="4.7393071651458740e-01" purity="3.9262071251869202e-01" nType="0">
          <Node pos="l" depth="2" NCoef="0" IVar="-1" Cut="0.0000000000000000e+00" cType="1" res="1.0784375481307507e-02" rms="4.8059180378913879e-01" purity="6.2114918231964111e-01" nType="-99"/>
          <Node pos="r" depth="2" NCoef="0" IVar="-1" Cut="0.0000000000000000e+00" cType="1" res="-1.5662234276533127e-02" rms="4.5112004876136780e-01" purity="3.0706503987312317e-01" nType="-99"/>
        </Node>
        <Node pos="r" depth="1" NCoef="0" IVar="32" Cut="1.3381303548812866e+00" cType="1" res="1.8388132750988007e-01" rms="4.2006552219390869e-01" purity="7.3970073461532593e-01" nType="0">
          <Node pos="l" depth="2" NCoef="0" IVar="-1" Cut="0.0000000000000000e+00" cType="1" res="1.0866428725421429e-02" rms="4.6166628599166870e-01" purity="6.4419877529144287e-01" nType="-99"/>
          <Node pos="r" depth="2" NCoef="0" IVar="-1" Cut="0.0000000000000000e+00" cType="1" res="3.1265862286090851e-02" rms="3.1101754307746887e-01" purity="8.8663727045059204e-01" nType="-99"/>
        </Node>
      </Node>
    </BinaryTree>
    <BinaryTree type="DecisionTree" boostWeight="1.0000000000000000e+00" itree="8">
      <Node pos="s" depth="0" NCoef="0" IVar="33" Cut="7.4163116455078125e+01" cType="1" res="-3.0682636424899101e-03" rms="4.7200334072113037e-01" purity="4.9646162986755371e-01" nType="0">
        <Node pos="l" depth="1" NCoef="0" IVar="20" Cut="2.9392640590667725e+00" cType="1" res="1.2743398547172546e-01" rms="4.5600354671478271e-01" purity="6.6164737939834595e-01" nType="0">
          <Node pos="l" depth="2" NCoef="0" IVar="-1" Cut="0.0000000000000000e+00" cType="1" res="6.2798229046165943e-03" rms="4.7625499963760376e-01" purity="5.8591753244400024e-01" nType="-99"/>
          <Node pos="r" depth="2" NCoef="0" IVar="-1" Cut="0.0000000000000000e+00" cType="1" res="2.8010770678520203e-02" rms="3.6741828918457031e-01" purity="8.3050417900085449e-01" nType="-99"/>
        </Node>
        <Node pos="r" depth="1" NCoef="0" IVar="20" Cut="2.6205868721008301e+00" cType="1" res="-1.1479803919792175e-01" rms="4.5654651522636414e-01" purity="3.5503751039505005e-01" nType="0">
          <Node pos="l" depth="2" NCoef="0" IVar="-1" Cut="0.0000000000000000e+00" cType="1" res="-1.7920643091201782e-02" rms="4.3341052532196045e-01" purity="2.8354144096374512e-01" nType="-99"/>
          <Node pos="r" depth="2" NCoef="0" IVar="-1" Cut="0.0000000000000000e+00" cType="1" res="7.6223346404731274e-03" rms="4.7407183051109314e-01" purity="5.7689684629440308e-01" nType="-99"/>
        </Node>
      </Node>
    </BinaryTree>
    <BinaryTree type="DecisionTree" boostWeight="1.0000000000000000e+00" itree="9">
      <Node pos="s" depth="0" NCoef="0" IVar="34" Cut="6.2861862182617188e+01" cType="1" res="-1.5276301419362426e-03" rms="4.6913227438926697e-01" purity="4.9881461262702942e-01" nType="0">
        <Node pos="l" depth="1" NCoef="0" IVar="32" Cut="8.3562952280044556e-01" cType="1" res="7.0092730224132538e-02" rms="4.6944928169250488e-01" purity="5.9738522768020630e-01" nType="0">
          <Node pos="l" depth="2" NCoef="0" IVar="-1" Cut="0.0000000000000000e+00" cType="1" res="4.2409947491250932e-04" rms="4.8974493145942688e-01" purity="5.0360959768295288e-01" nType="-99"/>
          <Node pos="r" depth="2" NCoef="0" IVar="-1" Cut="0.0000000000000000e+00" cType="1" res="2.4256253615021706e-02" rms="3.6806252598762512e-01" purity="8.2824009656906128e-01" nType="-99"/>
        </Node>
        <Node pos="r" depth="1" NCoef="0" IVar="21" Cut="1.2041695117950439e+00" cType="1" res="-1.9527742266654968e-01" rms="4.0971297025680542e-01" purity="2.3215807974338531e-01" nType="0">
          <Node pos="l" depth="2" NCoef="0" IVar="-1" Cut="0.0000000000000000e+00" cType="1" res="-6.0686586948577315e-05" rms="4.8764771223068237e-01" purity="4.4712814688682556e-01" nType="-99"/>
          <Node pos="r" depth="2" NCoef="0" IVar="-1" Cut="0.0000000000000000e+00" cType="1" res="-2.5392668321728706e-02" rms="3.6998403072357178e-01" purity="1.7563124001026154e-01" nType="-99"/>
        </Node>
      </Node>
    </BinaryTree>
    <BinaryTree type="DecisionTree" boostWeight="1.0000000000000000e+00" itree="10">
      <Node pos="s" depth="0" NCoef="0" IVar="34" Cut="4.4377117156982422e+01" cType="1" res="-6.1900133732706308e-04" rms="4.6674120426177979e-01" purity="4.9929550290107727e-01" nType="0">
        <Node pos="l" depth="1" NCoef="0" IVar="32" Cut="8.0274415016174316e-01" cType="1" res="1.2537732720375061e-01" rms="4.5135143399238586e-01" purity="6.8216782808303833e-01" nType="0">
          <Node pos="l" depth="2" NCoef="0" IVar="-1" Cut="0.0000000000000000e+00" cType="1" res="6.6479863598942757e-03" rms="4.8742946982383728e-01" purity="5.9158843755722046e-01" nType="-99"/>
          <Node pos="r" depth="2" NCoef="0" IVar="-1" Cut="0.0000000000000000e+00" cType="1" res="2.5817591696977615e-02" rms="3.4006887674331665e-01" purity="8.6217612028121948e-01" nType="-99"/>
        </Node>
        <Node pos="r" depth="1" NCoef="0" IVar="20" Cut="2.8130378723144531e+00" cType="1" res="-1.0578541457653046e-01" rms="4.5313370227813721e-01" purity="3.4665596485137939e-01" nType="0">
          <Node pos="l" depth="2" NCoef="0" IVar="-1" Cut="0.0000000000000000e+00" cType="1" res="-1.6290668398141861e-02" rms="4.3264397978782654e-01" purity="2.8117600083351135e-01" nType="-99"/>
          <Node pos="r" depth="2" NCoef="0" IVar="-1" Cut="0.0000000000000000e+00" cType="1" res="9.3674510717391968e-03" rms="4.7297248244285583e-01" purity="5.9166961908340454e-01" nType="-99"/>
        </Node>
      </Node>
    </BinaryTree>
    <BinaryTree type="DecisionTree" boostWeight="1.0000000000000000e+00" itree="11">
      <Node pos="s" depth="0" NCoef="0" IVar="33" Cut="7.0239723205566406e+01" cType="1" res="2.8798677958548069e-03" rms="4.6465647220611572e-01" purity="5.0286269187927246e-01" nType="0">
        <Node pos="l" depth="1" NCoef="0" IVar="20" Cut="2.5024442672729492e+00" cType="1" res="1.3033863902091980e-01" rms="4.4634020328521729e-01" purity="6.8211358785629272e-01" nType="0">
          <Node pos="l" depth="2" NCoef="0" IVar="-1" Cut="0.0000000000000000e+00" cType="1" res="6.2758978456258774e-03" rms="4.7283005714416504e-01" purity="5.9613275527954102e-01" nType="-99"/>
          <Node pos="r" depth="2" NCoef="0" IVar="-1" Cut="0.0000000000000000e+00" cType="1" res="2.4729698896408081e-02" rms="3.7715804576873779e-01" purity="8.1643366813659668e-01" nType="-99"/>
        </Node>
        <Node pos="r" depth="1" NCoef="0" IVar="32" Cut="9.5255482196807861e-01" cType="1" res="-9.0639941394329071e-02" rms="4.5550271868705750e-01" purity="3.7134158611297607e-01" nType="0">
          <Node pos="l" depth="2" NCoef="0" IVar="-1" Cut="0.0000000000000000e+00" cType="1" res="-1.3746216893196106e-02" rms="4.4574576616287231e-01" purity="3.0754131078720093e-01" nType="-99"/>
          <Node pos="r" depth="2" NCoef="0" IVar="-1" Cut="0.0000000000000000e+00" cType="1" res="1.4925413765013218e-02" rms="4.3579989671707153e-01" purity="7.1780717372894287e-01" nType="-99"/>
        </Node>
      </Node>
    </BinaryTree>
    <BinaryTree type="DecisionTree" boostWeight="1.0000000000000000e+00" itree="12">
      <Node pos="s" depth="0" NCoef="0" IVar="34" Cut="4.2323749542236328e+01" cType="1" res="-2.0317803137004375e-03" rms="4.6243593096733093e-01" purity="4.9764618277549744e-01" nType="0">
        <Node pos="l" depth="1" NCoef="0" IVar="32" Cut="5.2086454629898071e-01" cType="1" res="1.2428804486989975e-01" rms="4.4527584314346313e-01" purity="6.9172054529190063e-01" nType="0">
          <Node pos="l" depth="2" NCoef="0" IVar="-1" Cut="0.0000000000000000e+00" cType="1" res="4.5567592605948448e-03" rms="4.8866018652915955e-01" purity="5.7395154237747192e-01" nType="-99"/>
          <Node pos="r" depth="2" NCoef="0" IVar="-1" Cut="0.0000000000000000e+00" cType="1" res="2.1654052659869194e-02" rms="3.8014376163482666e-01" purity="8.1103110313415527e-01" nType="-99"/>
        </Node>
        <Node pos="r" depth="1" NCoef="0" IVar="32" Cut="1.1657992601394653e+00" cType="1" res="-8.7090797722339630e-02" rms="4.5426410436630249e-01" purity="3.6696383357048035e-01" nType="0">
          <Node pos="l" depth="2" NCoef="0" IVar="-1" Cut="0.0000000000000000e+00" cType="1" res="-1.2771269306540489e-02" rms="4.4747895002365112e-01" purity="3.1318733096122742e-01" nType="-99"/>
          <Node pos="r" depth="2" NCoef="0" IVar="-1" Cut="0.0000000000000000e+00" cType="1" res="2.0497776567935944e-02" rms="4.0285137295722961e-01" purity="7.8237038850784302e-01" nType="-99"/>
        </Node>
      </Node>
    </BinaryTree>
    <BinaryTree type="DecisionTree" boostWeight="1.0000000000000000e+00" itree="13">
      <Node pos="s" depth="0" NCoef="0" IVar="34" Cut="5.0538974761962891e+01" cType="1" res="4.6984985237941146e-04" rms="4.6037065982818604e-01" purity="4.9992969632148743e-01" nType="0">
        <Node pos="l" depth="1" NCoef="0" IVar="20" Cut="2.8255987167358398e+00" cType="1" res="8.9091271162033081e-02" rms="4.5723468065261841e-01" purity="6.4760404825210571e-01" nType="0">
          <Node pos="l" depth="2" NCoef="0" IVar="-1" Cut="0.0000000000000000e+00" cType="1" res="3.4316601231694221e-03" rms="4.7629982233047485e-01" purity="5.7496732473373413e-01" nType="-99"/>
          <Node pos="r" depth="2" NCoef="0" IVar="-1" Cut="0.0000000000000000e+00" cType="1" res="2.2446811199188232e-02" rms="3.8372236490249634e-01" purity="8.0950379371643066e-01" nType="-99"/>
        </Node>
        <Node pos="r" depth="1" NCoef="0" IVar="20" Cut="2.9031994342803955e+00" cType="1" res="-1.1602185666561127e-01" rms="4.3798375129699707e-01" purity="3.0581361055374146e-01" nType="0">
          <Node pos="l" depth="2" NCoef="0" IVar="-1" Cut="0.0000000000000000e+00" cType="1" res="-1.7128741368651390e-02" rms="4.1511163115501404e-01" purity="2.4292980134487152e-01" nType="-99"/>
          <Node pos="r" depth="2" NCoef="0" IVar="-1" Cut="0.0000000000000000e+00" cType="1" res="9.0893218293786049e-03" rms="4.7326692938804626e-01" purity="5.7613080739974976e-01" nType="-99"/>
        </Node>
      </Node>
    </BinaryTree>
    <BinaryTree type="DecisionTree" boostWeight="1.0000000000000000e+00" itree="14">
      <Node pos="s" depth="0" NCoef="0" IVar="33" Cut="7.6637252807617188e+01" cType="1" res="-3.1260461546480656e-03" rms="4.5846208930015564e-01" purity="4.9592936038970947e-01" nType="0">
        <Node pos="l" depth="1" NCoef="0" IVar="20" Cut="2.7200481891632080e+00" cType="1" res="1.0036004334688187e-01" rms="4.4947525858879089e-01" purity="6.5478974580764771e-01" nType="0">
          <Node pos="l" depth="2" NCoef="0" IVar="-1" Cut="0.0000000000000000e+00" cType="1" res="4.5566377229988575e-03" rms="4.7102701663970947e-01" purity="5.7568317651748657e-01" nType="-99"/>
          <Node pos="r" depth="2" NCoef="0" IVar="-1" Cut="0.0000000000000000e+00" cType="1" res="2.2411601617932320e-02" rms="3.8003668189048767e-01" purity="8.1108611822128296e-01" nType="-99"/>
        </Node>
        <Node pos="r" depth="1" NCoef="0" IVar="32" Cut="1.1405426263809204e+00" cType="1" res="-1.0303784906864166e-01" rms="4.4468337297439575e-01" purity="3.4255582094192505e-01" nType="0">
          <Node pos="l" depth="2" NCoef="0" IVar="-1" Cut="0.0000000000000000e+00" cType="1" res="-1.3942013494670391e-02" rms="4.3720707297325134e-01" purity="2.9424902796745300e-01" nType="-99"/>
          <Node pos="r" depth="2" NCoef="0" IVar="-1" Cut="0.0000000000000000e+00" cType="1" res="1.6788229346275330e-02" rms="4.2015358805656433e-01" purity="7.5281673669815063e-01" nType="-99"/>
        </Node>
      </Node>
    </BinaryTree>
    <BinaryTree type="DecisionTree" boostWeight="1.0000000000000000e+00" itree="15">
      <Node pos="s" depth="0" NCoef="0" IVar="20" Cut="2.6265535354614258e+00" cType="1" res="-4.9413009546697140e-03" rms="4.5637589693069458e-01" purity="4.9452015757560730e-01" nType="0">
        <Node pos="l" depth="1" NCoef="0" IVar="32" Cut="1.1651735305786133e+00" cType="1" res="-6.9206036627292633e-02" rms="4.5427736639976501e-01" purity="4.0156310796737671e-01" nType="0">
          <Node pos="l" depth="2" NCoef="0" IVar="-1" Cut="0.0000000000000000e+00" cType="1" res="-1.0787485167384148e-02" rms="4.5265084505081177e-01" purity="3.4737747907638550e-01" nType="-99"/>
          <Node pos="r" depth="2" NCoef="0" IVar="-1" Cut="0.0000000000000000e+00" cType="1" res="2.2048441693186760e-02" rms="3.6463260650634766e-01" purity="8.2694178819656372e-01" nType="-99"/>
        </Node>
        <Node pos="r" depth="1" NCoef="0" IVar="16" Cut="5.8355537414550781e+01" cType="1" res="1.4415951073169708e-01" rms="4.2532318830490112e-01" purity="7.1019005775451660e-01" nType="0">
          <Node pos="l" depth="2" NCoef="0" IVar="-1" Cut="0.0000000000000000e+00" cType="1" res="1.9762538373470306e-02" rms="4.0448728203773499e-01" purity="7.6276749372482300e-01" nType="-99"/>
          <Node pos="r" depth="2" NCoef="0" IVar="-1" Cut="0.0000000000000000e+00" cType="1" res="-3.3728689886629581e-03" rms="4.6251836419105530e-01" purity="4.9227994680404663e-01" nType="-99"/>
        </Node>
      </Node>
    </BinaryTree>
    <BinaryTree type="DecisionTree" boostWeight="1.0000000000000000e+00" itree="16">
      <Node pos="s" depth="0" NCoef="0" IVar="34" Cut="4.2170566558837891e+01" cType="1" res="1.2559876777231693e-03" rms="4.5534059405326843e-01" purity="5.0010746717453003e-01" nType="0">
        <Node pos="l" depth="1" NCoef="0" IVar="32" Cut="1.2926646471023560e+00" cType="1" res="1.1451321840286255e-01" rms="4.4027668237686157e-01" purity="6.9572615623474121e-01" nType="0">
          <Node pos="l" depth="2" NCoef="0" IVar="-1" Cut="0.0000000000000000e+00" cType="1" res="8.5579073056578636e-03" rms="4.6745100617408752e-01" purity="6.4179885387420654e-01" nType="-99"/>
          <Node pos="r" depth="2" NCoef="0" IVar="-1" Cut="0.0000000000000000e+00" cType="1" res="2.9112467542290688e-02" rms="2.4814103543758392e-01" purity="9.3420082330703735e-01" nType="-99"/>
        </Node>
        <Node pos="r" depth="1" NCoef="0" IVar="32" Cut="7.0280534029006958e-01" cType="1" res="-7.4863322079181671e-02" rms="4.4943007826805115e-01" purity="3.6863362789154053e-01" nType="0">
          <Node pos="l" depth="2" NCoef="0" IVar="-1" Cut="0.0000000000000000e+00" cType="1" res="-1.3200818561017513e-02" rms="4.3591037392616272e-01" purity="2.8385475277900696e-01" nType="-99"/>
          <Node pos="r" depth="2" NCoef="0" IVar="-1" Cut="0.0000000000000000e+00" cType="1" res="7.8711267560720444e-03" rms="4.5501318573951721e-01" purity="6.1832743883132935e-01" nType="-99"/>
        </Node>
      </Node>
    </BinaryTree>
    <BinaryTree type="DecisionTree" boostWeight="1.0000000000000000e+00" itree="17">
      <Node pos="s" depth="0" NCoef="0" IVar="33" Cut="6.7873832702636719e+01" cType="1" res="-1.9500036723911762e-03" rms="4.5323252677917480e-01" purity="4.9702617526054382e-01" nType="0">
        <Node pos="l" depth="1" NCoef="0" IVar="20" Cut="1.9076943397521973e+00" cType="1" res="1.1190807074308395e-01" rms="4.3874877691268921e-01" purity="6.8810778856277466e-01" nType="0">
          <Node pos="l" depth="2" NCoef="0" IVar="-1" Cut="0.0000000000000000e+00" cType="1" res="4.7612930648028851e-03" rms="4.6661064028739929e-01" purity="5.9453648328781128e-01" nType="-99"/>
          <Node pos="r" depth="2" NCoef="0" IVar="-1" Cut="0.0000000000000000e+00" cType="1" res="1.8836911767721176e-02" rms="3.9959853887557983e-01" purity="7.7902430295944214e-01" nType="-99"/>
        </Node>
        <Node pos="r" depth="1" NCoef="0" IVar="21" Cut="1.1475245952606201e+00" cType="1" res="-7.6838172972202301e-02" rms="4.4697010517120361e-01" purity="3.7134557962417603e-01" nType="0">
          <Node pos="l" depth="2" NCoef="0" IVar="-1" Cut="0.0000000000000000e+00" cType="1" res="6.9720465689897537e-03" rms="4.7749897837638855e-01" purity="5.4695355892181396e-01" nType="-99"/>
          <Node pos="r" depth="2" NCoef="0" IVar="-1" Cut="0.0000000000000000e+00" cType="1" res="-1.3875084929168224e-02" rms="4.2232593894004822e-01" purity="3.0510979890823364e-01" nType="-99"/>
        </Node>
      </Node>
    </BinaryTree>
    <BinaryTree type="DecisionTree" boostWeight="1.0000000000000000e+00" itree="18">
      <Node pos="s" depth="0" NCoef="0" IVar="34" Cut="6.7141151428222656e+01" cType="1" res="-7.1307452162727714e-04" rms="4.5125359296798706e-01" purity="4.9837815761566162e-01" nType="0">
        <Node pos="l" depth="1" NCoef="0" IVar="32" Cut="1.1887124776840210e+00" cType="1" res="5.0501894205808640e-02" rms="4.5701798796653748e-01" purity="5.8625698089599609e-01" nType="0">
          <Node pos="l" depth="2" NCoef="0" IVar="-1" Cut="0.0000000000000000e+00" cType="1" res="1.5889790374785662e-03" rms="4.7544899582862854e-01" purity="5.2221906185150146e-01" nType="-99"/>
          <Node pos="r" depth="2" NCoef="0" IVar="-1" Cut="0.0000000000000000e+00" cType="1" res="2.5017736479640007e-02" rms="3.0479845404624939e-01" purity="8.9200222492218018e-01" nType="-99"/>
        </Node>
        <Node pos="r" depth="1" NCoef="0" IVar="21" Cut="8.8415825366973877e-01" cType="1" res="-1.7056073248386383e-01" rms="3.8564184308052063e-01" purity="2.0693962275981903e-01" nType="0">
          <Node pos="l" depth="2" NCoef="0" IVar="-1" Cut="0.0000000000000000e+00" cType="1" res="4.9957018345594406e-03" rms="4.8555448651313782e-01" purity="4.7290536761283875e-01" nType="-99"/>
          <Node pos="r" depth="2" NCoef="0" IVar="-1" Cut="0.0000000000000000e+00" cType="1" res="-2.2557424381375313e-02" rms="3.5302305221557617e-01" purity="1.6203841567039490e-01" nType="-99"/>
        </Node>
      </Node>
    </BinaryTree>
    <BinaryTree type="DecisionTree" boostWeight="1.0000000000000000e+00" itree="19">
      <Node pos="s" depth="0" NCoef="0" IVar="33" Cut="6.3976425170898438e+01" cType="1" res="2.9289445374161005e-03" rms="4.5036822557449341e-01" purity="5.0202709436416626e-01" nType="0">
        <Node pos="l" depth="1" NCoef="0" IVar="34" Cut="3.7780941009521484e+01" cType="1" res="1.1775778234004974e-01" rms="4.3065875768661499e-01" purity="7.0941609144210815e-01" nType="0">
          <Node pos="l" depth="2" NCoef="0" IVar="-1" Cut="0.0000000000000000e+00" cType="1" res="1.8874686211347580e-02" rms="3.9233928918838501e-01" purity="7.9111582040786743e-01" nType="-99"/>
          <Node pos="r" depth="2" NCoef="0" IVar="-1" Cut="0.0000000000000000e+00" cType="1" res="5.4995757527649403e-03" rms="4.6202069520950317e-01" purity="6.1618781089782715e-01" nType="-99"/>
        </Node>
        <Node pos="r" depth="1" NCoef="0" IVar="20" Cut="2.5167770385742188e+00" cType="1" res="-5.8570478111505508e-02" rms="4.4865074753761292e-01" purity="3.9095479249954224e-01" nType="0">
          <Node pos="l" depth="2" NCoef="0" IVar="-1" Cut="0.0000000000000000e+00" cType="1" res="-1.1877548880875111e-02" rms="4.3353193998336792e-01" purity="3.1033003330230713e-01" nType="-99"/>
          <Node pos="r" depth="2" NCoef="0" IVar="-1" Cut="0.0000000000000000e+00" cType="1" res="8.4235491231083870e-03" rms="4.5771059393882751e-01" purity="6.0172528028488159e-01" nType="-99"/>
        </Node>
      </Node>
    </BinaryTree>
    <BinaryTree type="DecisionTree" boostWeight="1.0000000000000000e+00" itree="20">
      <Node pos="s" depth="0" NCoef="0" IVar="20" Cut="2.3573751449584961e+00" cType="1" res="-8.4216881077736616e-04" rms="4.4855338335037231e-01" purity="4.9865350127220154e-01" nType="0">
        <Node pos="l" depth="1" NCoef="0" IVar="32" Cut="9.9580913782119751e-01" cType="1" res="-6.2945142388343811e-02" rms="4.4618186354637146e-01" purity="3.9978241920471191e-01" nType="0">
          <Node pos="l" depth="2" NCoef="0" IVar="-1" Cut="0.0000000000000000e+00" cType="1" res="-1.0701848194003105e-02" rms="4.4506570696830750e-01" purity="3.3132219314575195e-01" nType="-99"/>
          <Node pos="r" depth="2" NCoef="0" IVar="-1" Cut="0.0000000000000000e+00" cType="1" res="1.7572170123457909e-02" rms="3.8289460539817810e-01" purity="7.9315900802612305e-01" nType="-99"/>
        </Node>
        <Node pos="r" depth="1" NCoef="0" IVar="16" Cut="5.1230770111083984e+01" cType="1" res="1.1586966365575790e-01" rms="4.2932271957397461e-01" purity="6.8446463346481323e-01" nType="0">
          <Node pos="l" depth="2" NCoef="0" IVar="-1" Cut="0.0000000000000000e+00" cType="1" res="1.7672453075647354e-02" rms="4.0905803442001343e-01" purity="7.4825686216354370e-01" nType="-99"/>
          <Node pos="r" depth="2" NCoef="0" IVar="-1" Cut="0.0000000000000000e+00" cType="1" res="-2.2077369503676891e-03" rms="4.5572215318679810e-01" purity="5.0209575891494751e-01" nType="-99"/>
        </Node>
      </Node>
    </BinaryTree>
    <BinaryTree type="DecisionTree" boostWeight="1.0000000000000000e+00" itree="21">
      <Node pos="s" depth="0" NCoef="0" IVar="33" Cut="6.9201713562011719e+01" cType="1" res="-1.9119462231174111e-03" rms="4.4801720976829529e-01" purity="4.9573731422424316e-01" nType="0">
        <Node pos="l" depth="1" NCoef="0" IVar="34" Cut="3.8270847320556641e+01" cType="1" res="9.6488349139690399e-02" rms="4.3661805987358093e-01" purity="6.8443197011947632e-01" nType="0">
          <Node pos="l" depth="2" NCoef="0" IVar="-1" Cut="0.0000000000000000e+00" cType="1" res="1.7031915485858917e-02" rms="3.9968481659889221e-01" purity="7.7836805582046509e-01" nType="-99"/>
          <Node pos="r" depth="2" NCoef="0" IVar="-1" Cut="0.0000000000000000e+00" cType="1" res="3.3709013368934393e-03" rms="4.6439629793167114e-01" purity="5.8393156528472900e-01" nType="-99"/>
        </Node>
        <Node pos="r" depth="1" NCoef="0" IVar="21" Cut="1.5112209320068359e+00" cType="1" res="-7.0473678410053253e-02" rms="4.4305577874183655e-01" purity="3.6426174640655518e-01" nType="0">
          <Node pos="l" depth="2" NCoef="0" IVar="-1" Cut="0.0000000000000000e+00" cType="1" res="3.5896522458642721e-03" rms="4.7591903805732727e-01" purity="5.0470066070556641e-01" nType="-99"/>
          <Node pos="r" depth="2" NCoef="0" IVar="-1" Cut="0.0000000000000000e+00" cType="1" res="-1.3893972150981426e-02" rms="4.1240075230598450e-01" purity="2.8634503483772278e-01" nType="-99"/>
        </Node>
      </Node>
    </BinaryTree>
    <BinaryTree type="DecisionTree" boostWeight="1.0000000000000000e+00" itree="22">
      <Node pos="s" depth="0" NCoef="0" IVar="20" Cut="3.1376192569732666e+00" cType="1" res="2.1722321398556232e-03" rms="4.4552621245384216e-01" purity="5.0200045108795166e-01" nType="0">
        <Node pos="l" depth="1" NCoef="0" IVar="34" Cut="3.6954647064208984e+01" cType="1" res="-4.0253117680549622e-02" rms="4.4964721798896790e-01" purity="4.2803710699081421e-01" nType="0">
          <Node pos="l" depth="2" NCoef="0" IVar="-1" Cut="0.0000000000000000e+00" cType="1" res="1.0475399903953075e-02" rms="4.4798794388771057e-01" purity="6.7984867095947266e-01" nType="-99"/>
          <Node pos="r" depth="2" NCoef="0" IVar="-1" Cut="0.0000000000000000e+00" cType="1" res="-9.0266093611717224e-03" rms="4.4103983044624329e-01" purity="3.4847766160964966e-01" nType="-99"/>
        </Node>
        <Node pos="r" depth="1" NCoef="0" IVar="16" Cut="5.3002120971679688e+01" cType="1" res="1.5242248773574829e-01" rms="3.9557459950447083e-01" purity="7.6394331455230713e-01" nType="0">
          <Node pos="l" depth="2" NCoef="0" IVar="-1" Cut="0.0000000000000000e+00" cType="1" res="2.1162215620279312e-02" rms="3.6884298920631409e-01" purity="8.1671470403671265e-01" nType="-99"/>
          <Node pos="r" depth="2" NCoef="0" IVar="-1" Cut="0.0000000000000000e+00" cType="1" res="2.8389226645231247e-03" rms="4.5236557722091675e-01" purity="5.8646452426910400e-01" nType="-99"/>
        </Node>
      </Node>
    </BinaryTree>
    <BinaryTree type="DecisionTree" boostWeight="1.0000000000000000e+00" itree="23">
      <Node pos="s" depth="0" NCoef="0" IVar="34" Cut="6.2861862182617188e+01" cType="1" res="-1.7351588467136025e-03" rms="4.4412091374397278e-01" purity="4.9794241786003113e-01" nType="0">
        <Node pos="l" depth="1" NCoef="0" IVar="32" Cut="9.8095315694808960e-01" cType="1" res="4.7237303107976913e-02" rms="4.5135414600372314e-01" purity="5.9809106588363647e-01" nType="0">
          <Node pos="l" depth="2" NCoef="0" IVar="-1" Cut="0.0000000000000000e+00" cType="1" res="7.3566124774515629e-04" rms="4.7568073868751526e-01" purity="5.1436519622802734e-01" nType="-99"/>
          <Node pos="r" depth="2" NCoef="0" IVar="-1" Cut="0.0000000000000000e+00" cType="1" res="2.0707186311483383e-02" rms="3.3274155855178833e-01" purity="8.6410629749298096e-01" nType="-99"/>
        </Node>
        <Node pos="r" depth="1" NCoef="0" IVar="21" Cut="1.8938745260238647e+00" cType="1" res="-1.3467352092266083e-01" rms="3.9430680871009827e-01" purity="2.2608351707458496e-01" nType="0">
          <Node pos="l" depth="2" NCoef="0" IVar="-1" Cut="0.0000000000000000e+00" cType="1" res="-2.4876885581761599e-03" rms="4.6067461371421814e-01" purity="3.7209787964820862e-01" nType="-99"/>
          <Node pos="r" depth="2" NCoef="0" IVar="-1" Cut="0.0000000000000000e+00" cType="1" res="-2.2593414410948753e-02" rms="3.3288067579269409e-01" purity="1.4080287516117096e-01" nType="-99"/>
        </Node>
      </Node>
    </BinaryTree>
    <BinaryTree type="DecisionTree" boostWeight="1.0000000000000000e+00" itree="24">
      <Node pos="s" depth="0" NCoef="0" IVar="34" Cut="4.2323532104492188e+01" cType="1" res="-1.1260086903348565e-03" rms="4.4467014074325562e-01" purity="4.9616128206253052e-01" nType="0">
        <Node pos="l" depth="1" NCoef="0" IVar="33" Cut="5.2618316650390625e+01" cType="1" res="8.8015139102935791e-02" rms="4.3587875366210938e-01" purity="6.9271457195281982e-01" nType="0">
          <Node pos="l" depth="2" NCoef="0" IVar="-1" Cut="0.0000000000000000e+00" cType="1" res="1.6532536596059799e-02" rms="3.9479714632034302e-01" purity="7.8618067502975464e-01" nType="-99"/>
          <Node pos="r" depth="2" NCoef="0" IVar="-1" Cut="0.0000000000000000e+00" cType="1" res="4.2425789870321751e-03" rms="4.6001195907592773e-01" purity="6.1915951967239380e-01" nType="-99"/>
        </Node>
        <Node pos="r" depth="1" NCoef="0" IVar="21" Cut="1.2541252374649048e+00" cType="1" res="-6.2281545251607895e-02" rms="4.4028508663177490e-01" purity="3.6131531000137329e-01" nType="0">
          <Node pos="l" depth="2" NCoef="0" IVar="-1" Cut="0.0000000000000000e+00" cType="1" res="6.2161702662706375e-03" rms="4.7601929306983948e-01" purity="5.3062719106674194e-01" nType="-99"/>
          <Node pos="r" depth="2" NCoef="0" IVar="-1" Cut="0.0000000000000000e+00" cType="1" res="-1.2517189607024193e-02" rms="4.1322642564773560e-01" purity="2.8870368003845215e-01" nType="-99"/>
        </Node>
      </Node>
    </BinaryTree>
    <BinaryTree type="DecisionTree" boostWeight="1.0000000000000000e+00" itree="25">
      <Node pos="s" depth="0" NCoef="0" IVar="32" Cut="1.1990355253219604e+00" cType="1" res="2.2476713638752699e-04" rms="4.4302973151206970e-01" purity="4.9894651770591736e-01" nType="0">
        <Node pos="l" depth="1" NCoef="0" IVar="20" Cut="2.1112151145935059e+00" cType="1" res="-3.1049629673361778e-02" rms="4.5358234643936157e-01" purity="4.3390086293220520e-01" nType="0">
          <Node pos="l" depth="2" NCoef="0" IVar="-1" Cut="0.0000000000000000e+00" cType="1" res="-9.5445476472377777e-03" rms="4.4216236472129822e-01" purity="3.3735892176628113e-01" nType="-99"/>
          <Node pos="r" depth="2" NCoef="0" IVar="-1" Cut="0.0000000000000000e+00" cType="1" res="7.1404934860765934e-03" rms="4.5572775602340698e-01" purity="5.9713774919509888e-01" nType="-99"/>
        </Node>
        <Node pos="r" depth="1" NCoef="0" IVar="32" Cut="1.6496355533599854e+00" cType="1" res="1.7710830271244049e-01" rms="3.2548761367797852e-01" purity="8.6683547496795654e-01" nType="0">
          <Node pos="l" depth="2" NCoef="0" IVar="-1" Cut="0.0000000000000000e+00" cType="1" res="1.5236553736031055e-02" rms="3.7662383913993835e-01" purity="8.1001698970794678e-01" nType="-99"/>
          <Node pos="r" depth="2" NCoef="0" IVar="-1" Cut="0.0000000000000000e+00" cType="1" res="2.6739906519651413e-02" rms="2.6418522000312805e-01" purity="9.1773957014083862e-01" nType="-99"/>
        </Node>
      </Node>
    </BinaryTree>
    <BinaryTree type="DecisionTree" boostWeight="1.0000000000000000e+00" itree="26">
      <Node pos="s" depth="0" NCoef="0" IVar="20" Cut="2.8651173114776611e+00" cType="1" res="1.5133850974962115e-03" rms="4.4072240591049194e-01" purity="5.0131636857986450e-01" nType="0">
        <Node pos="l" depth="1" NCoef="0" IVar="34" Cut="4.0269889831542969e+01" cType="1" res="-4.2351473122835159e-02" rms="4.4404837489128113e-01" purity="4.1679778695106506e-01" nType="0">
          <Node pos="l" depth="2" NCoef="0" IVar="-1" Cut="0.0000000000000000e+00" cType="1" res="6.4787156879901886e-03" rms="4.5773845911026001e-01" purity="6.4157426357269287e-01" nType="-99"/>
          <Node pos="r" depth="2" NCoef="0" IVar="-1" Cut="0.0000000000000000e+00" cType="1" res="-1.0048928670585155e-02" rms="4.2851459980010986e-01" purity="3.0898231267929077e-01" nType="-99"/>
        </Node>
        <Node pos="r" depth="1" NCoef="0" IVar="16" Cut="5.3066822052001953e+01" cType="1" res="1.2512725591659546e-01" rms="4.0649819374084473e-01" purity="7.3949486017227173e-01" nType="0">
          <Node pos="l" depth="2" NCoef="0" IVar="-1" Cut="0.0000000000000000e+00" cType="1" res="1.8616067245602608e-02" rms="3.8356173038482666e-01" purity="7.9606789350509644e-01" nType="-99"/>
          <Node pos="r" depth="2" NCoef="0" IVar="-1" Cut="0.0000000000000000e+00" cType="1" res="-1.0491977445781231e-03" rms="4.5146831870079041e-01" purity="5.4571270942687988e-01" nType="-99"/>
        </Node>
      </Node>
    </BinaryTree>
    <BinaryTree type="DecisionTree" boostWeight="1.0000000000000000e+00" itree="27">
      <Node pos="s" depth="0" NCoef="0" IVar="32" Cut="5.5309057235717773e-01" cType="1" res="7.4676187068689615e-05" rms="4.4007080793380737e-01" purity="4.9928081035614014e-01" nType="0">
        <Node pos="l" depth="1" NCoef="0" IVar="20" Cut="1.8294260501861572e+00" cType="1" res="-5.6176982820034027e-02" rms="4.4610875844955444e-01" purity="3.8189834356307983e-01" nType="0">
          <Node pos="l" depth="2" NCoef="0" IVar="-1" Cut="0.0000000000000000e+00" cType="1" res="-1.2713980861008167e-02" rms="4.2539301514625549e-01" purity="2.8651031851768494e-01" nType="-99"/>
          <Node pos="r" depth="2" NCoef="0" IVar="-1" Cut="0.0000000000000000e+00" cType="1" res="4.4731735251843929e-03" rms="4.6075674891471863e-01" purity="5.3519874811172485e-01" nType="-99"/>
        </Node>
        <Node pos="r" depth="1" NCoef="0" IVar="34" Cut="7.9313446044921875e+01" cType="1" res="8.7013840675354004e-02" rms="4.1586494445800781e-01" purity="6.8070006370544434e-01" nType="0">
          <Node pos="l" depth="2" NCoef="0" IVar="-1" Cut="0.0000000000000000e+00" cType="1" res="1.2245255522429943e-02" rms="4.0910351276397705e-01" purity="7.2245335578918457e-01" nType="-99"/>
          <Node pos="r" depth="2" NCoef="0" IVar="-1" Cut="0.0000000000000000e+00" cType="1" res="-1.0602015070617199e-02" rms="4.3021500110626221e-01" purity="3.0626344680786133e-01" nType="-99"/>
        </Node>
      </Node>
    </BinaryTree>
    <BinaryTree type="DecisionTree" boostWeight="1.0000000000000000e+00" itree="28">
      <Node pos="s" depth="0" NCoef="0" IVar="34" Cut="6.5306312561035156e+01" cType="1" res="1.2797079398296773e-04" rms="4.3972823023796082e-01" purity="4.9848571419715881e-01" nType="0">
        <Node pos="l" depth="1" NCoef="0" IVar="32" Cut="5.6903380155563354e-01" cType="1" res="4.0047440677881241e-02" rms="4.4807797670364380e-01" purity="5.9006911516189575e-01" nType="0">
          <Node pos="l" depth="2" NCoef="0" IVar="-1" Cut="0.0000000000000000e+00" cType="1" res="-1.1561070568859577e-03" rms="4.7151419520378113e-01" purity="4.7590932250022888e-01" nType="-99"/>
          <Node pos="r" depth="2" NCoef="0" IVar="-1" Cut="0.0000000000000000e+00" cType="1" res="1.2784561142325401e-02" rms="4.0255445241928101e-01" purity="7.4899643659591675e-01" nType="-99"/>
        </Node>
        <Node pos="r" depth="1" NCoef="0" IVar="21" Cut="2.2448842525482178e+00" cType="1" res="-1.2171451002359390e-01" rms="3.8862007856369019e-01" purity="2.1895411610603333e-01" nType="0">
          <Node pos="l" depth="2" NCoef="0" IVar="-1" Cut="0.0000000000000000e+00" cType="1" res="-4.2663929052650928e-03" rms="4.4803345203399658e-01" purity="3.2981830835342407e-01" nType="-99"/>
          <Node pos="r" depth="2" NCoef="0" IVar="-1" Cut="0.0000000000000000e+00" cType="1" res="-2.3973492905497551e-02" rms="2.9856267571449280e-01" purity="1.1082471907138824e-01" nType="-99"/>
        </Node>
      </Node>
    </BinaryTree>
    <BinaryTree type="DecisionTree" boostWeight="1.0000000000000000e+00" itree="29">
      <Node pos="s" depth="0" NCoef="0" IVar="33" Cut="8.7628234863281250e+01" cType="1" res="-4.6351784840226173e-04" rms="4.3783098459243774e-01" purity="4.9838462471961975e-01" nType="0">
        <Node pos="l" depth="1" NCoef="0" IVar="20" Cut="2.0853703022003174e+00" cType="1" res="5.6857507675886154e-02" rms="4.4045999646186829e-01" purity="6.2244504690170288e-01" nType="0">
          <Node pos="l" depth="2" NCoef="0" IVar="-1" Cut="0.0000000000000000e+00" cType="1" res="5.0833134446293116e-04" rms="4.5807871222496033e-01" purity="5.2188169956207275e-01" nType="-99"/>
          <Node pos="r" depth="2" NCoef="0" IVar="-1" Cut="0.0000000000000000e+00" cType="1" res="1.3728060759603977e-02" rms="4.0853512287139893e-01" purity="7.4688351154327393e-01" nType="-99"/>
        </Node>
        <Node pos="r" depth="1" NCoef="0" IVar="0" Cut="1.3282667541503906e+02" cType="1" res="-8.3564706146717072e-02" rms="4.2033225297927856e-01" purity="3.1852793693542480e-01" nType="0">
          <Node pos="l" depth="2" NCoef="0" IVar="-1" Cut="0.0000000000000000e+00" cType="1" res="-1.3480626046657562e-02" rms="4.0047523379325867e-01" purity="2.7800133824348450e-01" nType="-99"/>
          <Node pos="r" depth="2" NCoef="0" IVar="-1" Cut="0.0000000000000000e+00" cType="1" res="6.7913136444985867e-03" rms="4.6213710308074951e-01" purity="4.7618931531906128e-01" nType="-99"/>
        </Node>
      </Node>
    </BinaryTree>
    <BinaryTree type="DecisionTree" boostWeight="1.0000000000000000e+00" itree="30">
      <Node pos="s" depth="0" NCoef="0" IVar="32" Cut="6.4701163768768311e-01" cType="1" res="-2.0413997117429972e-03" rms="4.3712043762207031e-01" purity="4.9595904350280762e-01" nType="0">
        <Node pos="l" depth="1" NCoef="0" IVar="21" Cut="1.1600658893585205e+00" cType="1" res="-4.7624349594116211e-02" rms="4.4541966915130615e-01" purity="3.8729155063629150e-01" nType="0">
          <Node pos="l" depth="2" NCoef="0" IVar="-1" Cut="0.0000000000000000e+00" cType="1" res="5.9186429716646671e-03" rms="4.8007848858833313e-01" purity="5.4356068372726440e-01" nType="-99"/>
          <Node pos="r" depth="2" NCoef="0" IVar="-1" Cut="0.0000000000000000e+00" cType="1" res="-1.0482252575457096e-02" rms="4.2021372914314270e-01" purity="3.1623715162277222e-01" nType="-99"/>
        </Node>
        <Node pos="r" depth="1" NCoef="0" IVar="32" Cut="1.5065748691558838e+00" cType="1" res="8.8979609310626984e-02" rms="4.0498760342597961e-01" purity="7.1294856071472168e-01" nType="0">
          <Node pos="l" depth="2" NCoef="0" IVar="-1" Cut="0.0000000000000000e+00" cType="1" res="5.4967752657830715e-03" rms="4.4026857614517212e-01" purity="6.3425505161285400e-01" nType="-99"/>
          <Node pos="r" depth="2" NCoef="0" IVar="-1" Cut="0.0000000000000000e+00" cType="1" res="2.3828467354178429e-02" rms="2.7781629562377930e-01" purity="9.0637260675430298e-01" nType="-99"/>
        </Node>
      </Node>
    </BinaryTree>
    <BinaryTree type="DecisionTree" boostWeight="1.0000000000000000e+00" itree="31">
      <Node pos="s" depth="0" NCoef="0" IVar="33" Cut="5.8439907073974609e+01" cType="1" res="2.5616460479795933e-03" rms="4.3673691153526306e-01" purity="5.0074172019958496e-01" nType="0">
        <Node pos="l" depth="1" NCoef="0" IVar="34" Cut="3.6533977508544922e+01" cType="1" res="1.0253788530826569e-01" rms="4.1576626896858215e-01" purity="7.3491001129150391e-01" nType="0">
          <Node pos="l" depth="2" NCoef="0" IVar="-1" Cut="0.0000000000000000e+00" cType="1" res="1.6926193609833717e-02" rms="3.7787804007530212e-01" purity="8.0923485755920410e-01" nType="-99"/>
          <Node pos="r" depth="2" NCoef="0" IVar="-1" Cut="0.0000000000000000e+00" cType="1" res="6.0962690040469170e-03" rms="4.4820129871368408e-01" purity="6.5518862009048462e-01" nType="-99"/>
        </Node>
        <Node pos="r" depth="1" NCoef="0" IVar="32" Cut="1.2475595474243164e+00" cType="1" res="-3.6525681614875793e-02" rms="4.3851226568222046e-01" purity="4.0918985009193420e-01" nType="0">
          <Node pos="l" depth="2" NCoef="0" IVar="-1" Cut="0.0000000000000000e+00" cType="1" res="-6.4939004369080067e-03" rms="4.4258219003677368e-01" purity="3.5697814822196960e-01" nType="-99"/>
          <Node pos="r" depth="2" NCoef="0" IVar="-1" Cut="0.0000000000000000e+00" cType="1" res="1.7882818356156349e-02" rms="3.5261341929435730e-01" purity="8.3392047882080078e-01" nType="-99"/>
        </Node>
      </Node>
    </BinaryTree>
    <BinaryTree type="DecisionTree" boostWeight="1.0000000000000000e+00" itree="32">
      <Node pos="s" depth="0" NCoef="0" IVar="34" Cut="6.6510055541992188e+01" cType="1" res="-6.7866616882383823e-04" rms="4.3425726890563965e-01" purity="4.9897700548171997e-01" nType="0">
        <Node pos="l" depth="1" NCoef="0" IVar="32" Cut="1.3347153663635254e+00" cType="1" res="3.5403586924076080e-02" rms="4.4418483972549438e-01" purity="5.8861362934112549e-01" nType="0">
          <Node pos="l" depth="2" NCoef="0" IVar="-1" Cut="0.0000000000000000e+00" cType="1" res="1.2776489602401853e-03" rms="4.6361106634140015e-01" purity="5.3153318166732788e-01" nType="-99"/>
          <Node pos="r" depth="2" NCoef="0" IVar="-1" Cut="0.0000000000000000e+00" cType="1" res="2.2721214219927788e-02" rms="2.7436259388923645e-01" purity="9.1535669565200806e-01" nType="-99"/>
        </Node>
        <Node pos="r" depth="1" NCoef="0" IVar="0" Cut="1.2209609985351562e+02" cType="1" res="-1.1723910272121429e-01" rms="3.7764474749565125e-01" purity="2.0941412448883057e-01" nType="0">
          <Node pos="l" depth="2" NCoef="0" IVar="-1" Cut="0.0000000000000000e+00" cType="1" res="-1.8534738570451736e-02" rms="3.4286335110664368e-01" purity="1.6517037153244019e-01" nType="-99"/>
          <Node pos="r" depth="2" NCoef="0" IVar="-1" Cut="0.0000000000000000e+00" cType="1" res="1.2833016226068139e-03" rms="4.5174536108970642e-01" purity="3.5581028461456299e-01" nType="-99"/>
        </Node>
      </Node>
    </BinaryTree>
    <BinaryTree type="DecisionTree" boostWeight="1.0000000000000000e+00" itree="33">
      <Node pos="s" depth="0" NCoef="0" IVar="20" Cut="2.0672366619110107e+00" cType="1" res="1.9401556346565485e-03" rms="4.3564572930335999e-01" purity="4.9941968917846680e-01" nType="0">
        <Node pos="l" depth="1" NCoef="0" IVar="21" Cut="8.9042890071868896e-01" cType="1" res="-4.8528753221035004e-02" rms="4.3258491158485413e-01" purity="3.9527702331542969e-01" nType="0">
          <Node pos="l" depth="2" NCoef="0" IVar="-1" Cut="0.0000000000000000e+00" cType="1" res="7.8918524086475372e-03" rms="4.6435466408729553e-01" purity="5.8546721935272217e-01" nType="-99"/>
          <Node pos="r" depth="2" NCoef="0" IVar="-1" Cut="0.0000000000000000e+00" cType="1" res="-9.9342912435531616e-03" rms="4.1411280632019043e-01" purity="3.3368319272994995e-01" nType="-99"/>
        </Node>
        <Node pos="r" depth="1" NCoef="0" IVar="16" Cut="6.8649520874023438e+01" cType="1" res="7.6134786009788513e-02" rms="4.2947021126747131e-01" purity="6.5252041816711426e-01" nType="0">
          <Node pos="l" depth="2" NCoef="0" IVar="-1" Cut="0.0000000000000000e+00" cType="1" res="1.1753532104194164e-02" rms="4.2387884855270386e-01" purity="6.9591361284255981e-01" nType="-99"/>
          <Node pos="r" depth="2" NCoef="0" IVar="-1" Cut="0.0000000000000000e+00" cType="1" res="-1.0495821945369244e-02" rms="4.2422425746917725e-01" purity="3.8260287046432495e-01" nType="-99"/>
        </Node>
      </Node>
    </BinaryTree>
    <BinaryTree type="DecisionTree" boostWeight="1.0000000000000000e+00" itree="34">
      <Node pos="s" depth="0" NCoef="0" IVar="20" Cut="3.1733894348144531e+00" cType="1" res="1.1312256101518869e-03" rms="4.3450021743774414e-01" purity="4.9918597936630249e-01" nType="0">
        <Node pos="l" depth="1" NCoef="0" IVar="21" Cut="1.0095708370208740e+00" cType="1" res="-2.9764721170067787e-02" rms="4.4059073925018311e-01" purity="4.2721489071846008e-01" nType="0">
          <Node pos="l" depth="2" NCoef="0" IVar="-1" Cut="0.0000000000000000e+00" cType="1" res="7.0555210113525391e-03" rms="4.6540457010269165e-01" purity="5.8817207813262939e-01" nType="-99"/>
          <Node pos="r" depth="2" NCoef="0" IVar="-1" Cut="0.0000000000000000e+00" cType="1" res="-7.3545691557228565e-03" rms="4.2547792196273804e-01" purity="3.6714515089988708e-01" nType="-99"/>
        </Node>
        <Node pos="r" depth="1" NCoef="0" IVar="16" Cut="3.8121795654296875e+01" cType="1" res="1.1520418524742126e-01" rms="3.9060863852500916e-01" purity="7.6491516828536987e-01" nType="0">
          <Node pos="l" depth="2" NCoef="0" IVar="-1" Cut="0.0000000000000000e+00" cType="1" res="1.9086776301264763e-02" rms="3.5599160194396973e-01" purity="8.3335846662521362e-01" nType="-99"/>
          <Node pos="r" depth="2" NCoef="0" IVar="-1" Cut="0.0000000000000000e+00" cType="1" res="6.0988990589976311e-03" rms="4.2876803874969482e-01" purity="6.6507047414779663e-01" nType="-99"/>
        </Node>
      </Node>
    </BinaryTree>
    <BinaryTree type="DecisionTree" boostWeight="1.0000000000000000e+00" itree="35">
      <Node pos="s" depth="0" NCoef="0" IVar="20" Cut="2.2099277973175049e+00" cType="1" res="1.1145179159939289e-03" rms="4.3280112743377686e-01" purity="4.9987164139747620e-01" nType="0">
        <Node pos="l" depth="1" NCoef="0" IVar="32" Cut="6.3554918766021729e-01" cType="1" res="-4.6914786100387573e-02" rms="4.3222832679748535e-01" purity="3.9304250478744507e-01" nType="0">
          <Node pos="l" depth="2" NCoef="0" IVar="-1" Cut="0.0000000000000000e+00" cType="1" res="-9.7394175827503204e-03" rms="4.2750111222267151e-01" purity="3.0184662342071533e-01" nType="-99"/>
          <Node pos="r" depth="2" NCoef="0" IVar="-1" Cut="0.0000000000000000e+00" cType="1" res="7.6862303540110588e-03" rms="4.2473980784416199e-01" purity="6.4784973859786987e-01" nType="-99"/>
        </Node>
        <Node pos="r" depth="1" NCoef="0" IVar="16" Cut="6.8691650390625000e+01" cType="1" res="7.9242698848247528e-02" rms="4.2221605777740479e-01" purity="6.7364811897277832e-01" nType="0">
          <Node pos="l" depth="2" NCoef="0" IVar="-1" Cut="0.0000000000000000e+00" cType="1" res="1.2030689045786858e-02" rms="4.1494476795196533e-01" purity="7.1666097640991211e-01" nType="-99"/>
          <Node pos="r" depth="2" NCoef="0" IVar="-1" Cut="0.0000000000000000e+00" cType="1" res="-9.5004821196198463e-03" rms="4.3160861730575562e-01" purity="3.9356741309165955e-01" nType="-99"/>
        </Node>
      </Node>
    </BinaryTree>
    <BinaryTree type="DecisionTree" boostWeight="1.0000000000000000e+00" itree="36">
      <Node pos="s" depth="0" NCoef="0" IVar="32" Cut="5.2962434291839600e-01" cType="1" res="2.4024832528084517e-03" rms="4.3438336253166199e-01" purity="4.9993360042572021e-01" nType="0">
        <Node pos="l" depth="1" NCoef="0" IVar="20" Cut="1.7159733772277832e+00" cType="1" res="-4.1756037622690201e-02" rms="4.4208294153213501e-01" purity="3.8147875666618347e-01" nType="0">
          <Node pos="l" depth="2" NCoef="0" IVar="-1" Cut="0.0000000000000000e+00" cType="1" res="-1.0867033153772354e-02" rms="4.2014837265014648e-01" purity="2.8276649117469788e-01" nType="-99"/>
          <Node pos="r" depth="2" NCoef="0" IVar="-1" Cut="0.0000000000000000e+00" cType="1" res="3.9837295189499855e-03" rms="4.6009796857833862e-01" purity="5.2151101827621460e-01" nType="-99"/>
        </Node>
        <Node pos="r" depth="1" NCoef="0" IVar="32" Cut="1.5580359697341919e+00" cType="1" res="6.6475294530391693e-02" rms="4.1468355059623718e-01" purity="6.7180842161178589e-01" nType="0">
          <Node pos="l" depth="2" NCoef="0" IVar="-1" Cut="0.0000000000000000e+00" cType="1" res="4.5193033292889595e-03" rms="4.4194871187210083e-01" purity="6.0627478361129761e-01" nType="-99"/>
          <Node pos="r" depth="2" NCoef="0" IVar="-1" Cut="0.0000000000000000e+00" cType="1" res="2.1965853869915009e-02" rms="2.7743864059448242e-01" purity="9.0592002868652344e-01" nType="-99"/>
        </Node>
      </Node>
    </BinaryTree>
    <BinaryTree type="DecisionTree" boostWeight="1.0000000000000000e+00" itree="37">
      <Node pos="s" depth="0" NCoef="0" IVar="34" Cut="3.6161952972412109e+01" cType="1" res="3.8577138911932707e-03" rms="4.3315598368644714e-01" purity="5.0197684764862061e-01" nType="0">
        <Node pos="l" depth="1" NCoef="0" IVar="33" Cut="4.9491237640380859e+01" cType="1" res="1.0072667896747589e-01" rms="4.0996131300926208e-01" purity="7.4173176288604736e-01" nType="0">
          <Node pos="l" depth="2" NCoef="0" IVar="-1" Cut="0.0000000000000000e+00" cType="1" res="1.7878608778119087e-02" rms="3.6802047491073608e-01" purity="8.2573699951171875e-01" nType="-99"/>
          <Node pos="r" depth="2" NCoef="0" IVar="-1" Cut="0.0000000000000000e+00" cType="1" res="7.0137754082679749e-03" rms="4.3607151508331299e-01" purity="6.7627978324890137e-01" nType="-99"/>
        </Node>
        <Node pos="r" depth="1" NCoef="0" IVar="0" Cut="1.2318633270263672e+02" cType="1" res="-2.6678077876567841e-02" rms="4.3577316403388977e-01" purity="4.2639949917793274e-01" nType="0">
          <Node pos="l" depth="2" NCoef="0" IVar="-1" Cut="0.0000000000000000e+00" cType="1" res="-6.0186902992427349e-03" rms="4.2695787549018860e-01" purity="4.0181684494018555e-01" nType="-99"/>
          <Node pos="r" depth="2" NCoef="0" IVar="-1" Cut="0.0000000000000000e+00" cType="1" res="1.0314906947314739e-02" rms="4.5464286208152771e-01" purity="5.3675508499145508e-01" nType="-99"/>
        </Node>
      </Node>
    </BinaryTree>
    <BinaryTree type="DecisionTree" boostWeight="1.0000000000000000e+00" itree="38">
      <Node pos="s" depth="0" NCoef="0" IVar="33" Cut="5.5317302703857422e+01" cType="1" res="2.4087536148726940e-03" rms="4.3262755870819092e-01" purity="5.0005769729614258e-01" nType="0">
        <Node pos="l" depth="1" NCoef="0" IVar="33" Cut="4.2964069366455078e+01" cType="1" res="9.5678985118865967e-02" rms="4.0750873088836670e-01" purity="7.4892753362655640e-01" nType="0">
          <Node pos="l" depth="2" NCoef="0" IVar="-1" Cut="0.0000000000000000e+00" cType="1" res="1.7792303115129471e-02" rms="3.6604258418083191e-01" purity="8.2746785879135132e-01" nType="-99"/>
          <Node pos="r" depth="2" NCoef="0" IVar="-1" Cut="0.0000000000000000e+00" cType="1" res="7.0486990734934807e-03" rms="4.2902210354804993e-01" purity="6.9765377044677734e-01" nType="-99"/>
        </Node>
        <Node pos="r" depth="1" NCoef="0" IVar="13" Cut="2.4840725708007812e+02" cType="1" res="-2.7151698246598244e-02" rms="4.3614676594734192e-01" purity="4.2118251323699951e-01" nType="0">
          <Node pos="l" depth="2" NCoef="0" IVar="-1" Cut="0.0000000000000000e+00" cType="1" res="-4.6546235680580139e-03" rms="4.3224468827247620e-01" purity="4.0634849667549133e-01" nType="-99"/>
          <Node pos="r" depth="2" NCoef="0" IVar="-1" Cut="0.0000000000000000e+00" cType="1" res="2.2147098556160927e-02" rms="4.3600255250930786e-01" purity="6.5984058380126953e-01" nType="-99"/>
        </Node>
      </Node>
    </BinaryTree>
    <BinaryTree type="DecisionTree" boostWeight="1.0000000000000000e+00" itree="39">
      <Node pos="s" depth="0" NCoef="0" IVar="34" Cut="4.0269412994384766e+01" cType="1" res="3.8244153838604689e-03" rms="4.3155497312545776e-01" purity="5.0263321399688721e-01" nType="0">
        <Node pos="l" depth="1" NCoef="0" IVar="33" Cut="4.6478919982910156e+01" cType="1" res="7.7098011970520020e-02" rms="4.2193219065666199e-01" purity="7.1253895759582520e-01" nType="0">
          <Node pos="l" depth="2" NCoef="0" IVar="-1" Cut="0.0000000000000000e+00" cType="1" res="1.5968142077326775e-02" rms="3.7658557295799255e-01" purity="8.1395047903060913e-01" nType="-99"/>
          <Node pos="r" depth="2" NCoef="0" IVar="-1" Cut="0.0000000000000000e+00" cType="1" res="5.5235782638192177e-03" rms="4.4022142887115479e-01" purity="6.6187471151351929e-01" nType="-99"/>
        </Node>
        <Node pos="r" depth="1" NCoef="0" IVar="16" Cut="4.9858215332031250e+01" cType="1" res="-3.6865320056676865e-02" rms="4.3146646022796631e-01" purity="3.8607001304626465e-01" nType="0">
          <Node pos="l" depth="2" NCoef="0" IVar="-1" Cut="0.0000000000000000e+00" cType="1" res="8.1151723861694336e-04" rms="4.4413042068481445e-01" purity="4.4989231228828430e-01" nType="-99"/>
          <Node pos="r" depth="2" NCoef="0" IVar="-1" Cut="0.0000000000000000e+00" cType="1" res="-1.2960640713572502e-02" rms="3.9739233255386353e-01" purity="2.7602657675743103e-01" nType="-99"/>
        </Node>
      </Node>
    </BinaryTree>
    <BinaryTree type="DecisionTree" boostWeight="1.0000000000000000e+00" itree="40">
      <Node pos="s" depth="0" NCoef="0" IVar="20" Cut="1.6501625776290894e+00" cType="1" res="3.0643218196928501e-03" rms="4.3165272474288940e-01" purity="5.0081568956375122e-01" nType="0">
        <Node pos="l" depth="1" NCoef="0" IVar="19" Cut="9.6794052124023438e+01" cType="1" res="-5.1739126443862915e-02" rms="4.2354923486709595e-01" purity="3.8445138931274414e-01" nType="0">
          <Node pos="l" depth="2" NCoef="0" IVar="-1" Cut="0.0000000000000000e+00" cType="1" res="3.5876424517482519e-03" rms="4.5559507608413696e-01" purity="5.9044420719146729e-01" nType="-99"/>
          <Node pos="r" depth="2" NCoef="0" IVar="-1" Cut="0.0000000000000000e+00" cType="1" res="-1.2724866159260273e-02" rms="3.9041301608085632e-01" purity="2.4604150652885437e-01" nType="-99"/>
        </Node>
        <Node pos="r" depth="1" NCoef="0" IVar="16" Cut="6.8182334899902344e+01" cType="1" res="5.7183668017387390e-02" rms="4.3275034427642822e-01" purity="6.1572742462158203e-01" nType="0">
          <Node pos="l" depth="2" NCoef="0" IVar="-1" Cut="0.0000000000000000e+00" cType="1" res="9.1249719262123108e-03" rms="4.2977875471115112e-01" purity="6.5887808799743652e-01" nType="-99"/>
          <Node pos="r" depth="2" NCoef="0" IVar="-1" Cut="0.0000000000000000e+00" cType="1" res="-8.0758798867464066e-03" rms="4.2747578024864197e-01" purity="3.6454233527183533e-01" nType="-99"/>
        </Node>
      </Node>
    </BinaryTree>
    <BinaryTree type="DecisionTree" boostWeight="1.0000000000000000e+00" itree="41">
      <Node pos="s" depth="0" NCoef="0" IVar="16" Cut="5.4893089294433594e+01" cType="1" res="2.6357332244515419e-03" rms="4.2991095781326294e-01" purity="5.0195699930191040e-01" nType="0">
        <Node pos="l" depth="1" NCoef="0" IVar="20" Cut="1.7770981788635254e+00" cType="1" res="3.1809065490961075e-02" rms="4.3439635634422302e-01" purity="5.5670207738876343e-01" nType="0">
          <Node pos="l" depth="2" NCoef="0" IVar="-1" Cut="0.0000000000000000e+00" cType="1" res="-1.8564582569524646e-03" rms="4.3909093737602234e-01" purity="4.3813765048980713e-01" nType="-99"/>
          <Node pos="r" depth="2" NCoef="0" IVar="-1" Cut="0.0000000000000000e+00" cType="1" res="9.7921006381511688e-03" rms="4.2300713062286377e-01" purity="6.8569976091384888e-01" nType="-99"/>
        </Node>
        <Node pos="r" depth="1" NCoef="0" IVar="33" Cut="6.7111427307128906e+01" cType="1" res="-8.5986629128456116e-02" rms="4.0324598550796509e-01" purity="3.3565291762351990e-01" nType="0">
          <Node pos="l" depth="2" NCoef="0" IVar="-1" Cut="0.0000000000000000e+00" cType="1" res="3.3341066446155310e-03" rms="4.4282227754592896e-01" purity="6.3211095333099365e-01" nType="-99"/>
          <Node pos="r" depth="2" NCoef="0" IVar="-1" Cut="0.0000000000000000e+00" cType="1" res="-1.4673206955194473e-02" rms="3.8134491443634033e-01" purity="2.3645640909671783e-01" nType="-99"/>
        </Node>
      </Node>
    </BinaryTree>
    <BinaryTree type="DecisionTree" boostWeight="1.0000000000000000e+00" itree="42">
      <Node pos="s" depth="0" NCoef="0" IVar="32" Cut="6.2614029645919800e-01" cType="1" res="-4.5943409204483032e-03" rms="4.2815899848937988e-01" purity="4.9399381875991821e-01" nType="0">
        <Node pos="l" depth="1" NCoef="0" IVar="20" Cut="1.4368693828582764e+00" cType="1" res="-4.2864780873060226e-02" rms="4.3652489781379700e-01" purity="3.8168108463287354e-01" nType="0">
          <Node pos="l" depth="2" NCoef="0" IVar="-1" Cut="0.0000000000000000e+00" cType="1" res="-1.1645070277154446e-02" rms="4.0916404128074646e-01" purity="2.6884695887565613e-01" nType="-99"/>
          <Node pos="r" depth="2" NCoef="0" IVar="-1" Cut="0.0000000000000000e+00" cType="1" res="1.5457823174074292e-03" rms="4.5404070615768433e-01" purity="4.9006500840187073e-01" nType="-99"/>
        </Node>
        <Node pos="r" depth="1" NCoef="0" IVar="16" Cut="4.1838985443115234e+01" cType="1" res="6.7677408456802368e-02" rms="4.0208244323730469e-01" purity="7.0609062910079956e-01" nType="0">
          <Node pos="l" depth="2" NCoef="0" IVar="-1" Cut="0.0000000000000000e+00" cType="1" res="1.3161201030015945e-02" rms="3.7971469759941101e-01" purity="7.7353692054748535e-01" nType="-99"/>
          <Node pos="r" depth="2" NCoef="0" IVar="-1" Cut="0.0000000000000000e+00" cType="1" res="1.9891966076102108e-04" rms="4.3034717440605164e-01" purity="5.8889633417129517e-01" nType="-99"/>
        </Node>
      </Node>
    </BinaryTree>
    <BinaryTree type="DecisionTree" boostWeight="1.0000000000000000e+00" itree="43">
      <Node pos="s" depth="0" NCoef="0" IVar="20" Cut="3.5621550083160400e+00" cType="1" res="-1.7261675093322992e-03" rms="4.2855107784271240e-01" purity="4.9613687396049500e-01" nType="0">
        <Node pos="l" depth="1" NCoef="0" IVar="21" Cut="1.1287126541137695e+00" cType="1" res="-2.4822365492582321e-02" rms="4.3582922220230103e-01" purity="4.3557888269424438e-01" nType="0">
          <Node pos="l" depth="2" NCoef="0" IVar="-1" Cut="0.0000000000000000e+00" cType="1" res="5.9918430633842945e-03" rms="4.6032711863517761e-01" purity="5.8705687522888184e-01" nType="-99"/>
          <Node pos="r" depth="2" NCoef="0" IVar="-1" Cut="0.0000000000000000e+00" cType="1" res="-6.9446219131350517e-03" rms="4.1970297694206238e-01" purity="3.6841356754302979e-01" nType="-99"/>
        </Node>
        <Node pos="r" depth="1" NCoef="0" IVar="16" Cut="3.6656734466552734e+01" cType="1" res="1.1393973976373672e-01" rms="3.6891764402389526e-01" purity="7.9941177368164062e-01" nType="0">
          <Node pos="l" depth="2" NCoef="0" IVar="-1" Cut="0.0000000000000000e+00" cType="1" res="2.0255621522665024e-02" rms="3.2757258415222168e-01" purity="8.6951315402984619e-01" nType="-99"/>
          <Node pos="r" depth="2" NCoef="0" IVar="-1" Cut="0.0000000000000000e+00" cType="1" res="6.5756547264754772e-03" rms="4.1465029120445251e-01" purity="6.9779044389724731e-01" nType="-99"/>
        </Node>
      </Node>
    </BinaryTree>
    <BinaryTree type="DecisionTree" boostWeight="1.0000000000000000e+00" itree="44">
      <Node pos="s" depth="0" NCoef="0" IVar="34" Cut="6.7789329528808594e+01" cType="1" res="3.4293646458536386e-03" rms="4.2852997779846191e-01" purity="5.0147223472595215e-01" nType="0">
        <Node pos="l" depth="1" NCoef="0" IVar="35" Cut="-2.1804242134094238e+00" cType="1" res="3.0215296894311905e-02" rms="4.3928405642509460e-01" purity="5.8522778749465942e-01" nType="0">
          <Node pos="l" depth="2" NCoef="0" IVar="-1" Cut="0.0000000000000000e+00" cType="1" res="1.6935378313064575e-02" rms="3.6965420842170715e-01" purity="7.9657685756683350e-01" nType="-99"/>
          <Node pos="r" depth="2" NCoef="0" IVar="-1" Cut="0.0000000000000000e+00" cType="1" res="1.5479653375223279e-03" rms="4.4672423601150513e-01" purity="5.5293464660644531e-01" nType="-99"/>
        </Node>
        <Node pos="r" depth="1" NCoef="0" IVar="0" Cut="1.2358483886718750e+02" cType="1" res="-8.7364464998245239e-02" rms="3.7593719363212585e-01" purity="2.1757364273071289e-01" nType="0">
          <Node pos="l" depth="2" NCoef="0" IVar="-1" Cut="0.0000000000000000e+00" cType="1" res="-1.5707466751337051e-02" rms="3.4358862042427063e-01" purity="1.6854925453662872e-01" nType="-99"/>
          <Node pos="r" depth="2" NCoef="0" IVar="-1" Cut="0.0000000000000000e+00" cType="1" res="4.1230926290154457e-03" rms="4.4598630070686340e-01" purity="3.7993627786636353e-01" nType="-99"/>
        </Node>
      </Node>
    </BinaryTree>
    <BinaryTree type="DecisionTree" boostWeight="1.0000000000000000e+00" itree="45">
      <Node pos="s" depth="0" NCoef="0" IVar="34" Cut="6.4915725708007812e+01" cType="1" res="3.5243660677224398e-03" rms="4.2771086096763611e-01" purity="5.0347882509231567e-01" nType="0">
        <Node pos="l" depth="1" NCoef="0" IVar="32" Cut="1.3770233392715454e+00" cType="1" res="3.1026210635900497e-02" rms="4.3922328948974609e-01" purity="5.9548193216323853e-01" nType="0">
          <Node pos="l" depth="2" NCoef="0" IVar="-1" Cut="0.0000000000000000e+00" cType="1" res="1.4861117815598845e-03" rms="4.5884093642234802e-01" purity="5.4276847839355469e-01" nType="-99"/>
          <Node pos="r" depth="2" NCoef="0" IVar="-1" Cut="0.0000000000000000e+00" cType="1" res="2.0749511197209358e-02" rms="2.6655915379524231e-01" purity="9.2014086246490479e-01" nType="-99"/>
        </Node>
        <Node pos="r" depth="1" NCoef="0" IVar="21" Cut="8.9669954776763916e-01" cType="1" res="-7.8824162483215332e-02" rms="3.7948122620582581e-01" purity="2.2799472510814667e-01" nType="0">
          <Node pos="l" depth="2" NCoef="0" IVar="-1" Cut="0.0000000000000000e+00" cType="1" res="8.9013995602726936e-03" rms="4.7624373435974121e-01" purity="4.9734374880790710e-01" nType="-99"/>
          <Node pos="r" depth="2" NCoef="0" IVar="-1" Cut="0.0000000000000000e+00" cType="1" res="-1.3852152042090893e-02" rms="3.5092383623123169e-01" purity="1.7842662334442139e-01" nType="-99"/>
        </Node>
      </Node>
    </BinaryTree>
    <BinaryTree type="DecisionTree" boostWeight="1.0000000000000000e+00" itree="46">
      <Node pos="s" depth="0" NCoef="0" IVar="33" Cut="8.7402931213378906e+01" cType="1" res="8.4717356367036700e-04" rms="4.2855477333068848e-01" purity="4.9850478768348694e-01" nType="0">
        <Node pos="l" depth="1" NCoef="0" IVar="35" Cut="2.1889269351959229e+00" cType="1" res="3.9809893816709518e-02" rms="4.3405467271804810e-01" purity="6.2098634243011475e-01" nType="0">
          <Node pos="l" depth="2" NCoef="0" IVar="-1" Cut="0.0000000000000000e+00" cType="1" res="2.6056203059852123e-03" rms="4.4284135103225708e-01" purity="5.8897548913955688e-01" nType="-99"/>
          <Node pos="r" depth="2" NCoef="0" IVar="-1" Cut="0.0000000000000000e+00" cType="1" res="1.7765892669558525e-02" rms="3.6007574200630188e-01" purity="8.1482070684432983e-01" nType="-99"/>
        </Node>
        <Node pos="r" depth="1" NCoef="0" IVar="0" Cut="1.5095408630371094e+02" cType="1" res="-5.4409157484769821e-02" rms="4.1439682245254517e-01" purity="3.2480338215827942e-01" nType="0">
          <Node pos="l" depth="2" NCoef="0" IVar="-1" Cut="0.0000000000000000e+00" cType="1" res="-9.5163490623235703e-03" rms="4.0119743347167969e-01" purity="2.9281711578369141e-01" nType="-99"/>
          <Node pos="r" depth="2" NCoef="0" IVar="-1" Cut="0.0000000000000000e+00" cType="1" res="1.0905295610427856e-02" rms="4.5690986514091492e-01" purity="5.1333093643188477e-01" nType="-99"/>
        </Node>
      </Node>
    </BinaryTree>
    <BinaryTree type="DecisionTree" boostWeight="1.0000000000000000e+00" itree="47">
      <Node pos="s" depth="0" NCoef="0" IVar="32" Cut="1.1176884174346924e+00" cType="1" res="1.5356846852228045e-03" rms="4.2533046007156372e-01" purity="5.0246334075927734e-01" nType="0">
        <Node pos="l" depth="1" NCoef="0" IVar="20" Cut="2.2241902351379395e+00" cType="1" res="-1.9939856603741646e-02" rms="4.3957221508026123e-01" purity="4.3060296773910522e-01" nType="0">
          <Node pos="l" depth="2" NCoef="0" IVar="-1" Cut="0.0000000000000000e+00" cType="1" res="-6.2389685772359371e-03" rms="4.3123915791511536e-01" purity="3.3697500824928284e-01" nType="-99"/>
          <Node pos="r" depth="2" NCoef="0" IVar="-1" Cut="0.0000000000000000e+00" cType="1" res="5.1792939193546772e-03" rms="4.4754561781883240e-01" purity="6.0857963562011719e-01" nType="-99"/>
        </Node>
        <Node pos="r" depth="1" NCoef="0" IVar="32" Cut="1.7901742458343506e+00" cType="1" res="1.0667230188846588e-01" rms="3.2755336165428162e-01" purity="8.5426622629165649e-01" nType="0">
          <Node pos="l" depth="2" NCoef="0" IVar="-1" Cut="0.0000000000000000e+00" cType="1" res="9.8295472562313080e-03" rms="3.7064480781555176e-01" purity="8.0293476581573486e-01" nType="-99"/>
          <Node pos="r" depth="2" NCoef="0" IVar="-1" Cut="0.0000000000000000e+00" cType="1" res="2.3034851998090744e-02" rms="2.4572235345840454e-01" purity="9.2747777700424194e-01" nType="-99"/>
        </Node>
      </Node>
    </BinaryTree>
    <BinaryTree type="DecisionTree" boostWeight="1.0000000000000000e+00" itree="48">
      <Node pos="s" depth="0" NCoef="0" IVar="20" Cut="1.6501625776290894e+00" cType="1" res="-2.6559082325547934e-03" rms="4.2672628164291382e-01" purity="4.9494367837905884e-01" nType="0">
        <Node pos="l" depth="1" NCoef="0" IVar="32" Cut="9.1801553964614868e-01" cType="1" res="-4.7305781394243240e-02" rms="4.1904708743095398e-01" purity="3.7764212489128113e-01" nType="0">
          <Node pos="l" depth="2" NCoef="0" IVar="-1" Cut="0.0000000000000000e+00" cType="1" res="-8.5730291903018951e-03" rms="4.2024475336074829e-01" purity="2.9642862081527710e-01" nType="-99"/>
          <Node pos="r" depth="2" NCoef="0" IVar="-1" Cut="0.0000000000000000e+00" cType="1" res="9.6473507583141327e-03" rms="3.8983851671218872e-01" purity="7.5253331661224365e-01" nType="-99"/>
        </Node>
        <Node pos="r" depth="1" NCoef="0" IVar="16" Cut="3.3044448852539062e+01" cType="1" res="4.1468348354101181e-02" rms="4.2964711785316467e-01" purity="6.1086434125900269e-01" nType="0">
          <Node pos="l" depth="2" NCoef="0" IVar="-1" Cut="0.0000000000000000e+00" cType="1" res="1.1349977925419807e-02" rms="4.1377222537994385e-01" purity="7.0755028724670410e-01" nType="-99"/>
          <Node pos="r" depth="2" NCoef="0" IVar="-1" Cut="0.0000000000000000e+00" cType="1" res="-1.3193164486438036e-03" rms="4.3818396329879761e-01" purity="5.1651370525360107e-01" nType="-99"/>
        </Node>
      </Node>
    </BinaryTree>
    <BinaryTree type="DecisionTree" boostWeight="1.0000000000000000e+00" itree="49">
      <Node pos="s" depth="0" NCoef="0" IVar="32" Cut="1.1719452142715454e+00" cType="1" res="-1.5373803908005357e-03" rms="4.2425853013992310e-01" purity="4.9827885627746582e-01" nType="0">
        <Node pos="l" depth="1" NCoef="0" IVar="21" Cut="6.0198009014129639e-01" cType="1" res="-2.0620267838239670e-02" rms="4.3795105814933777e-01" purity="4.3120098114013672e-01" nType="0">
          <Node pos="l" depth="2" NCoef="0" IVar="-1" Cut="0.0000000000000000e+00" cType="1" res="9.7232945263385773e-03" rms="4.6461230516433716e-01" purity="6.2052893638610840e-01" nType="-99"/>
          <Node pos="r" depth="2" NCoef="0" IVar="-1" Cut="0.0000000000000000e+00" cType="1" res="-4.9392678774893284e-03" rms="4.2891922593116760e-01" purity="3.9301273226737976e-01" nType="-99"/>
        </Node>
        <Node pos="r" depth="1" NCoef="0" IVar="32" Cut="1.6997160911560059e+00" cType="1" res="1.0233204066753387e-01" rms="3.2088077068328857e-01" purity="8.6338829994201660e-01" nType="0">
          <Node pos="l" depth="2" NCoef="0" IVar="-1" Cut="0.0000000000000000e+00" cType="1" res="9.4365999102592468e-03" rms="3.6890658736228943e-01" purity="8.0874526500701904e-01" nType="-99"/>
          <Node pos="r" depth="2" NCoef="0" IVar="-1" Cut="0.0000000000000000e+00" cType="1" res="2.1458193659782410e-02" rms="2.5404503941535950e-01" purity="9.2247974872589111e-01" nType="-99"/>
        </Node>
      </Node>
    </BinaryTree>
    <BinaryTree type="DecisionTree" boostWeight="1.0000000000000000e+00" itree="50">
      <Node pos="s" depth="0" NCoef="0" IVar="34" Cut="6.8515693664550781e+01" cType="1" res="2.7785487473011017e-03" rms="4.2549803853034973e-01" purity="5.0109612941741943e-01" nType="0">
        <Node pos="l" depth="1" NCoef="0" IVar="35" Cut="2.2532143592834473e+00" cType="1" res="2.5651294738054276e-02" rms="4.3684661388397217e-01" purity="5.8317852020263672e-01" nType="0">
          <Node pos="l" depth="2" NCoef="0" IVar="-1" Cut="0.0000000000000000e+00" cType="1" res="1.1624518083408475e-03" rms="4.4470250606536865e-01" purity="5.5076658725738525e-01" nType="-99"/>
          <Node pos="r" depth="2" NCoef="0" IVar="-1" Cut="0.0000000000000000e+00" cType="1" res="1.6790442168712616e-02" rms="3.6053112149238586e-01" purity="8.0724817514419556e-01" nType="-99"/>
        </Node>
        <Node pos="r" depth="1" NCoef="0" IVar="0" Cut="1.8928723144531250e+02" cType="1" res="-7.7558390796184540e-02" rms="3.7199985980987549e-01" purity="2.1279466152191162e-01" nType="0">
          <Node pos="l" depth="2" NCoef="0" IVar="-1" Cut="0.0000000000000000e+00" cType="1" res="-1.2699604034423828e-02" rms="3.5543692111968994e-01" purity="1.8701721727848053e-01" nType="-99"/>
          <Node pos="r" depth="2" NCoef="0" IVar="-1" Cut="0.0000000000000000e+00" cType="1" res="1.8344145268201828e-02" rms="4.6814745664596558e-01" purity="5.1423680782318115e-01" nType="-99"/>
        </Node>
      </Node>
    </BinaryTree>
    <BinaryTree type="DecisionTree" boostWeight="1.0000000000000000e+00" itree="51">
      <Node pos="s" depth="0" NCoef="0" IVar="34" Cut="4.0347518920898438e+01" cType="1" res="4.8117749392986298e-03" rms="4.2540368437767029e-01" purity="5.0335258245468140e-01" nType="0">
        <Node pos="l" depth="1" NCoef="0" IVar="35" Cut="1.5822067260742188e+00" cType="1" res="6.1301682144403458e-02" rms="4.1728839278221130e-01" purity="7.1273249387741089e-01" nType="0">
          <Node pos="l" depth="2" NCoef="0" IVar="-1" Cut="0.0000000000000000e+00" cType="1" res="4.6596312895417213e-03" rms="4.3428257107734680e-01" purity="6.7381685972213745e-01" nType="-99"/>
          <Node pos="r" depth="2" NCoef="0" IVar="-1" Cut="0.0000000000000000e+00" cType="1" res="1.7216758802533150e-02" rms="3.4634050726890564e-01" purity="8.4129804372787476e-01" nType="-99"/>
        </Node>
        <Node pos="r" depth="1" NCoef="0" IVar="0" Cut="1.2797579193115234e+02" cType="1" res="-2.6664029806852341e-02" rms="4.2662629485130310e-01" purity="3.8668751716613770e-01" nType="0">
          <Node pos="l" depth="2" NCoef="0" IVar="-1" Cut="0.0000000000000000e+00" cType="1" res="-6.0423207469284534e-03" rms="4.1669219732284546e-01" purity="3.5998141765594482e-01" nType="-99"/>
          <Node pos="r" depth="2" NCoef="0" IVar="-1" Cut="0.0000000000000000e+00" cType="1" res="1.0589518584311008e-02" rms="4.5346513390541077e-01" purity="5.1611953973770142e-01" nType="-99"/>
        </Node>
      </Node>
    </BinaryTree>
    <BinaryTree type="DecisionTree" boostWeight="1.0000000000000000e+00" itree="52">
      <Node pos="s" depth="0" NCoef="0" IVar="16" Cut="6.8649940490722656e+01" cType="1" res="3.6866385489702225e-03" rms="4.2572245001792908e-01" purity="5.0166529417037964e-01" nType="0">
        <Node pos="l" depth="1" NCoef="0" IVar="20" Cut="1.6302746534347534e+00" cType="1" res="2.1601499989628792e-02" rms="4.3038582801818848e-01" purity="5.4137265682220459e-01" nType="0">
          <Node pos="l" depth="2" NCoef="0" IVar="-1" Cut="0.0000000000000000e+00" cType="1" res="-2.4560550227761269e-03" rms="4.2963263392448425e-01" purity="4.2049768567085266e-01" nType="-99"/>
          <Node pos="r" depth="2" NCoef="0" IVar="-1" Cut="0.0000000000000000e+00" cType="1" res="7.3553971014916897e-03" rms="4.2719155550003052e-01" purity="6.5568500757217407e-01" nType="-99"/>
        </Node>
        <Node pos="r" depth="1" NCoef="0" IVar="33" Cut="9.9878059387207031e+01" cType="1" res="-9.6411019563674927e-02" rms="3.8356205821037292e-01" purity="2.7980390191078186e-01" nType="0">
          <Node pos="l" depth="2" NCoef="0" IVar="-1" Cut="0.0000000000000000e+00" cType="1" res="-3.4219922963529825e-03" rms="4.3774804472923279e-01" purity="4.4690644741058350e-01" nType="-99"/>
          <Node pos="r" depth="2" NCoef="0" IVar="-1" Cut="0.0000000000000000e+00" cType="1" res="-1.9248917698860168e-02" rms="3.2383266091346741e-01" purity="1.4526994526386261e-01" nType="-99"/>
        </Node>
      </Node>
    </BinaryTree>
    <BinaryTree type="DecisionTree" boostWeight="1.0000000000000000e+00" itree="53">
      <Node pos="s" depth="0" NCoef="0" IVar="21" Cut="1.1349833011627197e+00" cType="1" res="9.1993372188881040e-04" rms="4.2457604408264160e-01" purity="4.9953636527061462e-01" nType="0">
        <Node pos="l" depth="1" NCoef="0" IVar="5" Cut="1.1316600036621094e+02" cType="1" res="6.3617832958698273e-02" rms="4.4073659181594849e-01" purity="6.3729619979858398e-01" nType="0">
          <Node pos="l" depth="2" NCoef="0" IVar="-1" Cut="0.0000000000000000e+00" cType="1" res="4.6330639161169529e-03" rms="4.3647620081901550e-01" purity="6.2742537260055542e-01" nType="-99"/>
          <Node pos="r" depth="2" NCoef="0" IVar="-1" Cut="0.0000000000000000e+00" cType="1" res="1.4985192567110062e-02" rms="4.4585508108139038e-01" purity="6.6711163520812988e-01" nType="-99"/>
        </Node>
        <Node pos="r" depth="1" NCoef="0" IVar="20" Cut="1.2987540960311890e+00" cType="1" res="-2.8420558199286461e-02" rms="4.1354608535766602e-01" purity="4.3506938219070435e-01" nType="0">
          <Node pos="l" depth="2" NCoef="0" IVar="-1" Cut="0.0000000000000000e+00" cType="1" res="-1.1386184021830559e-02" rms="3.8481858372688293e-01" purity="2.8741499781608582e-01" nType="-99"/>
          <Node pos="r" depth="2" NCoef="0" IVar="-1" Cut="0.0000000000000000e+00" cType="1" res="1.8766565481200814e-03" rms="4.2658963799476624e-01" purity="5.3645020723342896e-01" nType="-99"/>
        </Node>
      </Node>
    </BinaryTree>
    <BinaryTree type="DecisionTree" boostWeight="1.0000000000000000e+00" itree="54">
      <Node pos="s" depth="0" NCoef="0" IVar="20" Cut="3.7718000411987305e+00" cType="1" res="-2.4475939571857452e-03" rms="4.2416137456893921e-01" purity="4.9538117647171021e-01" nType="0">
        <Node pos="l" depth="1" NCoef="0" IVar="21" Cut="8.2772266864776611e-01" cType="1" res="-1.9387021660804749e-02" rms="4.3237635493278503e-01" purity="4.4120845198631287e-01" nType="0">
          <Node pos="l" depth="2" NCoef="0" IVar="-1" Cut="0.0000000000000000e+00" cType="1" res="6.5001430921256542e-03" rms="4.5684668421745300e-01" purity="6.1047202348709106e-01" nType="-99"/>
          <Node pos="r" depth="2" NCoef="0" IVar="-1" Cut="0.0000000000000000e+00" cType="1" res="-5.0272764638066292e-03" rms="4.2208150029182434e-01" purity="3.9099293947219849e-01" nType="-99"/>
        </Node>
        <Node pos="r" depth="1" NCoef="0" IVar="16" Cut="5.0965606689453125e+01" cType="1" res="9.6759900450706482e-02" rms="3.5662379860877991e-01" purity="8.1264942884445190e-01" nType="0">
          <Node pos="l" depth="2" NCoef="0" IVar="-1" Cut="0.0000000000000000e+00" cType="1" res="1.6493955627083778e-02" rms="3.3094754815101624e-01" purity="8.6120629310607910e-01" nType="-99"/>
          <Node pos="r" depth="2" NCoef="0" IVar="-1" Cut="0.0000000000000000e+00" cType="1" res="3.9497651159763336e-03" rms="4.2314195632934570e-01" purity="6.5537142753601074e-01" nType="-99"/>
        </Node>
      </Node>
    </BinaryTree>
    <BinaryTree type="DecisionTree" boostWeight="1.0000000000000000e+00" itree="55">
      <Node pos="s" depth="0" NCoef="0" IVar="21" Cut="1.8937290906906128e+00" cType="1" res="4.8227594234049320e-03" rms="4.2419987916946411e-01" purity="5.0329810380935669e-01" nType="0">
        <Node pos="l" depth="1" NCoef="0" IVar="0" Cut="1.4895860290527344e+02" cType="1" res="4.2711779475212097e-02" rms="4.3790325522422791e-01" purity="5.9219545125961304e-01" nType="0">
          <Node pos="l" depth="2" NCoef="0" IVar="-1" Cut="0.0000000000000000e+00" cType="1" res="3.0897310934960842e-03" rms="4.3555676937103271e-01" purity="5.7964712381362915e-01" nType="-99"/>
          <Node pos="r" depth="2" NCoef="0" IVar="-1" Cut="0.0000000000000000e+00" cType="1" res="1.9095281139016151e-02" rms="4.3537947535514832e-01" purity="6.9140213727951050e-01" nType="-99"/>
        </Node>
        <Node pos="r" depth="1" NCoef="0" IVar="33" Cut="5.8523303985595703e+01" cType="1" res="-3.8871254771947861e-02" rms="4.0343168377876282e-01" purity="4.0078073740005493e-01" nType="0">
          <Node pos="l" depth="2" NCoef="0" IVar="-1" Cut="0.0000000000000000e+00" cType="1" res="6.5816789865493774e-03" rms="4.1429638862609863e-01" purity="7.1545463800430298e-01" nType="-99"/>
          <Node pos="r" depth="2" NCoef="0" IVar="-1" Cut="0.0000000000000000e+00" cType="1" res="-8.2011399790644646e-03" rms="3.9595675468444824e-01" purity="3.0707135796546936e-01" nType="-99"/>
        </Node>
      </Node>
    </BinaryTree>
    <BinaryTree type="DecisionTree" boostWeight="1.0000000000000000e+00" itree="56">
      <Node pos="s" depth="0" NCoef="0" IVar="33" Cut="5.7068107604980469e+01" cType="1" res="9.1385043924674392e-04" rms="4.2333713173866272e-01" purity="4.9978291988372803e-01" nType="0">
        <Node pos="l" depth="1" NCoef="0" IVar="4" Cut="8.9444328308105469e+01" cType="1" res="6.7699395120143890e-02" rms="4.0886080265045166e-01" purity="7.4098002910614014e-01" nType="0">
          <Node pos="l" depth="2" NCoef="0" IVar="-1" Cut="0.0000000000000000e+00" cType="1" res="1.3464977964758873e-02" rms="3.7508296966552734e-01" purity="7.9392027854919434e-01" nType="-99"/>
          <Node pos="r" depth="2" NCoef="0" IVar="-1" Cut="0.0000000000000000e+00" cType="1" res="3.1030033715069294e-03" rms="4.3832093477249146e-01" purity="6.8432915210723877e-01" nType="-99"/>
        </Node>
        <Node pos="r" depth="1" NCoef="0" IVar="0" Cut="1.9537382507324219e+02" cType="1" res="-2.3315668106079102e-02" rms="4.2588698863983154e-01" purity="4.1227757930755615e-01" nType="0">
          <Node pos="l" depth="2" NCoef="0" IVar="-1" Cut="0.0000000000000000e+00" cType="1" res="-4.1056289337575436e-03" rms="4.2190760374069214e-01" purity="3.9976596832275391e-01" nType="-99"/>
          <Node pos="r" depth="2" NCoef="0" IVar="-1" Cut="0.0000000000000000e+00" cType="1" res="2.1241981536149979e-02" rms="4.4401565194129944e-01" purity="6.4576762914657593e-01" nType="-99"/>
        </Node>
      </Node>
    </BinaryTree>
    <BinaryTree type="DecisionTree" boostWeight="1.0000000000000000e+00" itree="57">
      <Node pos="s" depth="0" NCoef="0" IVar="33" Cut="5.0961700439453125e+01" cType="1" res="-8.6794642265886068e-04" rms="4.2265987396240234e-01" purity="4.9806800484657288e-01" nType="0">
        <Node pos="l" depth="1" NCoef="0" IVar="4" Cut="8.6626213073730469e+01" cType="1" res="8.3675302565097809e-02" rms="3.9476022124290466e-01" purity="7.7651679515838623e-01" nType="0">
          <Node pos="l" depth="2" NCoef="0" IVar="-1" Cut="0.0000000000000000e+00" cType="1" res="1.6123201698064804e-02" rms="3.5039901733398438e-01" purity="8.3382719755172729e-01" nType="-99"/>
          <Node pos="r" depth="2" NCoef="0" IVar="-1" Cut="0.0000000000000000e+00" cType="1" res="5.1129939965903759e-03" rms="4.3235632777214050e-01" purity="7.1671611070632935e-01" nType="-99"/>
        </Node>
        <Node pos="r" depth="1" NCoef="0" IVar="32" Cut="5.3221923112869263e-01" cType="1" res="-2.0835744217038155e-02" rms="4.2654529213905334e-01" purity="4.3230274319648743e-01" nType="0">
          <Node pos="l" depth="2" NCoef="0" IVar="-1" Cut="0.0000000000000000e+00" cType="1" res="-6.4988788217306137e-03" rms="4.2419525980949402e-01" purity="3.2033708691596985e-01" nType="-99"/>
          <Node pos="r" depth="2" NCoef="0" IVar="-1" Cut="0.0000000000000000e+00" cType="1" res="4.3037072755396366e-03" rms="4.2429193854331970e-01" purity="6.1392694711685181e-01" nType="-99"/>
        </Node>
      </Node>
    </BinaryTree>
    <BinaryTree type="DecisionTree" boostWeight="1.0000000000000000e+00" itree="58">
      <Node pos="s" depth="0" NCoef="0" IVar="16" Cut="3.2612800598144531e+01" cType="1" res="1.1154804378747940e-03" rms="4.2288914322853088e-01" purity="4.9953496456146240e-01" nType="0">
        <Node pos="l" depth="1" NCoef="0" IVar="35" Cut="1.8309435844421387e+00" cType="1" res="4.3830424547195435e-02" rms="4.2611134052276611e-01" purity="5.8291208744049072e-01" nType="0">
          <Node pos="l" depth="2" NCoef="0" IVar="-1" Cut="0.0000000000000000e+00" cType="1" res="3.1076252926141024e-03" rms="4.3447020649909973e-01" purity="5.4422175884246826e-01" nType="-99"/>
          <Node pos="r" depth="2" NCoef="0" IVar="-1" Cut="0.0000000000000000e+00" cType="1" res="1.7241410911083221e-02" rms="3.6623573303222656e-01" purity="7.8488349914550781e-01" nType="-99"/>
        </Node>
        <Node pos="r" depth="1" NCoef="0" IVar="32" Cut="5.1697582006454468e-01" cType="1" res="-3.7530217319726944e-02" rms="4.1619223356246948e-01" purity="4.2410087585449219e-01" nType="0">
          <Node pos="l" depth="2" NCoef="0" IVar="-1" Cut="0.0000000000000000e+00" cType="1" res="-8.8269207626581192e-03" rms="4.0709578990936279e-01" purity="3.0190598964691162e-01" nType="-99"/>
          <Node pos="r" depth="2" NCoef="0" IVar="-1" Cut="0.0000000000000000e+00" cType="1" res="1.7845282563939691e-03" rms="4.2334511876106262e-01" purity="5.9744757413864136e-01" nType="-99"/>
        </Node>
      </Node>
    </BinaryTree>
    <BinaryTree type="DecisionTree" boostWeight="1.0000000000000000e+00" itree="59">
      <Node pos="s" depth="0" NCoef="0" IVar="34" Cut="6.3032897949218750e+01" cType="1" res="8.9826231123879552e-04" rms="4.2101198434829712e-01" purity="5.0043916702270508e-01" nType="0">
