<?xml version="1.0"?>
<MethodSetup Method="BDT::BDTG4SK01">
  <GeneralInfo>
    <Info name="TMVA Release" value="4.2.1 [262657]"/>
    <Info name="ROOT Release" value="6.20/07 [398343]"/>
    <Info name="Creator" value="ssaumya"/>
    <Info name="Date" value="Mon Jul 19 23:36:14 2021"/>
    <Info name="Host" value="Linux cmsbuild09.cern.ch 3.10.0-1062.9.1.el7.x86_64 #1 SMP Fri Dec 6 15:49:49 UTC 2019 x86_64 x86_64 x86_64 GNU/Linux"/>
    <Info name="Dir" value="/afs/cern.ch/user/s/ssaumya/Projects/WW_Analysis_Work/WW_Cuts_Optimization/CMSSW_11_1_3/src/PlotsConfigurations/Configurations/WW/FullRunII/Full2017_v7/BDT_Training_2j"/>
    <Info name="Training events" value="319423"/>
    <Info name="TrainingTime" value="3.52854575e+02"/>
    <Info name="AnalysisType" value="Classification"/>
  </GeneralInfo>
  <Options>
    <Option name="V" modified="Yes">False</Option>
    <Option name="VerbosityLevel" modified="No">Default</Option>
    <Option name="VarTransform" modified="No">None</Option>
    <Option name="H" modified="Yes">False</Option>
    <Option name="CreateMVAPdfs" modified="No">False</Option>
    <Option name="IgnoreNegWeightsInTraining" modified="No">False</Option>
    <Option name="NTrees" modified="Yes">500</Option>
    <Option name="MaxDepth" modified="Yes">2</Option>
    <Option name="MinNodeSize" modified="Yes">1.5%</Option>
    <Option name="nCuts" modified="Yes">500</Option>
    <Option name="BoostType" modified="Yes">Grad</Option>
    <Option name="AdaBoostR2Loss" modified="No">quadratic</Option>
    <Option name="UseBaggedBoost" modified="Yes">True</Option>
    <Option name="Shrinkage" modified="Yes">1.000000e-02</Option>
    <Option name="AdaBoostBeta" modified="No">5.000000e-01</Option>
    <Option name="UseRandomisedTrees" modified="No">False</Option>
    <Option name="UseNvars" modified="No">6</Option>
    <Option name="UsePoissonNvars" modified="No">True</Option>
    <Option name="BaggedSampleFraction" modified="No">5.000000e-01</Option>
    <Option name="UseYesNoLeaf" modified="No">True</Option>
    <Option name="NegWeightTreatment" modified="No">pray</Option>
    <Option name="Css" modified="No">1.000000e+00</Option>
    <Option name="Cts_sb" modified="No">1.000000e+00</Option>
    <Option name="Ctb_ss" modified="No">1.000000e+00</Option>
    <Option name="Cbb" modified="No">1.000000e+00</Option>
    <Option name="NodePurityLimit" modified="No">5.000000e-01</Option>
    <Option name="SeparationType" modified="No">giniindex</Option>
    <Option name="RegressionLossFunctionBDTG" modified="No">huber</Option>
    <Option name="HuberQuantile" modified="No">7.000000e-01</Option>
    <Option name="DoBoostMonitor" modified="No">False</Option>
    <Option name="UseFisherCuts" modified="No">False</Option>
    <Option name="MinLinCorrForFisher" modified="No">8.000000e-01</Option>
    <Option name="UseExclusiveVars" modified="No">False</Option>
    <Option name="DoPreselection" modified="No">False</Option>
    <Option name="SigToBkgFraction" modified="No">1.000000e+00</Option>
    <Option name="PruneMethod" modified="No">nopruning</Option>
    <Option name="PruneStrength" modified="No">0.000000e+00</Option>
    <Option name="PruningValFraction" modified="No">5.000000e-01</Option>
    <Option name="SkipNormalization" modified="No">False</Option>
    <Option name="nEventsMin" modified="No">0</Option>
    <Option name="UseBaggedGrad" modified="No">False</Option>
    <Option name="GradBaggingFraction" modified="Yes">5.000000e-01</Option>
    <Option name="UseNTrainEvents" modified="No">0</Option>
    <Option name="NNodesMax" modified="No">0</Option>
  </Options>
  <Variables NVar="37">
    <Variable VarIndex="0" Expression="pt1" Label="pt1" Title="pt1" Unit="" Internal="pt1" Type="F" Min="2.50023613e+01" Max="1.39678101e+03"/>
    <Variable VarIndex="1" Expression="pt2" Label="pt2" Title="pt2" Unit="" Internal="pt2" Type="F" Min="2.00000305e+01" Max="5.14102478e+02"/>
    <Variable VarIndex="2" Expression="Lepton_eta[0]" Label="Lepton_eta[0]" Title="Lepton_eta[0]" Unit="" Internal="Lepton_eta_0_" Type="F" Min="-2.49951172e+00" Max="2.49951172e+00"/>
    <Variable VarIndex="3" Expression="Lepton_eta[1]" Label="Lepton_eta[1]" Title="Lepton_eta[1]" Unit="" Internal="Lepton_eta_1_" Type="F" Min="-2.49951172e+00" Max="2.49902344e+00"/>
    <Variable VarIndex="4" Expression="mll" Label="mll" Title="mll" Unit="" Internal="mll" Type="F" Min="2.00000648e+01" Max="1.71258838e+03"/>
    <Variable VarIndex="5" Expression="ptll" Label="ptll" Title="ptll" Unit="" Internal="ptll" Type="F" Min="3.00002251e+01" Max="1.41885461e+03"/>
    <Variable VarIndex="6" Expression="drll" Label="drll" Title="drll" Unit="" Internal="drll" Type="F" Min="1.19313240e-01" Max="5.71368217e+00"/>
    <Variable VarIndex="7" Expression="dphill" Label="dphill" Title="dphill" Unit="" Internal="dphill" Type="F" Min="0.00000000e+00" Max="3.14158368e+00"/>
    <Variable VarIndex="8" Expression="PuppiMET_pt" Label="PuppiMET_pt" Title="PuppiMET_pt" Unit="" Internal="PuppiMET_pt" Type="F" Min="2.00004177e+01" Max="1.15478967e+03"/>
    <Variable VarIndex="9" Expression="dphilmet" Label="dphilmet" Title="dphilmet" Unit="" Internal="dphilmet" Type="F" Min="0.00000000e+00" Max="3.13591337e+00"/>
    <Variable VarIndex="10" Expression="dphilmet1" Label="dphilmet1" Title="dphilmet1" Unit="" Internal="dphilmet1" Type="F" Min="0.00000000e+00" Max="3.14158463e+00"/>
    <Variable VarIndex="11" Expression="dphilmet2" Label="dphilmet2" Title="dphilmet2" Unit="" Internal="dphilmet2" Type="F" Min="0.00000000e+00" Max="3.14158368e+00"/>
    <Variable VarIndex="12" Expression="dphillmet" Label="dphillmet" Title="dphillmet" Unit="" Internal="dphillmet" Type="F" Min="2.16038188e-06" Max="3.14158988e+00"/>
    <Variable VarIndex="13" Expression="mtw1" Label="mtw1" Title="mtw1" Unit="" Internal="mtw1" Type="F" Min="0.00000000e+00" Max="2.29767627e+03"/>
    <Variable VarIndex="14" Expression="mtw2" Label="mtw2" Title="mtw2" Unit="" Internal="mtw2" Type="F" Min="0.00000000e+00" Max="5.88541382e+02"/>
    <Variable VarIndex="15" Expression="pTWW" Label="pTWW" Title="pTWW" Unit="" Internal="pTWW" Type="F" Min="3.26641709e-01" Max="1.37869226e+03"/>
    <Variable VarIndex="16" Expression="pTHjj" Label="pTHjj" Title="pTHjj" Unit="" Internal="pTHjj" Type="F" Min="4.93020229e-02" Max="8.58697327e+02"/>
    <Variable VarIndex="17" Expression="dphilljet" Label="dphilljet" Title="dphilljet" Unit="" Internal="dphilljet" Type="F" Min="5.54766448e-05" Max="3.14158535e+00"/>
    <Variable VarIndex="18" Expression="dphilljetjet" Label="dphilljetjet" Title="dphilljetjet" Unit="" Internal="dphilljetjet" Type="F" Min="4.10763778e-06" Max="3.14158535e+00"/>
    <Variable VarIndex="19" Expression="mjj" Label="mjj" Title="mjj" Unit="" Internal="mjj" Type="F" Min="1.72969723e+01" Max="6.71588916e+03"/>
    <Variable VarIndex="20" Expression="detajj" Label="detajj" Title="detajj" Unit="" Internal="detajj" Type="F" Min="0.00000000e+00" Max="9.08496094e+00"/>
    <Variable VarIndex="21" Expression="dphijj" Label="dphijj" Title="dphijj" Unit="" Internal="dphijj" Type="F" Min="0.00000000e+00" Max="3.14158368e+00"/>
    <Variable VarIndex="22" Expression="dphijet1met" Label="dphijet1met" Title="dphijet1met" Unit="" Internal="dphijet1met" Type="F" Min="3.31848860e-05" Max="3.14159036e+00"/>
    <Variable VarIndex="23" Expression="dphijet2met" Label="dphijet2met" Title="dphijet2met" Unit="" Internal="dphijet2met" Type="F" Min="2.26497650e-06" Max="3.14158678e+00"/>
    <Variable VarIndex="24" Expression="dphijjmet" Label="dphijjmet" Title="dphijjmet" Unit="" Internal="dphijjmet" Type="F" Min="2.42279093e-05" Max="3.14158797e+00"/>
    <Variable VarIndex="25" Expression="dphilep1jet1" Label="dphilep1jet1" Title="dphilep1jet1" Unit="" Internal="dphilep1jet1" Type="F" Min="0.00000000e+00" Max="3.14158368e+00"/>
    <Variable VarIndex="26" Expression="dphilep1jet2" Label="dphilep1jet2" Title="dphilep1jet2" Unit="" Internal="dphilep1jet2" Type="F" Min="0.00000000e+00" Max="3.14158368e+00"/>
    <Variable VarIndex="27" Expression="dphilep2jet1" Label="dphilep2jet1" Title="dphilep2jet1" Unit="" Internal="dphilep2jet1" Type="F" Min="0.00000000e+00" Max="3.14158368e+00"/>
    <Variable VarIndex="28" Expression="dphilep2jet2" Label="dphilep2jet2" Title="dphilep2jet2" Unit="" Internal="dphilep2jet2" Type="F" Min="0.00000000e+00" Max="3.14158368e+00"/>
    <Variable VarIndex="29" Expression="maxdphilepjj" Label="maxdphilepjj" Title="maxdphilepjj" Unit="" Internal="maxdphilepjj" Type="F" Min="2.26496942e-02" Max="3.14159036e+00"/>
    <Variable VarIndex="30" Expression="dphilep2jj" Label="dphilep2jj" Title="dphilep2jj" Unit="" Internal="dphilep2jj" Type="F" Min="6.63466062e-06" Max="3.14159036e+00"/>
    <Variable VarIndex="31" Expression="dphilep1jj" Label="dphilep1jj" Title="dphilep1jj" Unit="" Internal="dphilep1jj" Type="F" Min="5.88278672e-05" Max="3.14158702e+00"/>
    <Variable VarIndex="32" Expression="mindetajl" Label="mindetajl" Title="mindetajl" Unit="" Internal="mindetajl" Type="F" Min="0.00000000e+00" Max="5.89648438e+00"/>
    <Variable VarIndex="33" Expression="Alt$(CleanJet_pt[0],0)" Label="Alt$(CleanJet_pt[0],0)" Title="Alt$(CleanJet_pt[0],0)" Unit="" Internal="Alt__CleanJet_pt_0_,0_" Type="F" Min="3.01381359e+01" Max="1.60560339e+03"/>
    <Variable VarIndex="34" Expression="Alt$(CleanJet_pt[1],0)" Label="Alt$(CleanJet_pt[1],0)" Title="Alt$(CleanJet_pt[1],0)" Unit="" Internal="Alt__CleanJet_pt_1_,0_" Type="F" Min="3.00000896e+01" Max="1.05898438e+03"/>
    <Variable VarIndex="35" Expression="Alt$(CleanJet_eta[0],0)" Label="Alt$(CleanJet_eta[0],0)" Title="Alt$(CleanJet_eta[0],0)" Unit="" Internal="Alt__CleanJet_eta_0_,0_" Type="F" Min="-4.68750000e+00" Max="4.67089844e+00"/>
    <Variable VarIndex="36" Expression="Alt$(CleanJet_eta[1],0)" Label="Alt$(CleanJet_eta[1],0)" Title="Alt$(CleanJet_eta[1],0)" Unit="" Internal="Alt__CleanJet_eta_1_,0_" Type="F" Min="-4.69628906e+00" Max="4.69921875e+00"/>
  </Variables>
  <Spectators NSpec="0"/>
  <Classes NClass="2">
    <Class Name="Signal" Index="0"/>
    <Class Name="Background" Index="1"/>
  </Classes>
  <Transformations NTransformations="0"/>
  <MVAPdfs/>
  <Weights NTrees="500" AnalysisType="1">
    <BinaryTree type="DecisionTree" boostWeight="1.0000000000000000e+00" itree="0">
      <Node pos="s" depth="0" NCoef="0" IVar="34" Cut="5.0863193511962891e+01" cType="1" res="1.0149880545213819e-03" rms="4.9999895691871643e-01" purity="5.0101494789123535e-01" nType="0">
        <Node pos="l" depth="1" NCoef="0" IVar="32" Cut="9.4406694173812866e-01" cType="1" res="1.4839310944080353e-01" rms="4.7747197747230530e-01" purity="6.4839309453964233e-01" nType="0">
          <Node pos="l" depth="2" NCoef="0" IVar="-1" Cut="0.0000000000000000e+00" cType="1" res="1.4349577249959111e-03" rms="4.9482545256614685e-01" purity="5.7174789905548096e-01" nType="-99"/>
          <Node pos="r" depth="2" NCoef="0" IVar="-1" Cut="0.0000000000000000e+00" cType="1" res="7.3935678228735924e-03" rms="3.3665692806243896e-01" purity="8.6967837810516357e-01" nType="-99"/>
        </Node>
        <Node pos="r" depth="1" NCoef="0" IVar="32" Cut="9.4155436754226685e-01" cType="1" res="-1.9761273264884949e-01" rms="4.5929208397865295e-01" purity="3.0238726735115051e-01" nType="0">
          <Node pos="l" depth="2" NCoef="0" IVar="-1" Cut="0.0000000000000000e+00" cType="1" res="-5.0963219255208969e-03" rms="4.3019619584083557e-01" purity="2.4518391489982605e-01" nType="-99"/>
          <Node pos="r" depth="2" NCoef="0" IVar="-1" Cut="0.0000000000000000e+00" cType="1" res="2.9975262004882097e-03" rms="4.7700849175453186e-01" purity="6.4987629652023315e-01" nType="-99"/>
        </Node>
      </Node>
    </BinaryTree>
    <BinaryTree type="DecisionTree" boostWeight="1.0000000000000000e+00" itree="1">
      <Node pos="s" depth="0" NCoef="0" IVar="34" Cut="5.0862918853759766e+01" cType="1" res="-7.0448411861434579e-04" rms="4.9904400110244751e-01" purity="4.9931606650352478e-01" nType="0">
        <Node pos="l" depth="1" NCoef="0" IVar="32" Cut="8.4291863441467285e-01" cType="1" res="1.4358498156070709e-01" rms="4.7810551524162292e-01" purity="6.4509552717208862e-01" nType="0">
          <Node pos="l" depth="2" NCoef="0" IVar="-1" Cut="0.0000000000000000e+00" cType="1" res="1.0351977543905377e-03" rms="4.9723848700523376e-01" purity="5.5247724056243896e-01" nType="-99"/>
          <Node pos="r" depth="2" NCoef="0" IVar="-1" Cut="0.0000000000000000e+00" cType="1" res="7.0494953542947769e-03" rms="3.5118207335472107e-01" purity="8.5577255487442017e-01" nType="-99"/>
        </Node>
        <Node pos="r" depth="1" NCoef="0" IVar="32" Cut="9.8863208293914795e-01" cType="1" res="-1.9396236538887024e-01" rms="4.5958128571510315e-01" purity="3.0406242609024048e-01" nType="0">
          <Node pos="l" depth="2" NCoef="0" IVar="-1" Cut="0.0000000000000000e+00" cType="1" res="-4.9715512432157993e-03" rms="4.3237751722335815e-01" purity="2.4893116950988770e-01" nType="-99"/>
          <Node pos="r" depth="2" NCoef="0" IVar="-1" Cut="0.0000000000000000e+00" cType="1" res="3.3829400781542063e-03" rms="4.6997928619384766e-01" purity="6.7064422369003296e-01" nType="-99"/>
        </Node>
      </Node>
    </BinaryTree>
    <BinaryTree type="DecisionTree" boostWeight="1.0000000000000000e+00" itree="2">
      <Node pos="s" depth="0" NCoef="0" IVar="34" Cut="4.7807590484619141e+01" cType="1" res="-5.4381843656301498e-03" rms="4.9813380837440491e-01" purity="4.9449825286865234e-01" nType="0">
        <Node pos="l" depth="1" NCoef="0" IVar="32" Cut="8.0299949645996094e-01" cType="1" res="1.5558458864688873e-01" rms="4.7351905703544617e-01" purity="6.5847778320312500e-01" nType="0">
          <Node pos="l" depth="2" NCoef="0" IVar="-1" Cut="0.0000000000000000e+00" cType="1" res="1.4246151549741626e-03" rms="4.9472090601921082e-01" purity="5.7246536016464233e-01" nType="-99"/>
          <Node pos="r" depth="2" NCoef="0" IVar="-1" Cut="0.0000000000000000e+00" cType="1" res="6.7949066869914532e-03" rms="3.6054900288581848e-01" purity="8.4619623422622681e-01" nType="-99"/>
        </Node>
        <Node pos="r" depth="1" NCoef="0" IVar="32" Cut="1.1416347026824951e+00" cType="1" res="-1.7849764227867126e-01" rms="4.6478599309921265e-01" purity="3.1826096773147583e-01" nType="0">
          <Node pos="l" depth="2" NCoef="0" IVar="-1" Cut="0.0000000000000000e+00" cType="1" res="-4.5712147839367390e-03" rms="4.4229868054389954e-01" purity="2.6736804842948914e-01" nType="-99"/>
          <Node pos="r" depth="2" NCoef="0" IVar="-1" Cut="0.0000000000000000e+00" cType="1" res="4.6891709789633751e-03" rms="4.3950077891349792e-01" purity="7.3821973800659180e-01" nType="-99"/>
        </Node>
      </Node>
    </BinaryTree>
    <BinaryTree type="DecisionTree" boostWeight="1.0000000000000000e+00" itree="3">
      <Node pos="s" depth="0" NCoef="0" IVar="34" Cut="5.5677421569824219e+01" cType="1" res="9.5911521930247545e-04" rms="4.9727109074592590e-01" purity="5.0087922811508179e-01" nType="0">
        <Node pos="l" depth="1" NCoef="0" IVar="32" Cut="9.4406694173812866e-01" cType="1" res="1.1917527019977570e-01" rms="4.8326155543327332e-01" purity="6.2232881784439087e-01" nType="0">
          <Node pos="l" depth="2" NCoef="0" IVar="-1" Cut="0.0000000000000000e+00" cType="1" res="7.4467109516263008e-04" rms="4.9810901284217834e-01" purity="5.3801792860031128e-01" nType="-99"/>
          <Node pos="r" depth="2" NCoef="0" IVar="-1" Cut="0.0000000000000000e+00" cType="1" res="7.0620556361973286e-03" rms="3.4374409914016724e-01" purity="8.6286556720733643e-01" nType="-99"/>
        </Node>
        <Node pos="r" depth="1" NCoef="0" IVar="32" Cut="9.4155436754226685e-01" cType="1" res="-2.0894512534141541e-01" rms="4.5032846927642822e-01" purity="2.8523385524749756e-01" nType="0">
          <Node pos="l" depth="2" NCoef="0" IVar="-1" Cut="0.0000000000000000e+00" cType="1" res="-5.2302684634923935e-03" rms="4.2161503434181213e-01" purity="2.3122358322143555e-01" nType="-99"/>
          <Node pos="r" depth="2" NCoef="0" IVar="-1" Cut="0.0000000000000000e+00" cType="1" res="2.4804084096103907e-03" rms="4.8290476202964783e-01" purity="6.2768656015396118e-01" nType="-99"/>
        </Node>
      </Node>
    </BinaryTree>
    <BinaryTree type="DecisionTree" boostWeight="1.0000000000000000e+00" itree="4">
      <Node pos="s" depth="0" NCoef="0" IVar="34" Cut="5.4340328216552734e+01" cType="1" res="6.7164335632696748e-04" rms="4.9638181924819946e-01" purity="5.0059527158737183e-01" nType="0">
        <Node pos="l" depth="1" NCoef="0" IVar="32" Cut="9.8095315694808960e-01" cType="1" res="1.2525545060634613e-01" rms="4.8102411627769470e-01" purity="6.2981629371643066e-01" nType="0">
          <Node pos="l" depth="2" NCoef="0" IVar="-1" Cut="0.0000000000000000e+00" cType="1" res="9.8641542717814445e-04" rms="4.9695849418640137e-01" purity="5.5093622207641602e-01" nType="-99"/>
          <Node pos="r" depth="2" NCoef="0" IVar="-1" Cut="0.0000000000000000e+00" cType="1" res="7.1858721785247326e-03" rms="3.3318534493446350e-01" purity="8.7264227867126465e-01" nType="-99"/>
        </Node>
        <Node pos="r" depth="1" NCoef="0" IVar="32" Cut="1.0474792718887329e+00" cType="1" res="-2.0651029050350189e-01" rms="4.5013523101806641e-01" purity="2.8570169210433960e-01" nType="0">
          <Node pos="l" depth="2" NCoef="0" IVar="-1" Cut="0.0000000000000000e+00" cType="1" res="-5.0771059468388557e-03" rms="4.2495062947273254e-01" purity="2.3668509721755981e-01" nType="-99"/>
          <Node pos="r" depth="2" NCoef="0" IVar="-1" Cut="0.0000000000000000e+00" cType="1" res="3.3611601684242487e-03" rms="4.6834045648574829e-01" purity="6.7425060272216797e-01" nType="-99"/>
        </Node>
      </Node>
    </BinaryTree>
    <BinaryTree type="DecisionTree" boostWeight="1.0000000000000000e+00" itree="5">
      <Node pos="s" depth="0" NCoef="0" IVar="34" Cut="5.4340053558349609e+01" cType="1" res="-4.1686021722853184e-03" rms="4.9536961317062378e-01" purity="4.9579113721847534e-01" nType="0">
        <Node pos="l" depth="1" NCoef="0" IVar="32" Cut="8.0354672670364380e-01" cType="1" res="1.2327194213867188e-01" rms="4.8079699277877808e-01" purity="6.2914091348648071e-01" nType="0">
          <Node pos="l" depth="2" NCoef="0" IVar="-1" Cut="0.0000000000000000e+00" cType="1" res="6.2080135103315115e-04" rms="4.9858003854751587e-01" purity="5.3271412849426270e-01" nType="-99"/>
          <Node pos="r" depth="2" NCoef="0" IVar="-1" Cut="0.0000000000000000e+00" cType="1" res="6.4529264345765114e-03" rms="3.6823320388793945e-01" purity="8.3724701404571533e-01" nType="-99"/>
        </Node>
        <Node pos="r" depth="1" NCoef="0" IVar="32" Cut="1.0474792718887329e+00" cType="1" res="-2.1661028265953064e-01" rms="4.4373336434364319e-01" purity="2.7349880337715149e-01" nType="0">
          <Node pos="l" depth="2" NCoef="0" IVar="-1" Cut="0.0000000000000000e+00" cType="1" res="-5.2562216296792030e-03" rms="4.1763076186180115e-01" purity="2.2526933252811432e-01" nType="-99"/>
          <Node pos="r" depth="2" NCoef="0" IVar="-1" Cut="0.0000000000000000e+00" cType="1" res="3.1540622003376484e-03" rms="4.7153660655021667e-01" purity="6.6553270816802979e-01" nType="-99"/>
        </Node>
      </Node>
    </BinaryTree>
    <BinaryTree type="DecisionTree" boostWeight="1.0000000000000000e+00" itree="6">
      <Node pos="s" depth="0" NCoef="0" IVar="34" Cut="5.3651012420654297e+01" cType="1" res="-2.9380745254456997e-03" rms="4.9464577436447144e-01" purity="4.9691319465637207e-01" nType="0">
        <Node pos="l" depth="1" NCoef="0" IVar="32" Cut="9.7548651695251465e-01" cType="1" res="1.2183915823698044e-01" rms="4.8058256506919861e-01" purity="6.2897968292236328e-01" nType="0">
          <Node pos="l" depth="2" NCoef="0" IVar="-1" Cut="0.0000000000000000e+00" cType="1" res="9.4986555632203817e-04" rms="4.9698549509048462e-01" purity="5.5030030012130737e-01" nType="-99"/>
          <Node pos="r" depth="2" NCoef="0" IVar="-1" Cut="0.0000000000000000e+00" cType="1" res="6.9932546466588974e-03" rms="3.3677735924720764e-01" purity="8.6945015192031860e-01" nType="-99"/>
        </Node>
        <Node pos="r" depth="1" NCoef="0" IVar="32" Cut="8.3060634136199951e-01" cType="1" res="-2.0159377157688141e-01" rms="4.4973081350326538e-01" purity="2.8665244579315186e-01" nType="0">
          <Node pos="l" depth="2" NCoef="0" IVar="-1" Cut="0.0000000000000000e+00" cType="1" res="-5.2332021296024323e-03" rms="4.1672375798225403e-01" purity="2.2380344569683075e-01" nType="-99"/>
          <Node pos="r" depth="2" NCoef="0" IVar="-1" Cut="0.0000000000000000e+00" cType="1" res="1.7145567107945681e-03" rms="4.8974034190177917e-01" purity="5.8840173482894897e-01" nType="-99"/>
        </Node>
      </Node>
    </BinaryTree>
    <BinaryTree type="DecisionTree" boostWeight="1.0000000000000000e+00" itree="7">
      <Node pos="s" depth="0" NCoef="0" IVar="34" Cut="4.5745491027832031e+01" cType="1" res="5.5617890320718288e-03" rms="4.9383348226547241e-01" purity="5.0545066595077515e-01" nType="0">
        <Node pos="l" depth="1" NCoef="0" IVar="32" Cut="9.1233551502227783e-01" cType="1" res="1.6796839237213135e-01" rms="4.6486598253250122e-01" purity="6.7767143249511719e-01" nType="0">
          <Node pos="l" depth="2" NCoef="0" IVar="-1" Cut="0.0000000000000000e+00" cType="1" res="1.8437373219057918e-03" rms="4.9054870009422302e-01" purity="5.9622061252593994e-01" nType="-99"/>
          <Node pos="r" depth="2" NCoef="0" IVar="-1" Cut="0.0000000000000000e+00" cType="1" res="7.1342890150845051e-03" rms="3.2510453462600708e-01" purity="8.7964397668838501e-01" nType="-99"/>
        </Node>
        <Node pos="r" depth="1" NCoef="0" IVar="32" Cut="9.5332384109497070e-01" cType="1" res="-1.4668120443820953e-01" rms="4.7117033600807190e-01" purity="3.4400764107704163e-01" nType="0">
          <Node pos="l" depth="2" NCoef="0" IVar="-1" Cut="0.0000000000000000e+00" cType="1" res="-4.0497961454093456e-03" rms="4.5002460479736328e-01" purity="2.8454235196113586e-01" nType="-99"/>
          <Node pos="r" depth="2" NCoef="0" IVar="-1" Cut="0.0000000000000000e+00" cType="1" res="3.4166641999036074e-03" rms="4.6344053745269775e-01" purity="6.8330687284469604e-01" nType="-99"/>
        </Node>
      </Node>
    </BinaryTree>
    <BinaryTree type="DecisionTree" boostWeight="1.0000000000000000e+00" itree="8">
      <Node pos="s" depth="0" NCoef="0" IVar="34" Cut="4.6333385467529297e+01" cType="1" res="-1.6251816414296627e-03" rms="4.9307766556739807e-01" purity="4.9811702966690063e-01" nType="0">
        <Node pos="l" depth="1" NCoef="0" IVar="32" Cut="9.7662097215652466e-01" cType="1" res="1.5697821974754333e-01" rms="4.6819737553596497e-01" purity="6.6807925701141357e-01" nType="0">
          <Node pos="l" depth="2" NCoef="0" IVar="-1" Cut="0.0000000000000000e+00" cType="1" res="1.7845922848209739e-03" rms="4.9077236652374268e-01" purity="5.9450054168701172e-01" nType="-99"/>
          <Node pos="r" depth="2" NCoef="0" IVar="-1" Cut="0.0000000000000000e+00" cType="1" res="7.0863715372979641e-03" rms="3.2359084486961365e-01" purity="8.8115733861923218e-01" nType="-99"/>
        </Node>
        <Node pos="r" depth="1" NCoef="0" IVar="32" Cut="7.6501291990280151e-01" cType="1" res="-1.5261121094226837e-01" rms="4.6813461184501648e-01" purity="3.3631777763366699e-01" nType="0">
          <Node pos="l" depth="2" NCoef="0" IVar="-1" Cut="0.0000000000000000e+00" cType="1" res="-4.4898022897541523e-03" rms="4.3759617209434509e-01" purity="2.6002585887908936e-01" nType="-99"/>
          <Node pos="r" depth="2" NCoef="0" IVar="-1" Cut="0.0000000000000000e+00" cType="1" res="2.2097702603787184e-03" rms="4.8242530226707458e-01" purity="6.1649930477142334e-01" nType="-99"/>
        </Node>
      </Node>
    </BinaryTree>
    <BinaryTree type="DecisionTree" boostWeight="1.0000000000000000e+00" itree="9">
      <Node pos="s" depth="0" NCoef="0" IVar="34" Cut="5.4340328216552734e+01" cType="1" res="-3.4485133364796638e-03" rms="4.9210107326507568e-01" purity="4.9638429284095764e-01" nType="0">
        <Node pos="l" depth="1" NCoef="0" IVar="32" Cut="1.0015857219696045e+00" cType="1" res="1.1986502259969711e-01" rms="4.7896355390548706e-01" purity="6.2991040945053101e-01" nType="0">
          <Node pos="l" depth="2" NCoef="0" IVar="-1" Cut="0.0000000000000000e+00" cType="1" res="1.0233690263703465e-03" rms="4.9594038724899292e-01" purity="5.5503284931182861e-01" nType="-99"/>
          <Node pos="r" depth="2" NCoef="0" IVar="-1" Cut="0.0000000000000000e+00" cType="1" res="6.9119930267333984e-03" rms="3.3095660805702209e-01" purity="8.7452614307403564e-01" nType="-99"/>
        </Node>
        <Node pos="r" depth="1" NCoef="0" IVar="20" Cut="3.5698661804199219e+00" cType="1" res="-2.1078151464462280e-01" rms="4.4165500998497009e-01" purity="2.7188041806221008e-01" nType="0">
          <Node pos="l" depth="2" NCoef="0" IVar="-1" Cut="0.0000000000000000e+00" cType="1" res="-5.1178545691072941e-03" rms="4.1612246632575989e-01" purity="2.2594557702541351e-01" nType="-99"/>
          <Node pos="r" depth="2" NCoef="0" IVar="-1" Cut="0.0000000000000000e+00" cType="1" res="3.0892819631844759e-03" rms="4.7379997372627258e-01" purity="6.4728981256484985e-01" nType="-99"/>
        </Node>
      </Node>
    </BinaryTree>
    <BinaryTree type="DecisionTree" boostWeight="1.0000000000000000e+00" itree="10">
      <Node pos="s" depth="0" NCoef="0" IVar="34" Cut="5.0538993835449219e+01" cType="1" res="-2.2444936621468514e-04" rms="4.9145904183387756e-01" purity="4.9945542216300964e-01" nType="0">
        <Node pos="l" depth="1" NCoef="0" IVar="32" Cut="6.9448602199554443e-01" cType="1" res="1.3468199968338013e-01" rms="4.7426888346672058e-01" purity="6.4718562364578247e-01" nType="0">
          <Node pos="l" depth="2" NCoef="0" IVar="-1" Cut="0.0000000000000000e+00" cType="1" res="9.5835182582959533e-04" rms="4.9687552452087402e-01" purity="5.5257701873779297e-01" nType="-99"/>
          <Node pos="r" depth="2" NCoef="0" IVar="-1" Cut="0.0000000000000000e+00" cType="1" res="5.7852440513670444e-03" rms="3.8618418574333191e-01" purity="8.1467568874359131e-01" nType="-99"/>
        </Node>
        <Node pos="r" depth="1" NCoef="0" IVar="32" Cut="9.4680023193359375e-01" cType="1" res="-1.7468035221099854e-01" rms="4.5719763636589050e-01" purity="3.0841627717018127e-01" nType="0">
          <Node pos="l" depth="2" NCoef="0" IVar="-1" Cut="0.0000000000000000e+00" cType="1" res="-4.5977965928614140e-03" rms="4.3138173222541809e-01" purity="2.4868825078010559e-01" nType="-99"/>
          <Node pos="r" depth="2" NCoef="0" IVar="-1" Cut="0.0000000000000000e+00" cType="1" res="2.8894119895994663e-03" rms="4.7272777557373047e-01" purity="6.5649414062500000e-01" nType="-99"/>
        </Node>
      </Node>
    </BinaryTree>
    <BinaryTree type="DecisionTree" boostWeight="1.0000000000000000e+00" itree="11">
      <Node pos="s" depth="0" NCoef="0" IVar="34" Cut="4.8484855651855469e+01" cType="1" res="6.9448316935449839e-04" rms="4.9050447344779968e-01" purity="5.0065422058105469e-01" nType="0">
        <Node pos="l" depth="1" NCoef="0" IVar="32" Cut="8.2470214366912842e-01" cType="1" res="1.4301431179046631e-01" rms="4.7046899795532227e-01" purity="6.5787190198898315e-01" nType="0">
          <Node pos="l" depth="2" NCoef="0" IVar="-1" Cut="0.0000000000000000e+00" cType="1" res="1.2015283573418856e-03" rms="4.9537396430969238e-01" purity="5.6609785556793213e-01" nType="-99"/>
          <Node pos="r" depth="2" NCoef="0" IVar="-1" Cut="0.0000000000000000e+00" cType="1" res="6.4476174302399158e-03" rms="3.5129168629646301e-01" purity="8.5461145639419556e-01" nType="-99"/>
        </Node>
        <Node pos="r" depth="1" NCoef="0" IVar="32" Cut="9.8413378000259399e-01" cType="1" res="-1.6104209423065186e-01" rms="4.6184191107749939e-01" purity="3.2198721170425415e-01" nType="0">
          <Node pos="l" depth="2" NCoef="0" IVar="-1" Cut="0.0000000000000000e+00" cType="1" res="-4.2995656840503216e-03" rms="4.3901637196540833e-01" purity="2.6313695311546326e-01" nType="-99"/>
          <Node pos="r" depth="2" NCoef="0" IVar="-1" Cut="0.0000000000000000e+00" cType="1" res="3.4079274628311396e-03" rms="4.6185886859893799e-01" purity="6.8664944171905518e-01" nType="-99"/>
        </Node>
      </Node>
    </BinaryTree>
    <BinaryTree type="DecisionTree" boostWeight="1.0000000000000000e+00" itree="12">
      <Node pos="s" depth="0" NCoef="0" IVar="34" Cut="5.4340347290039062e+01" cType="1" res="1.2410555500537157e-03" rms="4.8973941802978516e-01" purity="5.0120526552200317e-01" nType="0">
        <Node pos="l" depth="1" NCoef="0" IVar="32" Cut="8.8703209161758423e-01" cType="1" res="1.1506723612546921e-01" rms="4.7800725698471069e-01" purity="6.2855094671249390e-01" nType="0">
          <Node pos="l" depth="2" NCoef="0" IVar="-1" Cut="0.0000000000000000e+00" cType="1" res="7.3515478288754821e-04" rms="4.9724125862121582e-01" purity="5.4099810123443604e-01" nType="-99"/>
          <Node pos="r" depth="2" NCoef="0" IVar="-1" Cut="0.0000000000000000e+00" cType="1" res="6.3806492835283279e-03" rms="3.5128325223922729e-01" purity="8.5449808835983276e-01" nType="-99"/>
        </Node>
        <Node pos="r" depth="1" NCoef="0" IVar="32" Cut="9.7734218835830688e-01" cType="1" res="-1.8746873736381531e-01" rms="4.4897258281707764e-01" purity="2.9008176922798157e-01" nType="0">
          <Node pos="l" depth="2" NCoef="0" IVar="-1" Cut="0.0000000000000000e+00" cType="1" res="-4.7922129742801189e-03" rms="4.2244353890419006e-01" purity="2.3311598598957062e-01" nType="-99"/>
          <Node pos="r" depth="2" NCoef="0" IVar="-1" Cut="0.0000000000000000e+00" cType="1" res="2.8906129300594330e-03" rms="4.7297045588493347e-01" purity="6.5802395343780518e-01" nType="-99"/>
        </Node>
      </Node>
    </BinaryTree>
    <BinaryTree type="DecisionTree" boostWeight="1.0000000000000000e+00" itree="13">
      <Node pos="s" depth="0" NCoef="0" IVar="34" Cut="4.3908641815185547e+01" cType="1" res="4.7548997099511325e-04" rms="4.8868051171302795e-01" purity="5.0066918134689331e-01" nType="0">
        <Node pos="l" depth="1" NCoef="0" IVar="32" Cut="9.1151291131973267e-01" cType="1" res="1.7098781466484070e-01" rms="4.5834869146347046e-01" purity="6.8951082229614258e-01" nType="0">
          <Node pos="l" depth="2" NCoef="0" IVar="-1" Cut="0.0000000000000000e+00" cType="1" res="1.9454269204288721e-03" rms="4.8859947919845581e-01" purity="6.0546612739562988e-01" nType="-99"/>
          <Node pos="r" depth="2" NCoef="0" IVar="-1" Cut="0.0000000000000000e+00" cType="1" res="6.9421795196831226e-03" rms="3.1582772731781006e-01" purity="8.8730311393737793e-01" nType="-99"/>
        </Node>
        <Node pos="r" depth="1" NCoef="0" IVar="32" Cut="9.9784511327743530e-01" cType="1" res="-1.3712629675865173e-01" rms="4.6860694885253906e-01" purity="3.4827578067779541e-01" nType="0">
          <Node pos="l" depth="2" NCoef="0" IVar="-1" Cut="0.0000000000000000e+00" cType="1" res="-3.9325440302491188e-03" rms="4.4745111465454102e-01" purity="2.8231120109558105e-01" nType="-99"/>
          <Node pos="r" depth="2" NCoef="0" IVar="-1" Cut="0.0000000000000000e+00" cType="1" res="4.0099960751831532e-03" rms="4.4373786449432373e-01" purity="7.2523897886276245e-01" nType="-99"/>
        </Node>
      </Node>
    </BinaryTree>
    <BinaryTree type="DecisionTree" boostWeight="1.0000000000000000e+00" itree="14">
      <Node pos="s" depth="0" NCoef="0" IVar="34" Cut="4.5648071289062500e+01" cType="1" res="-2.2792404051870108e-03" rms="4.8810240626335144e-01" purity="4.9769943952560425e-01" nType="0">
        <Node pos="l" depth="1" NCoef="0" IVar="32" Cut="7.4177622795104980e-01" cType="1" res="1.5068320930004120e-01" rms="4.6534809470176697e-01" purity="6.7038887739181519e-01" nType="0">
          <Node pos="l" depth="2" NCoef="0" IVar="-1" Cut="0.0000000000000000e+00" cType="1" res="1.2756035430356860e-03" rms="4.9473378062248230e-01" purity="5.7192355394363403e-01" nType="-99"/>
          <Node pos="r" depth="2" NCoef="0" IVar="-1" Cut="0.0000000000000000e+00" cType="1" res="6.1199069023132324e-03" rms="3.6065676808357239e-01" purity="8.4387946128845215e-01" nType="-99"/>
        </Node>
        <Node pos="r" depth="1" NCoef="0" IVar="32" Cut="9.6509325504302979e-01" cType="1" res="-1.4326636493206024e-01" rms="4.6561515331268311e-01" purity="3.3852982521057129e-01" nType="0">
          <Node pos="l" depth="2" NCoef="0" IVar="-1" Cut="0.0000000000000000e+00" cType="1" res="-4.0307999588549137e-03" rms="4.4362506270408630e-01" purity="2.7331265807151794e-01" nType="-99"/>
          <Node pos="r" depth="2" NCoef="0" IVar="-1" Cut="0.0000000000000000e+00" cType="1" res="3.5644415766000748e-03" rms="4.5459339022636414e-01" purity="7.0180648565292358e-01" nType="-99"/>
        </Node>
      </Node>
    </BinaryTree>
    <BinaryTree type="DecisionTree" boostWeight="1.0000000000000000e+00" itree="15">
      <Node pos="s" depth="0" NCoef="0" IVar="34" Cut="5.4646438598632812e+01" cType="1" res="5.9107755078002810e-04" rms="4.8756954073905945e-01" purity="5.0026965141296387e-01" nType="0">
        <Node pos="l" depth="1" NCoef="0" IVar="32" Cut="7.7044546604156494e-01" cType="1" res="1.1545397341251373e-01" rms="4.7622233629226685e-01" purity="6.3114154338836670e-01" nType="0">
          <Node pos="l" depth="2" NCoef="0" IVar="-1" Cut="0.0000000000000000e+00" cType="1" res="6.7785201827064157e-04" rms="4.9706491827964783e-01" purity="5.3774213790893555e-01" nType="-99"/>
          <Node pos="r" depth="2" NCoef="0" IVar="-1" Cut="0.0000000000000000e+00" cType="1" res="5.7725906372070312e-03" rms="3.7557807564735413e-01" purity="8.2695263624191284e-01" nType="-99"/>
        </Node>
        <Node pos="r" depth="1" NCoef="0" IVar="32" Cut="7.7307540178298950e-01" cType="1" res="-1.9715943932533264e-01" rms="4.4128543138504028e-01" purity="2.7495780587196350e-01" nType="0">
          <Node pos="l" depth="2" NCoef="0" IVar="-1" Cut="0.0000000000000000e+00" cType="1" res="-5.0763683393597603e-03" rms="4.0886089205741882e-01" purity="2.1245682239532471e-01" nType="-99"/>
          <Node pos="r" depth="2" NCoef="0" IVar="-1" Cut="0.0000000000000000e+00" cType="1" res="8.5299758939072490e-04" rms="4.9317941069602966e-01" purity="5.4532748460769653e-01" nType="-99"/>
        </Node>
      </Node>
    </BinaryTree>
    <BinaryTree type="DecisionTree" boostWeight="1.0000000000000000e+00" itree="16">
      <Node pos="s" depth="0" NCoef="0" IVar="34" Cut="4.4377117156982422e+01" cType="1" res="3.6519737914204597e-03" rms="4.8672893643379211e-01" purity="5.0366705656051636e-01" nType="0">
        <Node pos="l" depth="1" NCoef="0" IVar="32" Cut="8.6616075038909912e-01" cType="1" res="1.6218686103820801e-01" rms="4.5957618951797485e-01" purity="6.8481224775314331e-01" nType="0">
          <Node pos="l" depth="2" NCoef="0" IVar="-1" Cut="0.0000000000000000e+00" cType="1" res="1.8320539966225624e-03" rms="4.8938855528831482e-01" purity="6.0166305303573608e-01" nType="-99"/>
          <Node pos="r" depth="2" NCoef="0" IVar="-1" Cut="0.0000000000000000e+00" cType="1" res="6.4970655366778374e-03" rms="3.3288922905921936e-01" purity="8.7229537963867188e-01" nType="-99"/>
        </Node>
        <Node pos="r" depth="1" NCoef="0" IVar="32" Cut="9.5832651853561401e-01" cType="1" res="-1.2824378907680511e-01" rms="4.6901565790176392e-01" purity="3.5296025872230530e-01" nType="0">
          <Node pos="l" depth="2" NCoef="0" IVar="-1" Cut="0.0000000000000000e+00" cType="1" res="-3.7257098592817783e-03" rms="4.4950044155120850e-01" purity="2.8680643439292908e-01" nType="-99"/>
          <Node pos="r" depth="2" NCoef="0" IVar="-1" Cut="0.0000000000000000e+00" cType="1" res="3.5646883770823479e-03" rms="4.5234706997871399e-01" purity="7.0596098899841309e-01" nType="-99"/>
        </Node>
      </Node>
    </BinaryTree>
    <BinaryTree type="DecisionTree" boostWeight="1.0000000000000000e+00" itree="17">
      <Node pos="s" depth="0" NCoef="0" IVar="34" Cut="4.8484836578369141e+01" cType="1" res="-1.3494809390977025e-03" rms="4.8590490221977234e-01" purity="4.9862203001976013e-01" nType="0">
        <Node pos="l" depth="1" NCoef="0" IVar="32" Cut="9.9887722730636597e-01" cType="1" res="1.3244239985942841e-01" rms="4.6911981701850891e-01" purity="6.5502858161926270e-01" nType="0">
          <Node pos="l" depth="2" NCoef="0" IVar="-1" Cut="0.0000000000000000e+00" cType="1" res="1.2435279786586761e-03" rms="4.9357980489730835e-01" purity="5.7294332981109619e-01" nType="-99"/>
          <Node pos="r" depth="2" NCoef="0" IVar="-1" Cut="0.0000000000000000e+00" cType="1" res="6.7178453318774700e-03" rms="3.1566756963729858e-01" purity="8.8761681318283081e-01" nType="-99"/>
        </Node>
        <Node pos="r" depth="1" NCoef="0" IVar="32" Cut="1.1903370618820190e+00" cType="1" res="-1.5163137018680573e-01" rms="4.5980250835418701e-01" purity="3.2293826341629028e-01" nType="0">
          <Node pos="l" depth="2" NCoef="0" IVar="-1" Cut="0.0000000000000000e+00" cType="1" res="-3.8837152533233166e-03" rms="4.4388473033905029e-01" purity="2.7533429861068726e-01" nType="-99"/>
          <Node pos="r" depth="2" NCoef="0" IVar="-1" Cut="0.0000000000000000e+00" cType="1" res="4.5437668450176716e-03" rms="4.2838525772094727e-01" purity="7.5543612241744995e-01" nType="-99"/>
        </Node>
      </Node>
    </BinaryTree>
    <BinaryTree type="DecisionTree" boostWeight="1.0000000000000000e+00" itree="18">
      <Node pos="s" depth="0" NCoef="0" IVar="34" Cut="4.8485328674316406e+01" cType="1" res="4.2459219694137573e-03" rms="4.8514261841773987e-01" purity="5.0433099269866943e-01" nType="0">
        <Node pos="l" depth="1" NCoef="0" IVar="32" Cut="1.0091750621795654e+00" cType="1" res="1.3598702847957611e-01" rms="4.6714729070663452e-01" purity="6.5997248888015747e-01" nType="0">
          <Node pos="l" depth="2" NCoef="0" IVar="-1" Cut="0.0000000000000000e+00" cType="1" res="1.3505093520507216e-03" rms="4.9245131015777588e-01" purity="5.7926321029663086e-01" nType="-99"/>
          <Node pos="r" depth="2" NCoef="0" IVar="-1" Cut="0.0000000000000000e+00" cType="1" res="6.7812521010637283e-03" rms="3.0828773975372314e-01" purity="8.9354503154754639e-01" nType="-99"/>
        </Node>
        <Node pos="r" depth="1" NCoef="0" IVar="32" Cut="9.4155436754226685e-01" cType="1" res="-1.4535106718540192e-01" rms="4.6123257279396057e-01" purity="3.2759419083595276e-01" nType="0">
          <Node pos="l" depth="2" NCoef="0" IVar="-1" Cut="0.0000000000000000e+00" cType="1" res="-3.9710015989840031e-03" rms="4.4054988026618958e-01" purity="2.6635476946830750e-01" nType="-99"/>
          <Node pos="r" depth="2" NCoef="0" IVar="-1" Cut="0.0000000000000000e+00" cType="1" res="3.0392273329198360e-03" rms="4.6419855952262878e-01" purity="6.7660355567932129e-01" nType="-99"/>
        </Node>
      </Node>
    </BinaryTree>
    <BinaryTree type="DecisionTree" boostWeight="1.0000000000000000e+00" itree="19">
      <Node pos="s" depth="0" NCoef="0" IVar="34" Cut="4.5647209167480469e+01" cType="1" res="2.7648682589642704e-04" rms="4.8482084274291992e-01" purity="4.9993866682052612e-01" nType="0">
        <Node pos="l" depth="1" NCoef="0" IVar="32" Cut="6.1852663755416870e-01" cType="1" res="1.4472435414791107e-01" rms="4.6384605765342712e-01" purity="6.7100584506988525e-01" nType="0">
          <Node pos="l" depth="2" NCoef="0" IVar="-1" Cut="0.0000000000000000e+00" cType="1" res="1.0414618300274014e-03" rms="4.9590069055557251e-01" purity="5.6315386295318604e-01" nType="-99"/>
          <Node pos="r" depth="2" NCoef="0" IVar="-1" Cut="0.0000000000000000e+00" cType="1" res="5.4790177382528782e-03" rms="3.8152411580085754e-01" purity="8.1800341606140137e-01" nType="-99"/>
        </Node>
        <Node pos="r" depth="1" NCoef="0" IVar="32" Cut="9.9784511327743530e-01" cType="1" res="-1.3072520494461060e-01" rms="4.6584624052047729e-01" purity="3.4479555487632751e-01" nType="0">
          <Node pos="l" depth="2" NCoef="0" IVar="-1" Cut="0.0000000000000000e+00" cType="1" res="-3.6780908703804016e-03" rms="4.4796323776245117e-01" purity="2.8298610448837280e-01" nType="-99"/>
          <Node pos="r" depth="2" NCoef="0" IVar="-1" Cut="0.0000000000000000e+00" cType="1" res="3.6684020888060331e-03" rms="4.4801568984985352e-01" purity="7.1595507860183716e-01" nType="-99"/>
        </Node>
      </Node>
    </BinaryTree>
    <BinaryTree type="DecisionTree" boostWeight="1.0000000000000000e+00" itree="20">
      <Node pos="s" depth="0" NCoef="0" IVar="34" Cut="5.4340347290039062e+01" cType="1" res="3.9347936399281025e-03" rms="4.8448202013969421e-01" purity="5.0329375267028809e-01" nType="0">
        <Node pos="l" depth="1" NCoef="0" IVar="32" Cut="7.5959408283233643e-01" cType="1" res="1.1145358532667160e-01" rms="4.7403687238693237e-01" purity="6.3205957412719727e-01" nType="0">
          <Node pos="l" depth="2" NCoef="0" IVar="-1" Cut="0.0000000000000000e+00" cType="1" res="6.2460597837343812e-04" rms="4.9684193730354309e-01" purity="5.3607320785522461e-01" nType="-99"/>
          <Node pos="r" depth="2" NCoef="0" IVar="-1" Cut="0.0000000000000000e+00" cType="1" res="5.5677657946944237e-03" rms="3.7390190362930298e-01" purity="8.2752960920333862e-01" nType="-99"/>
        </Node>
        <Node pos="r" depth="1" NCoef="0" IVar="21" Cut="1.7056102752685547e+00" cType="1" res="-1.7583267390727997e-01" rms="4.4700959324836731e-01" purity="2.8800210356712341e-01" nType="0">
          <Node pos="l" depth="2" NCoef="0" IVar="-1" Cut="0.0000000000000000e+00" cType="1" res="-3.6758871283382177e-04" rms="4.9182844161987305e-01" purity="4.4902473688125610e-01" nType="-99"/>
          <Node pos="r" depth="2" NCoef="0" IVar="-1" Cut="0.0000000000000000e+00" cType="1" res="-5.3529767319560051e-03" rms="3.9192909002304077e-01" purity="1.9621421396732330e-01" nType="-99"/>
        </Node>
      </Node>
    </BinaryTree>
    <BinaryTree type="DecisionTree" boostWeight="1.0000000000000000e+00" itree="21">
      <Node pos="s" depth="0" NCoef="0" IVar="34" Cut="5.5677146911621094e+01" cType="1" res="-5.3280796855688095e-03" rms="4.8341292142868042e-01" purity="4.9404859542846680e-01" nType="0">
        <Node pos="l" depth="1" NCoef="0" IVar="32" Cut="9.1151291131973267e-01" cType="1" res="9.7686238586902618e-02" rms="4.7684752941131592e-01" purity="6.1781525611877441e-01" nType="0">
          <Node pos="l" depth="2" NCoef="0" IVar="-1" Cut="0.0000000000000000e+00" cType="1" res="5.6474102893844247e-04" rms="4.9621298909187317e-01" purity="5.3339707851409912e-01" nType="-99"/>
          <Node pos="r" depth="2" NCoef="0" IVar="-1" Cut="0.0000000000000000e+00" cType="1" res="5.9366440400481224e-03" rms="3.5123544931411743e-01" purity="8.5399669408798218e-01" nType="-99"/>
        </Node>
        <Node pos="r" depth="1" NCoef="0" IVar="21" Cut="1.8184815645217896e+00" cType="1" res="-1.8797281384468079e-01" rms="4.3896675109863281e-01" purity="2.7460992336273193e-01" nType="0">
          <Node pos="l" depth="2" NCoef="0" IVar="-1" Cut="0.0000000000000000e+00" cType="1" res="-8.3800638094544411e-04" rms="4.8801204562187195e-01" purity="4.2541992664337158e-01" nType="-99"/>
          <Node pos="r" depth="2" NCoef="0" IVar="-1" Cut="0.0000000000000000e+00" cType="1" res="-5.6640999391674995e-03" rms="3.7631049752235413e-01" purity="1.7889432609081268e-01" nType="-99"/>
        </Node>
      </Node>
    </BinaryTree>
    <BinaryTree type="DecisionTree" boostWeight="1.0000000000000000e+00" itree="22">
      <Node pos="s" depth="0" NCoef="0" IVar="34" Cut="5.4340053558349609e+01" cType="1" res="9.5925841014832258e-04" rms="4.8291423916816711e-01" purity="5.0055170059204102e-01" nType="0">
        <Node pos="l" depth="1" NCoef="0" IVar="32" Cut="8.3485370874404907e-01" cType="1" res="1.0829661041498184e-01" rms="4.7396704554557800e-01" purity="6.3078355789184570e-01" nType="0">
          <Node pos="l" depth="2" NCoef="0" IVar="-1" Cut="0.0000000000000000e+00" cType="1" res="7.6252687722444534e-04" rms="4.9593949317932129e-01" purity="5.4432082176208496e-01" nType="-99"/>
          <Node pos="r" depth="2" NCoef="0" IVar="-1" Cut="0.0000000000000000e+00" cType="1" res="5.6653334759175777e-03" rms="3.6328393220901489e-01" purity="8.4055221080780029e-01" nType="-99"/>
        </Node>
        <Node pos="r" depth="1" NCoef="0" IVar="20" Cut="2.9753286838531494e+00" cType="1" res="-1.8218265473842621e-01" rms="4.4115176796913147e-01" purity="2.7834650874137878e-01" nType="0">
          <Node pos="l" depth="2" NCoef="0" IVar="-1" Cut="0.0000000000000000e+00" cType="1" res="-4.7656632959842682e-03" rms="4.1042631864547729e-01" purity="2.2098910808563232e-01" nType="-99"/>
          <Node pos="r" depth="2" NCoef="0" IVar="-1" Cut="0.0000000000000000e+00" cType="1" res="1.6476017190143466e-03" rms="4.8846077919006348e-01" purity="5.5881798267364502e-01" nType="-99"/>
        </Node>
      </Node>
    </BinaryTree>
    <BinaryTree type="DecisionTree" boostWeight="1.0000000000000000e+00" itree="23">
      <Node pos="s" depth="0" NCoef="0" IVar="33" Cut="7.4169517517089844e+01" cType="1" res="1.4896162319928408e-03" rms="4.8174446821212769e-01" purity="5.0157308578491211e-01" nType="0">
        <Node pos="l" depth="1" NCoef="0" IVar="32" Cut="8.8981020450592041e-01" cType="1" res="1.4824615418910980e-01" rms="4.5910686254501343e-01" purity="6.6927701234817505e-01" nType="0">
          <Node pos="l" depth="2" NCoef="0" IVar="-1" Cut="0.0000000000000000e+00" cType="1" res="1.5815765364095569e-03" rms="4.8915597796440125e-01" purity="5.8048444986343384e-01" nType="-99"/>
          <Node pos="r" depth="2" NCoef="0" IVar="-1" Cut="0.0000000000000000e+00" cType="1" res="6.2172259204089642e-03" rms="3.3282208442687988e-01" purity="8.7026965618133545e-01" nType="-99"/>
        </Node>
        <Node pos="r" depth="1" NCoef="0" IVar="32" Cut="9.3405866622924805e-01" cType="1" res="-1.2736611068248749e-01" rms="4.6396571397781372e-01" purity="3.5432505607604980e-01" nType="0">
          <Node pos="l" depth="2" NCoef="0" IVar="-1" Cut="0.0000000000000000e+00" cType="1" res="-3.6310469731688499e-03" rms="4.4668719172477722e-01" purity="2.9024115204811096e-01" nType="-99"/>
          <Node pos="r" depth="2" NCoef="0" IVar="-1" Cut="0.0000000000000000e+00" cType="1" res="3.1816635746508837e-03" rms="4.5130738615989685e-01" purity="6.9899195432662964e-01" nType="-99"/>
        </Node>
      </Node>
    </BinaryTree>
    <BinaryTree type="DecisionTree" boostWeight="1.0000000000000000e+00" itree="24">
      <Node pos="s" depth="0" NCoef="0" IVar="34" Cut="4.5647506713867188e+01" cType="1" res="9.1251451522111893e-03" rms="4.8127445578575134e-01" purity="5.0933510065078735e-01" nType="0">
        <Node pos="l" depth="1" NCoef="0" IVar="32" Cut="6.3657599687576294e-01" cType="1" res="1.5328924357891083e-01" rms="4.5746433734893799e-01" purity="6.8495625257492065e-01" nType="0">
          <Node pos="l" depth="2" NCoef="0" IVar="-1" Cut="0.0000000000000000e+00" cType="1" res="1.4272881671786308e-03" rms="4.9258396029472351e-01" purity="5.8387911319732666e-01" nType="-99"/>
          <Node pos="r" depth="2" NCoef="0" IVar="-1" Cut="0.0000000000000000e+00" cType="1" res="5.4719578474760056e-03" rms="3.7307593226432800e-01" purity="8.2783472537994385e-01" nType="-99"/>
        </Node>
        <Node pos="r" depth="1" NCoef="0" IVar="32" Cut="9.6074450016021729e-01" cType="1" res="-1.2601512670516968e-01" rms="4.6349999308586121e-01" purity="3.4470683336257935e-01" nType="0">
          <Node pos="l" depth="2" NCoef="0" IVar="-1" Cut="0.0000000000000000e+00" cType="1" res="-3.6125592887401581e-03" rms="4.4543215632438660e-01" purity="2.7938526868820190e-01" nType="-99"/>
          <Node pos="r" depth="2" NCoef="0" IVar="-1" Cut="0.0000000000000000e+00" cType="1" res="3.2796000596135855e-03" rms="4.5313802361488342e-01" purity="6.9972407817840576e-01" nType="-99"/>
        </Node>
      </Node>
    </BinaryTree>
    <BinaryTree type="DecisionTree" boostWeight="1.0000000000000000e+00" itree="25">
      <Node pos="s" depth="0" NCoef="0" IVar="34" Cut="4.7320755004882812e+01" cType="1" res="2.1689392160624266e-03" rms="4.8082157969474792e-01" purity="5.0210487842559814e-01" nType="0">
        <Node pos="l" depth="1" NCoef="0" IVar="32" Cut="1.0968064069747925e+00" cType="1" res="1.3375169038772583e-01" rms="4.6387302875518799e-01" purity="6.6561013460159302e-01" nType="0">
          <Node pos="l" depth="2" NCoef="0" IVar="-1" Cut="0.0000000000000000e+00" cType="1" res="1.5673252055421472e-03" rms="4.8868370056152344e-01" purity="5.9640616178512573e-01" nType="-99"/>
          <Node pos="r" depth="2" NCoef="0" IVar="-1" Cut="0.0000000000000000e+00" cType="1" res="6.7033572122454643e-03" rms="2.9176390171051025e-01" purity="9.0595138072967529e-01" nType="-99"/>
        </Node>
        <Node pos="r" depth="1" NCoef="0" IVar="20" Cut="3.1751360893249512e+00" cType="1" res="-1.3716304302215576e-01" rms="4.5868995785713196e-01" purity="3.2897046208381653e-01" nType="0">
          <Node pos="l" depth="2" NCoef="0" IVar="-1" Cut="0.0000000000000000e+00" cType="1" res="-3.8371805567294359e-03" rms="4.3639886379241943e-01" purity="2.7153483033180237e-01" nType="-99"/>
          <Node pos="r" depth="2" NCoef="0" IVar="-1" Cut="0.0000000000000000e+00" cType="1" res="2.8367503546178341e-03" rms="4.7244083881378174e-01" purity="6.3071066141128540e-01" nType="-99"/>
        </Node>
      </Node>
    </BinaryTree>
    <BinaryTree type="DecisionTree" boostWeight="1.0000000000000000e+00" itree="26">
      <Node pos="s" depth="0" NCoef="0" IVar="34" Cut="4.8485115051269531e+01" cType="1" res="-2.3421947844326496e-04" rms="4.7972297668457031e-01" purity="5.0000959634780884e-01" nType="0">
        <Node pos="l" depth="1" NCoef="0" IVar="32" Cut="9.8796546459197998e-01" cType="1" res="1.2477602064609528e-01" rms="4.6558511257171631e-01" purity="6.5757668018341064e-01" nType="0">
          <Node pos="l" depth="2" NCoef="0" IVar="-1" Cut="0.0000000000000000e+00" cType="1" res="1.2148901587352157e-03" rms="4.9243035912513733e-01" purity="5.7631069421768188e-01" nType="-99"/>
          <Node pos="r" depth="2" NCoef="0" IVar="-1" Cut="0.0000000000000000e+00" cType="1" res="6.3119782134890556e-03" rms="3.1407782435417175e-01" purity="8.8873189687728882e-01" nType="-99"/>
        </Node>
        <Node pos="r" depth="1" NCoef="0" IVar="32" Cut="1.0926228761672974e+00" cType="1" res="-1.4272148907184601e-01" rms="4.5524963736534119e-01" purity="3.2041391730308533e-01" nType="0">
          <Node pos="l" depth="2" NCoef="0" IVar="-1" Cut="0.0000000000000000e+00" cType="1" res="-3.8090725429356098e-03" rms="4.3764054775238037e-01" purity="2.6469779014587402e-01" nType="-99"/>
          <Node pos="r" depth="2" NCoef="0" IVar="-1" Cut="0.0000000000000000e+00" cType="1" res="3.9450861513614655e-03" rms="4.3954789638519287e-01" purity="7.3227047920227051e-01" nType="-99"/>
        </Node>
      </Node>
    </BinaryTree>
    <BinaryTree type="DecisionTree" boostWeight="1.0000000000000000e+00" itree="27">
      <Node pos="s" depth="0" NCoef="0" IVar="34" Cut="5.4340770721435547e+01" cType="1" res="-7.4198486981913447e-04" rms="4.7948014736175537e-01" purity="4.9888464808464050e-01" nType="0">
        <Node pos="l" depth="1" NCoef="0" IVar="32" Cut="9.4500255584716797e-01" cType="1" res="1.0134865343570709e-01" rms="4.7227397561073303e-01" purity="6.2859082221984863e-01" nType="0">
          <Node pos="l" depth="2" NCoef="0" IVar="-1" Cut="0.0000000000000000e+00" cType="1" res="7.3212926508858800e-04" rms="4.9474731087684631e-01" purity="5.4542702436447144e-01" nType="-99"/>
          <Node pos="r" depth="2" NCoef="0" IVar="-1" Cut="0.0000000000000000e+00" cType="1" res="5.9071248397231102e-03" rms="3.3732396364212036e-01" purity="8.6767768859863281e-01" nType="-99"/>
        </Node>
        <Node pos="r" depth="1" NCoef="0" IVar="20" Cut="3.5830049514770508e+00" cType="1" res="-1.7052698135375977e-01" rms="4.4175451993942261e-01" purity="2.8317281603813171e-01" nType="0">
          <Node pos="l" depth="2" NCoef="0" IVar="-1" Cut="0.0000000000000000e+00" cType="1" res="-4.2408541776239872e-03" rms="4.2205151915550232e-01" purity="2.3997300863265991e-01" nType="-99"/>
          <Node pos="r" depth="2" NCoef="0" IVar="-1" Cut="0.0000000000000000e+00" cType="1" res="3.1539904884994030e-03" rms="4.6738904714584351e-01" purity="6.4631164073944092e-01" nType="-99"/>
        </Node>
      </Node>
    </BinaryTree>
    <BinaryTree type="DecisionTree" boostWeight="1.0000000000000000e+00" itree="28">
      <Node pos="s" depth="0" NCoef="0" IVar="34" Cut="5.3618194580078125e+01" cType="1" res="6.5790832741186023e-04" rms="4.7885933518409729e-01" purity="5.0042027235031128e-01" nType="0">
        <Node pos="l" depth="1" NCoef="0" IVar="32" Cut="1.0540028810501099e+00" cType="1" res="1.0542150586843491e-01" rms="4.7118067741394043e-01" purity="6.3416182994842529e-01" nType="0">
          <Node pos="l" depth="2" NCoef="0" IVar="-1" Cut="0.0000000000000000e+00" cType="1" res="1.0009115794673562e-03" rms="4.9259892106056213e-01" purity="5.6254899501800537e-01" nType="-99"/>
          <Node pos="r" depth="2" NCoef="0" IVar="-1" Cut="0.0000000000000000e+00" cType="1" res="6.1939721927046776e-03" rms="3.1702822446823120e-01" purity="8.8597750663757324e-01" nType="-99"/>
        </Node>
        <Node pos="r" depth="1" NCoef="0" IVar="32" Cut="7.5324350595474243e-01" cType="1" res="-1.6794043779373169e-01" rms="4.4154042005538940e-01" purity="2.8518709540367126e-01" nType="0">
          <Node pos="l" depth="2" NCoef="0" IVar="-1" Cut="0.0000000000000000e+00" cType="1" res="-4.6262973919510841e-03" rms="4.0821570158004761e-01" purity="2.1315751969814301e-01" nType="-99"/>
          <Node pos="r" depth="2" NCoef="0" IVar="-1" Cut="0.0000000000000000e+00" cType="1" res="1.3482618378475308e-03" rms="4.8604819178581238e-01" purity="5.6660902500152588e-01" nType="-99"/>
        </Node>
      </Node>
    </BinaryTree>
    <BinaryTree type="DecisionTree" boostWeight="1.0000000000000000e+00" itree="29">
      <Node pos="s" depth="0" NCoef="0" IVar="33" Cut="7.3274986267089844e+01" cType="1" res="-6.7921755835413933e-03" rms="4.7827243804931641e-01" purity="4.9255362153053284e-01" nType="0">
        <Node pos="l" depth="1" NCoef="0" IVar="20" Cut="2.6293799877166748e+00" cType="1" res="1.3637027144432068e-01" rms="4.5923137664794922e-01" purity="6.6296935081481934e-01" nType="0">
          <Node pos="l" depth="2" NCoef="0" IVar="-1" Cut="0.0000000000000000e+00" cType="1" res="1.1647660285234451e-03" rms="4.7988358139991760e-01" purity="5.7815313339233398e-01" nType="-99"/>
          <Node pos="r" depth="2" NCoef="0" IVar="-1" Cut="0.0000000000000000e+00" cType="1" res="5.5740503594279289e-03" rms="3.8274174928665161e-01" purity="8.1264722347259521e-01" nType="-99"/>
        </Node>
        <Node pos="r" depth="1" NCoef="0" IVar="32" Cut="9.6352362632751465e-01" cType="1" res="-1.2534359097480774e-01" rms="4.6097749471664429e-01" purity="3.5143405199050903e-01" nType="0">
          <Node pos="l" depth="2" NCoef="0" IVar="-1" Cut="0.0000000000000000e+00" cType="1" res="-3.4876952413469553e-03" rms="4.4625544548034668e-01" purity="2.9114487767219543e-01" nType="-99"/>
          <Node pos="r" depth="2" NCoef="0" IVar="-1" Cut="0.0000000000000000e+00" cType="1" res="3.0720802024006844e-03" rms="4.4835275411605835e-01" purity="7.0401763916015625e-01" nType="-99"/>
        </Node>
      </Node>
    </BinaryTree>
    <BinaryTree type="DecisionTree" boostWeight="1.0000000000000000e+00" itree="30">
      <Node pos="s" depth="0" NCoef="0" IVar="34" Cut="4.5647209167480469e+01" cType="1" res="-1.1675386922433972e-03" rms="4.7743061184883118e-01" purity="4.9869170784950256e-01" nType="0">
        <Node pos="l" depth="1" NCoef="0" IVar="32" Cut="8.3555352687835693e-01" cType="1" res="1.3667698204517365e-01" rms="4.5963460206985474e-01" purity="6.7508530616760254e-01" nType="0">
          <Node pos="l" depth="2" NCoef="0" IVar="-1" Cut="0.0000000000000000e+00" cType="1" res="1.4587115729227662e-03" rms="4.9101993441581726e-01" purity="5.8981835842132568e-01" nType="-99"/>
          <Node pos="r" depth="2" NCoef="0" IVar="-1" Cut="0.0000000000000000e+00" cType="1" res="5.7103345170617104e-03" rms="3.4223267436027527e-01" purity="8.6236834526062012e-01" nType="-99"/>
        </Node>
        <Node pos="r" depth="1" NCoef="0" IVar="20" Cut="2.9132614135742188e+00" cType="1" res="-1.2827338278293610e-01" rms="4.5786479115486145e-01" purity="3.3603993058204651e-01" nType="0">
          <Node pos="l" depth="2" NCoef="0" IVar="-1" Cut="0.0000000000000000e+00" cType="1" res="-3.8467028643935919e-03" rms="4.3198499083518982e-01" purity="2.6753807067871094e-01" nType="-99"/>
          <Node pos="r" depth="2" NCoef="0" IVar="-1" Cut="0.0000000000000000e+00" cType="1" res="2.3946310393512249e-03" rms="4.7494831681251526e-01" purity="6.1007398366928101e-01" nType="-99"/>
        </Node>
      </Node>
    </BinaryTree>
    <BinaryTree type="DecisionTree" boostWeight="1.0000000000000000e+00" itree="31">
      <Node pos="s" depth="0" NCoef="0" IVar="34" Cut="6.2861862182617188e+01" cType="1" res="6.2347727362066507e-04" rms="4.7725313901901245e-01" purity="5.0019294023513794e-01" nType="0">
        <Node pos="l" depth="1" NCoef="0" IVar="32" Cut="8.3562952280044556e-01" cType="1" res="7.9426191747188568e-02" rms="4.7502428293228149e-01" purity="5.9890526533126831e-01" nType="0">
          <Node pos="l" depth="2" NCoef="0" IVar="-1" Cut="0.0000000000000000e+00" cType="1" res="2.1757662761956453e-04" rms="4.9357089400291443e-01" purity="5.0854498147964478e-01" nType="-99"/>
          <Node pos="r" depth="2" NCoef="0" IVar="-1" Cut="0.0000000000000000e+00" cType="1" res="5.1847393624484539e-03" rms="3.7220162153244019e-01" purity="8.2683998346328735e-01" nType="-99"/>
        </Node>
        <Node pos="r" depth="1" NCoef="0" IVar="21" Cut="1.2290427684783936e+00" cType="1" res="-2.1277296543121338e-01" rms="4.1371968388557434e-01" purity="2.3288165032863617e-01" nType="0">
          <Node pos="l" depth="2" NCoef="0" IVar="-1" Cut="0.0000000000000000e+00" cType="1" res="-3.7218971556285396e-05" rms="4.9083298444747925e-01" purity="4.5385080575942993e-01" nType="-99"/>
          <Node pos="r" depth="2" NCoef="0" IVar="-1" Cut="0.0000000000000000e+00" cType="1" res="-5.4801423102617264e-03" rms="3.7030404806137085e-01" purity="1.7330208420753479e-01" nType="-99"/>
        </Node>
      </Node>
    </BinaryTree>
    <BinaryTree type="DecisionTree" boostWeight="1.0000000000000000e+00" itree="32">
      <Node pos="s" depth="0" NCoef="0" IVar="34" Cut="6.3065456390380859e+01" cType="1" res="2.1765967831015587e-03" rms="4.7726941108703613e-01" purity="5.0128352642059326e-01" nType="0">
        <Node pos="l" depth="1" NCoef="0" IVar="32" Cut="7.4147409200668335e-01" cType="1" res="7.7983573079109192e-02" rms="4.7534680366516113e-01" purity="5.9769207239151001e-01" nType="0">
          <Node pos="l" depth="2" NCoef="0" IVar="-1" Cut="0.0000000000000000e+00" cType="1" res="9.9438075267244130e-05" rms="4.9430829286575317e-01" purity="5.0109547376632690e-01" nType="-99"/>
          <Node pos="r" depth="2" NCoef="0" IVar="-1" Cut="0.0000000000000000e+00" cType="1" res="4.7416347078979015e-03" rms="3.9082908630371094e-01" purity="8.0028468370437622e-01" nType="-99"/>
        </Node>
        <Node pos="r" depth="1" NCoef="0" IVar="21" Cut="1.8937290906906128e+00" cType="1" res="-2.0313954353332520e-01" rms="4.1836288571357727e-01" purity="2.4016986787319183e-01" nType="0">
          <Node pos="l" depth="2" NCoef="0" IVar="-1" Cut="0.0000000000000000e+00" cType="1" res="-1.1521949199959636e-03" rms="4.8175460100173950e-01" purity="3.9472126960754395e-01" nType="-99"/>
          <Node pos="r" depth="2" NCoef="0" IVar="-1" Cut="0.0000000000000000e+00" cType="1" res="-5.9268465265631676e-03" rms="3.4659135341644287e-01" purity="1.4726907014846802e-01" nType="-99"/>
        </Node>
      </Node>
    </BinaryTree>
    <BinaryTree type="DecisionTree" boostWeight="1.0000000000000000e+00" itree="33">
      <Node pos="s" depth="0" NCoef="0" IVar="34" Cut="6.3701248168945312e+01" cType="1" res="-2.5788140483200550e-03" rms="4.7633361816406250e-01" purity="4.9652463197708130e-01" nType="0">
        <Node pos="l" depth="1" NCoef="0" IVar="32" Cut="9.7183561325073242e-01" cType="1" res="7.1605764329433441e-02" rms="4.7580793499946594e-01" purity="5.9167414903640747e-01" nType="0">
          <Node pos="l" depth="2" NCoef="0" IVar="-1" Cut="0.0000000000000000e+00" cType="1" res="2.5041884509846568e-04" rms="4.9294999241828918e-01" purity="5.1190459728240967e-01" nType="-99"/>
          <Node pos="r" depth="2" NCoef="0" IVar="-1" Cut="0.0000000000000000e+00" cType="1" res="5.5091050453484058e-03" rms="3.4967598319053650e-01" purity="8.5433942079544067e-01" nType="-99"/>
        </Node>
        <Node pos="r" depth="1" NCoef="0" IVar="21" Cut="1.8940199613571167e+00" cType="1" res="-2.0623147487640381e-01" rms="4.1434943675994873e-01" purity="2.3531872034072876e-01" nType="0">
          <Node pos="l" depth="2" NCoef="0" IVar="-1" Cut="0.0000000000000000e+00" cType="1" res="-1.3898737961426377e-03" rms="4.7662976384162903e-01" purity="3.8426375389099121e-01" nType="-99"/>
          <Node pos="r" depth="2" NCoef="0" IVar="-1" Cut="0.0000000000000000e+00" cType="1" res="-5.8641373179852962e-03" rms="3.4800797700881958e-01" purity="1.4736403524875641e-01" nType="-99"/>
        </Node>
      </Node>
    </BinaryTree>
    <BinaryTree type="DecisionTree" boostWeight="1.0000000000000000e+00" itree="34">
      <Node pos="s" depth="0" NCoef="0" IVar="34" Cut="4.3908641815185547e+01" cType="1" res="2.5775823742151260e-03" rms="4.7578626871109009e-01" purity="5.0214922428131104e-01" nType="0">
        <Node pos="l" depth="1" NCoef="0" IVar="20" Cut="2.8189208507537842e+00" cType="1" res="1.4178834855556488e-01" rms="4.5499891042709351e-01" purity="6.8508970737457275e-01" nType="0">
          <Node pos="l" depth="2" NCoef="0" IVar="-1" Cut="0.0000000000000000e+00" cType="1" res="1.5308193396776915e-03" rms="4.7797667980194092e-01" purity="6.1313539743423462e-01" nType="-99"/>
          <Node pos="r" depth="2" NCoef="0" IVar="-1" Cut="0.0000000000000000e+00" cType="1" res="5.6447582319378853e-03" rms="3.6869606375694275e-01" purity="8.3237570524215698e-01" nType="-99"/>
        </Node>
        <Node pos="r" depth="1" NCoef="0" IVar="32" Cut="8.2948553562164307e-01" cType="1" res="-1.0697635263204575e-01" rms="4.6297526359558105e-01" purity="3.5818156599998474e-01" nType="0">
          <Node pos="l" depth="2" NCoef="0" IVar="-1" Cut="0.0000000000000000e+00" cType="1" res="-3.3086079638451338e-03" rms="4.4544768333435059e-01" purity="2.8526484966278076e-01" nType="-99"/>
          <Node pos="r" depth="2" NCoef="0" IVar="-1" Cut="0.0000000000000000e+00" cType="1" res="2.4936692789196968e-03" rms="4.6229428052902222e-01" purity="6.5688985586166382e-01" nType="-99"/>
        </Node>
      </Node>
    </BinaryTree>
    <BinaryTree type="DecisionTree" boostWeight="1.0000000000000000e+00" itree="35">
      <Node pos="s" depth="0" NCoef="0" IVar="33" Cut="6.7873832702636719e+01" cType="1" res="1.1471395846456289e-03" rms="4.7484287619590759e-01" purity="5.0093626976013184e-01" nType="0">
        <Node pos="l" depth="1" NCoef="0" IVar="20" Cut="2.7841193675994873e+00" cType="1" res="1.5419320762157440e-01" rms="4.4969853758811951e-01" purity="6.8932831287384033e-01" nType="0">
          <Node pos="l" depth="2" NCoef="0" IVar="-1" Cut="0.0000000000000000e+00" cType="1" res="1.8216740572825074e-03" rms="4.7349509596824646e-01" purity="6.1674779653549194e-01" nType="-99"/>
          <Node pos="r" depth="2" NCoef="0" IVar="-1" Cut="0.0000000000000000e+00" cType="1" res="5.7117841206490993e-03" rms="3.6751782894134521e-01" purity="8.3206385374069214e-01" nType="-99"/>
        </Node>
        <Node pos="r" depth="1" NCoef="0" IVar="32" Cut="7.2704005241394043e-01" cType="1" res="-9.9543869495391846e-02" rms="4.6391937136650085e-01" purity="3.7699064612388611e-01" nType="0">
          <Node pos="l" depth="2" NCoef="0" IVar="-1" Cut="0.0000000000000000e+00" cType="1" res="-3.4335313830524683e-03" rms="4.4388842582702637e-01" purity="2.8791260719299316e-01" nType="-99"/>
          <Node pos="r" depth="2" NCoef="0" IVar="-1" Cut="0.0000000000000000e+00" cType="1" res="2.3236183915287256e-03" rms="4.5852389931678772e-01" purity="6.4941507577896118e-01" nType="-99"/>
        </Node>
      </Node>
    </BinaryTree>
    <BinaryTree type="DecisionTree" boostWeight="1.0000000000000000e+00" itree="36">
      <Node pos="s" depth="0" NCoef="0" IVar="33" Cut="7.4169517517089844e+01" cType="1" res="-3.9080842398107052e-03" rms="4.7433286905288696e-01" purity="4.9545344710350037e-01" nType="0">
        <Node pos="l" depth="1" NCoef="0" IVar="20" Cut="2.5116231441497803e+00" cType="1" res="1.2945611774921417e-01" rms="4.5802584290504456e-01" purity="6.6148608922958374e-01" nType="0">
          <Node pos="l" depth="2" NCoef="0" IVar="-1" Cut="0.0000000000000000e+00" cType="1" res="1.0862065246328712e-03" rms="4.7822949290275574e-01" purity="5.7726448774337769e-01" nType="-99"/>
          <Node pos="r" depth="2" NCoef="0" IVar="-1" Cut="0.0000000000000000e+00" cType="1" res="5.2026435732841492e-03" rms="3.9097493886947632e-01" purity="8.0160903930664062e-01" nType="-99"/>
        </Node>
        <Node pos="r" depth="1" NCoef="0" IVar="20" Cut="2.5037522315979004e+00" cType="1" res="-1.1904233694076538e-01" rms="4.5771902799606323e-01" purity="3.5211625695228577e-01" nType="0">
          <Node pos="l" depth="2" NCoef="0" IVar="-1" Cut="0.0000000000000000e+00" cType="1" res="-3.7792879156768322e-03" rms="4.3047931790351868e-01" purity="2.7709007263183594e-01" nType="-99"/>
          <Node pos="r" depth="2" NCoef="0" IVar="-1" Cut="0.0000000000000000e+00" cType="1" res="1.3616355136036873e-03" rms="4.7924914956092834e-01" purity="5.6088060140609741e-01" nType="-99"/>
        </Node>
      </Node>
    </BinaryTree>
    <BinaryTree type="DecisionTree" boostWeight="1.0000000000000000e+00" itree="37">
      <Node pos="s" depth="0" NCoef="0" IVar="34" Cut="4.8484855651855469e+01" cType="1" res="4.8535320092923939e-04" rms="4.7391596436500549e-01" purity="4.9986162781715393e-01" nType="0">
        <Node pos="l" depth="1" NCoef="0" IVar="20" Cut="2.8469836711883545e+00" cType="1" res="1.1483998596668243e-01" rms="4.6280962228775024e-01" purity="6.5687501430511475e-01" nType="0">
          <Node pos="l" depth="2" NCoef="0" IVar="-1" Cut="0.0000000000000000e+00" cType="1" res="9.4056723173707724e-04" rms="4.8291167616844177e-01" purity="5.8020168542861938e-01" nType="-99"/>
          <Node pos="r" depth="2" NCoef="0" IVar="-1" Cut="0.0000000000000000e+00" cType="1" res="5.3248503245413303e-03" rms="3.7741607427597046e-01" purity="8.2050323486328125e-01" nType="-99"/>
        </Node>
        <Node pos="r" depth="1" NCoef="0" IVar="20" Cut="2.1263458728790283e+00" cType="1" res="-1.2978731095790863e-01" rms="4.5230498909950256e-01" purity="3.2099226117134094e-01" nType="0">
          <Node pos="l" depth="2" NCoef="0" IVar="-1" Cut="0.0000000000000000e+00" cType="1" res="-4.2302617803215981e-03" rms="4.1310614347457886e-01" purity="2.3468142747879028e-01" nType="-99"/>
          <Node pos="r" depth="2" NCoef="0" IVar="-1" Cut="0.0000000000000000e+00" cType="1" res="5.5434356909245253e-04" rms="4.8593568801879883e-01" purity="4.9521964788436890e-01" nType="-99"/>
        </Node>
      </Node>
    </BinaryTree>
    <BinaryTree type="DecisionTree" boostWeight="1.0000000000000000e+00" itree="38">
      <Node pos="s" depth="0" NCoef="0" IVar="34" Cut="5.8887054443359375e+01" cType="1" res="3.4627011045813560e-03" rms="4.7340050339698792e-01" purity="5.0327801704406738e-01" nType="0">
        <Node pos="l" depth="1" NCoef="0" IVar="32" Cut="9.3216884136199951e-01" cType="1" res="8.5762552917003632e-02" rms="4.7061073780059814e-01" purity="6.1431628465652466e-01" nType="0">
          <Node pos="l" depth="2" NCoef="0" IVar="-1" Cut="0.0000000000000000e+00" cType="1" res="5.2499002777040005e-04" rms="4.9212023615837097e-01" purity="5.3123462200164795e-01" nType="-99"/>
          <Node pos="r" depth="2" NCoef="0" IVar="-1" Cut="0.0000000000000000e+00" cType="1" res="5.4044262506067753e-03" rms="3.4725618362426758e-01" purity="8.5642522573471069e-01" nType="-99"/>
        </Node>
        <Node pos="r" depth="1" NCoef="0" IVar="21" Cut="1.6805046796798706e+00" cType="1" res="-1.7665012180805206e-01" rms="4.2732626199722290e-01" purity="2.6027134060859680e-01" nType="0">
          <Node pos="l" depth="2" NCoef="0" IVar="-1" Cut="0.0000000000000000e+00" cType="1" res="-3.9394374471157789e-04" rms="4.8624828457832336e-01" purity="4.3049868941307068e-01" nType="-99"/>
          <Node pos="r" depth="2" NCoef="0" IVar="-1" Cut="0.0000000000000000e+00" cType="1" res="-5.2405735477805138e-03" rms="3.6965915560722351e-01" purity="1.7433966696262360e-01" nType="-99"/>
        </Node>
      </Node>
    </BinaryTree>
    <BinaryTree type="DecisionTree" boostWeight="1.0000000000000000e+00" itree="39">
      <Node pos="s" depth="0" NCoef="0" IVar="32" Cut="1.0908359289169312e+00" cType="1" res="-1.3801597524434328e-03" rms="4.7348976135253906e-01" purity="4.9732756614685059e-01" nType="0">
        <Node pos="l" depth="1" NCoef="0" IVar="33" Cut="5.8792438507080078e+01" cType="1" res="-5.4083891212940216e-02" rms="4.7768568992614746e-01" purity="4.2580628395080566e-01" nType="0">
          <Node pos="l" depth="2" NCoef="0" IVar="-1" Cut="0.0000000000000000e+00" cType="1" res="2.8680632822215557e-03" rms="4.6712520718574524e-01" purity="6.6819924116134644e-01" nType="-99"/>
          <Node pos="r" depth="2" NCoef="0" IVar="-1" Cut="0.0000000000000000e+00" cType="1" res="-2.4592976551502943e-03" rms="4.6245938539505005e-01" purity="3.4303334355354309e-01" nType="-99"/>
        </Node>
        <Node pos="r" depth="1" NCoef="0" IVar="34" Cut="6.5868835449218750e+01" cType="1" res="2.5296872854232788e-01" rms="3.5613644123077393e-01" purity="8.4249007701873779e-01" nType="0">
          <Node pos="l" depth="2" NCoef="0" IVar="-1" Cut="0.0000000000000000e+00" cType="1" res="5.8022225275635719e-03" rms="3.2646143436431885e-01" purity="8.7637543678283691e-01" nType="-99"/>
          <Node pos="r" depth="2" NCoef="0" IVar="-1" Cut="0.0000000000000000e+00" cType="1" res="1.2104866327717900e-03" rms="4.8982298374176025e-01" purity="5.8312970399856567e-01" nType="-99"/>
        </Node>
      </Node>
    </BinaryTree>
    <BinaryTree type="DecisionTree" boostWeight="1.0000000000000000e+00" itree="40">
      <Node pos="s" depth="0" NCoef="0" IVar="34" Cut="6.3032897949218750e+01" cType="1" res="6.3828541897237301e-04" rms="4.7261345386505127e-01" purity="4.9961808323860168e-01" nType="0">
        <Node pos="l" depth="1" NCoef="0" IVar="32" Cut="6.6193199157714844e-01" cType="1" res="7.4103593826293945e-02" rms="4.7254049777984619e-01" purity="5.9795421361923218e-01" nType="0">
          <Node pos="l" depth="2" NCoef="0" IVar="-1" Cut="0.0000000000000000e+00" cType="1" res="-8.6740627011749893e-05" rms="4.9249491095542908e-01" purity="4.9166637659072876e-01" nType="-99"/>
          <Node pos="r" depth="2" NCoef="0" IVar="-1" Cut="0.0000000000000000e+00" cType="1" res="4.3189050629734993e-03" rms="4.0138661861419678e-01" purity="7.8143340349197388e-01" nType="-99"/>
        </Node>
        <Node pos="r" depth="1" NCoef="0" IVar="21" Cut="1.0973595380783081e+00" cType="1" res="-1.9809466600418091e-01" rms="4.1164934635162354e-01" purity="2.3360615968704224e-01" nType="0">
          <Node pos="l" depth="2" NCoef="0" IVar="-1" Cut="0.0000000000000000e+00" cType="1" res="4.3688874575309455e-04" rms="4.9019137024879456e-01" purity="4.7239616513252258e-01" nType="-99"/>
          <Node pos="r" depth="2" NCoef="0" IVar="-1" Cut="0.0000000000000000e+00" cType="1" res="-5.1362738013267517e-03" rms="3.7194210290908813e-01" purity="1.7669256031513214e-01" nType="-99"/>
        </Node>
      </Node>
    </BinaryTree>
    <BinaryTree type="DecisionTree" boostWeight="1.0000000000000000e+00" itree="41">
      <Node pos="s" depth="0" NCoef="0" IVar="34" Cut="5.2593280792236328e+01" cType="1" res="-2.4352495092898607e-03" rms="4.7116529941558838e-01" purity="4.9737957119941711e-01" nType="0">
        <Node pos="l" depth="1" NCoef="0" IVar="32" Cut="9.8095315694808960e-01" cType="1" res="9.5568962395191193e-02" rms="4.6661713719367981e-01" purity="6.3539451360702515e-01" nType="0">
          <Node pos="l" depth="2" NCoef="0" IVar="-1" Cut="0.0000000000000000e+00" cType="1" res="7.4663182022050023e-04" rms="4.9226811528205872e-01" purity="5.5296069383621216e-01" nType="-99"/>
          <Node pos="r" depth="2" NCoef="0" IVar="-1" Cut="0.0000000000000000e+00" cType="1" res="5.6585376150906086e-03" rms="3.2347843050956726e-01" purity="8.8002890348434448e-01" nType="-99"/>
        </Node>
        <Node pos="r" depth="1" NCoef="0" IVar="20" Cut="2.8605308532714844e+00" cType="1" res="-1.4899793267250061e-01" rms="4.3878331780433655e-01" purity="2.9098197817802429e-01" nType="0">
          <Node pos="l" depth="2" NCoef="0" IVar="-1" Cut="0.0000000000000000e+00" cType="1" res="-4.2020552791655064e-03" rms="4.0843918919563293e-01" purity="2.2599157691001892e-01" nType="-99"/>
          <Node pos="r" depth="2" NCoef="0" IVar="-1" Cut="0.0000000000000000e+00" cType="1" res="1.6763869207352400e-03" rms="4.8138538002967834e-01" purity="5.5882668495178223e-01" nType="-99"/>
        </Node>
      </Node>
    </BinaryTree>
    <BinaryTree type="DecisionTree" boostWeight="1.0000000000000000e+00" itree="42">
      <Node pos="s" depth="0" NCoef="0" IVar="33" Cut="7.5189529418945312e+01" cType="1" res="1.4220431912690401e-03" rms="4.7027346491813660e-01" purity="5.0194680690765381e-01" nType="0">
        <Node pos="l" depth="1" NCoef="0" IVar="20" Cut="2.7714667320251465e+00" cType="1" res="1.2865331768989563e-01" rms="4.5403593778610229e-01" purity="6.6577136516571045e-01" nType="0">
          <Node pos="l" depth="2" NCoef="0" IVar="-1" Cut="0.0000000000000000e+00" cType="1" res="1.2169871479272842e-03" rms="4.7513896226882935e-01" purity="5.8612388372421265e-01" nType="-99"/>
          <Node pos="r" depth="2" NCoef="0" IVar="-1" Cut="0.0000000000000000e+00" cType="1" res="5.4398705251514912e-03" rms="3.7300989031791687e-01" purity="8.2415556907653809e-01" nType="-99"/>
        </Node>
        <Node pos="r" depth="1" NCoef="0" IVar="32" Cut="8.2005959749221802e-01" cType="1" res="-1.1443180590867996e-01" rms="4.5460000634193420e-01" purity="3.5277202725410461e-01" nType="0">
          <Node pos="l" depth="2" NCoef="0" IVar="-1" Cut="0.0000000000000000e+00" cType="1" res="-3.5380034241825342e-03" rms="4.3546545505523682e-01" purity="2.7343234419822693e-01" nType="-99"/>
          <Node pos="r" depth="2" NCoef="0" IVar="-1" Cut="0.0000000000000000e+00" cType="1" res="2.4849364999681711e-03" rms="4.5262479782104492e-01" purity="6.6879218816757202e-01" nType="-99"/>
        </Node>
      </Node>
    </BinaryTree>
    <BinaryTree type="DecisionTree" boostWeight="1.0000000000000000e+00" itree="43">
      <Node pos="s" depth="0" NCoef="0" IVar="34" Cut="5.0538974761962891e+01" cType="1" res="2.7524458346306346e-05" rms="4.7031620144844055e-01" purity="4.9971312284469604e-01" nType="0">
        <Node pos="l" depth="1" NCoef="0" IVar="20" Cut="3.0198588371276855e+00" cType="1" res="1.0497636348009109e-01" rms="4.6372294425964355e-01" purity="6.4846932888031006e-01" nType="0">
          <Node pos="l" depth="2" NCoef="0" IVar="-1" Cut="0.0000000000000000e+00" cType="1" res="9.6779450541362166e-04" rms="4.8170161247253418e-01" purity="5.8147603273391724e-01" nType="-99"/>
          <Node pos="r" depth="2" NCoef="0" IVar="-1" Cut="0.0000000000000000e+00" cType="1" res="5.1977564580738544e-03" rms="3.7537300586700439e-01" purity="8.2153123617172241e-01" nType="-99"/>
        </Node>
        <Node pos="r" depth="1" NCoef="0" IVar="20" Cut="2.7823357582092285e+00" cType="1" res="-1.3903281092643738e-01" rms="4.4206941127777100e-01" purity="3.0260670185089111e-01" nType="0">
          <Node pos="l" depth="2" NCoef="0" IVar="-1" Cut="0.0000000000000000e+00" cType="1" res="-4.0726843290030956e-03" rms="4.1117492318153381e-01" purity="2.3316755890846252e-01" nType="-99"/>
          <Node pos="r" depth="2" NCoef="0" IVar="-1" Cut="0.0000000000000000e+00" cType="1" res="1.7541217384859920e-03" rms="4.8028185963630676e-01" purity="5.6492567062377930e-01" nType="-99"/>
        </Node>
      </Node>
    </BinaryTree>
    <BinaryTree type="DecisionTree" boostWeight="1.0000000000000000e+00" itree="44">
      <Node pos="s" depth="0" NCoef="0" IVar="34" Cut="6.3032897949218750e+01" cType="1" res="-1.8105035414919257e-03" rms="4.6972566843032837e-01" purity="4.9786305427551270e-01" nType="0">
        <Node pos="l" depth="1" NCoef="0" IVar="20" Cut="2.9407260417938232e+00" cType="1" res="7.1614220738410950e-02" rms="4.7075641155242920e-01" purity="5.9821563959121704e-01" nType="0">
          <Node pos="l" depth="2" NCoef="0" IVar="-1" Cut="0.0000000000000000e+00" cType="1" res="1.5746917051728815e-04" rms="4.8239409923553467e-01" purity="5.2251410484313965e-01" nType="-99"/>
          <Node pos="r" depth="2" NCoef="0" IVar="-1" Cut="0.0000000000000000e+00" cType="1" res="4.8444950953125954e-03" rms="3.9428123831748962e-01" purity="7.9329967498779297e-01" nType="-99"/>
        </Node>
        <Node pos="r" depth="1" NCoef="0" IVar="21" Cut="1.3922150135040283e+00" cType="1" res="-2.0500461757183075e-01" rms="4.0218424797058105e-01" purity="2.2014932334423065e-01" nType="0">
          <Node pos="l" depth="2" NCoef="0" IVar="-1" Cut="0.0000000000000000e+00" cType="1" res="-5.4277636809274554e-04" rms="4.8353761434555054e-01" purity="4.1861641407012939e-01" nType="-99"/>
          <Node pos="r" depth="2" NCoef="0" IVar="-1" Cut="0.0000000000000000e+00" cType="1" res="-5.4065366275608540e-03" rms="3.5382220149040222e-01" purity="1.5653684735298157e-01" nType="-99"/>
        </Node>
      </Node>
    </BinaryTree>
    <BinaryTree type="DecisionTree" boostWeight="1.0000000000000000e+00" itree="45">
      <Node pos="s" depth="0" NCoef="0" IVar="33" Cut="6.7873832702636719e+01" cType="1" res="-4.5452437916537747e-05" rms="4.6967175602912903e-01" purity="4.9942639470100403e-01" nType="0">
        <Node pos="l" depth="1" NCoef="0" IVar="20" Cut="2.1193847656250000e+00" cType="1" res="1.4297562837600708e-01" rms="4.4709748029708862e-01" purity="6.8887412548065186e-01" nType="0">
          <Node pos="l" depth="2" NCoef="0" IVar="-1" Cut="0.0000000000000000e+00" cType="1" res="1.3155541382730007e-03" rms="4.7415176033973694e-01" purity="5.9852427244186401e-01" nType="-99"/>
          <Node pos="r" depth="2" NCoef="0" IVar="-1" Cut="0.0000000000000000e+00" cType="1" res="4.7997292131185532e-03" rms="3.9435428380966187e-01" purity="7.9399502277374268e-01" nType="-99"/>
        </Node>
        <Node pos="r" depth="1" NCoef="0" IVar="32" Cut="1.1782464981079102e+00" cType="1" res="-9.4217933714389801e-02" rms="4.6030575037002563e-01" purity="3.7468415498733521e-01" nType="0">
          <Node pos="l" depth="2" NCoef="0" IVar="-1" Cut="0.0000000000000000e+00" cType="1" res="-2.7013502549380064e-03" rms="4.5331278443336487e-01" purity="3.2312175631523132e-01" nType="-99"/>
          <Node pos="r" depth="2" NCoef="0" IVar="-1" Cut="0.0000000000000000e+00" cType="1" res="4.5065679587423801e-03" rms="3.9295625686645508e-01" purity="7.9533743858337402e-01" nType="-99"/>
        </Node>
      </Node>
    </BinaryTree>
    <BinaryTree type="DecisionTree" boostWeight="1.0000000000000000e+00" itree="46">
      <Node pos="s" depth="0" NCoef="0" IVar="33" Cut="6.6598808288574219e+01" cType="1" res="-6.4769713208079338e-04" rms="4.6851664781570435e-01" purity="4.9936032295227051e-01" nType="0">
        <Node pos="l" depth="1" NCoef="0" IVar="20" Cut="2.1546113491058350e+00" cType="1" res="1.4942890405654907e-01" rms="4.4409132003784180e-01" purity="6.9746905565261841e-01" nType="0">
          <Node pos="l" depth="2" NCoef="0" IVar="-1" Cut="0.0000000000000000e+00" cType="1" res="1.4205685583874583e-03" rms="4.7259443998336792e-01" purity="6.0567665100097656e-01" nType="-99"/>
          <Node pos="r" depth="2" NCoef="0" IVar="-1" Cut="0.0000000000000000e+00" cType="1" res="4.9766371957957745e-03" rms="3.8805720210075378e-01" purity="8.0491179227828979e-01" nType="-99"/>
        </Node>
        <Node pos="r" depth="1" NCoef="0" IVar="32" Cut="9.5491826534271240e-01" cType="1" res="-9.5103345811367035e-02" rms="4.5873719453811646e-01" purity="3.7467414140701294e-01" nType="0">
          <Node pos="l" depth="2" NCoef="0" IVar="-1" Cut="0.0000000000000000e+00" cType="1" res="-2.9848185367882252e-03" rms="4.4703984260559082e-01" purity="3.0358642339706421e-01" nType="-99"/>
          <Node pos="r" depth="2" NCoef="0" IVar="-1" Cut="0.0000000000000000e+00" cType="1" res="3.4236202482134104e-03" rms="4.2749810218811035e-01" purity="7.3679816722869873e-01" nType="-99"/>
        </Node>
      </Node>
    </BinaryTree>
    <BinaryTree type="DecisionTree" boostWeight="1.0000000000000000e+00" itree="47">
      <Node pos="s" depth="0" NCoef="0" IVar="34" Cut="5.4646419525146484e+01" cType="1" res="-1.4600914437323809e-03" rms="4.6865400671958923e-01" purity="4.9737551808357239e-01" nType="0">
        <Node pos="l" depth="1" NCoef="0" IVar="20" Cut="2.3211531639099121e+00" cType="1" res="8.8315069675445557e-02" rms="4.6681088209152222e-01" purity="6.2830591201782227e-01" nType="0">
          <Node pos="l" depth="2" NCoef="0" IVar="-1" Cut="0.0000000000000000e+00" cType="1" res="2.4908923660404980e-04" rms="4.8297998309135437e-01" purity="5.3991323709487915e-01" nType="-99"/>
          <Node pos="r" depth="2" NCoef="0" IVar="-1" Cut="0.0000000000000000e+00" cType="1" res="4.1817016899585724e-03" rms="4.1520279645919800e-01" purity="7.6276290416717529e-01" nType="-99"/>
        </Node>
        <Node pos="r" depth="1" NCoef="0" IVar="21" Cut="1.5676565170288086e+00" cType="1" res="-1.5424668788909912e-01" rms="4.3070960044860840e-01" purity="2.7454772591590881e-01" nType="0">
          <Node pos="l" depth="2" NCoef="0" IVar="-1" Cut="0.0000000000000000e+00" cType="1" res="3.3728061680449173e-05" rms="4.8496487736701965e-01" purity="4.4881582260131836e-01" nType="-99"/>
          <Node pos="r" depth="2" NCoef="0" IVar="-1" Cut="0.0000000000000000e+00" cType="1" res="-4.7022630460560322e-03" rms="3.8105306029319763e-01" purity="1.9234053790569305e-01" nType="-99"/>
        </Node>
      </Node>
    </BinaryTree>
    <BinaryTree type="DecisionTree" boostWeight="1.0000000000000000e+00" itree="48">
      <Node pos="s" depth="0" NCoef="0" IVar="33" Cut="7.4182548522949219e+01" cType="1" res="1.5477013075724244e-03" rms="4.6873241662979126e-01" purity="5.0048339366912842e-01" nType="0">
        <Node pos="l" depth="1" NCoef="0" IVar="20" Cut="2.1102814674377441e+00" cType="1" res="1.2523072957992554e-01" rms="4.5348283648490906e-01" purity="6.6745519638061523e-01" nType="0">
          <Node pos="l" depth="2" NCoef="0" IVar="-1" Cut="0.0000000000000000e+00" cType="1" res="9.5645885448902845e-04" rms="4.7666838765144348e-01" purity="5.7507538795471191e-01" nType="-99"/>
          <Node pos="r" depth="2" NCoef="0" IVar="-1" Cut="0.0000000000000000e+00" cType="1" res="4.5064240694046021e-03" rms="4.0434440970420837e-01" purity="7.7865165472030640e-01" nType="-99"/>
        </Node>
        <Node pos="r" depth="1" NCoef="0" IVar="20" Cut="3.1704072952270508e+00" cType="1" res="-1.0677055269479752e-01" rms="4.5485869050025940e-01" purity="3.5425388813018799e-01" nType="0">
          <Node pos="l" depth="2" NCoef="0" IVar="-1" Cut="0.0000000000000000e+00" cType="1" res="-3.0686384998261929e-03" rms="4.4038534164428711e-01" purity="3.0132773518562317e-01" nType="-99"/>
          <Node pos="r" depth="2" NCoef="0" IVar="-1" Cut="0.0000000000000000e+00" cType="1" res="2.4573509581387043e-03" rms="4.6240592002868652e-01" purity="6.3386082649230957e-01" nType="-99"/>
        </Node>
      </Node>
    </BinaryTree>
    <BinaryTree type="DecisionTree" boostWeight="1.0000000000000000e+00" itree="49">
      <Node pos="s" depth="0" NCoef="0" IVar="34" Cut="4.4377117156982422e+01" cType="1" res="2.0108623430132866e-03" rms="4.6797642111778259e-01" purity="5.0137239694595337e-01" nType="0">
        <Node pos="l" depth="1" NCoef="0" IVar="32" Cut="1.1827964782714844e+00" cType="1" res="1.2472639232873917e-01" rms="4.5260655879974365e-01" purity="6.8038195371627808e-01" nType="0">
          <Node pos="l" depth="2" NCoef="0" IVar="-1" Cut="0.0000000000000000e+00" cType="1" res="1.6229905886575580e-03" rms="4.7995060682296753e-01" purity="6.1690467596054077e-01" nType="-99"/>
          <Node pos="r" depth="2" NCoef="0" IVar="-1" Cut="0.0000000000000000e+00" cType="1" res="6.2811970710754395e-03" rms="2.6849743723869324e-01" purity="9.2160993814468384e-01" nType="-99"/>
        </Node>
        <Node pos="r" depth="1" NCoef="0" IVar="20" Cut="2.9060239791870117e+00" cType="1" res="-9.8417922854423523e-02" rms="4.5625799894332886e-01" purity="3.5487332940101624e-01" nType="0">
          <Node pos="l" depth="2" NCoef="0" IVar="-1" Cut="0.0000000000000000e+00" cType="1" res="-3.1446742359548807e-03" rms="4.3720072507858276e-01" purity="2.8698027133941650e-01" nType="-99"/>
          <Node pos="r" depth="2" NCoef="0" IVar="-1" Cut="0.0000000000000000e+00" cType="1" res="2.4132516700774431e-03" rms="4.6532765030860901e-01" purity="6.2342518568038940e-01" nType="-99"/>
        </Node>
      </Node>
    </BinaryTree>
    <BinaryTree type="DecisionTree" boostWeight="1.0000000000000000e+00" itree="50">
      <Node pos="s" depth="0" NCoef="0" IVar="34" Cut="4.3304294586181641e+01" cType="1" res="-3.1957963947206736e-03" rms="4.6730250120162964e-01" purity="4.9610233306884766e-01" nType="0">
        <Node pos="l" depth="1" NCoef="0" IVar="20" Cut="2.9315588474273682e+00" cType="1" res="1.2803485989570618e-01" rms="4.5078852772712708e-01" purity="6.8535971641540527e-01" nType="0">
          <Node pos="l" depth="2" NCoef="0" IVar="-1" Cut="0.0000000000000000e+00" cType="1" res="1.4918516390025616e-03" rms="4.7385042905807495e-01" purity="6.1886018514633179e-01" nType="-99"/>
          <Node pos="r" depth="2" NCoef="0" IVar="-1" Cut="0.0000000000000000e+00" cType="1" res="5.2410569041967392e-03" rms="3.6396807432174683e-01" purity="8.3668166399002075e-01" nType="-99"/>
        </Node>
        <Node pos="r" depth="1" NCoef="0" IVar="20" Cut="2.5281751155853271e+00" cType="1" res="-1.0152138769626617e-01" rms="4.5514842867851257e-01" purity="3.5429972410202026e-01" nType="0">
          <Node pos="l" depth="2" NCoef="0" IVar="-1" Cut="0.0000000000000000e+00" cType="1" res="-3.4705444704741240e-03" rms="4.2802587151527405e-01" purity="2.7249866724014282e-01" nType="-99"/>
          <Node pos="r" depth="2" NCoef="0" IVar="-1" Cut="0.0000000000000000e+00" cType="1" res="1.6725863097235560e-03" rms="4.7550201416015625e-01" purity="5.7649779319763184e-01" nType="-99"/>
        </Node>
      </Node>
    </BinaryTree>
    <BinaryTree type="DecisionTree" boostWeight="1.0000000000000000e+00" itree="51">
      <Node pos="s" depth="0" NCoef="0" IVar="34" Cut="4.2323253631591797e+01" cType="1" res="3.5713526885956526e-03" rms="4.6676251292228699e-01" purity="5.0339180231094360e-01" nType="0">
        <Node pos="l" depth="1" NCoef="0" IVar="20" Cut="2.6475136280059814e+00" cType="1" res="1.3854245841503143e-01" rms="4.4563984870910645e-01" purity="6.9762068986892700e-01" nType="0">
          <Node pos="l" depth="2" NCoef="0" IVar="-1" Cut="0.0000000000000000e+00" cType="1" res="1.5417991671711206e-03" rms="4.7372260689735413e-01" purity="6.2067496776580811e-01" nType="-99"/>
          <Node pos="r" depth="2" NCoef="0" IVar="-1" Cut="0.0000000000000000e+00" cType="1" res="5.1633310504257679e-03" rms="3.6646473407745361e-01" purity="8.3272588253021240e-01" nType="-99"/>
        </Node>
        <Node pos="r" depth="1" NCoef="0" IVar="20" Cut="2.5246093273162842e+00" cType="1" res="-8.9584834873676300e-02" rms="4.5816746354103088e-01" purity="3.6933630704879761e-01" nType="0">
          <Node pos="l" depth="2" NCoef="0" IVar="-1" Cut="0.0000000000000000e+00" cType="1" res="-3.1738204415887594e-03" rms="4.3586206436157227e-01" purity="2.8844064474105835e-01" nType="-99"/>
          <Node pos="r" depth="2" NCoef="0" IVar="-1" Cut="0.0000000000000000e+00" cType="1" res="1.7553090583533049e-03" rms="4.7064015269279480e-01" purity="5.8784884214401245e-01" nType="-99"/>
        </Node>
      </Node>
    </BinaryTree>
    <BinaryTree type="DecisionTree" boostWeight="1.0000000000000000e+00" itree="52">
      <Node pos="s" depth="0" NCoef="0" IVar="34" Cut="5.8754161834716797e+01" cType="1" res="3.3766108099371195e-03" rms="4.6625003218650818e-01" purity="5.0287681818008423e-01" nType="0">
        <Node pos="l" depth="1" NCoef="0" IVar="32" Cut="1.0670026540756226e+00" cType="1" res="7.8695915639400482e-02" rms="4.6603828668594360e-01" purity="6.1528062820434570e-01" nType="0">
          <Node pos="l" depth="2" NCoef="0" IVar="-1" Cut="0.0000000000000000e+00" cType="1" res="5.7803624076768756e-04" rms="4.8719412088394165e-01" purity="5.4191184043884277e-01" nType="-99"/>
          <Node pos="r" depth="2" NCoef="0" IVar="-1" Cut="0.0000000000000000e+00" cType="1" res="5.6107505224645138e-03" rms="3.1588578224182129e-01" purity="8.8539403676986694e-01" nType="-99"/>
        </Node>
        <Node pos="r" depth="1" NCoef="0" IVar="21" Cut="1.3859448432922363e+00" cType="1" res="-1.5912689268589020e-01" rms="4.2328232526779175e-01" purity="2.6036247611045837e-01" nType="0">
          <Node pos="l" depth="2" NCoef="0" IVar="-1" Cut="0.0000000000000000e+00" cType="1" res="2.7138594305142760e-04" rms="4.8756653070449829e-01" purity="4.5432636141777039e-01" nType="-99"/>
          <Node pos="r" depth="2" NCoef="0" IVar="-1" Cut="0.0000000000000000e+00" cType="1" res="-4.5659090392291546e-03" rms="3.7997037172317505e-01" purity="1.9202388823032379e-01" nType="-99"/>
        </Node>
      </Node>
    </BinaryTree>
    <BinaryTree type="DecisionTree" boostWeight="1.0000000000000000e+00" itree="53">
      <Node pos="s" depth="0" NCoef="0" IVar="34" Cut="4.4443714141845703e+01" cType="1" res="-4.4179409742355347e-03" rms="4.6530959010124207e-01" purity="4.9484649300575256e-01" nType="0">
        <Node pos="l" depth="1" NCoef="0" IVar="20" Cut="2.5540969371795654e+00" cType="1" res="1.2039771676063538e-01" rms="4.5187175273895264e-01" purity="6.8031746149063110e-01" nType="0">
          <Node pos="l" depth="2" NCoef="0" IVar="-1" Cut="0.0000000000000000e+00" cType="1" res="1.1522284476086497e-03" rms="4.7722440958023071e-01" purity="6.0189807415008545e-01" nType="-99"/>
          <Node pos="r" depth="2" NCoef="0" IVar="-1" Cut="0.0000000000000000e+00" cType="1" res="4.7663543373346329e-03" rms="3.8107460737228394e-01" purity="8.1423407793045044e-01" nType="-99"/>
        </Node>
        <Node pos="r" depth="1" NCoef="0" IVar="20" Cut="3.5829765796661377e+00" cType="1" res="-1.0811351239681244e-01" rms="4.5061829686164856e-01" purity="3.4075909852981567e-01" nType="0">
          <Node pos="l" depth="2" NCoef="0" IVar="-1" Cut="0.0000000000000000e+00" cType="1" res="-3.0269136186689138e-03" rms="4.3737587332725525e-01" purity="2.9153028130531311e-01" nType="-99"/>
          <Node pos="r" depth="2" NCoef="0" IVar="-1" Cut="0.0000000000000000e+00" cType="1" res="3.5509301815181971e-03" rms="4.4389295578002930e-01" purity="6.9552534818649292e-01" nType="-99"/>
        </Node>
      </Node>
    </BinaryTree>
    <BinaryTree type="DecisionTree" boostWeight="1.0000000000000000e+00" itree="54">
      <Node pos="s" depth="0" NCoef="0" IVar="20" Cut="2.5749790668487549e+00" cType="1" res="2.6183510199189186e-03" rms="4.6491724252700806e-01" purity="5.0258296728134155e-01" nType="0">
        <Node pos="l" depth="1" NCoef="0" IVar="33" Cut="6.5769134521484375e+01" cType="1" res="-7.3838248848915100e-02" rms="4.6033138036727905e-01" purity="4.0634801983833313e-01" nType="0">
          <Node pos="l" depth="2" NCoef="0" IVar="-1" Cut="0.0000000000000000e+00" cType="1" res="1.7429518047720194e-03" rms="4.6845611929893494e-01" purity="6.2562537193298340e-01" nType="-99"/>
          <Node pos="r" depth="2" NCoef="0" IVar="-1" Cut="0.0000000000000000e+00" cType="1" res="-3.1882622279226780e-03" rms="4.3416723608970642e-01" purity="2.9465934634208679e-01" nType="-99"/>
        </Node>
        <Node pos="r" depth="1" NCoef="0" IVar="16" Cut="5.1682666778564453e+01" cType="1" res="1.7178413271903992e-01" rms="4.2893499135971069e-01" purity="7.1550965309143066e-01" nType="0">
          <Node pos="l" depth="2" NCoef="0" IVar="-1" Cut="0.0000000000000000e+00" cType="1" res="4.5895720832049847e-03" rms="4.0139091014862061e-01" purity="7.7560156583786011e-01" nType="-99"/>
          <Node pos="r" depth="2" NCoef="0" IVar="-1" Cut="0.0000000000000000e+00" cType="1" res="5.1282643107697368e-04" rms="4.7039371728897095e-01" purity="5.4137104749679565e-01" nType="-99"/>
        </Node>
      </Node>
    </BinaryTree>
    <BinaryTree type="DecisionTree" boostWeight="1.0000000000000000e+00" itree="55">
      <Node pos="s" depth="0" NCoef="0" IVar="33" Cut="7.4163116455078125e+01" cType="1" res="2.3226381745189428e-03" rms="4.6516856551170349e-01" purity="5.0178712606430054e-01" nType="0">
        <Node pos="l" depth="1" NCoef="0" IVar="20" Cut="2.0853703022003174e+00" cType="1" res="1.1811255663633347e-01" rms="4.5117568969726562e-01" purity="6.6596543788909912e-01" nType="0">
          <Node pos="l" depth="2" NCoef="0" IVar="-1" Cut="0.0000000000000000e+00" cType="1" res="7.1156513877213001e-04" rms="4.7601851820945740e-01" purity="5.6385046243667603e-01" nType="-99"/>
          <Node pos="r" depth="2" NCoef="0" IVar="-1" Cut="0.0000000000000000e+00" cType="1" res="4.3955096043646336e-03" rms="4.0089055895805359e-01" purity="7.8175258636474609e-01" nType="-99"/>
        </Node>
        <Node pos="r" depth="1" NCoef="0" IVar="32" Cut="9.5484322309494019e-01" cType="1" res="-9.7186088562011719e-02" rms="4.5384696125984192e-01" purity="3.6069393157958984e-01" nType="0">
          <Node pos="l" depth="2" NCoef="0" IVar="-1" Cut="0.0000000000000000e+00" cType="1" res="-2.9153127688914537e-03" rms="4.4301283359527588e-01" purity="2.9529681801795959e-01" nType="-99"/>
          <Node pos="r" depth="2" NCoef="0" IVar="-1" Cut="0.0000000000000000e+00" cType="1" res="3.0049080960452557e-03" rms="4.3483209609985352e-01" purity="7.1542233228683472e-01" nType="-99"/>
        </Node>
      </Node>
    </BinaryTree>
    <BinaryTree type="DecisionTree" boostWeight="1.0000000000000000e+00" itree="56">
      <Node pos="s" depth="0" NCoef="0" IVar="34" Cut="4.3908660888671875e+01" cType="1" res="4.1908174753189087e-03" rms="4.6412587165832520e-01" purity="5.0449192523956299e-01" nType="0">
        <Node pos="l" depth="1" NCoef="0" IVar="32" Cut="7.5136834383010864e-01" cType="1" res="1.2596553564071655e-01" rms="4.4796782732009888e-01" purity="6.8896532058715820e-01" nType="0">
          <Node pos="l" depth="2" NCoef="0" IVar="-1" Cut="0.0000000000000000e+00" cType="1" res="1.3175087515264750e-03" rms="4.8568809032440186e-01" purity="5.9579396247863770e-01" nType="-99"/>
          <Node pos="r" depth="2" NCoef="0" IVar="-1" Cut="0.0000000000000000e+00" cType="1" res="4.9846074543893337e-03" rms="3.4638509154319763e-01" purity="8.5469722747802734e-01" nType="-99"/>
        </Node>
        <Node pos="r" depth="1" NCoef="0" IVar="32" Cut="7.5506460666656494e-01" cType="1" res="-9.2886820435523987e-02" rms="4.5377951860427856e-01" purity="3.5743147134780884e-01" nType="0">
          <Node pos="l" depth="2" NCoef="0" IVar="-1" Cut="0.0000000000000000e+00" cType="1" res="-3.1214402988553047e-03" rms="4.3509066104888916e-01" purity="2.7490249276161194e-01" nType="-99"/>
          <Node pos="r" depth="2" NCoef="0" IVar="-1" Cut="0.0000000000000000e+00" cType="1" res="2.1122414618730545e-03" rms="4.5990446209907532e-01" purity="6.3348990678787231e-01" nType="-99"/>
        </Node>
      </Node>
    </BinaryTree>
    <BinaryTree type="DecisionTree" boostWeight="1.0000000000000000e+00" itree="57">
      <Node pos="s" depth="0" NCoef="0" IVar="33" Cut="6.6579368591308594e+01" cType="1" res="3.0106396880000830e-03" rms="4.6405416727066040e-01" purity="5.0273227691650391e-01" nType="0">
        <Node pos="l" depth="1" NCoef="0" IVar="20" Cut="3.0283610820770264e+00" cType="1" res="1.3872277736663818e-01" rms="4.4210562109947205e-01" purity="6.9724124670028687e-01" nType="0">
          <Node pos="l" depth="2" NCoef="0" IVar="-1" Cut="0.0000000000000000e+00" cType="1" res="1.7908747540786862e-03" rms="4.6841955184936523e-01" purity="6.2953263521194458e-01" nType="-99"/>
          <Node pos="r" depth="2" NCoef="0" IVar="-1" Cut="0.0000000000000000e+00" cType="1" res="5.3759920410811901e-03" rms="3.4738981723785400e-01" purity="8.5312837362289429e-01" nType="-99"/>
        </Node>
        <Node pos="r" depth="1" NCoef="0" IVar="32" Cut="9.5200222730636597e-01" cType="1" res="-8.1571109592914581e-02" rms="4.5728445053100586e-01" purity="3.8150581717491150e-01" nType="0">
          <Node pos="l" depth="2" NCoef="0" IVar="-1" Cut="0.0000000000000000e+00" cType="1" res="-2.6606002356857061e-03" rms="4.4865408539772034e-01" purity="3.1077167391777039e-01" nType="-99"/>
          <Node pos="r" depth="2" NCoef="0" IVar="-1" Cut="0.0000000000000000e+00" cType="1" res="3.3459453843533993e-03" rms="4.2215025424957275e-01" purity="7.3942333459854126e-01" nType="-99"/>
        </Node>
      </Node>
    </BinaryTree>
    <BinaryTree type="DecisionTree" boostWeight="1.0000000000000000e+00" itree="58">
      <Node pos="s" depth="0" NCoef="0" IVar="33" Cut="7.0261360168457031e+01" cType="1" res="3.0326573178172112e-03" rms="4.6336588263511658e-01" purity="5.0274926424026489e-01" nType="0">
        <Node pos="l" depth="1" NCoef="0" IVar="32" Cut="1.2091968059539795e+00" cType="1" res="1.2804754078388214e-01" rms="4.4566804170608521e-01" purity="6.8371474742889404e-01" nType="0">
          <Node pos="l" depth="2" NCoef="0" IVar="-1" Cut="0.0000000000000000e+00" cType="1" res="1.7385871615260839e-03" rms="4.7324305772781372e-01" purity="6.2000703811645508e-01" nType="-99"/>
          <Node pos="r" depth="2" NCoef="0" IVar="-1" Cut="0.0000000000000000e+00" cType="1" res="6.1572766862809658e-03" rms="2.7189087867736816e-01" purity="9.1890466213226318e-01" nType="-99"/>
        </Node>
        <Node pos="r" depth="1" NCoef="0" IVar="32" Cut="9.8030114173889160e-01" cType="1" res="-8.9088559150695801e-02" rms="4.5448872447013855e-01" purity="3.6939904093742371e-01" nType="0">
          <Node pos="l" depth="2" NCoef="0" IVar="-1" Cut="0.0000000000000000e+00" cType="1" res="-2.7491445653140545e-03" rms="4.4485676288604736e-01" purity="3.0381512641906738e-01" nType="-99"/>
          <Node pos="r" depth="2" NCoef="0" IVar="-1" Cut="0.0000000000000000e+00" cType="1" res="3.3703150693327188e-03" rms="4.2542639374732971e-01" purity="7.3922395706176758e-01" nType="-99"/>
        </Node>
      </Node>
    </BinaryTree>
    <BinaryTree type="DecisionTree" boostWeight="1.0000000000000000e+00" itree="59">
      <Node pos="s" depth="0" NCoef="0" IVar="32" Cut="7.6180404424667358e-01" cType="1" res="-5.2056093700230122e-03" rms="4.6309560537338257e-01" purity="4.9384298920631409e-01" nType="0">
