<?xml version="1.0"?>
<MethodSetup Method="BDT::BDTG4C3">
  <GeneralInfo>
    <Info name="TMVA Release" value="4.2.1 [262657]"/>
    <Info name="ROOT Release" value="6.20/07 [398343]"/>
    <Info name="Creator" value="ssaumya"/>
    <Info name="Date" value="Mon Jul 19 22:55:27 2021"/>
    <Info name="Host" value="Linux cmsbuild09.cern.ch 3.10.0-1062.9.1.el7.x86_64 #1 SMP Fri Dec 6 15:49:49 UTC 2019 x86_64 x86_64 x86_64 GNU/Linux"/>
    <Info name="Dir" value="/afs/cern.ch/user/s/ssaumya/Projects/WW_Analysis_Work/WW_Cuts_Optimization/CMSSW_11_1_3/src/PlotsConfigurations/Configurations/WW/FullRunII/Full2017_v7/BDT_Training_1j"/>
    <Info name="Training events" value="109444"/>
    <Info name="TrainingTime" value="7.40914888e+01"/>
    <Info name="AnalysisType" value="Classification"/>
  </GeneralInfo>
  <Options>
    <Option name="V" modified="Yes">False</Option>
    <Option name="VerbosityLevel" modified="No">Default</Option>
    <Option name="VarTransform" modified="No">None</Option>
    <Option name="H" modified="Yes">False</Option>
    <Option name="CreateMVAPdfs" modified="No">False</Option>
    <Option name="IgnoreNegWeightsInTraining" modified="No">False</Option>
    <Option name="NTrees" modified="Yes">500</Option>
    <Option name="MaxDepth" modified="Yes">2</Option>
    <Option name="MinNodeSize" modified="Yes">1.5%</Option>
    <Option name="nCuts" modified="Yes">300</Option>
    <Option name="BoostType" modified="Yes">Grad</Option>
    <Option name="AdaBoostR2Loss" modified="No">quadratic</Option>
    <Option name="UseBaggedBoost" modified="Yes">True</Option>
    <Option name="Shrinkage" modified="Yes">5.000000e-02</Option>
    <Option name="AdaBoostBeta" modified="No">5.000000e-01</Option>
    <Option name="UseRandomisedTrees" modified="No">False</Option>
    <Option name="UseNvars" modified="No">5</Option>
    <Option name="UsePoissonNvars" modified="No">True</Option>
    <Option name="BaggedSampleFraction" modified="No">5.000000e-01</Option>
    <Option name="UseYesNoLeaf" modified="No">True</Option>
    <Option name="NegWeightTreatment" modified="No">pray</Option>
    <Option name="Css" modified="No">1.000000e+00</Option>
    <Option name="Cts_sb" modified="No">1.000000e+00</Option>
    <Option name="Ctb_ss" modified="No">1.000000e+00</Option>
    <Option name="Cbb" modified="No">1.000000e+00</Option>
    <Option name="NodePurityLimit" modified="No">5.000000e-01</Option>
    <Option name="SeparationType" modified="No">giniindex</Option>
    <Option name="RegressionLossFunctionBDTG" modified="No">huber</Option>
    <Option name="HuberQuantile" modified="No">7.000000e-01</Option>
    <Option name="DoBoostMonitor" modified="No">False</Option>
    <Option name="UseFisherCuts" modified="No">False</Option>
    <Option name="MinLinCorrForFisher" modified="No">8.000000e-01</Option>
    <Option name="UseExclusiveVars" modified="No">False</Option>
    <Option name="DoPreselection" modified="No">False</Option>
    <Option name="SigToBkgFraction" modified="No">1.000000e+00</Option>
    <Option name="PruneMethod" modified="No">nopruning</Option>
    <Option name="PruneStrength" modified="No">0.000000e+00</Option>
    <Option name="PruningValFraction" modified="No">5.000000e-01</Option>
    <Option name="SkipNormalization" modified="No">False</Option>
    <Option name="nEventsMin" modified="No">0</Option>
    <Option name="UseBaggedGrad" modified="No">False</Option>
    <Option name="GradBaggingFraction" modified="Yes">5.000000e-01</Option>
    <Option name="UseNTrainEvents" modified="No">0</Option>
    <Option name="NNodesMax" modified="No">0</Option>
  </Options>
  <Variables NVar="22">
    <Variable VarIndex="0" Expression="pt1" Label="pt1" Title="pt1" Unit="" Internal="pt1" Type="F" Min="2.50044880e+01" Max="7.86533508e+02"/>
    <Variable VarIndex="1" Expression="pt2" Label="pt2" Title="pt2" Unit="" Internal="pt2" Type="F" Min="2.00001907e+01" Max="6.09269104e+02"/>
    <Variable VarIndex="2" Expression="Lepton_eta[0]" Label="Lepton_eta[0]" Title="Lepton_eta[0]" Unit="" Internal="Lepton_eta_0_" Type="F" Min="-2.49951172e+00" Max="2.49951172e+00"/>
    <Variable VarIndex="3" Expression="Lepton_eta[1]" Label="Lepton_eta[1]" Title="Lepton_eta[1]" Unit="" Internal="Lepton_eta_1_" Type="F" Min="-2.49804688e+00" Max="2.49853516e+00"/>
    <Variable VarIndex="4" Expression="mll" Label="mll" Title="mll" Unit="" Internal="mll" Type="F" Min="2.00011406e+01" Max="1.96834583e+03"/>
    <Variable VarIndex="5" Expression="ptll" Label="ptll" Title="ptll" Unit="" Internal="ptll" Type="F" Min="3.00002155e+01" Max="6.04918884e+02"/>
    <Variable VarIndex="6" Expression="drll" Label="drll" Title="drll" Unit="" Internal="drll" Type="F" Min="1.81966871e-01" Max="5.36967945e+00"/>
    <Variable VarIndex="7" Expression="dphill" Label="dphill" Title="dphill" Unit="" Internal="dphill" Type="F" Min="0.00000000e+00" Max="3.14158368e+00"/>
    <Variable VarIndex="8" Expression="PuppiMET_pt" Label="PuppiMET_pt" Title="PuppiMET_pt" Unit="" Internal="PuppiMET_pt" Type="F" Min="2.00019054e+01" Max="9.27589905e+02"/>
    <Variable VarIndex="9" Expression="dphilmet" Label="dphilmet" Title="dphilmet" Unit="" Internal="dphilmet" Type="F" Min="0.00000000e+00" Max="3.13840461e+00"/>
    <Variable VarIndex="10" Expression="dphilmet1" Label="dphilmet1" Title="dphilmet1" Unit="" Internal="dphilmet1" Type="F" Min="0.00000000e+00" Max="3.14158368e+00"/>
    <Variable VarIndex="11" Expression="dphilmet2" Label="dphilmet2" Title="dphilmet2" Unit="" Internal="dphilmet2" Type="F" Min="0.00000000e+00" Max="3.14158368e+00"/>
    <Variable VarIndex="12" Expression="dphillmet" Label="dphillmet" Title="dphillmet" Unit="" Internal="dphillmet" Type="F" Min="3.06148468e-05" Max="3.14155436e+00"/>
    <Variable VarIndex="13" Expression="mtw1" Label="mtw1" Title="mtw1" Unit="" Internal="mtw1" Type="F" Min="0.00000000e+00" Max="1.14498950e+03"/>
    <Variable VarIndex="14" Expression="mtw2" Label="mtw2" Title="mtw2" Unit="" Internal="mtw2" Type="F" Min="0.00000000e+00" Max="4.13891266e+02"/>
    <Variable VarIndex="15" Expression="pTWW" Label="pTWW" Title="pTWW" Unit="" Internal="pTWW" Type="F" Min="2.62619525e-01" Max="9.52112366e+02"/>
    <Variable VarIndex="16" Expression="dphilljet" Label="dphilljet" Title="dphilljet" Unit="" Internal="dphilljet" Type="F" Min="5.54234648e-05" Max="3.14154959e+00"/>
    <Variable VarIndex="17" Expression="dphilep1jet1" Label="dphilep1jet1" Title="dphilep1jet1" Unit="" Internal="dphilep1jet1" Type="F" Min="0.00000000e+00" Max="3.14158368e+00"/>
    <Variable VarIndex="18" Expression="dphilep2jet1" Label="dphilep2jet1" Title="dphilep2jet1" Unit="" Internal="dphilep2jet1" Type="F" Min="0.00000000e+00" Max="3.14158368e+00"/>
    <Variable VarIndex="19" Expression="dphijet1met" Label="dphijet1met" Title="dphijet1met" Unit="" Internal="dphijet1met" Type="F" Min="9.70959663e-05" Max="3.14155769e+00"/>
    <Variable VarIndex="20" Expression="Alt$(CleanJet_pt[0],0)" Label="Alt$(CleanJet_pt[0],0)" Title="Alt$(CleanJet_pt[0],0)" Unit="" Internal="Alt__CleanJet_pt_0_,0_" Type="F" Min="3.00000553e+01" Max="9.05578979e+02"/>
    <Variable VarIndex="21" Expression="Alt$(CleanJet_eta[0],0)" Label="Alt$(CleanJet_eta[0],0)" Title="Alt$(CleanJet_eta[0],0)" Unit="" Internal="Alt__CleanJet_eta_0_,0_" Type="F" Min="-4.67968750e+00" Max="4.68945312e+00"/>
  </Variables>
  <Spectators NSpec="0"/>
  <Classes NClass="2">
    <Class Name="Signal" Index="0"/>
    <Class Name="Background" Index="1"/>
  </Classes>
  <Transformations NTransformations="0"/>
  <MVAPdfs/>
  <Weights NTrees="500" AnalysisType="1">
    <BinaryTree type="DecisionTree" boostWeight="1.0000000000000000e+00" itree="0">
      <Node pos="s" depth="0" NCoef="0" IVar="20" Cut="5.6180740356445312e+01" cType="1" res="2.1464482415467501e-03" rms="4.9999538064002991e-01" purity="5.0214642286300659e-01" nType="0">
        <Node pos="l" depth="1" NCoef="0" IVar="21" Cut="-2.1631541252136230e+00" cType="1" res="1.2322435528039932e-01" rms="4.8457792401313782e-01" purity="6.2322431802749634e-01" nType="0">
          <Node pos="l" depth="2" NCoef="0" IVar="-1" Cut="0.0000000000000000e+00" cType="1" res="3.3540669828653336e-02" rms="3.7081307172775269e-01" purity="8.3540672063827515e-01" nType="-99"/>
          <Node pos="r" depth="2" NCoef="0" IVar="-1" Cut="0.0000000000000000e+00" cType="1" res="8.2312701269984245e-03" rms="4.9317806959152222e-01" purity="5.8231270313262939e-01" nType="-99"/>
        </Node>
        <Node pos="r" depth="1" NCoef="0" IVar="21" Cut="2.2071480751037598e+00" cType="1" res="-1.3846817612648010e-01" rms="4.8044413328170776e-01" purity="3.6153185367584229e-01" nType="0">
          <Node pos="l" depth="2" NCoef="0" IVar="-1" Cut="0.0000000000000000e+00" cType="1" res="-1.7030080780386925e-02" rms="4.7010385990142822e-01" purity="3.2969921827316284e-01" nType="-99"/>
          <Node pos="r" depth="2" NCoef="0" IVar="-1" Cut="0.0000000000000000e+00" cType="1" res="2.0131358876824379e-02" rms="4.5768204331398010e-01" purity="7.0131361484527588e-01" nType="-99"/>
        </Node>
      </Node>
    </BinaryTree>
    <BinaryTree type="DecisionTree" boostWeight="1.0000000000000000e+00" itree="1">
      <Node pos="s" depth="0" NCoef="0" IVar="20" Cut="5.2591217041015625e+01" cType="1" res="-1.2334919301792979e-04" rms="4.9745425581932068e-01" purity="4.9992415308952332e-01" nType="0">
        <Node pos="l" depth="1" NCoef="0" IVar="4" Cut="9.1216094970703125e+01" cType="1" res="1.2529595196247101e-01" rms="4.8158103227615356e-01" purity="6.3145422935485840e-01" nType="0">
          <Node pos="l" depth="2" NCoef="0" IVar="-1" Cut="0.0000000000000000e+00" cType="1" res="2.1163180470466614e-02" rms="4.4924089312553406e-01" purity="7.1792000532150269e-01" nType="-99"/>
          <Node pos="r" depth="2" NCoef="0" IVar="-1" Cut="0.0000000000000000e+00" cType="1" res="3.4050622489303350e-03" rms="4.9755081534385681e-01" purity="5.4000711441040039e-01" nType="-99"/>
        </Node>
        <Node pos="r" depth="1" NCoef="0" IVar="21" Cut="-2.3658182621002197e+00" cType="1" res="-1.1763807386159897e-01" rms="4.8319089412689209e-01" purity="3.7668383121490479e-01" nType="0">
          <Node pos="l" depth="2" NCoef="0" IVar="-1" Cut="0.0000000000000000e+00" cType="1" res="2.5141861289739609e-02" rms="4.3493154644966125e-01" purity="7.4624234437942505e-01" nType="-99"/>
          <Node pos="r" depth="2" NCoef="0" IVar="-1" Cut="0.0000000000000000e+00" cType="1" res="-1.4862975105643272e-02" rms="4.7414472699165344e-01" purity="3.4568339586257935e-01" nType="-99"/>
        </Node>
      </Node>
    </BinaryTree>
    <BinaryTree type="DecisionTree" boostWeight="1.0000000000000000e+00" itree="2">
      <Node pos="s" depth="0" NCoef="0" IVar="20" Cut="4.9200695037841797e+01" cType="1" res="4.0250867605209351e-03" rms="4.9501648545265198e-01" purity="5.0409060716629028e-01" nType="0">
        <Node pos="l" depth="1" NCoef="0" IVar="4" Cut="8.8829406738281250e+01" cType="1" res="1.4044672250747681e-01" rms="4.7442767024040222e-01" purity="6.5294390916824341e-01" nType="0">
          <Node pos="l" depth="2" NCoef="0" IVar="-1" Cut="0.0000000000000000e+00" cType="1" res="2.2452350705862045e-02" rms="4.3720954656600952e-01" purity="7.4123871326446533e-01" nType="-99"/>
          <Node pos="r" depth="2" NCoef="0" IVar="-1" Cut="0.0000000000000000e+00" cType="1" res="5.6839780882000923e-03" rms="4.9491563439369202e-01" purity="5.6482738256454468e-01" nType="-99"/>
        </Node>
        <Node pos="r" depth="1" NCoef="0" IVar="21" Cut="2.0964331626892090e+00" cType="1" res="-1.0133613646030426e-01" rms="4.8474949598312378e-01" purity="3.8912814855575562e-01" nType="0">
          <Node pos="l" depth="2" NCoef="0" IVar="-1" Cut="0.0000000000000000e+00" cType="1" res="-1.3662243261933327e-02" rms="4.7558820247650146e-01" purity="3.5268568992614746e-01" nType="-99"/>
          <Node pos="r" depth="2" NCoef="0" IVar="-1" Cut="0.0000000000000000e+00" cType="1" res="2.0212991163134575e-02" rms="4.5623934268951416e-01" purity="7.0357406139373779e-01" nType="-99"/>
        </Node>
      </Node>
    </BinaryTree>
    <BinaryTree type="DecisionTree" boostWeight="1.0000000000000000e+00" itree="3">
      <Node pos="s" depth="0" NCoef="0" IVar="20" Cut="5.0523342132568359e+01" cType="1" res="2.3166870232671499e-03" rms="4.9279832839965820e-01" purity="5.0260299444198608e-01" nType="0">
        <Node pos="l" depth="1" NCoef="0" IVar="0" Cut="6.1648349761962891e+01" cType="1" res="1.2566950917243958e-01" rms="4.7625473141670227e-01" purity="6.4464950561523438e-01" nType="0">
          <Node pos="l" depth="2" NCoef="0" IVar="-1" Cut="0.0000000000000000e+00" cType="1" res="2.0970743149518967e-02" rms="4.4060856103897095e-01" purity="7.3320436477661133e-01" nType="-99"/>
          <Node pos="r" depth="2" NCoef="0" IVar="-1" Cut="0.0000000000000000e+00" cType="1" res="4.4658156111836433e-03" rms="4.9519124627113342e-01" purity="5.5866569280624390e-01" nType="-99"/>
        </Node>
        <Node pos="r" depth="1" NCoef="0" IVar="21" Cut="2.4110581874847412e+00" cType="1" res="-1.0172632336616516e-01" rms="4.8240360617637634e-01" purity="3.8279259204864502e-01" nType="0">
          <Node pos="l" depth="2" NCoef="0" IVar="-1" Cut="0.0000000000000000e+00" cType="1" res="-1.2981164269149303e-02" rms="4.7562348842620850e-01" purity="3.5266599059104919e-01" nType="-99"/>
          <Node pos="r" depth="2" NCoef="0" IVar="-1" Cut="0.0000000000000000e+00" cType="1" res="2.4528395384550095e-02" rms="4.2847591638565063e-01" purity="7.5775444507598877e-01" nType="-99"/>
        </Node>
      </Node>
    </BinaryTree>
    <BinaryTree type="DecisionTree" boostWeight="1.0000000000000000e+00" itree="4">
      <Node pos="s" depth="0" NCoef="0" IVar="20" Cut="5.4470306396484375e+01" cType="1" res="-1.9602323882281780e-03" rms="4.9083074927330017e-01" purity="4.9832341074943542e-01" nType="0">
        <Node pos="l" depth="1" NCoef="0" IVar="21" Cut="-2.3782315254211426e+00" cType="1" res="1.0374703258275986e-01" rms="4.8016452789306641e-01" purity="6.2572813034057617e-01" nType="0">
          <Node pos="l" depth="2" NCoef="0" IVar="-1" Cut="0.0000000000000000e+00" cType="1" res="3.1987138092517853e-02" rms="3.5172870755195618e-01" purity="8.5345137119293213e-01" nType="-99"/>
          <Node pos="r" depth="2" NCoef="0" IVar="-1" Cut="0.0000000000000000e+00" cType="1" res="6.8310955539345741e-03" rms="4.8929691314697266e-01" purity="5.8789408206939697e-01" nType="-99"/>
        </Node>
        <Node pos="r" depth="1" NCoef="0" IVar="21" Cut="-2.0638723373413086e+00" cType="1" res="-1.1460331827402115e-01" rms="4.7681814432144165e-01" purity="3.6255919933319092e-01" nType="0">
          <Node pos="l" depth="2" NCoef="0" IVar="-1" Cut="0.0000000000000000e+00" cType="1" res="1.8873086199164391e-02" rms="4.6650627255439758e-01" purity="6.7551356554031372e-01" nType="-99"/>
          <Node pos="r" depth="2" NCoef="0" IVar="-1" Cut="0.0000000000000000e+00" cType="1" res="-1.4737598598003387e-02" rms="4.6642869710922241e-01" purity="3.2920432090759277e-01" nType="-99"/>
        </Node>
      </Node>
    </BinaryTree>
    <BinaryTree type="DecisionTree" boostWeight="1.0000000000000000e+00" itree="5">
      <Node pos="s" depth="0" NCoef="0" IVar="20" Cut="6.4906852722167969e+01" cType="1" res="1.7875813646242023e-03" rms="4.8897600173950195e-01" purity="5.0196439027786255e-01" nType="0">
        <Node pos="l" depth="1" NCoef="0" IVar="21" Cut="2.2365942001342773e+00" cType="1" res="7.7609203755855560e-02" rms="4.8403194546699524e-01" purity="5.9469789266586304e-01" nType="0">
          <Node pos="l" depth="2" NCoef="0" IVar="-1" Cut="0.0000000000000000e+00" cType="1" res="4.1641425341367722e-03" rms="4.8982357978820801e-01" purity="5.5695289373397827e-01" nType="-99"/>
          <Node pos="r" depth="2" NCoef="0" IVar="-1" Cut="0.0000000000000000e+00" cType="1" res="2.9035979881882668e-02" rms="3.8565984368324280e-01" purity="8.1586372852325439e-01" nType="-99"/>
        </Node>
        <Node pos="r" depth="1" NCoef="0" IVar="21" Cut="2.0775279998779297e+00" cType="1" res="-1.3333512842655182e-01" rms="4.6815299987792969e-01" purity="3.3670273423194885e-01" nType="0">
          <Node pos="l" depth="2" NCoef="0" IVar="-1" Cut="0.0000000000000000e+00" cType="1" res="-1.6066705808043480e-02" rms="4.5885732769966125e-01" purity="3.0648374557495117e-01" nType="-99"/>
          <Node pos="r" depth="2" NCoef="0" IVar="-1" Cut="0.0000000000000000e+00" cType="1" res="1.4502624981105328e-02" rms="4.7401636838912964e-01" purity="6.5337461233139038e-01" nType="-99"/>
        </Node>
      </Node>
    </BinaryTree>
    <BinaryTree type="DecisionTree" boostWeight="1.0000000000000000e+00" itree="6">
      <Node pos="s" depth="0" NCoef="0" IVar="20" Cut="5.9364356994628906e+01" cType="1" res="-2.2398296277970076e-04" rms="4.8671957850456238e-01" purity="4.9996131658554077e-01" nType="0">
        <Node pos="l" depth="1" NCoef="0" IVar="21" Cut="-2.1441483497619629e+00" cType="1" res="8.6561955511569977e-02" rms="4.8060968518257141e-01" purity="6.1220842599868774e-01" nType="0">
          <Node pos="l" depth="2" NCoef="0" IVar="-1" Cut="0.0000000000000000e+00" cType="1" res="2.8690978884696960e-02" rms="3.7272486090660095e-01" purity="8.3084684610366821e-01" nType="-99"/>
          <Node pos="r" depth="2" NCoef="0" IVar="-1" Cut="0.0000000000000000e+00" cType="1" res="4.9456418491899967e-03" rms="4.8951527476310730e-01" purity="5.7089644670486450e-01" nType="-99"/>
        </Node>
        <Node pos="r" depth="1" NCoef="0" IVar="21" Cut="-2.1447973251342773e+00" cType="1" res="-1.1895947903394699e-01" rms="4.6965882182121277e-01" purity="3.4639132022857666e-01" nType="0">
          <Node pos="l" depth="2" NCoef="0" IVar="-1" Cut="0.0000000000000000e+00" cType="1" res="1.9515393301844597e-02" rms="4.6261498332023621e-01" purity="6.8517190217971802e-01" nType="-99"/>
          <Node pos="r" depth="2" NCoef="0" IVar="-1" Cut="0.0000000000000000e+00" cType="1" res="-1.4980213716626167e-02" rms="4.5930132269859314e-01" purity="3.1423497200012207e-01" nType="-99"/>
        </Node>
      </Node>
    </BinaryTree>
    <BinaryTree type="DecisionTree" boostWeight="1.0000000000000000e+00" itree="7">
      <Node pos="s" depth="0" NCoef="0" IVar="20" Cut="4.7067550659179688e+01" cType="1" res="3.5086749121546745e-03" rms="4.8506131768226624e-01" purity="5.0374704599380493e-01" nType="0">
        <Node pos="l" depth="1" NCoef="0" IVar="21" Cut="2.2615694999694824e+00" cType="1" res="1.2314970046281815e-01" rms="4.6791943907737732e-01" purity="6.6261458396911621e-01" nType="0">
          <Node pos="l" depth="2" NCoef="0" IVar="-1" Cut="0.0000000000000000e+00" cType="1" res="9.0212943032383919e-03" rms="4.7835364937782288e-01" purity="6.2794494628906250e-01" nType="-99"/>
          <Node pos="r" depth="2" NCoef="0" IVar="-1" Cut="0.0000000000000000e+00" cType="1" res="2.9970139265060425e-02" rms="3.6291623115539551e-01" purity="8.4215408563613892e-01" nType="-99"/>
        </Node>
        <Node pos="r" depth="1" NCoef="0" IVar="21" Cut="1.9828534126281738e+00" cType="1" res="-7.6990462839603424e-02" rms="4.7975489497184753e-01" purity="3.9685484766960144e-01" nType="0">
          <Node pos="l" depth="2" NCoef="0" IVar="-1" Cut="0.0000000000000000e+00" cType="1" res="-1.1140413582324982e-02" rms="4.7265771031379700e-01" purity="3.5790199041366577e-01" nType="-99"/>
          <Node pos="r" depth="2" NCoef="0" IVar="-1" Cut="0.0000000000000000e+00" cType="1" res="1.8289739266037941e-02" rms="4.5435842871665955e-01" purity="6.9762521982192993e-01" nType="-99"/>
        </Node>
      </Node>
    </BinaryTree>
    <BinaryTree type="DecisionTree" boostWeight="1.0000000000000000e+00" itree="8">
      <Node pos="s" depth="0" NCoef="0" IVar="20" Cut="5.6181152343750000e+01" cType="1" res="2.2036475129425526e-03" rms="4.8321288824081421e-01" purity="5.0278270244598389e-01" nType="0">
        <Node pos="l" depth="1" NCoef="0" IVar="21" Cut="-2.3763108253479004e+00" cType="1" res="8.8719174265861511e-02" rms="4.7639748454093933e-01" purity="6.2603420019149780e-01" nType="0">
          <Node pos="l" depth="2" NCoef="0" IVar="-1" Cut="0.0000000000000000e+00" cType="1" res="2.8736434876918793e-02" rms="3.5492447018623352e-01" purity="8.5014200210571289e-01" nType="-99"/>
          <Node pos="r" depth="2" NCoef="0" IVar="-1" Cut="0.0000000000000000e+00" cType="1" res="5.7796356268227100e-03" rms="4.8612046241760254e-01" purity="5.8969414234161377e-01" nType="-99"/>
        </Node>
        <Node pos="r" depth="1" NCoef="0" IVar="21" Cut="-1.8044149875640869e+00" cType="1" res="-9.9068634212017059e-02" rms="4.7130951285362244e-01" purity="3.5850846767425537e-01" nType="0">
          <Node pos="l" depth="2" NCoef="0" IVar="-1" Cut="0.0000000000000000e+00" cType="1" res="1.4347424730658531e-02" rms="4.7945940494537354e-01" purity="6.2419945001602173e-01" nType="-99"/>
          <Node pos="r" depth="2" NCoef="0" IVar="-1" Cut="0.0000000000000000e+00" cType="1" res="-1.3562176376581192e-02" rms="4.5966687798500061e-01" purity="3.2001391053199768e-01" nType="-99"/>
        </Node>
      </Node>
    </BinaryTree>
    <BinaryTree type="DecisionTree" boostWeight="1.0000000000000000e+00" itree="9">
      <Node pos="s" depth="0" NCoef="0" IVar="21" Cut="2.4228873252868652e+00" cType="1" res="6.9739419268444180e-04" rms="4.8222839832305908e-01" purity="5.0111120939254761e-01" nType="0">
        <Node pos="l" depth="1" NCoef="0" IVar="21" Cut="-2.2338330745697021e+00" cType="1" res="-2.9213972389698029e-02" rms="4.8291498422622681e-01" purity="4.6556562185287476e-01" nType="0">
          <Node pos="l" depth="2" NCoef="0" IVar="-1" Cut="0.0000000000000000e+00" cType="1" res="2.3938631638884544e-02" rms="4.0024724602699280e-01" purity="7.9096716642379761e-01" nType="-99"/>
          <Node pos="r" depth="2" NCoef="0" IVar="-1" Cut="0.0000000000000000e+00" cType="1" res="-7.0515344850718975e-03" rms="4.8172155022621155e-01" purity="4.1553920507431030e-01" nType="-99"/>
        </Node>
        <Node pos="r" depth="1" NCoef="0" IVar="3" Cut="5.7225751876831055e-01" cType="1" res="2.6341143250465393e-01" rms="3.8710102438926697e-01" purity="8.1331104040145874e-01" nType="0">
          <Node pos="l" depth="2" NCoef="0" IVar="-1" Cut="0.0000000000000000e+00" cType="1" res="3.2910108566284180e-02" rms="3.2785692811012268e-01" purity="8.7676328420639038e-01" nType="-99"/>
          <Node pos="r" depth="2" NCoef="0" IVar="-1" Cut="0.0000000000000000e+00" cType="1" res="1.7642946913838387e-02" rms="4.4442513585090637e-01" purity="7.2187203168869019e-01" nType="-99"/>
        </Node>
      </Node>
    </BinaryTree>
    <BinaryTree type="DecisionTree" boostWeight="1.0000000000000000e+00" itree="10">
      <Node pos="s" depth="0" NCoef="0" IVar="20" Cut="5.6917911529541016e+01" cType="1" res="-1.4355271123349667e-03" rms="4.8002696037292480e-01" purity="4.9908423423767090e-01" nType="0">
        <Node pos="l" depth="1" NCoef="0" IVar="4" Cut="8.8818313598632812e+01" cType="1" res="7.8275606036186218e-02" rms="4.7536540031433105e-01" purity="6.1996352672576904e-01" nType="0">
          <Node pos="l" depth="2" NCoef="0" IVar="-1" Cut="0.0000000000000000e+00" cType="1" res="1.5502190217375755e-02" rms="4.4675746560096741e-01" purity="7.0497184991836548e-01" nType="-99"/>
          <Node pos="r" depth="2" NCoef="0" IVar="-1" Cut="0.0000000000000000e+00" cType="1" res="5.9962359955534339e-04" rms="4.9097621440887451e-01" purity="5.3718602657318115e-01" nType="-99"/>
        </Node>
        <Node pos="r" depth="1" NCoef="0" IVar="21" Cut="2.2787971496582031e+00" cType="1" res="-9.7773633897304535e-02" rms="4.6781215071678162e-01" purity="3.5299071669578552e-01" nType="0">
          <Node pos="l" depth="2" NCoef="0" IVar="-1" Cut="0.0000000000000000e+00" cType="1" res="-1.2348107993602753e-02" rms="4.6147701144218445e-01" purity="3.2236966490745544e-01" nType="-99"/>
          <Node pos="r" depth="2" NCoef="0" IVar="-1" Cut="0.0000000000000000e+00" cType="1" res="1.8188768997788429e-02" rms="4.5080375671386719e-01" purity="7.1084529161453247e-01" nType="-99"/>
        </Node>
      </Node>
    </BinaryTree>
    <BinaryTree type="DecisionTree" boostWeight="1.0000000000000000e+00" itree="11">
      <Node pos="s" depth="0" NCoef="0" IVar="21" Cut="2.2048282623291016e+00" cType="1" res="2.8290301561355591e-03" rms="4.7878214716911316e-01" purity="5.0340223312377930e-01" nType="0">
        <Node pos="l" depth="1" NCoef="0" IVar="21" Cut="-2.1261727809906006e+00" cType="1" res="-2.8834428638219833e-02" rms="4.8031839728355408e-01" purity="4.6297934651374817e-01" nType="0">
          <Node pos="l" depth="2" NCoef="0" IVar="-1" Cut="0.0000000000000000e+00" cType="1" res="2.1461151540279388e-02" rms="4.0957567095756531e-01" purity="7.7419573068618774e-01" nType="-99"/>
          <Node pos="r" depth="2" NCoef="0" IVar="-1" Cut="0.0000000000000000e+00" cType="1" res="-7.0495130494236946e-03" rms="4.7970947623252869e-01" purity="4.0967088937759399e-01" nType="-99"/>
        </Node>
        <Node pos="r" depth="1" NCoef="0" IVar="3" Cut="1.0750558376312256e+00" cType="1" res="2.2753356397151947e-01" rms="4.0145856142044067e-01" purity="7.9026979207992554e-01" nType="0">
          <Node pos="l" depth="2" NCoef="0" IVar="-1" Cut="0.0000000000000000e+00" cType="1" res="2.8824431821703911e-02" rms="3.5494950413703918e-01" purity="8.4832996129989624e-01" nType="-99"/>
          <Node pos="r" depth="2" NCoef="0" IVar="-1" Cut="0.0000000000000000e+00" cType="1" res="8.6768744513392448e-03" rms="4.7335115075111389e-01" purity="6.4029592275619507e-01" nType="-99"/>
        </Node>
      </Node>
    </BinaryTree>
    <BinaryTree type="DecisionTree" boostWeight="1.0000000000000000e+00" itree="12">
      <Node pos="s" depth="0" NCoef="0" IVar="20" Cut="4.4682205200195312e+01" cType="1" res="-8.3037558943033218e-04" rms="4.7737199068069458e-01" purity="4.9940255284309387e-01" nType="0">
        <Node pos="l" depth="1" NCoef="0" IVar="0" Cut="5.9395023345947266e+01" cType="1" res="1.0996080935001373e-01" rms="4.6119436621665955e-01" purity="6.6744780540466309e-01" nType="0">
          <Node pos="l" depth="2" NCoef="0" IVar="-1" Cut="0.0000000000000000e+00" cType="1" res="1.9724175333976746e-02" rms="4.1704347729682922e-01" purity="7.6380735635757446e-01" nType="-99"/>
          <Node pos="r" depth="2" NCoef="0" IVar="-1" Cut="0.0000000000000000e+00" cType="1" res="4.0411544032394886e-03" rms="4.8475426435470581e-01" purity="5.8552587032318115e-01" nType="-99"/>
        </Node>
        <Node pos="r" depth="1" NCoef="0" IVar="21" Cut="-2.0875434875488281e+00" cType="1" res="-6.2715411186218262e-02" rms="4.7505706548690796e-01" purity="4.0553691983222961e-01" nType="0">
          <Node pos="l" depth="2" NCoef="0" IVar="-1" Cut="0.0000000000000000e+00" cType="1" res="1.7528163269162178e-02" rms="4.4646871089935303e-01" purity="7.1300125122070312e-01" nType="-99"/>
          <Node pos="r" depth="2" NCoef="0" IVar="-1" Cut="0.0000000000000000e+00" cType="1" res="-9.1555956751108170e-03" rms="4.7068932652473450e-01" purity="3.6990442872047424e-01" nType="-99"/>
        </Node>
      </Node>
    </BinaryTree>
    <BinaryTree type="DecisionTree" boostWeight="1.0000000000000000e+00" itree="13">
      <Node pos="s" depth="0" NCoef="0" IVar="21" Cut="2.3860764503479004e+00" cType="1" res="8.7618373800069094e-04" rms="4.7608041763305664e-01" purity="5.0094556808471680e-01" nType="0">
        <Node pos="l" depth="1" NCoef="0" IVar="21" Cut="-2.3323686122894287e+00" cType="1" res="-2.7079524472355843e-02" rms="4.7842252254486084e-01" purity="4.6340674161911011e-01" nType="0">
          <Node pos="l" depth="2" NCoef="0" IVar="-1" Cut="0.0000000000000000e+00" cType="1" res="2.2146234288811684e-02" rms="3.9425411820411682e-01" purity="8.0139672756195068e-01" nType="-99"/>
          <Node pos="r" depth="2" NCoef="0" IVar="-1" Cut="0.0000000000000000e+00" cType="1" res="-6.0382722876966000e-03" rms="4.7955226898193359e-01" purity="4.1780921816825867e-01" nType="-99"/>
        </Node>
        <Node pos="r" depth="1" NCoef="0" IVar="2" Cut="1.2437578439712524e+00" cType="1" res="2.3498459160327911e-01" rms="3.8285791873931885e-01" purity="8.1530511379241943e-01" nType="0">
          <Node pos="l" depth="2" NCoef="0" IVar="-1" Cut="0.0000000000000000e+00" cType="1" res="2.8104290366172791e-02" rms="3.4834271669387817e-01" purity="8.5492223501205444e-01" nType="-99"/>
          <Node pos="r" depth="2" NCoef="0" IVar="-1" Cut="0.0000000000000000e+00" cType="1" res="1.1264081113040447e-02" rms="4.5829537510871887e-01" purity="6.8373656272888184e-01" nType="-99"/>
        </Node>
      </Node>
    </BinaryTree>
    <BinaryTree type="DecisionTree" boostWeight="1.0000000000000000e+00" itree="14">
      <Node pos="s" depth="0" NCoef="0" IVar="20" Cut="4.7454048156738281e+01" cType="1" res="-9.8733569029718637e-04" rms="4.7388812899589539e-01" purity="4.9986410140991211e-01" nType="0">
        <Node pos="l" depth="1" NCoef="0" IVar="4" Cut="1.0418672943115234e+02" cType="1" res="9.4293795526027679e-02" rms="4.6248546242713928e-01" purity="6.5679371356964111e-01" nType="0">
          <Node pos="l" depth="2" NCoef="0" IVar="-1" Cut="0.0000000000000000e+00" cType="1" res="1.5630332753062248e-02" rms="4.3522983789443970e-01" purity="7.2740978002548218e-01" nType="-99"/>
          <Node pos="r" depth="2" NCoef="0" IVar="-1" Cut="0.0000000000000000e+00" cType="1" res="8.8698597392067313e-04" rms="4.8799675703048706e-01" purity="5.5152976512908936e-01" nType="-99"/>
        </Node>
        <Node pos="r" depth="1" NCoef="0" IVar="21" Cut="2.2168424129486084e+00" cType="1" res="-6.6973924636840820e-02" rms="4.7044968605041504e-01" purity="3.9118301868438721e-01" nType="0">
          <Node pos="l" depth="2" NCoef="0" IVar="-1" Cut="0.0000000000000000e+00" cType="1" res="-9.3508269637823105e-03" rms="4.6706369519233704e-01" purity="3.5600611567497253e-01" nType="-99"/>
          <Node pos="r" depth="2" NCoef="0" IVar="-1" Cut="0.0000000000000000e+00" cType="1" res="1.7776560038328171e-02" rms="4.3384870886802673e-01" purity="7.3643141984939575e-01" nType="-99"/>
        </Node>
      </Node>
    </BinaryTree>
    <BinaryTree type="DecisionTree" boostWeight="1.0000000000000000e+00" itree="15">
      <Node pos="s" depth="0" NCoef="0" IVar="20" Cut="6.3560314178466797e+01" cType="1" res="9.8055938724428415e-04" rms="4.7285950183868408e-01" purity="5.0136256217956543e-01" nType="0">
        <Node pos="l" depth="1" NCoef="0" IVar="4" Cut="9.7997367858886719e+01" cType="1" res="6.0455400496721268e-02" rms="4.7155275940895081e-01" purity="6.0136497020721436e-01" nType="0">
          <Node pos="l" depth="2" NCoef="0" IVar="-1" Cut="0.0000000000000000e+00" cType="1" res="1.2453646399080753e-02" rms="4.5079874992370605e-01" purity="6.7689639329910278e-01" nType="-99"/>
          <Node pos="r" depth="2" NCoef="0" IVar="-1" Cut="0.0000000000000000e+00" cType="1" res="-1.6315309330821037e-03" rms="4.8588320612907410e-01" purity="5.0581896305084229e-01" nType="-99"/>
        </Node>
        <Node pos="r" depth="1" NCoef="0" IVar="21" Cut="-2.4338889122009277e+00" cType="1" res="-9.6892714500427246e-02" rms="4.5850497484207153e-01" purity="3.3679601550102234e-01" nType="0">
          <Node pos="l" depth="2" NCoef="0" IVar="-1" Cut="0.0000000000000000e+00" cType="1" res="1.9353788346052170e-02" rms="4.4470962882041931e-01" purity="7.2842872142791748e-01" nType="-99"/>
          <Node pos="r" depth="2" NCoef="0" IVar="-1" Cut="0.0000000000000000e+00" cType="1" res="-1.1900018900632858e-02" rms="4.5306882262229919e-01" purity="3.1149956583976746e-01" nType="-99"/>
        </Node>
      </Node>
    </BinaryTree>
    <BinaryTree type="DecisionTree" boostWeight="1.0000000000000000e+00" itree="16">
      <Node pos="s" depth="0" NCoef="0" IVar="20" Cut="6.4133880615234375e+01" cType="1" res="-5.4727308452129364e-05" rms="4.7175318002700806e-01" purity="5.0024783611297607e-01" nType="0">
        <Node pos="l" depth="1" NCoef="0" IVar="21" Cut="2.5409572124481201e+00" cType="1" res="5.8410633355379105e-02" rms="4.7103393077850342e-01" purity="6.0148376226425171e-01" nType="0">
          <Node pos="l" depth="2" NCoef="0" IVar="-1" Cut="0.0000000000000000e+00" cType="1" res="3.4288738388568163e-03" rms="4.7975105047225952e-01" purity="5.6768363714218140e-01" nType="-99"/>
          <Node pos="r" depth="2" NCoef="0" IVar="-1" Cut="0.0000000000000000e+00" cType="1" res="2.5891382247209549e-02" rms="3.4595191478729248e-01" purity="8.5656642913818359e-01" nType="-99"/>
        </Node>
        <Node pos="r" depth="1" NCoef="0" IVar="21" Cut="-2.3841655254364014e+00" cType="1" res="-9.8664477467536926e-02" rms="4.5629552006721497e-01" purity="3.2949969172477722e-01" nType="0">
          <Node pos="l" depth="2" NCoef="0" IVar="-1" Cut="0.0000000000000000e+00" cType="1" res="1.6958249732851982e-02" rms="4.5248404145240784e-01" purity="7.1232879161834717e-01" nType="-99"/>
          <Node pos="r" depth="2" NCoef="0" IVar="-1" Cut="0.0000000000000000e+00" cType="1" res="-1.2092079967260361e-02" rms="4.5078885555267334e-01" purity="3.0318865180015564e-01" nType="-99"/>
        </Node>
      </Node>
    </BinaryTree>
    <BinaryTree type="DecisionTree" boostWeight="1.0000000000000000e+00" itree="17">
      <Node pos="s" depth="0" NCoef="0" IVar="21" Cut="2.2615694999694824e+00" cType="1" res="3.2326509244740009e-03" rms="4.7143974900245667e-01" purity="5.0291109085083008e-01" nType="0">
        <Node pos="l" depth="1" NCoef="0" IVar="21" Cut="-1.7974492311477661e+00" cType="1" res="-2.2154252976179123e-02" rms="4.7488805651664734e-01" purity="4.6444106101989746e-01" nType="0">
          <Node pos="l" depth="2" NCoef="0" IVar="-1" Cut="0.0000000000000000e+00" cType="1" res="1.6314197331666946e-02" rms="4.2763036489486694e-01" purity="7.2874104976654053e-01" nType="-99"/>
          <Node pos="r" depth="2" NCoef="0" IVar="-1" Cut="0.0000000000000000e+00" cType="1" res="-6.4151664264500141e-03" rms="4.7573614120483398e-01" purity="4.0440303087234497e-01" nType="-99"/>
        </Node>
        <Node pos="r" depth="1" NCoef="0" IVar="3" Cut="5.1315766572952271e-01" cType="1" res="1.9898502528667450e-01" rms="3.9217954874038696e-01" purity="7.9954403638839722e-01" nType="0">
          <Node pos="l" depth="2" NCoef="0" IVar="-1" Cut="0.0000000000000000e+00" cType="1" res="2.7820188552141190e-02" rms="3.2937422394752502e-01" purity="8.7309789657592773e-01" nType="-99"/>
          <Node pos="r" depth="2" NCoef="0" IVar="-1" Cut="0.0000000000000000e+00" cType="1" res="1.2287504971027374e-02" rms="4.4632819294929504e-01" purity="7.0688962936401367e-01" nType="-99"/>
        </Node>
      </Node>
    </BinaryTree>
    <BinaryTree type="DecisionTree" boostWeight="1.0000000000000000e+00" itree="18">
      <Node pos="s" depth="0" NCoef="0" IVar="21" Cut="-2.3143038749694824e+00" cType="1" res="-2.7818873059004545e-03" rms="4.7061815857887268e-01" purity="4.9739104509353638e-01" nType="0">
        <Node pos="l" depth="1" NCoef="0" IVar="3" Cut="-8.1236863136291504e-01" cType="1" res="1.8852956593036652e-01" rms="3.9234825968742371e-01" purity="8.0164587497711182e-01" nType="0">
          <Node pos="l" depth="2" NCoef="0" IVar="-1" Cut="0.0000000000000000e+00" cType="1" res="8.9963441714644432e-03" rms="4.5040574669837952e-01" purity="6.9442617893218994e-01" nType="-99"/>
          <Node pos="r" depth="2" NCoef="0" IVar="-1" Cut="0.0000000000000000e+00" cType="1" res="2.6529153808951378e-02" rms="3.3957397937774658e-01" purity="8.6445176601409912e-01" nType="-99"/>
        </Node>
        <Node pos="r" depth="1" NCoef="0" IVar="21" Cut="2.1294448375701904e+00" cType="1" res="-2.6775196194648743e-02" rms="4.7411668300628662e-01" purity="4.5923295617103577e-01" nType="0">
          <Node pos="l" depth="2" NCoef="0" IVar="-1" Cut="0.0000000000000000e+00" cType="1" res="-6.0594873502850533e-03" rms="4.7623804211616516e-01" purity="4.0762194991111755e-01" nType="-99"/>
          <Node pos="r" depth="2" NCoef="0" IVar="-1" Cut="0.0000000000000000e+00" cType="1" res="1.7573328688740730e-02" rms="4.1108259558677673e-01" purity="7.6733779907226562e-01" nType="-99"/>
        </Node>
      </Node>
    </BinaryTree>
    <BinaryTree type="DecisionTree" boostWeight="1.0000000000000000e+00" itree="19">
      <Node pos="s" depth="0" NCoef="0" IVar="20" Cut="4.2235774993896484e+01" cType="1" res="-1.3089652638882399e-03" rms="4.6882566809654236e-01" purity="4.9867054820060730e-01" nType="0">
        <Node pos="l" depth="1" NCoef="0" IVar="0" Cut="6.3664073944091797e+01" cType="1" res="9.7180508077144623e-02" rms="4.5357194542884827e-01" purity="6.7463898658752441e-01" nType="0">
          <Node pos="l" depth="2" NCoef="0" IVar="-1" Cut="0.0000000000000000e+00" cType="1" res="1.6739720478653908e-02" rms="4.1777956485748291e-01" purity="7.5704979896545410e-01" nType="-99"/>
          <Node pos="r" depth="2" NCoef="0" IVar="-1" Cut="0.0000000000000000e+00" cType="1" res="2.9587382450699806e-03" rms="4.8081913590431213e-01" purity="5.8387798070907593e-01" nType="-99"/>
        </Node>
        <Node pos="r" depth="1" NCoef="0" IVar="21" Cut="-1.7172964811325073e+00" cType="1" res="-4.5877002179622650e-02" rms="4.6881619095802307e-01" purity="4.1904202103614807e-01" nType="0">
          <Node pos="l" depth="2" NCoef="0" IVar="-1" Cut="0.0000000000000000e+00" cType="1" res="1.2194094248116016e-02" rms="4.5353654026985168e-01" purity="6.6441184282302856e-01" nType="-99"/>
          <Node pos="r" depth="2" NCoef="0" IVar="-1" Cut="0.0000000000000000e+00" cType="1" res="-7.8568188473582268e-03" rms="4.6532753109931946e-01" purity="3.7378251552581787e-01" nType="-99"/>
        </Node>
      </Node>
    </BinaryTree>
    <BinaryTree type="DecisionTree" boostWeight="1.0000000000000000e+00" itree="20">
      <Node pos="s" depth="0" NCoef="0" IVar="21" Cut="1.8573764562606812e+00" cType="1" res="-1.1004372499883175e-03" rms="4.6778669953346252e-01" purity="4.9877029657363892e-01" nType="0">
        <Node pos="l" depth="1" NCoef="0" IVar="21" Cut="-1.8886654376983643e+00" cType="1" res="-2.9825078323483467e-02" rms="4.7047281265258789e-01" purity="4.5391246676445007e-01" nType="0">
          <Node pos="l" depth="2" NCoef="0" IVar="-1" Cut="0.0000000000000000e+00" cType="1" res="1.5718895941972733e-02" rms="4.1876393556594849e-01" purity="7.4672883749008179e-01" nType="-99"/>
          <Node pos="r" depth="2" NCoef="0" IVar="-1" Cut="0.0000000000000000e+00" cType="1" res="-7.1099912747740746e-03" rms="4.7221079468727112e-01" purity="3.8904240727424622e-01" nType="-99"/>
        </Node>
        <Node pos="r" depth="1" NCoef="0" IVar="3" Cut="4.3047425150871277e-01" cType="1" res="1.5133787691593170e-01" rms="4.2170283198356628e-01" purity="7.3682546615600586e-01" nType="0">
          <Node pos="l" depth="2" NCoef="0" IVar="-1" Cut="0.0000000000000000e+00" cType="1" res="2.5371834635734558e-02" rms="3.6187738180160522e-01" purity="8.3812612295150757e-01" nType="-99"/>
          <Node pos="r" depth="2" NCoef="0" IVar="-1" Cut="0.0000000000000000e+00" cType="1" res="5.9464555233716965e-03" rms="4.6038937568664551e-01" purity="6.2622362375259399e-01" nType="-99"/>
        </Node>
      </Node>
    </BinaryTree>
    <BinaryTree type="DecisionTree" boostWeight="1.0000000000000000e+00" itree="21">
      <Node pos="s" depth="0" NCoef="0" IVar="15" Cut="7.0147880554199219e+01" cType="1" res="-1.1270846007391810e-03" rms="4.6654814481735229e-01" purity="4.9963060021400452e-01" nType="0">
        <Node pos="l" depth="1" NCoef="0" IVar="21" Cut="2.4046277999877930e+00" cType="1" res="5.2478987723588943e-02" rms="4.6183124184608459e-01" purity="5.9388047456741333e-01" nType="0">
          <Node pos="l" depth="2" NCoef="0" IVar="-1" Cut="0.0000000000000000e+00" cType="1" res="2.9499267693608999e-03" rms="4.7210437059402466e-01" purity="5.5356621742248535e-01" nType="-99"/>
          <Node pos="r" depth="2" NCoef="0" IVar="-1" Cut="0.0000000000000000e+00" cType="1" res="2.1858382970094681e-02" rms="3.5908535122871399e-01" purity="8.4248995780944824e-01" nType="-99"/>
        </Node>
        <Node pos="r" depth="1" NCoef="0" IVar="21" Cut="1.6804109811782837e+00" cType="1" res="-7.7503010630607605e-02" rms="4.6257844567298889e-01" purity="3.6534690856933594e-01" nType="0">
          <Node pos="l" depth="2" NCoef="0" IVar="-1" Cut="0.0000000000000000e+00" cType="1" res="-1.0278466157615185e-02" rms="4.5664316415786743e-01" purity="3.3227208256721497e-01" nType="-99"/>
          <Node pos="r" depth="2" NCoef="0" IVar="-1" Cut="0.0000000000000000e+00" cType="1" res="6.1382688581943512e-03" rms="4.7712814807891846e-01" purity="5.7920157909393311e-01" nType="-99"/>
        </Node>
      </Node>
    </BinaryTree>
    <BinaryTree type="DecisionTree" boostWeight="1.0000000000000000e+00" itree="22">
      <Node pos="s" depth="0" NCoef="0" IVar="21" Cut="-2.3765509128570557e+00" cType="1" res="-3.0186965595930815e-03" rms="4.6629771590232849e-01" purity="4.9673184752464294e-01" nType="0">
        <Node pos="l" depth="1" NCoef="0" IVar="3" Cut="-1.0426768064498901e+00" cType="1" res="1.7664401233196259e-01" rms="3.8268789649009705e-01" purity="8.1404352188110352e-01" nType="0">
          <Node pos="l" depth="2" NCoef="0" IVar="-1" Cut="0.0000000000000000e+00" cType="1" res="8.2014352083206177e-03" rms="4.4719505310058594e-01" purity="7.0336979627609253e-01" nType="-99"/>
          <Node pos="r" depth="2" NCoef="0" IVar="-1" Cut="0.0000000000000000e+00" cType="1" res="2.4113565683364868e-02" rms="3.4225425124168396e-01" purity="8.6175006628036499e-01" nType="-99"/>
        </Node>
        <Node pos="r" depth="1" NCoef="0" IVar="21" Cut="1.6371729373931885e+00" cType="1" res="-2.4524299427866936e-02" rms="4.7074836492538452e-01" purity="4.5874965190887451e-01" nType="0">
          <Node pos="l" depth="2" NCoef="0" IVar="-1" Cut="0.0000000000000000e+00" cType="1" res="-6.1823213472962379e-03" rms="4.7267648577690125e-01" purity="3.9824882149696350e-01" nType="-99"/>
          <Node pos="r" depth="2" NCoef="0" IVar="-1" Cut="0.0000000000000000e+00" cType="1" res="1.1746681295335293e-02" rms="4.3774867057800293e-01" purity="6.8913775682449341e-01" nType="-99"/>
        </Node>
      </Node>
    </BinaryTree>
    <BinaryTree type="DecisionTree" boostWeight="1.0000000000000000e+00" itree="23">
      <Node pos="s" depth="0" NCoef="0" IVar="20" Cut="3.8727626800537109e+01" cType="1" res="-3.2989188912324607e-04" rms="4.6438890695571899e-01" purity="4.9965375661849976e-01" nType="0">
        <Node pos="l" depth="1" NCoef="0" IVar="0" Cut="6.4044921875000000e+01" cType="1" res="1.1605754494667053e-01" rms="4.3941462039947510e-01" purity="7.0441693067550659e-01" nType="0">
          <Node pos="l" depth="2" NCoef="0" IVar="-1" Cut="0.0000000000000000e+00" cType="1" res="1.8416110426187515e-02" rms="4.0032303333282471e-01" purity="7.8323858976364136e-01" nType="-99"/>
          <Node pos="r" depth="2" NCoef="0" IVar="-1" Cut="0.0000000000000000e+00" cType="1" res="5.0992872565984726e-03" rms="4.7314497828483582e-01" purity="6.1086905002593994e-01" nType="-99"/>
        </Node>
        <Node pos="r" depth="1" NCoef="0" IVar="21" Cut="2.5645244121551514e+00" cType="1" res="-3.7288490682840347e-02" rms="4.6600136160850525e-01" purity="4.3463158607482910e-01" nType="0">
          <Node pos="l" depth="2" NCoef="0" IVar="-1" Cut="0.0000000000000000e+00" cType="1" res="-5.7053146883845329e-03" rms="4.6755701303482056e-01" purity="4.0378832817077637e-01" nType="-99"/>
          <Node pos="r" depth="2" NCoef="0" IVar="-1" Cut="0.0000000000000000e+00" cType="1" res="1.9044032320380211e-02" rms="3.8774579763412476e-01" purity="8.0810636281967163e-01" nType="-99"/>
        </Node>
      </Node>
    </BinaryTree>
    <BinaryTree type="DecisionTree" boostWeight="1.0000000000000000e+00" itree="24">
      <Node pos="s" depth="0" NCoef="0" IVar="20" Cut="6.8479934692382812e+01" cType="1" res="-5.4441960528492928e-03" rms="4.6402850747108459e-01" purity="4.9487319588661194e-01" nType="0">
        <Node pos="l" depth="1" NCoef="0" IVar="4" Cut="7.0154235839843750e+01" cType="1" res="3.4889601171016693e-02" rms="4.6640726923942566e-01" purity="5.7868510484695435e-01" nType="0">
          <Node pos="l" depth="2" NCoef="0" IVar="-1" Cut="0.0000000000000000e+00" cType="1" res="1.2398425489664078e-02" rms="4.3810749053955078e-01" purity="6.8515348434448242e-01" nType="-99"/>
          <Node pos="r" depth="2" NCoef="0" IVar="-1" Cut="0.0000000000000000e+00" cType="1" res="-1.0875236475840211e-03" rms="4.7524690628051758e-01" purity="5.1995265483856201e-01" nType="-99"/>
        </Node>
        <Node pos="r" depth="1" NCoef="0" IVar="21" Cut="2.2790925502777100e+00" cType="1" res="-8.9304700493812561e-02" rms="4.4755521416664124e-01" purity="3.2061466574668884e-01" nType="0">
          <Node pos="l" depth="2" NCoef="0" IVar="-1" Cut="0.0000000000000000e+00" cType="1" res="-1.1117363348603249e-02" rms="4.4347503781318665e-01" purity="2.9141184687614441e-01" nType="-99"/>
          <Node pos="r" depth="2" NCoef="0" IVar="-1" Cut="0.0000000000000000e+00" cType="1" res="1.2350081466138363e-02" rms="4.4877746701240540e-01" purity="7.0600080490112305e-01" nType="-99"/>
        </Node>
      </Node>
    </BinaryTree>
    <BinaryTree type="DecisionTree" boostWeight="1.0000000000000000e+00" itree="25">
      <Node pos="s" depth="0" NCoef="0" IVar="20" Cut="6.1997955322265625e+01" cType="1" res="5.3250328637659550e-03" rms="4.6396327018737793e-01" purity="5.0524127483367920e-01" nType="0">
        <Node pos="l" depth="1" NCoef="0" IVar="4" Cut="1.2552608489990234e+02" cType="1" res="5.2801642566919327e-02" rms="4.6450883150100708e-01" purity="6.0884332656860352e-01" nType="0">
          <Node pos="l" depth="2" NCoef="0" IVar="-1" Cut="0.0000000000000000e+00" cType="1" res="9.0785576030611992e-03" rms="4.5286485552787781e-01" purity="6.5458732843399048e-01" nType="-99"/>
          <Node pos="r" depth="2" NCoef="0" IVar="-1" Cut="0.0000000000000000e+00" cType="1" res="-2.7443233411759138e-03" rms="4.8171654343605042e-01" purity="5.0056505203247070e-01" nType="-99"/>
        </Node>
        <Node pos="r" depth="1" NCoef="0" IVar="21" Cut="-2.4072883129119873e+00" cType="1" res="-6.9075204432010651e-02" rms="4.5321127772331238e-01" purity="3.4288728237152100e-01" nType="0">
          <Node pos="l" depth="2" NCoef="0" IVar="-1" Cut="0.0000000000000000e+00" cType="1" res="1.5475494787096977e-02" rms="4.3918448686599731e-01" purity="7.3458045721054077e-01" nType="-99"/>
          <Node pos="r" depth="2" NCoef="0" IVar="-1" Cut="0.0000000000000000e+00" cType="1" res="-8.8730510324239731e-03" rms="4.5034974813461304e-01" purity="3.1679201126098633e-01" nType="-99"/>
        </Node>
      </Node>
    </BinaryTree>
    <BinaryTree type="DecisionTree" boostWeight="1.0000000000000000e+00" itree="26">
      <Node pos="s" depth="0" NCoef="0" IVar="20" Cut="4.1844650268554688e+01" cType="1" res="-8.8532629888504744e-05" rms="4.6373757719993591e-01" purity="4.9952203035354614e-01" nType="0">
        <Node pos="l" depth="1" NCoef="0" IVar="4" Cut="7.9278671264648438e+01" cType="1" res="8.6820833384990692e-02" rms="4.4790858030319214e-01" purity="6.8150818347930908e-01" nType="0">
          <Node pos="l" depth="2" NCoef="0" IVar="-1" Cut="0.0000000000000000e+00" cType="1" res="1.7521869391202927e-02" rms="3.9745342731475830e-01" purity="7.9003101587295532e-01" nType="-99"/>
          <Node pos="r" depth="2" NCoef="0" IVar="-1" Cut="0.0000000000000000e+00" cType="1" res="3.0324056278914213e-03" rms="4.7558987140655518e-01" purity="5.9718918800354004e-01" nType="-99"/>
        </Node>
        <Node pos="r" depth="1" NCoef="0" IVar="21" Cut="-1.9031612873077393e+00" cType="1" res="-3.8548786193132401e-02" rms="4.6542105078697205e-01" purity="4.1898715496063232e-01" nType="0">
          <Node pos="l" depth="2" NCoef="0" IVar="-1" Cut="0.0000000000000000e+00" cType="1" res="1.1001176200807095e-02" rms="4.4698190689086914e-01" purity="6.8587368726730347e-01" nType="-99"/>
          <Node pos="r" depth="2" NCoef="0" IVar="-1" Cut="0.0000000000000000e+00" cType="1" res="-6.2716100364923477e-03" rms="4.6435797214508057e-01" purity="3.7925982475280762e-01" nType="-99"/>
        </Node>
      </Node>
    </BinaryTree>
    <BinaryTree type="DecisionTree" boostWeight="1.0000000000000000e+00" itree="27">
      <Node pos="s" depth="0" NCoef="0" IVar="20" Cut="6.4258407592773438e+01" cType="1" res="-3.7036108551546931e-04" rms="4.6258616447448730e-01" purity="4.9906659126281738e-01" nType="0">
        <Node pos="l" depth="1" NCoef="0" IVar="0" Cut="6.5321052551269531e+01" cType="1" res="4.1923377662897110e-02" rms="4.6470355987548828e-01" purity="5.9792524576187134e-01" nType="0">
          <Node pos="l" depth="2" NCoef="0" IVar="-1" Cut="0.0000000000000000e+00" cType="1" res="9.4467122107744217e-03" rms="4.4585883617401123e-01" purity="6.6728603839874268e-01" nType="-99"/>
          <Node pos="r" depth="2" NCoef="0" IVar="-1" Cut="0.0000000000000000e+00" cType="1" res="-1.0796237038448453e-03" rms="4.7946798801422119e-01" purity="5.2053087949752808e-01" nType="-99"/>
        </Node>
        <Node pos="r" depth="1" NCoef="0" IVar="21" Cut="-2.4710826873779297e+00" cType="1" res="-7.2457678616046906e-02" rms="4.4988214969635010e-01" purity="3.3056756854057312e-01" nType="0">
          <Node pos="l" depth="2" NCoef="0" IVar="-1" Cut="0.0000000000000000e+00" cType="1" res="1.4265091158449650e-02" rms="4.4049334526062012e-01" purity="7.3335397243499756e-01" nType="-99"/>
          <Node pos="r" depth="2" NCoef="0" IVar="-1" Cut="0.0000000000000000e+00" cType="1" res="-9.0967565774917603e-03" rms="4.4729328155517578e-01" purity="3.0615654587745667e-01" nType="-99"/>
        </Node>
      </Node>
    </BinaryTree>
    <BinaryTree type="DecisionTree" boostWeight="1.0000000000000000e+00" itree="28">
      <Node pos="s" depth="0" NCoef="0" IVar="21" Cut="1.9191756248474121e+00" cType="1" res="3.1147457193583250e-03" rms="4.6190288662910461e-01" purity="5.0293111801147461e-01" nType="0">
        <Node pos="l" depth="1" NCoef="0" IVar="21" Cut="-1.4351769685745239e+00" cType="1" res="-2.0087203010916710e-02" rms="4.6616524457931519e-01" purity="4.5887392759323120e-01" nType="0">
          <Node pos="l" depth="2" NCoef="0" IVar="-1" Cut="0.0000000000000000e+00" cType="1" res="1.0627833195030689e-02" rms="4.4050937891006470e-01" purity="6.7092889547348022e-01" nType="-99"/>
          <Node pos="r" depth="2" NCoef="0" IVar="-1" Cut="0.0000000000000000e+00" cType="1" res="-6.3935024663805962e-03" rms="4.6771994233131409e-01" purity="3.8542318344116211e-01" nType="-99"/>
        </Node>
        <Node pos="r" depth="1" NCoef="0" IVar="3" Cut="4.3248578906059265e-01" cType="1" res="1.3128654658794403e-01" rms="4.1484951972961426e-01" purity="7.4631118774414062e-01" nType="0">
          <Node pos="l" depth="2" NCoef="0" IVar="-1" Cut="0.0000000000000000e+00" cType="1" res="2.3434022441506386e-02" rms="3.5691258311271667e-01" purity="8.4502726793289185e-01" nType="-99"/>
          <Node pos="r" depth="2" NCoef="0" IVar="-1" Cut="0.0000000000000000e+00" cType="1" res="5.0708195194602013e-03" rms="4.5304682850837708e-01" purity="6.4277285337448120e-01" nType="-99"/>
        </Node>
      </Node>
    </BinaryTree>
    <BinaryTree type="DecisionTree" boostWeight="1.0000000000000000e+00" itree="29">
      <Node pos="s" depth="0" NCoef="0" IVar="21" Cut="2.1370625495910645e+00" cType="1" res="2.1319563966244459e-03" rms="4.6087548136711121e-01" purity="5.0184446573257446e-01" nType="0">
        <Node pos="l" depth="1" NCoef="0" IVar="21" Cut="-1.6451412439346313e+00" cType="1" res="-1.8456956371665001e-02" rms="4.6627071499824524e-01" purity="4.5930048823356628e-01" nType="0">
          <Node pos="l" depth="2" NCoef="0" IVar="-1" Cut="0.0000000000000000e+00" cType="1" res="1.1461155489087105e-02" rms="4.3089711666107178e-01" purity="7.0385426282882690e-01" nType="-99"/>
          <Node pos="r" depth="2" NCoef="0" IVar="-1" Cut="0.0000000000000000e+00" cType="1" res="-5.3583611734211445e-03" rms="4.6974799036979675e-01" purity="3.9445179700851440e-01" nType="-99"/>
        </Node>
        <Node pos="r" depth="1" NCoef="0" IVar="3" Cut="6.5922021865844727e-01" cType="1" res="1.3824611902236938e-01" rms="3.9750111103057861e-01" purity="7.8310424089431763e-01" nType="0">
          <Node pos="l" depth="2" NCoef="0" IVar="-1" Cut="0.0000000000000000e+00" cType="1" res="2.2500419989228249e-02" rms="3.4348201751708984e-01" purity="8.6003696918487549e-01" nType="-99"/>
          <Node pos="r" depth="2" NCoef="0" IVar="-1" Cut="0.0000000000000000e+00" cType="1" res="5.4831514135003090e-03" rms="4.5126262307167053e-01" purity="6.7067801952362061e-01" nType="-99"/>
        </Node>
      </Node>
    </BinaryTree>
    <BinaryTree type="DecisionTree" boostWeight="1.0000000000000000e+00" itree="30">
      <Node pos="s" depth="0" NCoef="0" IVar="21" Cut="-2.4696907997131348e+00" cType="1" res="4.0462687611579895e-03" rms="4.6058937907218933e-01" purity="5.0455909967422485e-01" nType="0">
        <Node pos="l" depth="1" NCoef="0" IVar="3" Cut="-1.2760053873062134e+00" cType="1" res="1.5429036319255829e-01" rms="3.7295147776603699e-01" purity="8.2483333349227905e-01" nType="0">
          <Node pos="l" depth="2" NCoef="0" IVar="-1" Cut="0.0000000000000000e+00" cType="1" res="3.1529415864497423e-03" rms="4.5460835099220276e-01" purity="6.8354088068008423e-01" nType="-99"/>
          <Node pos="r" depth="2" NCoef="0" IVar="-1" Cut="0.0000000000000000e+00" cType="1" res="2.1788030862808228e-02" rms="3.3848464488983154e-01" purity="8.6424857378005981e-01" nType="-99"/>
        </Node>
        <Node pos="r" depth="1" NCoef="0" IVar="21" Cut="1.9544049501419067e+00" cType="1" res="-1.1970563791692257e-02" rms="4.6611919999122620e-01" purity="4.7041615843772888e-01" nType="0">
          <Node pos="l" depth="2" NCoef="0" IVar="-1" Cut="0.0000000000000000e+00" cType="1" res="-3.9772461168467999e-03" rms="4.7194504737854004e-01" purity="4.1445314884185791e-01" nType="-99"/>
          <Node pos="r" depth="2" NCoef="0" IVar="-1" Cut="0.0000000000000000e+00" cType="1" res="1.3275251723825932e-02" rms="4.1112691164016724e-01" purity="7.5231361389160156e-01" nType="-99"/>
        </Node>
      </Node>
    </BinaryTree>
    <BinaryTree type="DecisionTree" boostWeight="1.0000000000000000e+00" itree="31">
      <Node pos="s" depth="0" NCoef="0" IVar="21" Cut="1.6049139499664307e+00" cType="1" res="-1.6050536651164293e-03" rms="4.5906394720077515e-01" purity="4.9835312366485596e-01" nType="0">
        <Node pos="l" depth="1" NCoef="0" IVar="21" Cut="-1.3359277248382568e+00" cType="1" res="-2.7088578790426254e-02" rms="4.6263584494590759e-01" purity="4.4926133751869202e-01" nType="0">
          <Node pos="l" depth="2" NCoef="0" IVar="-1" Cut="0.0000000000000000e+00" cType="1" res="8.4852660074830055e-03" rms="4.4288799166679382e-01" purity="6.5198576450347900e-01" nType="-99"/>
          <Node pos="r" depth="2" NCoef="0" IVar="-1" Cut="0.0000000000000000e+00" cType="1" res="-7.3299035429954529e-03" rms="4.6364045143127441e-01" purity="3.6664620041847229e-01" nType="-99"/>
        </Node>
        <Node pos="r" depth="1" NCoef="0" IVar="2" Cut="4.9172842502593994e-01" cType="1" res="1.0373024642467499e-01" rms="4.2819562554359436e-01" purity="7.0127254724502563e-01" nType="0">
          <Node pos="l" depth="2" NCoef="0" IVar="-1" Cut="0.0000000000000000e+00" cType="1" res="2.0582299679517746e-02" rms="3.8175266981124878e-01" purity="7.9803603887557983e-01" nType="-99"/>
          <Node pos="r" depth="2" NCoef="0" IVar="-1" Cut="0.0000000000000000e+00" cType="1" res="1.5539543237537146e-03" rms="4.5761388540267944e-01" purity="5.9499967098236084e-01" nType="-99"/>
        </Node>
      </Node>
    </BinaryTree>
    <BinaryTree type="DecisionTree" boostWeight="1.0000000000000000e+00" itree="32">
      <Node pos="s" depth="0" NCoef="0" IVar="15" Cut="6.3704223632812500e+01" cType="1" res="-7.6065195025876164e-04" rms="4.5868006348609924e-01" purity="4.9995470046997070e-01" nType="0">
        <Node pos="l" depth="1" NCoef="0" IVar="4" Cut="7.8272247314453125e+01" cType="1" res="4.8116873949766159e-02" rms="4.5155429840087891e-01" purity="6.0894733667373657e-01" nType="0">
          <Node pos="l" depth="2" NCoef="0" IVar="-1" Cut="0.0000000000000000e+00" cType="1" res="1.1862803250551224e-02" rms="4.2175328731536865e-01" purity="7.0283496379852295e-01" nType="-99"/>
          <Node pos="r" depth="2" NCoef="0" IVar="-1" Cut="0.0000000000000000e+00" cType="1" res="4.4894436723552644e-04" rms="4.6716192364692688e-01" purity="5.4073870182037354e-01" nType="-99"/>
        </Node>
        <Node pos="r" depth="1" NCoef="0" IVar="21" Cut="1.3381437063217163e+00" cType="1" res="-5.3676273673772812e-02" rms="4.6045947074890137e-01" purity="3.8195741176605225e-01" nType="0">
          <Node pos="l" depth="2" NCoef="0" IVar="-1" Cut="0.0000000000000000e+00" cType="1" res="-7.9869125038385391e-03" rms="4.5475822687149048e-01" purity="3.4419831633567810e-01" nType="-99"/>
          <Node pos="r" depth="2" NCoef="0" IVar="-1" Cut="0.0000000000000000e+00" cType="1" res="3.6236857995390892e-03" rms="4.7356134653091431e-01" purity="5.3948765993118286e-01" nType="-99"/>
        </Node>
      </Node>
    </BinaryTree>
    <BinaryTree type="DecisionTree" boostWeight="1.0000000000000000e+00" itree="33">
      <Node pos="s" depth="0" NCoef="0" IVar="21" Cut="-2.4957985877990723e+00" cType="1" res="3.0939930584281683e-03" rms="4.5831465721130371e-01" purity="5.0384259223937988e-01" nType="0">
        <Node pos="l" depth="1" NCoef="0" IVar="3" Cut="-1.2303892374038696e+00" cType="1" res="1.4736251533031464e-01" rms="3.6871942877769470e-01" purity="8.2968199253082275e-01" nType="0">
          <Node pos="l" depth="2" NCoef="0" IVar="-1" Cut="0.0000000000000000e+00" cType="1" res="2.4821073748171329e-03" rms="4.5372530817985535e-01" purity="6.8431490659713745e-01" nType="-99"/>
          <Node pos="r" depth="2" NCoef="0" IVar="-1" Cut="0.0000000000000000e+00" cType="1" res="2.1854512393474579e-02" rms="3.2914817333221436e-01" purity="8.7407225370407104e-01" nType="-99"/>
        </Node>
        <Node pos="r" depth="1" NCoef="0" IVar="21" Cut="1.6338669061660767e+00" cType="1" res="-1.1965216137468815e-02" rms="4.6409869194030762e-01" purity="4.6983042359352112e-01" nType="0">
          <Node pos="l" depth="2" NCoef="0" IVar="-1" Cut="0.0000000000000000e+00" cType="1" res="-4.3369499035179615e-03" rms="4.6912533044815063e-01" purity="4.0601444244384766e-01" nType="-99"/>
          <Node pos="r" depth="2" NCoef="0" IVar="-1" Cut="0.0000000000000000e+00" cType="1" res="1.0646868497133255e-02" rms="4.2807233333587646e-01" purity="7.0504444837570190e-01" nType="-99"/>
        </Node>
      </Node>
    </BinaryTree>
    <BinaryTree type="DecisionTree" boostWeight="1.0000000000000000e+00" itree="34">
      <Node pos="s" depth="0" NCoef="0" IVar="20" Cut="3.8533370971679688e+01" cType="1" res="1.0975578334182501e-03" rms="4.5659115910530090e-01" purity="5.0214034318923950e-01" nType="0">
        <Node pos="l" depth="1" NCoef="0" IVar="0" Cut="7.1111061096191406e+01" cType="1" res="8.8292405009269714e-02" rms="4.3545216321945190e-01" purity="7.0071679353713989e-01" nType="0">
          <Node pos="l" depth="2" NCoef="0" IVar="-1" Cut="0.0000000000000000e+00" cType="1" res="1.4899843372404575e-02" rms="4.0218892693519592e-01" purity="7.7164196968078613e-01" nType="-99"/>
          <Node pos="r" depth="2" NCoef="0" IVar="-1" Cut="0.0000000000000000e+00" cType="1" res="1.0763022582978010e-03" rms="4.7757175564765930e-01" purity="5.7835769653320312e-01" nType="-99"/>
        </Node>
        <Node pos="r" depth="1" NCoef="0" IVar="21" Cut="-2.0840427875518799e+00" cType="1" res="-2.5651488453149796e-02" rms="4.5957848429679871e-01" purity="4.4122236967086792e-01" nType="0">
          <Node pos="l" depth="2" NCoef="0" IVar="-1" Cut="0.0000000000000000e+00" cType="1" res="1.2011948972940445e-02" rms="4.1982436180114746e-01" purity="7.4903470277786255e-01" nType="-99"/>
          <Node pos="r" depth="2" NCoef="0" IVar="-1" Cut="0.0000000000000000e+00" cType="1" res="-4.6809790655970573e-03" rms="4.6175473928451538e-01" purity="3.9902010560035706e-01" nType="-99"/>
        </Node>
      </Node>
    </BinaryTree>
    <BinaryTree type="DecisionTree" boostWeight="1.0000000000000000e+00" itree="35">
      <Node pos="s" depth="0" NCoef="0" IVar="20" Cut="3.8727626800537109e+01" cType="1" res="-1.3176201609894633e-03" rms="4.5845484733581543e-01" purity="4.9724498391151428e-01" nType="0">
        <Node pos="l" depth="1" NCoef="0" IVar="0" Cut="7.4656608581542969e+01" cType="1" res="8.0212354660034180e-02" rms="4.4018012285232544e-01" purity="6.9348078966140747e-01" nType="0">
          <Node pos="l" depth="2" NCoef="0" IVar="-1" Cut="0.0000000000000000e+00" cType="1" res="1.2888940982520580e-02" rms="4.1553235054016113e-01" purity="7.5420427322387695e-01" nType="-99"/>
          <Node pos="r" depth="2" NCoef="0" IVar="-1" Cut="0.0000000000000000e+00" cType="1" res="1.3588593574240804e-03" rms="4.7651156783103943e-01" purity="5.7777500152587891e-01" nType="-99"/>
        </Node>
        <Node pos="r" depth="1" NCoef="0" IVar="21" Cut="-2.4706869125366211e+00" cType="1" res="-2.6940148323774338e-02" rms="4.6108174324035645e-01" purity="4.3557369709014893e-01" nType="0">
          <Node pos="l" depth="2" NCoef="0" IVar="-1" Cut="0.0000000000000000e+00" cType="1" res="1.2954633682966232e-02" rms="4.0260633826255798e-01" purity="7.8779846429824829e-01" nType="-99"/>
          <Node pos="r" depth="2" NCoef="0" IVar="-1" Cut="0.0000000000000000e+00" cType="1" res="-4.1775074787437916e-03" rms="4.6387806534767151e-01" purity="4.0447896718978882e-01" nType="-99"/>
        </Node>
      </Node>
    </BinaryTree>
    <BinaryTree type="DecisionTree" boostWeight="1.0000000000000000e+00" itree="36">
      <Node pos="s" depth="0" NCoef="0" IVar="15" Cut="6.6721260070800781e+01" cType="1" res="2.8009936213493347e-03" rms="4.5763009786605835e-01" purity="5.0304567813873291e-01" nType="0">
        <Node pos="l" depth="1" NCoef="0" IVar="4" Cut="7.2212989807128906e+01" cType="1" res="4.2094256728887558e-02" rms="4.5222252607345581e-01" purity="6.0240066051483154e-01" nType="0">
          <Node pos="l" depth="2" NCoef="0" IVar="-1" Cut="0.0000000000000000e+00" cType="1" res="1.1319256387650967e-02" rms="4.2063710093498230e-01" purity="7.0160239934921265e-01" nType="-99"/>
          <Node pos="r" depth="2" NCoef="0" IVar="-1" Cut="0.0000000000000000e+00" cType="1" res="7.8094186028465629e-04" rms="4.6602484583854675e-01" purity="5.4496777057647705e-01" nType="-99"/>
        </Node>
        <Node pos="r" depth="1" NCoef="0" IVar="21" Cut="-1.4070221185684204e+00" cType="1" res="-4.6844564378261566e-02" rms="4.5959359407424927e-01" purity="3.7751442193984985e-01" nType="0">
          <Node pos="l" depth="2" NCoef="0" IVar="-1" Cut="0.0000000000000000e+00" cType="1" res="4.1434825398027897e-03" rms="4.7207489609718323e-01" purity="5.5445766448974609e-01" nType="-99"/>
          <Node pos="r" depth="2" NCoef="0" IVar="-1" Cut="0.0000000000000000e+00" cType="1" res="-7.1587013080716133e-03" rms="4.5449823141098022e-01" purity="3.3757138252258301e-01" nType="-99"/>
        </Node>
      </Node>
    </BinaryTree>
    <BinaryTree type="DecisionTree" boostWeight="1.0000000000000000e+00" itree="37">
      <Node pos="s" depth="0" NCoef="0" IVar="20" Cut="3.9788749694824219e+01" cType="1" res="3.1914978171698749e-04" rms="4.5588409900665283e-01" purity="5.0178444385528564e-01" nType="0">
        <Node pos="l" depth="1" NCoef="0" IVar="0" Cut="6.2247180938720703e+01" cType="1" res="7.7524021267890930e-02" rms="4.3718430399894714e-01" purity="6.9602924585342407e-01" nType="0">
          <Node pos="l" depth="2" NCoef="0" IVar="-1" Cut="0.0000000000000000e+00" cType="1" res="1.4689432457089424e-02" rms="3.9509212970733643e-01" purity="7.8863871097564697e-01" nType="-99"/>
          <Node pos="r" depth="2" NCoef="0" IVar="-1" Cut="0.0000000000000000e+00" cType="1" res="2.7348210569471121e-03" rms="4.7075983881950378e-01" purity="6.0154420137405396e-01" nType="-99"/>
        </Node>
        <Node pos="r" depth="1" NCoef="0" IVar="21" Cut="1.7425866127014160e+00" cType="1" res="-2.7062540873885155e-02" rms="4.5922705531120300e-01" purity="4.3289303779602051e-01" nType="0">
          <Node pos="l" depth="2" NCoef="0" IVar="-1" Cut="0.0000000000000000e+00" cType="1" res="-4.9981116317212582e-03" rms="4.5935398340225220e-01" purity="3.8914391398429871e-01" nType="-99"/>
          <Node pos="r" depth="2" NCoef="0" IVar="-1" Cut="0.0000000000000000e+00" cType="1" res="8.4996493533253670e-03" rms="4.4397127628326416e-01" purity="6.6883850097656250e-01" nType="-99"/>
        </Node>
      </Node>
    </BinaryTree>
    <BinaryTree type="DecisionTree" boostWeight="1.0000000000000000e+00" itree="38">
      <Node pos="s" depth="0" NCoef="0" IVar="21" Cut="1.8039510250091553e+00" cType="1" res="3.0364240519702435e-03" rms="4.5754691958427429e-01" purity="5.0314724445343018e-01" nType="0">
        <Node pos="l" depth="1" NCoef="0" IVar="21" Cut="-1.3255546092987061e+00" cType="1" res="-1.5606832690536976e-02" rms="4.6262115240097046e-01" purity="4.5733469724655151e-01" nType="0">
          <Node pos="l" depth="2" NCoef="0" IVar="-1" Cut="0.0000000000000000e+00" cType="1" res="7.1106893010437489e-03" rms="4.4215458631515503e-01" purity="6.4767318964004517e-01" nType="-99"/>
          <Node pos="r" depth="2" NCoef="0" IVar="-1" Cut="0.0000000000000000e+00" cType="1" res="-5.0170575268566608e-03" rms="4.6672239899635315e-01" purity="3.8176238536834717e-01" nType="-99"/>
        </Node>
        <Node pos="r" depth="1" NCoef="0" IVar="3" Cut="5.0202125310897827e-01" cType="1" res="9.6484921872615814e-02" rms="4.1889199614524841e-01" purity="7.3278045654296875e-01" nType="0">
          <Node pos="l" depth="2" NCoef="0" IVar="-1" Cut="0.0000000000000000e+00" cType="1" res="2.0054619759321213e-02" rms="3.6795851588249207e-01" purity="8.3208072185516357e-01" nType="-99"/>
          <Node pos="r" depth="2" NCoef="0" IVar="-1" Cut="0.0000000000000000e+00" cType="1" res="1.1947409948334098e-03" rms="4.5559155941009521e-01" purity="6.1923849582672119e-01" nType="-99"/>
        </Node>
      </Node>
    </BinaryTree>
    <BinaryTree type="DecisionTree" boostWeight="1.0000000000000000e+00" itree="39">
      <Node pos="s" depth="0" NCoef="0" IVar="9" Cut="1.6787067651748657e+00" cType="1" res="1.2675075558945537e-03" rms="4.5548522472381592e-01" purity="5.0164145231246948e-01" nType="0">
        <Node pos="l" depth="1" NCoef="0" IVar="21" Cut="2.6662168502807617e+00" cType="1" res="-3.3800568431615829e-02" rms="4.5937812328338623e-01" purity="4.3349882960319519e-01" nType="0">
          <Node pos="l" depth="2" NCoef="0" IVar="-1" Cut="0.0000000000000000e+00" cType="1" res="-4.7494824975728989e-03" rms="4.6179324388504028e-01" purity="4.0871286392211914e-01" nType="-99"/>
          <Node pos="r" depth="2" NCoef="0" IVar="-1" Cut="0.0000000000000000e+00" cType="1" res="1.4173097908496857e-02" rms="3.8998651504516602e-01" purity="8.0183368921279907e-01" nType="-99"/>
        </Node>
        <Node pos="r" depth="1" NCoef="0" IVar="20" Cut="4.1484119415283203e+01" cType="1" res="5.7158708572387695e-02" rms="4.4351628422737122e-01" purity="6.1024647951126099e-01" nType="0">
          <Node pos="l" depth="2" NCoef="0" IVar="-1" Cut="0.0000000000000000e+00" cType="1" res="1.2937643565237522e-02" rms="4.0831062197685242e-01" purity="7.5994873046875000e-01" nType="-99"/>
          <Node pos="r" depth="2" NCoef="0" IVar="-1" Cut="0.0000000000000000e+00" cType="1" res="2.0608257036656141e-03" rms="4.6159312129020691e-01" purity="5.1054918766021729e-01" nType="-99"/>
        </Node>
      </Node>
    </BinaryTree>
    <BinaryTree type="DecisionTree" boostWeight="1.0000000000000000e+00" itree="40">
      <Node pos="s" depth="0" NCoef="0" IVar="9" Cut="1.4978742599487305e+00" cType="1" res="3.9329985156655312e-03" rms="4.5673397183418274e-01" purity="5.0347012281417847e-01" nType="0">
        <Node pos="l" depth="1" NCoef="0" IVar="21" Cut="2.0813498497009277e+00" cType="1" res="-3.7656757980585098e-02" rms="4.6035498380661011e-01" purity="4.2084375023841858e-01" nType="0">
          <Node pos="l" depth="2" NCoef="0" IVar="-1" Cut="0.0000000000000000e+00" cType="1" res="-5.4555111564695835e-03" rms="4.6157491207122803e-01" purity="3.8420805335044861e-01" nType="-99"/>
          <Node pos="r" depth="2" NCoef="0" IVar="-1" Cut="0.0000000000000000e+00" cType="1" res="7.6127056963741779e-03" rms="4.3634316325187683e-01" purity="7.1485453844070435e-01" nType="-99"/>
        </Node>
        <Node pos="r" depth="1" NCoef="0" IVar="20" Cut="7.4813713073730469e+01" cType="1" res="5.1695715636014938e-02" rms="4.4779965281486511e-01" purity="5.9836035966873169e-01" nType="0">
          <Node pos="l" depth="2" NCoef="0" IVar="-1" Cut="0.0000000000000000e+00" cType="1" res="7.3533579707145691e-03" rms="4.4548615813255310e-01" purity="6.3989472389221191e-01" nType="-99"/>
          <Node pos="r" depth="2" NCoef="0" IVar="-1" Cut="0.0000000000000000e+00" cType="1" res="-4.2316410690546036e-03" rms="4.5060288906097412e-01" purity="3.5623526573181152e-01" nType="-99"/>
        </Node>
      </Node>
    </BinaryTree>
    <BinaryTree type="DecisionTree" boostWeight="1.0000000000000000e+00" itree="41">
      <Node pos="s" depth="0" NCoef="0" IVar="21" Cut="-2.4715337753295898e+00" cType="1" res="9.3317660503089428e-04" rms="4.5530086755752563e-01" purity="5.0132703781127930e-01" nType="0">
        <Node pos="l" depth="1" NCoef="0" IVar="3" Cut="-1.2410130500793457e+00" cType="1" res="1.2654905021190643e-01" rms="3.6568695306777954e-01" purity="8.3154088258743286e-01" nType="0">
          <Node pos="l" depth="2" NCoef="0" IVar="-1" Cut="0.0000000000000000e+00" cType="1" res="2.0758812315762043e-03" rms="4.5040461421012878e-01" purity="6.9407141208648682e-01" nType="-99"/>
          <Node pos="r" depth="2" NCoef="0" IVar="-1" Cut="0.0000000000000000e+00" cType="1" res="1.9963875412940979e-02" rms="3.2693809270858765e-01" purity="8.7511843442916870e-01" nType="-99"/>
        </Node>
        <Node pos="r" depth="1" NCoef="0" IVar="21" Cut="1.4497961997985840e+00" cType="1" res="-1.2605225667357445e-02" rms="4.6189203858375549e-01" purity="4.6573787927627563e-01" nType="0">
          <Node pos="l" depth="2" NCoef="0" IVar="-1" Cut="0.0000000000000000e+00" cType="1" res="-4.1063590906560421e-03" rms="4.6640580892562866e-01" purity="4.0253323316574097e-01" nType="-99"/>
          <Node pos="r" depth="2" NCoef="0" IVar="-1" Cut="0.0000000000000000e+00" cType="1" res="8.0257998779416084e-03" rms="4.3656212091445923e-01" purity="6.6970598697662354e-01" nType="-99"/>
        </Node>
      </Node>
    </BinaryTree>
    <BinaryTree type="DecisionTree" boostWeight="1.0000000000000000e+00" itree="42">
      <Node pos="s" depth="0" NCoef="0" IVar="20" Cut="3.7696914672851562e+01" cType="1" res="-2.9951200122013688e-04" rms="4.5569142699241638e-01" purity="5.0039738416671753e-01" nType="0">
        <Node pos="l" depth="1" NCoef="0" IVar="0" Cut="7.0335586547851562e+01" cType="1" res="7.1394957602024078e-02" rms="4.3433877825737000e-01" purity="7.0217591524124146e-01" nType="0">
          <Node pos="l" depth="2" NCoef="0" IVar="-1" Cut="0.0000000000000000e+00" cType="1" res="1.2575253844261169e-02" rms="4.0261822938919067e-01" purity="7.7499717473983765e-01" nType="-99"/>
          <Node pos="r" depth="2" NCoef="0" IVar="-1" Cut="0.0000000000000000e+00" cType="1" res="1.5140509931370616e-03" rms="4.7404408454895020e-01" purity="5.8858484029769897e-01" nType="-99"/>
        </Node>
        <Node pos="r" depth="1" NCoef="0" IVar="21" Cut="2.4911427497863770e+00" cType="1" res="-2.0355394110083580e-02" rms="4.5948979258537292e-01" purity="4.4395160675048828e-01" nType="0">
          <Node pos="l" depth="2" NCoef="0" IVar="-1" Cut="0.0000000000000000e+00" cType="1" res="-3.5435121972113848e-03" rms="4.6375456452369690e-01" purity="4.1026419401168823e-01" nType="-99"/>
          <Node pos="r" depth="2" NCoef="0" IVar="-1" Cut="0.0000000000000000e+00" cType="1" res="1.3520730659365654e-02" rms="3.8630005717277527e-01" purity="8.0468279123306274e-01" nType="-99"/>
        </Node>
      </Node>
    </BinaryTree>
    <BinaryTree type="DecisionTree" boostWeight="1.0000000000000000e+00" itree="43">
      <Node pos="s" depth="0" NCoef="0" IVar="9" Cut="1.4971783161163330e+00" cType="1" res="-2.3206057958304882e-03" rms="4.5510822534561157e-01" purity="4.9735751748085022e-01" nType="0">
        <Node pos="l" depth="1" NCoef="0" IVar="21" Cut="-2.0650436878204346e+00" cType="1" res="-3.8804467767477036e-02" rms="4.5946589112281799e-01" purity="4.1779568791389465e-01" nType="0">
          <Node pos="l" depth="2" NCoef="0" IVar="-1" Cut="0.0000000000000000e+00" cType="1" res="6.9373212754726410e-03" rms="4.4203150272369385e-01" purity="7.0735037326812744e-01" nType="-99"/>
          <Node pos="r" depth="2" NCoef="0" IVar="-1" Cut="0.0000000000000000e+00" cType="1" res="-5.6221713311970234e-03" rms="4.6007806062698364e-01" purity="3.7978065013885498e-01" nType="-99"/>
        </Node>
        <Node pos="r" depth="1" NCoef="0" IVar="20" Cut="7.1893615722656250e+01" cType="1" res="4.0138855576515198e-02" rms="4.4624370336532593e-01" purity="5.8995062112808228e-01" nType="0">
          <Node pos="l" depth="2" NCoef="0" IVar="-1" Cut="0.0000000000000000e+00" cType="1" res="6.4213159494102001e-03" rms="4.4442769885063171e-01" purity="6.3949322700500488e-01" nType="-99"/>
          <Node pos="r" depth="2" NCoef="0" IVar="-1" Cut="0.0000000000000000e+00" cType="1" res="-5.5825109593570232e-03" rms="4.4428074359893799e-01" purity="3.4144243597984314e-01" nType="-99"/>
        </Node>
      </Node>
    </BinaryTree>
    <BinaryTree type="DecisionTree" boostWeight="1.0000000000000000e+00" itree="44">
      <Node pos="s" depth="0" NCoef="0" IVar="9" Cut="1.8038237094879150e+00" cType="1" res="9.5177273033186793e-04" rms="4.5391875505447388e-01" purity="5.0208330154418945e-01" nType="0">
        <Node pos="l" depth="1" NCoef="0" IVar="21" Cut="1.3900215625762939e+00" cType="1" res="-2.5584956631064415e-02" rms="4.5993942022323608e-01" purity="4.4189313054084778e-01" nType="0">
          <Node pos="l" depth="2" NCoef="0" IVar="-1" Cut="0.0000000000000000e+00" cType="1" res="-4.6627530828118324e-03" rms="4.5909067988395691e-01" purity="3.9815345406532288e-01" nType="-99"/>
          <Node pos="r" depth="2" NCoef="0" IVar="-1" Cut="0.0000000000000000e+00" cType="1" res="4.3863733299076557e-03" rms="4.5723307132720947e-01" purity="6.0602068901062012e-01" nType="-99"/>
        </Node>
        <Node pos="r" depth="1" NCoef="0" IVar="20" Cut="7.4885704040527344e+01" cType="1" res="5.5634994059801102e-02" rms="4.3619152903556824e-01" purity="6.2611496448516846e-01" nType="0">
          <Node pos="l" depth="2" NCoef="0" IVar="-1" Cut="0.0000000000000000e+00" cType="1" res="7.9151876270771027e-03" rms="4.3402403593063354e-01" purity="6.6528785228729248e-01" nType="-99"/>
          <Node pos="r" depth="2" NCoef="0" IVar="-1" Cut="0.0000000000000000e+00" cType="1" res="-6.1950343661010265e-03" rms="4.3576422333717346e-01" purity="3.3964774012565613e-01" nType="-99"/>
        </Node>
      </Node>
    </BinaryTree>
    <BinaryTree type="DecisionTree" boostWeight="1.0000000000000000e+00" itree="45">
      <Node pos="s" depth="0" NCoef="0" IVar="20" Cut="8.3872444152832031e+01" cType="1" res="4.3009276851080358e-04" rms="4.5293313264846802e-01" purity="5.0216835737228394e-01" nType="0">
        <Node pos="l" depth="1" NCoef="0" IVar="11" Cut="2.0144979953765869e+00" cType="1" res="2.0357932895421982e-02" rms="4.5590731501579285e-01" purity="5.5691903829574585e-01" nType="0">
          <Node pos="l" depth="2" NCoef="0" IVar="-1" Cut="0.0000000000000000e+00" cType="1" res="-1.6860279720276594e-03" rms="4.6458992362022400e-01" purity="4.9762302637100220e-01" nType="-99"/>
          <Node pos="r" depth="2" NCoef="0" IVar="-1" Cut="0.0000000000000000e+00" cType="1" res="6.5994272008538246e-03" rms="4.4295731186866760e-01" purity="6.2144064903259277e-01" nType="-99"/>
        </Node>
        <Node pos="r" depth="1" NCoef="0" IVar="5" Cut="1.1324751281738281e+02" cType="1" res="-7.5957715511322021e-02" rms="4.3293145298957825e-01" purity="2.9229679703712463e-01" nType="0">
          <Node pos="l" depth="2" NCoef="0" IVar="-1" Cut="0.0000000000000000e+00" cType="1" res="-1.1169333942234516e-02" rms="4.2028161883354187e-01" purity="2.6941114664077759e-01" nType="-99"/>
          <Node pos="r" depth="2" NCoef="0" IVar="-1" Cut="0.0000000000000000e+00" cType="1" res="5.7928176829591393e-04" rms="4.6466660499572754e-01" purity="3.7072500586509705e-01" nType="-99"/>
        </Node>
      </Node>
    </BinaryTree>
    <BinaryTree type="DecisionTree" boostWeight="1.0000000000000000e+00" itree="46">
      <Node pos="s" depth="0" NCoef="0" IVar="21" Cut="-1.7117486000061035e+00" cType="1" res="1.4975400408729911e-03" rms="4.5419430732727051e-01" purity="5.0271749496459961e-01" nType="0">
        <Node pos="l" depth="1" NCoef="0" IVar="3" Cut="-9.2034691572189331e-01" cType="1" res="7.8866638243198395e-02" rms="4.2357468605041504e-01" purity="7.1697366237640381e-01" nType="0">
          <Node pos="l" depth="2" NCoef="0" IVar="-1" Cut="0.0000000000000000e+00" cType="1" res="-5.7984613813459873e-03" rms="4.5702633261680603e-01" purity="5.6062352657318115e-01" nType="-99"/>
          <Node pos="r" depth="2" NCoef="0" IVar="-1" Cut="0.0000000000000000e+00" cType="1" res="1.6931682825088501e-02" rms="3.8953199982643127e-01" purity="7.9542702436447144e-01" nType="-99"/>
        </Node>
        <Node pos="r" depth="1" NCoef="0" IVar="21" Cut="1.3045723438262939e+00" cType="1" res="-1.5478392131626606e-02" rms="4.5889875292778015e-01" purity="4.5570644736289978e-01" nType="0">
          <Node pos="l" depth="2" NCoef="0" IVar="-1" Cut="0.0000000000000000e+00" cType="1" res="-4.8269582912325859e-03" rms="4.6356594562530518e-01" purity="3.7661534547805786e-01" nType="-99"/>
          <Node pos="r" depth="2" NCoef="0" IVar="-1" Cut="0.0000000000000000e+00" cType="1" res="6.3275578431785107e-03" rms="4.3930834531784058e-01" purity="6.4678317308425903e-01" nType="-99"/>
        </Node>
      </Node>
    </BinaryTree>
    <BinaryTree type="DecisionTree" boostWeight="1.0000000000000000e+00" itree="47">
      <Node pos="s" depth="0" NCoef="0" IVar="9" Cut="2.0019059181213379e+00" cType="1" res="1.3604930136352777e-03" rms="4.5209792256355286e-01" purity="5.0348794460296631e-01" nType="0">
        <Node pos="l" depth="1" NCoef="0" IVar="21" Cut="-2.6199874877929688e+00" cType="1" res="-1.9539628177881241e-02" rms="4.5784586668014526e-01" purity="4.5435017347335815e-01" nType="0">
          <Node pos="l" depth="2" NCoef="0" IVar="-1" Cut="0.0000000000000000e+00" cType="1" res="1.2998882681131363e-02" rms="3.9104709029197693e-01" purity="8.0521762371063232e-01" nType="-99"/>
          <Node pos="r" depth="2" NCoef="0" IVar="-1" Cut="0.0000000000000000e+00" cType="1" res="-3.1680136453360319e-03" rms="4.6103501319885254e-01" purity="4.2803272604942322e-01" nType="-99"/>
        </Node>
        <Node pos="r" depth="1" NCoef="0" IVar="20" Cut="6.9546607971191406e+01" cType="1" res="6.5379038453102112e-02" rms="4.2770934104919434e-01" purity="6.5400046110153198e-01" nType="0">
          <Node pos="l" depth="2" NCoef="0" IVar="-1" Cut="0.0000000000000000e+00" cType="1" res="9.4066746532917023e-03" rms="4.2346981167793274e-01" purity="7.0097959041595459e-01" nType="-99"/>
          <Node pos="r" depth="2" NCoef="0" IVar="-1" Cut="0.0000000000000000e+00" cType="1" res="-5.0548547878861427e-03" rms="4.3782526254653931e-01" purity="3.5427051782608032e-01" nType="-99"/>
        </Node>
      </Node>
    </BinaryTree>
    <BinaryTree type="DecisionTree" boostWeight="1.0000000000000000e+00" itree="48">
      <Node pos="s" depth="0" NCoef="0" IVar="15" Cut="6.4017944335937500e+01" cType="1" res="-3.2707666978240013e-03" rms="4.5266517996788025e-01" purity="4.9786412715911865e-01" nType="0">
        <Node pos="l" depth="1" NCoef="0" IVar="0" Cut="5.4234088897705078e+01" cType="1" res="3.0425211414694786e-02" rms="4.4703599810600281e-01" purity="6.0685503482818604e-01" nType="0">
          <Node pos="l" depth="2" NCoef="0" IVar="-1" Cut="0.0000000000000000e+00" cType="1" res="9.5650097355246544e-03" rms="4.1354319453239441e-01" purity="7.0721834897994995e-01" nType="-99"/>
          <Node pos="r" depth="2" NCoef="0" IVar="-1" Cut="0.0000000000000000e+00" cType="1" res="-1.9118917407467961e-04" rms="4.6345904469490051e-01" purity="5.4529261589050293e-01" nType="-99"/>
        </Node>
        <Node pos="r" depth="1" NCoef="0" IVar="21" Cut="-1.3006676435470581e+00" cType="1" res="-4.0458537638187408e-02" rms="4.5591574907302856e-01" purity="3.7757882475852966e-01" nType="0">
          <Node pos="l" depth="2" NCoef="0" IVar="-1" Cut="0.0000000000000000e+00" cType="1" res="2.4237006437033415e-03" rms="4.7551953792572021e-01" purity="5.2963560819625854e-01" nType="-99"/>
          <Node pos="r" depth="2" NCoef="0" IVar="-1" Cut="0.0000000000000000e+00" cType="1" res="-6.2554460018873215e-03" rms="4.4938030838966370e-01" purity="3.3881217241287231e-01" nType="-99"/>
        </Node>
      </Node>
    </BinaryTree>
    <BinaryTree type="DecisionTree" boostWeight="1.0000000000000000e+00" itree="49">
      <Node pos="s" depth="0" NCoef="0" IVar="21" Cut="-2.6821954250335693e+00" cType="1" res="3.4499047324061394e-03" rms="4.5342659950256348e-01" purity="5.0349587202072144e-01" nType="0">
        <Node pos="l" depth="1" NCoef="0" IVar="2" Cut="-2.5448051095008850e-01" cType="1" res="1.2336412817239761e-01" rms="3.5086712241172791e-01" purity="8.4748762845993042e-01" nType="0">
          <Node pos="l" depth="2" NCoef="0" IVar="-1" Cut="0.0000000000000000e+00" cType="1" res="1.0231386870145798e-02" rms="3.9221692085266113e-01" purity="7.9744619131088257e-01" nType="-99"/>
          <Node pos="r" depth="2" NCoef="0" IVar="-1" Cut="0.0000000000000000e+00" cType="1" res="2.2221047431230545e-02" rms="2.8948032855987549e-01" purity="9.0462201833724976e-01" nType="-99"/>
        </Node>
        <Node pos="r" depth="1" NCoef="0" IVar="21" Cut="2.5587964057922363e+00" cType="1" res="-5.9632910415530205e-03" rms="4.5918792486190796e-01" purity="4.7649267315864563e-01" nType="0">
          <Node pos="l" depth="2" NCoef="0" IVar="-1" Cut="0.0000000000000000e+00" cType="1" res="-1.9878165330737829e-03" rms="4.6646055579185486e-01" purity="4.3850886821746826e-01" nType="-99"/>
          <Node pos="r" depth="2" NCoef="0" IVar="-1" Cut="0.0000000000000000e+00" cType="1" res="1.3922327198088169e-02" rms="3.6497187614440918e-01" purity="8.3048731088638306e-01" nType="-99"/>
        </Node>
      </Node>
    </BinaryTree>
    <BinaryTree type="DecisionTree" boostWeight="1.0000000000000000e+00" itree="50">
      <Node pos="s" depth="0" NCoef="0" IVar="20" Cut="8.2360824584960938e+01" cType="1" res="9.2325964942574501e-04" rms="4.5288005471229553e-01" purity="5.0221562385559082e-01" nType="0">
        <Node pos="l" depth="1" NCoef="0" IVar="4" Cut="7.4702423095703125e+01" cType="1" res="1.8799411132931709e-02" rms="4.5611253380775452e-01" purity="5.5879509449005127e-01" nType="0">
          <Node pos="l" depth="2" NCoef="0" IVar="-1" Cut="0.0000000000000000e+00" cType="1" res="7.2630979120731354e-03" rms="4.3545401096343994e-01" purity="6.4776074886322021e-01" nType="-99"/>
          <Node pos="r" depth="2" NCoef="0" IVar="-1" Cut="0.0000000000000000e+00" cType="1" res="-9.4110530335456133e-04" rms="4.6611699461936951e-01" purity="5.0458157062530518e-01" nType="-99"/>
        </Node>
        <Node pos="r" depth="1" NCoef="0" IVar="5" Cut="1.1277366638183594e+02" cType="1" res="-6.3895173370838165e-02" rms="4.3484026193618774e-01" purity="2.9705989360809326e-01" nType="0">
          <Node pos="l" depth="2" NCoef="0" IVar="-1" Cut="0.0000000000000000e+00" cType="1" res="-9.7733605653047562e-03" rms="4.2237430810928345e-01" purity="2.7552998065948486e-01" nType="-99"/>
          <Node pos="r" depth="2" NCoef="0" IVar="-1" Cut="0.0000000000000000e+00" cType="1" res="1.4293196145445108e-03" rms="4.6758022904396057e-01" purity="3.7177690863609314e-01" nType="-99"/>
        </Node>
      </Node>
    </BinaryTree>
    <BinaryTree type="DecisionTree" boostWeight="1.0000000000000000e+00" itree="51">
      <Node pos="s" depth="0" NCoef="0" IVar="15" Cut="9.0138107299804688e+01" cType="1" res="1.2205776292830706e-03" rms="4.5171391963958740e-01" purity="5.0199139118194580e-01" nType="0">
        <Node pos="l" depth="1" NCoef="0" IVar="11" Cut="2.1500539779663086e+00" cType="1" res="2.1421093493700027e-02" rms="4.5329001545906067e-01" purity="5.6131142377853394e-01" nType="0">
          <Node pos="l" depth="2" NCoef="0" IVar="-1" Cut="0.0000000000000000e+00" cType="1" res="-6.6596805118024349e-04" rms="4.6115648746490479e-01" purity="5.1380521059036255e-01" nType="-99"/>
          <Node pos="r" depth="2" NCoef="0" IVar="-1" Cut="0.0000000000000000e+00" cType="1" res="6.4303060062229633e-03" rms="4.4030153751373291e-01" purity="6.2300837039947510e-01" nType="-99"/>
        </Node>
        <Node pos="r" depth="1" NCoef="0" IVar="0" Cut="1.6681861877441406e+02" cType="1" res="-6.2605962157249451e-02" rms="4.4065338373184204e-01" purity="3.1456094980239868e-01" nType="0">
          <Node pos="l" depth="2" NCoef="0" IVar="-1" Cut="0.0000000000000000e+00" cType="1" res="-8.4211202338337898e-03" rms="4.3505328893661499e-01" purity="3.0296552181243896e-01" nType="-99"/>
          <Node pos="r" depth="2" NCoef="0" IVar="-1" Cut="0.0000000000000000e+00" cType="1" res="6.2948041595518589e-03" rms="4.7650194168090820e-01" purity="4.2881092429161072e-01" nType="-99"/>
        </Node>
      </Node>
    </BinaryTree>
    <BinaryTree type="DecisionTree" boostWeight="1.0000000000000000e+00" itree="52">
      <Node pos="s" depth="0" NCoef="0" IVar="20" Cut="3.8727638244628906e+01" cType="1" res="-9.2539144679903984e-04" rms="4.5186996459960938e-01" purity="5.0067758560180664e-01" nType="0">
        <Node pos="l" depth="1" NCoef="0" IVar="0" Cut="6.2291572570800781e+01" cType="1" res="5.7571474462747574e-02" rms="4.3251377344131470e-01" purity="6.9970768690109253e-01" nType="0">
          <Node pos="l" depth="2" NCoef="0" IVar="-1" Cut="0.0000000000000000e+00" cType="1" res="1.2318901717662811e-02" rms="3.8972130417823792e-01" purity="7.9491305351257324e-01" nType="-99"/>
          <Node pos="r" depth="2" NCoef="0" IVar="-1" Cut="0.0000000000000000e+00" cType="1" res="1.0744006140157580e-03" rms="4.7055819630622864e-01" purity="5.9505915641784668e-01" nType="-99"/>
        </Node>
        <Node pos="r" depth="1" NCoef="0" IVar="21" Cut="-2.6437687873840332e+00" cType="1" res="-1.9578389823436737e-02" rms="4.5629587769508362e-01" purity="4.3721249699592590e-01" nType="0">
          <Node pos="l" depth="2" NCoef="0" IVar="-1" Cut="0.0000000000000000e+00" cType="1" res="1.4639904722571373e-02" rms="3.6874532699584961e-01" purity="8.2872903347015381e-01" nType="-99"/>
          <Node pos="r" depth="2" NCoef="0" IVar="-1" Cut="0.0000000000000000e+00" cType="1" res="-3.1718674581497908e-03" rms="4.6012246608734131e-01" purity="4.1066095232963562e-01" nType="-99"/>
        </Node>
      </Node>
    </BinaryTree>
    <BinaryTree type="DecisionTree" boostWeight="1.0000000000000000e+00" itree="53">
      <Node pos="s" depth="0" NCoef="0" IVar="21" Cut="2.6047258377075195e+00" cType="1" res="1.6875532455742359e-03" rms="4.5221361517906189e-01" purity="5.0188994407653809e-01" nType="0">
        <Node pos="l" depth="1" NCoef="0" IVar="21" Cut="-1.4814583063125610e+00" cType="1" res="-8.9248931035399437e-03" rms="4.5890817046165466e-01" purity="4.6967205405235291e-01" nType="0">
          <Node pos="l" depth="2" NCoef="0" IVar="-1" Cut="0.0000000000000000e+00" cType="1" res="6.4383698627352715e-03" rms="4.3334138393402100e-01" purity="6.7301493883132935e-01" nType="-99"/>
          <Node pos="r" depth="2" NCoef="0" IVar="-1" Cut="0.0000000000000000e+00" cType="1" res="-3.0935548711568117e-03" rms="4.6462702751159668e-01" purity="4.0787437558174133e-01" nType="-99"/>
        </Node>
        <Node pos="r" depth="1" NCoef="0" IVar="2" Cut="1.0937159061431885e+00" cType="1" res="1.1378129571676254e-01" rms="3.5540962219238281e-01" purity="8.4219056367874146e-01" nType="0">
          <Node pos="l" depth="2" NCoef="0" IVar="-1" Cut="0.0000000000000000e+00" cType="1" res="1.8514363095164299e-02" rms="3.1967407464981079e-01" purity="8.7865334749221802e-01" nType="-99"/>
          <Node pos="r" depth="2" NCoef="0" IVar="-1" Cut="0.0000000000000000e+00" cType="1" res="5.4973508231341839e-03" rms="4.2664864659309387e-01" purity="7.4807882308959961e-01" nType="-99"/>
        </Node>
      </Node>
    </BinaryTree>
    <BinaryTree type="DecisionTree" boostWeight="1.0000000000000000e+00" itree="54">
      <Node pos="s" depth="0" NCoef="0" IVar="20" Cut="3.6400913238525391e+01" cType="1" res="3.6883025895804167e-03" rms="4.5160436630249023e-01" purity="5.0502806901931763e-01" nType="0">
        <Node pos="l" depth="1" NCoef="0" IVar="15" Cut="5.7072601318359375e+01" cType="1" res="7.1319207549095154e-02" rms="4.2812585830688477e-01" purity="7.1618461608886719e-01" nType="0">
          <Node pos="l" depth="2" NCoef="0" IVar="-1" Cut="0.0000000000000000e+00" cType="1" res="1.0456051677465439e-02" rms="4.1307792067527771e-01" purity="7.4348920583724976e-01" nType="-99"/>
          <Node pos="r" depth="2" NCoef="0" IVar="-1" Cut="0.0000000000000000e+00" cType="1" res="-5.8116565924137831e-04" rms="4.7884476184844971e-01" purity="6.0128396749496460e-01" nType="-99"/>
        </Node>
        <Node pos="r" depth="1" NCoef="0" IVar="21" Cut="-2.7003769874572754e+00" cType="1" res="-1.1993485502898693e-02" rms="4.5544406771659851e-01" purity="4.5606651902198792e-01" nType="0">
          <Node pos="l" depth="2" NCoef="0" IVar="-1" Cut="0.0000000000000000e+00" cType="1" res="1.4405107125639915e-02" rms="3.6233735084533691e-01" purity="8.3655589818954468e-01" nType="-99"/>
          <Node pos="r" depth="2" NCoef="0" IVar="-1" Cut="0.0000000000000000e+00" cType="1" res="-2.2050712723284960e-03" rms="4.5959693193435669e-01" purity="4.3168815970420837e-01" nType="-99"/>
        </Node>
      </Node>
    </BinaryTree>
    <BinaryTree type="DecisionTree" boostWeight="1.0000000000000000e+00" itree="55">
      <Node pos="s" depth="0" NCoef="0" IVar="21" Cut="1.2726523876190186e+00" cType="1" res="-6.9173087831586599e-04" rms="4.5064133405685425e-01" purity="5.0043642520904541e-01" nType="0">
        <Node pos="l" depth="1" NCoef="0" IVar="21" Cut="-1.4081909656524658e+00" cType="1" res="-1.7904531210660934e-02" rms="4.5337203145027161e-01" purity="4.5318862795829773e-01" nType="0">
          <Node pos="l" depth="2" NCoef="0" IVar="-1" Cut="0.0000000000000000e+00" cType="1" res="6.3485559076070786e-03" rms="4.3252688646316528e-01" purity="6.6598850488662720e-01" nType="-99"/>
          <Node pos="r" depth="2" NCoef="0" IVar="-1" Cut="0.0000000000000000e+00" cType="1" res="-5.2658845670521259e-03" rms="4.5842707157135010e-01" purity="3.6376795172691345e-01" nType="-99"/>
        </Node>
        <Node pos="r" depth="1" NCoef="0" IVar="3" Cut="2.5430694222450256e-01" cType="1" res="5.2406195551156998e-02" rms="4.3786889314651489e-01" purity="6.4618593454360962e-01" nType="0">
          <Node pos="l" depth="2" NCoef="0" IVar="-1" Cut="0.0000000000000000e+00" cType="1" res="1.8139153718948364e-02" rms="3.9789354801177979e-01" purity="7.7963042259216309e-01" nType="-99"/>
          <Node pos="r" depth="2" NCoef="0" IVar="-1" Cut="0.0000000000000000e+00" cType="1" res="-3.2750167883932590e-03" rms="4.5191955566406250e-01" purity="5.3707009553909302e-01" nType="-99"/>
        </Node>
      </Node>
    </BinaryTree>
    <BinaryTree type="DecisionTree" boostWeight="1.0000000000000000e+00" itree="56">
      <Node pos="s" depth="0" NCoef="0" IVar="20" Cut="5.4471168518066406e+01" cType="1" res="-1.3624798739328980e-03" rms="4.4999527931213379e-01" purity="5.0037693977355957e-01" nType="0">
        <Node pos="l" depth="1" NCoef="0" IVar="0" Cut="5.0338211059570312e+01" cType="1" res="2.7366213500499725e-02" rms="4.5037865638732910e-01" purity="6.3102686405181885e-01" nType="0">
          <Node pos="l" depth="2" NCoef="0" IVar="-1" Cut="0.0000000000000000e+00" cType="1" res="9.6931094303727150e-03" rms="4.1042163968086243e-01" purity="7.4236816167831421e-01" nType="-99"/>
          <Node pos="r" depth="2" NCoef="0" IVar="-1" Cut="0.0000000000000000e+00" cType="1" res="3.9976229891180992e-04" rms="4.6476832032203674e-01" purity="5.8241581916809082e-01" nType="-99"/>
        </Node>
        <Node pos="r" depth="1" NCoef="0" IVar="21" Cut="1.6841095685958862e+00" cType="1" res="-3.2042663544416428e-02" rms="4.4755387306213379e-01" purity="3.6085215210914612e-01" nType="0">
          <Node pos="l" depth="2" NCoef="0" IVar="-1" Cut="0.0000000000000000e+00" cType="1" res="-5.1667857915163040e-03" rms="4.4459873437881470e-01" purity="3.2012924551963806e-01" nType="-99"/>
          <Node pos="r" depth="2" NCoef="0" IVar="-1" Cut="0.0000000000000000e+00" cType="1" res="5.2536902949213982e-03" rms="4.5645001530647278e-01" purity="6.0213243961334229e-01" nType="-99"/>
        </Node>
      </Node>
    </BinaryTree>
    <BinaryTree type="DecisionTree" boostWeight="1.0000000000000000e+00" itree="57">
      <Node pos="s" depth="0" NCoef="0" IVar="21" Cut="-2.4041540622711182e+00" cType="1" res="-6.8936147727072239e-04" rms="4.5101004838943481e-01" purity="4.9894052743911743e-01" nType="0">
        <Node pos="l" depth="1" NCoef="0" IVar="3" Cut="-1.2740929126739502e+00" cType="1" res="8.7318442761898041e-02" rms="3.7124860286712646e-01" purity="8.2071441411972046e-01" nType="0">
          <Node pos="l" depth="2" NCoef="0" IVar="-1" Cut="0.0000000000000000e+00" cType="1" res="-3.4687684383243322e-03" rms="4.5822373032569885e-01" purity="6.6147208213806152e-01" nType="-99"/>
          <Node pos="r" depth="2" NCoef="0" IVar="-1" Cut="0.0000000000000000e+00" cType="1" res="1.6179744154214859e-02" rms="3.3511832356452942e-01" purity="8.6608892679214478e-01" nType="-99"/>
        </Node>
        <Node pos="r" depth="1" NCoef="0" IVar="21" Cut="1.1509292125701904e+00" cType="1" res="-1.0806275531649590e-02" rms="4.5821020007133484e-01" purity="4.6195110678672791e-01" nType="0">
          <Node pos="l" depth="2" NCoef="0" IVar="-1" Cut="0.0000000000000000e+00" cType="1" res="-3.6633703857660294e-03" rms="4.6348705887794495e-01" purity="3.9323040843009949e-01" nType="-99"/>
          <Node pos="r" depth="2" NCoef="0" IVar="-1" Cut="0.0000000000000000e+00" cType="1" res="5.0443243235349655e-03" rms="4.4058138132095337e-01" purity="6.2593328952789307e-01" nType="-99"/>
        </Node>
      </Node>
    </BinaryTree>
    <BinaryTree type="DecisionTree" boostWeight="1.0000000000000000e+00" itree="58">
      <Node pos="s" depth="0" NCoef="0" IVar="9" Cut="2.2561433315277100e+00" cType="1" res="-3.8073060568422079e-03" rms="4.4970518350601196e-01" purity="4.9708369374275208e-01" nType="0">
        <Node pos="l" depth="1" NCoef="0" IVar="21" Cut="2.6965746879577637e+00" cType="1" res="-1.6125155612826347e-02" rms="4.5398950576782227e-01" purity="4.6567767858505249e-01" nType="0">
          <Node pos="l" depth="2" NCoef="0" IVar="-1" Cut="0.0000000000000000e+00" cType="1" res="-2.6425484102219343e-03" rms="4.5818901062011719e-01" purity="4.4041734933853149e-01" nType="-99"/>
          <Node pos="r" depth="2" NCoef="0" IVar="-1" Cut="0.0000000000000000e+00" cType="1" res="1.2090308591723442e-02" rms="3.7280780076980591e-01" purity="8.2332283258438110e-01" nType="-99"/>
        </Node>
        <Node pos="r" depth="1" NCoef="0" IVar="20" Cut="5.6943984985351562e+01" cType="1" res="6.8498909473419189e-02" rms="4.1639962792396545e-01" purity="6.8143790960311890e-01" nType="0">
          <Node pos="l" depth="2" NCoef="0" IVar="-1" Cut="0.0000000000000000e+00" cType="1" res="1.1061561293900013e-02" rms="4.0008237957954407e-01" purity="7.5895637273788452e-01" nType="-99"/>
          <Node pos="r" depth="2" NCoef="0" IVar="-1" Cut="0.0000000000000000e+00" cType="1" res="-6.5853528212755919e-04" rms="4.5609667897224426e-01" purity="4.3738397955894470e-01" nType="-99"/>
        </Node>
      </Node>
    </BinaryTree>
    <BinaryTree type="DecisionTree" boostWeight="1.0000000000000000e+00" itree="59">
      <Node pos="s" depth="0" NCoef="0" IVar="20" Cut="4.1636348724365234e+01" cType="1" res="-2.6693940162658691e-03" rms="4.4995173811912537e-01" purity="4.9963948130607605e-01" nType="0">
        <Node pos="l" depth="1" NCoef="0" IVar="4" Cut="1.3005883789062500e+02" cType="1" res="4.0531039237976074e-02" rms="4.3800443410873413e-01" purity="6.8154954910278320e-01" nType="0">
          <Node pos="l" depth="2" NCoef="0" IVar="-1" Cut="0.0000000000000000e+00" cType="1" res="7.5628170743584633e-03" rms="4.2047077417373657e-01" purity="7.3191732168197632e-01" nType="-99"/>
          <Node pos="r" depth="2" NCoef="0" IVar="-1" Cut="0.0000000000000000e+00" cType="1" res="-2.3992401547729969e-03" rms="4.7744321823120117e-01" purity="5.4260796308517456e-01" nType="-99"/>
        </Node>
        <Node pos="r" depth="1" NCoef="0" IVar="21" Cut="2.5267598628997803e+00" cType="1" res="-2.1655892953276634e-02" rms="4.5380431413650513e-01" purity="4.1969043016433716e-01" nType="0">
          <Node pos="l" depth="2" NCoef="0" IVar="-1" Cut="0.0000000000000000e+00" cType="1" res="-3.3146806526929140e-03" rms="4.5699322223663330e-01" purity="3.9051562547683716e-01" nType="-99"/>
          <Node pos="r" depth="2" NCoef="0" IVar="-1" Cut="0.0000000000000000e+00" cType="1" res="1.0320438072085381e-02" rms="3.9603179693222046e-01" purity="7.9184776544570923e-01" nType="-99"/>
        </Node>
      </Node>
    </BinaryTree>
    <BinaryTree type="DecisionTree" boostWeight="1.0000000000000000e+00" itree="60">
      <Node pos="s" depth="0" NCoef="0" IVar="15" Cut="9.2073677062988281e+01" cType="1" res="-1.2251359876245260e-03" rms="4.5115774869918823e-01" purity="4.9946746230125427e-01" nType="0">
        <Node pos="l" depth="1" NCoef="0" IVar="4" Cut="7.5345458984375000e+01" cType="1" res="1.3775039464235306e-02" rms="4.5268225669860840e-01" purity="5.5368930101394653e-01" nType="0">
          <Node pos="l" depth="2" NCoef="0" IVar="-1" Cut="0.0000000000000000e+00" cType="1" res="5.6333737447857857e-03" rms="4.3081784248352051e-01" purity="6.4178198575973511e-01" nType="-99"/>
          <Node pos="r" depth="2" NCoef="0" IVar="-1" Cut="0.0000000000000000e+00" cType="1" res="-8.5299898637458682e-04" rms="4.6455502510070801e-01" purity="4.9851682782173157e-01" nType="-99"/>
        </Node>
        <Node pos="r" depth="1" NCoef="0" IVar="1" Cut="7.1977264404296875e+01" cType="1" res="-5.2749615162611008e-02" rms="4.4202101230621338e-01" purity="3.1321957707405090e-01" nType="0">
          <Node pos="l" depth="2" NCoef="0" IVar="-1" Cut="0.0000000000000000e+00" cType="1" res="-7.9602273181080818e-03" rms="4.3377453088760376e-01" purity="2.9672491550445557e-01" nType="-99"/>
          <Node pos="r" depth="2" NCoef="0" IVar="-1" Cut="0.0000000000000000e+00" cType="1" res="7.1790972724556923e-03" rms="4.8038488626480103e-01" purity="4.2867001891136169e-01" nType="-99"/>
        </Node>
      </Node>
    </BinaryTree>
